%YAML:1.0
---
opencv_ml_svm:
   format: 3
   svmType: C_SVC
   kernel:
      type: RBF
      gamma: 5.0624999999999998e-01
   C: 1.2500000000000000e+01
   term_criteria: { epsilon:1.1920928955078125e-07, iterations:1000 }
   var_count: 81
   class_count: 9
   class_labels: !!opencv-matrix
      rows: 9
      cols: 1
      dt: i
      data: [ 1, 2, 3, 4, 5, 6, 7, 8, 9 ]
   sv_total: 165
   support_vectors:
      - [ 5.61434090e-01, 4.14864838e-01, 4.31971848e-01, 0., 0., 0., 0.,
          7.25580156e-02, 5.61434090e-01, 5.70525110e-01, 1.18098788e-01,
          6.65339679e-02, 0., 0., 5.38691739e-03, 4.76765990e-01,
          3.12403798e-01, 5.70525110e-01, 4.39181626e-01, 2.27310032e-01,
          3.83097231e-01, 8.56052786e-02, 1.31758004e-01, 3.11334580e-02,
          4.39181626e-01, 4.39181626e-01, 4.39181626e-01, 5.71984410e-01,
          5.71984410e-01, 4.37438250e-01, 1.02658831e-02, 1.38778361e-02,
          1.48414552e-01, 1.40957355e-01, 1.33326858e-01, 2.97714531e-01,
          4.04935896e-01, 4.04935896e-01, 1.08311489e-01, 5.41616464e-03,
          1.88547410e-02, 4.04935896e-01, 4.04935896e-01, 4.04935896e-01,
          4.04935896e-01, 5.86020470e-01, 9.11675543e-02, 7.66566992e-02,
          3.15642245e-02, 1.17571808e-01, 7.25438595e-02, 3.77254695e-01,
          3.61548781e-01, 5.86020470e-01, 4.17894334e-01, 4.17894334e-01,
          4.17894334e-01, 4.17894334e-01, 3.06378603e-01, 2.95821369e-01,
          2.90617764e-01, 1.30384713e-01, 1.20190568e-01, 3.85667354e-01,
          3.85667354e-01, 1.47127686e-02, 5.35303727e-02, 3.85667354e-01,
          3.85667354e-01, 3.85667354e-01, 3.17221165e-01, 3.85667354e-01,
          5.06154358e-01, 1.00070134e-01, 1.57928169e-02, 3.01711977e-01,
          5.06154358e-01, 3.40511084e-01, 9.34090912e-02, 2.00393628e-02,
          5.06154358e-01 ]
      - [ 3.56230676e-01, 3.47818136e-01, 3.56230676e-01, 1.20404527e-01,
          3.56230676e-01, 3.15538436e-01, 3.56230676e-01, 3.56230676e-01,
          3.56230676e-01, 4.13472652e-01, 1.81047037e-01, 3.37863654e-01,
          1.21161558e-01, 2.92067558e-01, 2.55181193e-01, 4.13472652e-01,
          4.13472652e-01, 4.13472652e-01, 3.54035586e-01, 3.54035586e-01,
          3.54035586e-01, 3.10296327e-01, 3.54035586e-01, 1.50965989e-01,
          3.54035586e-01, 3.54035586e-01, 3.54035586e-01, 3.91248405e-01,
          3.91248405e-01, 3.91248405e-01, 1.38258040e-01, 3.91248405e-01,
          3.63769561e-01, 3.91248405e-01, 1.59183666e-01, 2.32232407e-01,
          4.04015124e-01, 4.04015124e-01, 1.23324387e-01, 1.40257897e-02,
          3.44828889e-02, 4.04015124e-01, 4.04015124e-01, 4.04015124e-01,
          4.04015124e-01, 4.81478661e-01, 9.50707495e-02, 3.73086110e-02,
          8.31104070e-02, 1.32356480e-01, 1.81791857e-01, 4.81478661e-01,
          4.81478661e-01, 4.81478661e-01, 5.08508027e-01, 5.08508027e-01,
          5.08508027e-01, 4.83426191e-02, 2.17247248e-01, 1.01255618e-01,
          1.79879218e-01, 1.12019986e-01, 3.38362545e-01, 3.72777820e-01,
          3.72777820e-01, 1.71458066e-01, 1.14244660e-02, 3.64646941e-01,
          3.72777820e-01, 3.72777820e-01, 3.72777820e-01, 3.72777820e-01,
          5.52871704e-01, 7.62611553e-02, 1.47068948e-02, 8.82458407e-03,
          5.52871704e-01, 2.55682021e-01, 6.93175122e-02, 3.44863497e-02,
          5.52871704e-01 ]
      - [ 4.27154392e-01, 2.83741742e-01, 3.36202502e-01, 3.44559737e-02,
          2.16600478e-01, 3.41169149e-01, 3.00515532e-01, 4.27154392e-01,
          4.27154392e-01, 4.31042194e-01, 4.13382620e-01, 4.31042194e-01,
          4.18916792e-02, 1.14916861e-01, 1.90931886e-01, 4.05735850e-01,
          2.26670682e-01, 4.31042194e-01, 3.94108534e-01, 2.01908275e-01,
          3.94108534e-01, 1.26955450e-01, 3.94108534e-01, 8.51408988e-02,
          3.94108534e-01, 3.94108534e-01, 3.94108534e-01, 4.81732190e-01,
          4.81732190e-01, 4.81732190e-01, 1.12791238e-02, 6.00092784e-02,
          2.58153856e-01, 2.74009138e-01, 2.03424990e-01, 3.34897667e-01,
          3.86411995e-01, 3.77285153e-01, 8.07658434e-02, 7.13571999e-03,
          3.17254364e-01, 3.86411995e-01, 3.86411995e-01, 3.86411995e-01,
          3.86411995e-01, 4.21313107e-01, 2.23329023e-01, 2.14767620e-01,
          9.34358388e-02, 4.21313107e-01, 5.94672188e-02, 4.21313107e-01,
          4.21313107e-01, 4.21313107e-01, 4.41327065e-01, 4.41327065e-01,
          2.09007829e-01, 1.10680476e-01, 3.51632208e-01, 4.41327065e-01,
          4.41327065e-01, 1.06094234e-01, 1.60243049e-01, 3.84567827e-01,
          3.41090769e-01, 3.98020372e-02, 1.03704847e-01, 3.84567827e-01,
          3.84567827e-01, 3.84567827e-01, 3.57790589e-01, 3.84567827e-01,
          4.39409256e-01, 4.39409256e-01, 1.79028790e-02, 1.55220866e-01,
          4.39409256e-01, 2.74883866e-01, 4.99095917e-02, 3.47595453e-01,
          4.39409256e-01 ]
      - [ 5.02793074e-01, 3.73607963e-01, 5.02793074e-01, 0., 0., 0.,
          4.18614037e-03, 3.11408609e-01, 5.02793074e-01, 5.27203500e-01,
          1.21518090e-01, 3.72372985e-01, 7.81779066e-02, 1.41466793e-03,
          1.10400636e-02, 3.52176353e-02, 5.27203500e-01, 5.27203500e-01,
          5.11384726e-01, 3.98424357e-01, 2.46699393e-01, 1.12330317e-01,
          6.19329140e-02, 1.16150469e-01, 3.81780803e-01, 2.76695222e-01,
          5.11384726e-01, 4.79317039e-01, 4.79317039e-01, 4.79317039e-01,
          1.41370688e-02, 4.51424867e-02, 5.34785576e-02, 1.33900329e-01,
          2.30664790e-01, 4.79317039e-01, 4.11720902e-01, 4.11720902e-01,
          2.38513976e-01, 3.14587392e-02, 1.98711470e-01, 2.25724787e-01,
          4.11720902e-01, 4.11720902e-01, 4.11720902e-01, 5.95520198e-01,
          3.22584927e-01, 9.57469568e-02, 3.83549519e-02, 6.92765415e-02,
          9.63030681e-02, 2.46267378e-01, 3.08778763e-01, 5.95520198e-01,
          4.24235404e-01, 4.24235404e-01, 4.24235404e-01, 2.38422751e-01,
          4.24235404e-01, 4.24235404e-01, 1.17799371e-01, 6.86156005e-02,
          1.43016681e-01, 4.23363984e-01, 3.51805001e-01, 6.88461289e-02,
          1.71424393e-02, 4.23363984e-01, 3.16005111e-01, 2.23971233e-01,
          4.23363984e-01, 4.23363984e-01, 5.46186566e-01, 2.19155788e-01,
          6.90135686e-03, 2.42808964e-02, 5.46186566e-01, 2.04978585e-01,
          3.61988433e-02, 8.71397480e-02, 5.46186566e-01 ]
      - [ 4.19084132e-01, 4.19084132e-01, 4.19084132e-01, 3.44683118e-02,
          6.71806186e-02, 2.39976719e-01, 2.33165011e-01, 4.19084132e-01,
          4.19084132e-01, 4.51117098e-01, 3.93619835e-01, 4.51117098e-01,
          8.61260444e-02, 1.05079249e-01, 3.28519866e-02, 8.36193860e-02,
          4.51117098e-01, 4.51117098e-01, 3.86119127e-01, 2.17930555e-01,
          2.20777154e-01, 2.30313972e-01, 3.86119127e-01, 3.18468094e-01,
          3.86119127e-01, 3.86119127e-01, 3.86119127e-01, 5.09907007e-01,
          5.09907007e-01, 5.09907007e-01, 1.59070462e-01, 3.21391039e-02,
          1.76543683e-01, 1.12803429e-01, 1.36077851e-01, 3.55170608e-01,
          3.80603641e-01, 3.80603641e-01, 3.14068884e-01, 1.67539984e-01,
          1.82697363e-02, 3.80603641e-01, 3.80603641e-01, 3.80603641e-01,
          3.80603641e-01, 5.45687139e-01, 1.26451969e-01, 1.15231816e-02,
          1.31052295e-02, 1.05957493e-01, 1.46824673e-01, 5.27255416e-01,
          2.68187016e-01, 5.45687139e-01, 4.73154932e-01, 4.73154932e-01,
          4.73154932e-01, 1.03166938e-01, 2.95473903e-01, 2.89951146e-01,
          3.31096619e-01, 1.40048370e-01, 1.11305058e-01, 3.91024709e-01,
          3.91024709e-01, 6.38450980e-02, 1.79442734e-01, 3.91024709e-01,
          3.91024709e-01, 3.91024709e-01, 2.05950797e-01, 3.91024709e-01,
          4.73101348e-01, 2.21247107e-01, 1.39235733e-02, 2.82922179e-01,
          4.73101348e-01, 4.25172001e-01, 1.14583164e-01, 2.66519878e-02,
          4.73101348e-01 ]
      - [ 6.86330795e-01, 7.14227185e-02, 2.14268148e-01, 0., 0., 0., 0.,
          6.04768656e-03, 6.86330795e-01, 6.41073585e-01, 4.17322181e-02,
          4.31578606e-02, 6.23051135e-04, 8.16805474e-03, 6.98511023e-03,
          3.35849792e-01, 2.34805763e-01, 6.41073585e-01, 4.42408532e-01,
          2.18018129e-01, 3.95597041e-01, 5.16847372e-02, 3.96471135e-02,
          6.63893074e-02, 4.42408532e-01, 4.42408532e-01, 4.42408532e-01,
          4.88668740e-01, 4.88668740e-01, 4.88668740e-01, 4.40334417e-02,
          1.79990083e-02, 5.88781610e-02, 1.63484082e-01, 1.76256895e-01,
          4.63901818e-01, 4.50932562e-01, 1.99348018e-01, 2.60380089e-01,
          6.69066841e-03, 4.46682237e-03, 2.73007244e-01, 4.50932562e-01,
          4.50932562e-01, 4.50932562e-01, 5.62485278e-01, 1.83885470e-01,
          1.94389075e-01, 8.53706077e-02, 2.23907921e-02, 3.25793885e-02,
          4.74534452e-01, 2.36577481e-01, 5.62485278e-01, 4.96294558e-01,
          4.96294558e-01, 4.96294558e-01, 1.47364765e-01, 4.29574132e-01,
          1.55362591e-01, 1.23685203e-01, 9.64522213e-02, 3.36078331e-02,
          3.99597049e-01, 1.55260876e-01, 8.39633867e-02, 2.06967205e-01,
          3.99597049e-01, 3.51607382e-01, 3.99597049e-01, 3.99597049e-01,
          3.99597049e-01, 5.01957655e-01, 8.93806145e-02, 4.66680788e-02,
          2.95931488e-01, 5.01957655e-01, 3.63098860e-01, 8.93190727e-02,
          3.92592587e-02, 5.01957655e-01 ]
      - [ 5.06226659e-01, 1.48018971e-01, 2.99422324e-01, 0.,
          1.78682074e-01, 6.41568750e-02, 5.06226659e-01, 2.80251950e-01,
          5.06226659e-01, 4.06921625e-01, 4.06921625e-01, 4.06921625e-01,
          0., 2.71784067e-01, 7.02952445e-02, 4.01330501e-01,
          3.06137204e-01, 4.06921625e-01, 4.53635693e-01, 1.59313411e-01,
          4.53635693e-01, 9.17806625e-02, 2.71824449e-01, 4.81838062e-02,
          4.53635693e-01, 2.49625012e-01, 4.53635693e-01, 4.44895715e-01,
          4.44895715e-01, 3.01871210e-01, 7.50149190e-02, 3.25439990e-01,
          9.78850015e-03, 3.26625668e-02, 4.44895715e-01, 4.44895715e-01,
          5.12310922e-01, 3.09091270e-01, 6.29833117e-02, 8.53065215e-03,
          4.21853960e-01, 1.70612987e-02, 5.77915683e-02, 4.34499502e-01,
          5.12310922e-01, 5.06504238e-01, 3.65191221e-01, 2.99390070e-02,
          1.31146917e-02, 4.42000479e-01, 2.55684964e-02, 7.63341635e-02,
          3.81536603e-01, 5.06504238e-01, 3.80863160e-01, 2.06508204e-01,
          3.54327768e-01, 4.89159316e-01, 4.89159316e-01, 1.02925293e-01,
          9.33865365e-03, 1.65619999e-01, 4.06447500e-01, 4.41006154e-01,
          7.82795846e-02, 4.78936993e-02, 4.41006154e-01, 4.41006154e-01,
          4.41006154e-01, 5.53360060e-02, 1.08070187e-01, 4.41006154e-01,
          4.39458460e-01, 9.40797776e-02, 6.74062297e-02, 4.39458460e-01,
          4.39458460e-01, 4.39458460e-01, 7.67058805e-02, 1.03504762e-01,
          4.39458460e-01 ]
      - [ 6.72298193e-01, 9.41642597e-02, 1.22420676e-01, 0., 0., 0.,
          1.73035622e-01, 1.88477278e-01, 6.72298193e-01, 6.45997107e-01,
          2.79192954e-01, 1.35971814e-01, 0., 4.12690267e-02,
          3.52922045e-02, 2.15967476e-01, 1.13571227e-01, 6.45997107e-01,
          4.45779085e-01, 3.40587199e-01, 4.14395571e-01, 0.,
          2.21223105e-02, 1.89184286e-02, 4.45779085e-01, 3.32895666e-01,
          4.45779085e-01, 4.80107546e-01, 4.80107546e-01, 4.80107546e-01,
          1.83642134e-02, 8.68696645e-02, 2.10498989e-01, 3.41111273e-01,
          2.19142780e-01, 2.95162886e-01, 4.03537750e-01, 4.03537750e-01,
          1.61889538e-01, 1.21643534e-03, 1.04870588e-01, 3.80194008e-01,
          4.03537750e-01, 4.03537750e-01, 4.03537750e-01, 3.71234924e-01,
          3.71234924e-01, 1.76897824e-01, 1.70530975e-02, 3.71234924e-01,
          3.71234924e-01, 3.71234924e-01, 3.71234924e-01, 3.71234924e-01,
          4.32729930e-01, 4.32729930e-01, 1.78383961e-01, 4.09539826e-02,
          4.32729930e-01, 3.69366765e-01, 4.32729930e-01, 2.50562578e-01,
          1.18090197e-01, 4.06389445e-01, 1.37287468e-01, 3.77230085e-02,
          1.60644144e-01, 4.06389445e-01, 4.06389445e-01, 4.06389445e-01,
          3.52279693e-01, 4.06389445e-01, 5.13656080e-01, 8.17260891e-03,
          5.25250519e-03, 2.61594653e-01, 5.13656080e-01, 3.54314953e-01,
          9.52307805e-02, 1.44305406e-02, 5.13656080e-01 ]
      - [ 3.88761818e-01, 1.86655268e-01, 3.88761818e-01, 1.88055649e-01,
          3.88761818e-01, 1.72949851e-01, 3.74594152e-01, 3.88761818e-01,
          3.88761818e-01, 4.30510849e-01, 2.40321532e-02, 7.20964596e-02,
          7.02349320e-02, 4.30510849e-01, 2.41439670e-01, 4.30510849e-01,
          4.30510849e-01, 4.30510849e-01, 3.82819593e-01, 3.82819593e-01,
          3.82819593e-01, 3.82819593e-01, 3.82819593e-01, 1.94010530e-02,
          4.65766452e-02, 3.38119328e-01, 3.82819593e-01, 4.88106936e-01,
          4.88106936e-01, 1.79855570e-01, 2.43372433e-02, 8.76978263e-02,
          1.49570517e-02, 3.57277319e-02, 4.88106936e-01, 4.88106936e-01,
          6.53177440e-01, 7.34895794e-03, 4.86859819e-03, 2.50233407e-03,
          3.18051696e-01, 5.90293994e-03, 2.18018666e-02, 1.96077392e-01,
          6.53177440e-01, 6.19314611e-01, 1.60175338e-02, 9.90593154e-03,
          1.62006281e-02, 4.66224730e-01, 9.34250131e-02, 2.04570056e-03,
          4.87692363e-04, 6.19314611e-01, 3.97196442e-01, 3.97196442e-01,
          3.97196442e-01, 1.77107677e-01, 3.97196442e-01, 3.97196442e-01,
          1.18035853e-01, 8.29554126e-02, 3.93733084e-01, 5.15833914e-01,
          2.16544629e-03, 1.19193806e-03, 2.17532041e-03, 5.15833914e-01,
          5.15833914e-01, 2.00389829e-02, 3.03222332e-02, 4.41885412e-01,
          5.53216040e-01, 2.19442439e-03, 1.24722477e-02, 7.34442174e-02,
          5.53216040e-01, 5.16096532e-01, 7.62882351e-04, 3.53911339e-04,
          3.32368642e-01 ]
      - [ 6.34664953e-01, 3.05232912e-01, 3.07257801e-01, 0., 0., 0., 0.,
          2.21297666e-02, 6.34664953e-01, 6.19329035e-01, 6.49826974e-02,
          5.52299134e-02, 5.65654598e-04, 1.01014217e-02, 3.12985713e-03,
          3.55651021e-01, 3.04641724e-01, 6.19329035e-01, 4.42677736e-01,
          1.97466820e-01, 4.06099975e-01, 5.10455035e-02, 5.33387773e-02,
          4.86090183e-02, 4.42677736e-01, 4.42677736e-01, 4.42677736e-01,
          4.87184733e-01, 4.87184733e-01, 4.87184733e-01, 4.18408252e-02,
          2.10052934e-02, 5.86360283e-02, 1.66577339e-01, 1.75640270e-01,
          4.67824548e-01, 4.47507679e-01, 2.49094233e-01, 2.30454773e-01,
          6.64834213e-03, 5.49410330e-03, 2.81506449e-01, 4.47507679e-01,
          4.47507679e-01, 4.47507679e-01, 5.62776387e-01, 1.44267708e-01,
          1.93254918e-01, 9.51462239e-02, 2.17851233e-02, 2.98617184e-02,
          4.82417911e-01, 2.44210780e-01, 5.62776387e-01, 4.88708705e-01,
          4.88708705e-01, 4.71008956e-01, 1.74383387e-01, 4.69736844e-01,
          1.54910967e-01, 1.05647035e-01, 9.20725092e-02, 2.99819633e-02,
          3.98359150e-01, 1.63724214e-01, 7.40149692e-02, 2.18032062e-01,
          3.98359150e-01, 3.50354880e-01, 3.98359150e-01, 3.98359150e-01,
          3.98359150e-01, 5.02286375e-01, 7.45054111e-02, 4.61079627e-02,
          3.08980435e-01, 5.02286375e-01, 3.53909165e-01, 8.68580788e-02,
          4.65463549e-02, 5.02286375e-01 ]
      - [ 6.83596790e-01, 1.37669548e-01, 1.52246624e-01, 4.50050551e-03,
          3.45159173e-02, 8.45438838e-02, 5.29071763e-02, 7.26373270e-02,
          6.83596790e-01, 4.75771099e-01, 3.38943392e-01, 3.66476983e-01,
          3.71617898e-02, 3.86989415e-01, 7.59087279e-02, 3.16252679e-01,
          1.90850556e-01, 4.75771099e-01, 5.02874494e-01, 3.35409284e-01,
          3.30369115e-01, 3.83227952e-02, 3.31188679e-01, 4.94825207e-02,
          3.70461255e-01, 1.29322618e-01, 5.02874494e-01, 3.99811804e-01,
          3.99811804e-01, 1.91927701e-01, 4.40048659e-03, 7.30692409e-03,
          3.99811804e-01, 3.99811804e-01, 3.99811804e-01, 3.99811804e-01,
          4.33761269e-01, 3.28208685e-01, 1.25837237e-01, 7.47148246e-02,
          1.78328782e-01, 2.86587507e-01, 4.33761269e-01, 4.33761269e-01,
          4.33761269e-01, 5.00077903e-01, 5.00077903e-01, 1.59563050e-01,
          1.13925122e-01, 1.53967023e-01, 3.40965092e-02, 1.35470375e-01,
          4.03871030e-01, 5.00077903e-01, 3.67897660e-01, 3.67897660e-01,
          3.29997271e-01, 1.32477125e-02, 3.67897660e-01, 3.67897660e-01,
          3.67897660e-01, 2.74150640e-01, 3.67897660e-01, 5.31342387e-01,
          2.58326679e-01, 5.10622095e-03, 1.15181031e-02, 5.31342387e-01,
          1.90718204e-01, 7.90402740e-02, 1.95466831e-01, 5.31342387e-01,
          5.28894484e-01, 3.18875521e-01, 8.13557580e-03, 1.33977933e-02,
          5.28894484e-01, 1.75257310e-01, 2.71161855e-03, 1.51262298e-01,
          5.28894484e-01 ]
      - [ 6.90844953e-01, 4.72485572e-02, 1.77482173e-01, 9.55500267e-03,
          2.12906469e-02, 5.39561175e-02, 3.71737145e-02, 0.,
          6.90844953e-01, 4.52188730e-01, 4.52188730e-01, 2.68472254e-01,
          0., 2.38636255e-01, 1.43134579e-01, 4.52188730e-01,
          1.67548448e-01, 4.52188730e-01, 4.55462128e-01, 4.55462128e-01,
          1.29099265e-01, 3.20475772e-02, 6.37350604e-02, 7.63871074e-02,
          4.37264234e-01, 3.92839044e-01, 4.55462128e-01, 4.15627688e-01,
          4.15627688e-01, 1.93726361e-01, 1.58236187e-03, 7.27592828e-03,
          3.07458639e-01, 4.15627688e-01, 4.15627688e-01, 4.15627688e-01,
          4.52221960e-01, 3.23294222e-01, 1.71684027e-01, 2.44900472e-02,
          9.63842794e-02, 1.83247998e-01, 4.52221960e-01, 4.52221960e-01,
          4.52221960e-01, 4.96888220e-01, 4.96888220e-01, 1.63936451e-01,
          7.09286779e-02, 7.71498233e-02, 8.20915848e-02, 1.66598201e-01,
          4.26604688e-01, 4.96888220e-01, 3.57639819e-01, 3.57639819e-01,
          3.57639819e-01, 1.12627642e-02, 3.57639819e-01, 3.57639819e-01,
          3.57639819e-01, 3.17736179e-01, 3.57639819e-01, 5.22953212e-01,
          2.05246717e-01, 6.25436194e-03, 1.40692275e-02, 5.22953212e-01,
          2.50532866e-01, 7.30030388e-02, 2.52740741e-01, 5.22953212e-01,
          4.68500137e-01, 4.68500137e-01, 8.44272505e-03, 1.78741775e-02,
          4.68500137e-01, 1.89902961e-01, 3.40082981e-02, 2.82383502e-01,
          4.68500137e-01 ]
      - [ 4.33680922e-01, 4.33680922e-01, 3.52038831e-01, 9.15313363e-02,
          2.17065215e-01, 5.70409596e-02, 2.46314749e-01, 4.33680922e-01,
          4.33680922e-01, 3.91385883e-01, 2.17946172e-01, 3.91385883e-01,
          1.21619709e-01, 3.91385883e-01, 1.21246375e-01, 3.91385883e-01,
          3.91385883e-01, 3.91385883e-01, 3.34038615e-01, 3.34038615e-01,
          3.34038615e-01, 3.34038615e-01, 3.34038615e-01, 3.22502971e-01,
          3.34038615e-01, 3.34038615e-01, 3.34038615e-01, 3.92901391e-01,
          3.92901391e-01, 3.92901391e-01, 7.31709693e-03, 2.15077415e-01,
          3.21321726e-01, 3.92901391e-01, 3.92901391e-01, 2.73235917e-01,
          4.01333630e-01, 1.70746624e-01, 4.66014855e-02, 1.86907630e-02,
          4.01333630e-01, 3.98712635e-01, 4.01333630e-01, 4.01333630e-01,
          4.01333630e-01, 4.41441745e-01, 2.58748025e-01, 2.16089353e-01,
          2.48508602e-01, 3.90932977e-01, 2.48050004e-01, 3.60356659e-01,
          2.93654233e-01, 4.41441745e-01, 3.46238524e-01, 3.23609889e-01,
          3.80085438e-01, 3.80085438e-01, 3.80085438e-01, 8.27192441e-02,
          2.91754693e-01, 3.80085438e-01, 3.19022536e-01, 4.40057904e-01,
          1.23228729e-01, 1.92548812e-03, 4.40057904e-01, 4.40057904e-01,
          4.62919101e-02, 1.00087397e-01, 4.40057904e-01, 4.40057904e-01,
          4.42244530e-01, 1.98064640e-01, 2.95700273e-03, 4.14820641e-01,
          4.42244530e-01, 1.86650809e-02, 3.99834141e-02, 4.42244530e-01,
          4.42244530e-01 ]
      - [ 6.80621564e-01, 1.73005968e-01, 7.91267380e-02, 8.90243798e-02,
          1.09430104e-01, 0., 0., 1.03061676e-01, 6.80621564e-01,
          4.78448778e-01, 4.78448778e-01, 9.89853218e-02, 3.68473269e-02,
          2.58092165e-01, 0., 4.24371138e-02, 4.78448778e-01,
          4.78448778e-01, 4.67521757e-01, 4.67521757e-01, 6.74317181e-02,
          2.38759909e-02, 3.22718590e-01, 0., 1.08441271e-01,
          4.67521757e-01, 4.67521757e-01, 4.58110482e-01, 4.58110482e-01,
          3.18483919e-01, 1.75354332e-02, 1.22215170e-02, 1.30011560e-02,
          3.21534753e-01, 4.00482357e-01, 4.58110482e-01, 4.86785859e-01,
          4.86785859e-01, 4.46949825e-02, 3.56290652e-03, 2.52956338e-02,
          2.37900503e-02, 2.09952414e-01, 4.86785859e-01, 4.86785859e-01,
          4.96707290e-01, 4.96707290e-01, 3.00262012e-02, 2.54332982e-02,
          7.31326714e-02, 7.36605888e-03, 3.48644443e-02, 4.96707290e-01,
          4.96707290e-01, 2.77027160e-01, 4.67170298e-01, 4.67170298e-01,
          2.22411036e-01, 4.67170298e-01, 1.66705146e-01, 3.73416096e-02,
          1.34828672e-01, 4.08674628e-01, 5.48133790e-01, 1.62431002e-01,
          4.16312786e-03, 1.55276088e-02, 5.48133790e-01, 1.93767086e-01,
          1.60195678e-02, 1.69498712e-01, 5.48133790e-01, 4.83730704e-01,
          2.04167873e-01, 5.03355786e-02, 3.30549449e-01, 4.83730704e-01,
          3.39474916e-01, 6.96217939e-02, 1.40038699e-01, 4.83730704e-01 ]
      - [ 4.49067742e-01, 4.49067742e-01, 3.56471151e-01, 3.29300156e-03,
          9.66922101e-03, 1.08208954e-01, 2.23566234e-01, 4.49067742e-01,
          4.49067742e-01, 4.29170430e-01, 3.74124855e-01, 1.47256106e-01,
          1.23306155e-01, 1.16309278e-01, 2.61873752e-01, 4.29170430e-01,
          4.29170430e-01, 4.29170430e-01, 3.48148167e-01, 3.48148167e-01,
          3.48148167e-01, 1.63904279e-01, 3.48148167e-01, 3.48148167e-01,
          3.48148167e-01, 3.48148167e-01, 3.48148167e-01, 3.92516077e-01,
          3.92516077e-01, 3.92516077e-01, 6.49398193e-03, 2.72321459e-02,
          2.68730670e-01, 3.92516077e-01, 3.90812606e-01, 3.92516077e-01,
          4.64271307e-01, 2.33048677e-01, 3.29736136e-02, 2.10323408e-02,
          1.28737688e-01, 2.46488452e-01, 4.64271307e-01, 4.64271307e-01,
          4.64271307e-01, 5.18001199e-01, 5.18001199e-01, 6.95555285e-02,
          1.22751193e-02, 2.37109289e-01, 5.28492667e-02, 4.08753455e-02,
          3.52388561e-01, 5.18001199e-01, 1.82599679e-01, 4.50829893e-01,
          4.50829893e-01, 4.50829893e-01, 4.50829893e-01, 3.65161628e-01,
          7.92663246e-02, 3.23883370e-02, 9.21339318e-02, 3.66368502e-01,
          6.61570728e-02, 1.15623018e-02, 4.53920811e-01, 4.93446499e-01,
          4.93446499e-01, 1.12805210e-01, 7.48994797e-02, 3.80759060e-01,
          3.28076720e-01, 1.67396024e-01, 2.46519912e-02, 9.23522785e-02,
          6.64712012e-01, 5.47991157e-01, 9.37204286e-02, 8.96846876e-02,
          2.99346507e-01 ]
      - [ 3.95791024e-01, 3.95791024e-01, 3.95791024e-01, 9.80740115e-02,
          1.53076038e-01, 1.51960447e-01, 3.95791024e-01, 3.95791024e-01,
          3.95791024e-01, 4.33407009e-01, 2.61003971e-01, 1.77228957e-01,
          1.16986381e-02, 8.88639316e-02, 3.07688504e-01, 4.49233443e-01,
          4.49233443e-01, 4.49233443e-01, 0., 0., 0., 0., 0., 0., 0., 0.,
          0., 4.18279320e-01, 4.18279320e-01, 2.06510991e-01,
          8.56211316e-03, 1.19145792e-02, 2.79591829e-01, 4.18279320e-01,
          4.18279320e-01, 4.18279320e-01, 4.44144696e-01, 4.35083270e-01,
          1.15818605e-02, 4.61239164e-04, 7.47833354e-03, 1.30452082e-01,
          4.44144696e-01, 4.44144696e-01, 4.44144696e-01, 5.51302314e-01,
          5.17727375e-01, 2.64179185e-02, 0., 0., 0., 2.27217609e-03,
          3.43338817e-01, 5.51302314e-01, 3.53768677e-01, 3.53768677e-01,
          3.46333385e-01, 2.12757811e-02, 3.53768677e-01, 3.53768677e-01,
          3.53768677e-01, 3.53768677e-01, 3.53768677e-01, 4.77205813e-01,
          4.54228103e-01, 8.28541163e-03, 1.49340723e-02, 4.77205813e-01,
          1.99942991e-01, 8.14624950e-02, 2.42547631e-01, 4.77205813e-01,
          5.17755389e-01, 2.93870330e-01, 3.88526246e-02, 1.16142333e-02,
          5.17755389e-01, 2.27186427e-01, 1.41843513e-03, 2.25826338e-01,
          5.17755389e-01 ]
      - [ 4.72775280e-01, 3.02503496e-01, 4.72775280e-01, 1.28040656e-01,
          1.19874470e-01, 7.00428430e-03, 2.15718284e-01, 3.94806653e-01,
          4.72775280e-01, 4.93637145e-01, 3.86898927e-02, 1.22535832e-01,
          3.01686563e-02, 5.08168526e-02, 1.88350920e-02, 4.93637145e-01,
          4.93637145e-01, 4.93637145e-01, 4.50339139e-01, 1.29010007e-01,
          4.50339139e-01, 6.59346133e-02, 3.16307247e-02, 0.,
          4.50339139e-01, 4.02850866e-01, 4.50339139e-01, 4.16752070e-01,
          4.16752070e-01, 4.16752070e-01, 6.49638008e-03, 1.10924682e-02,
          2.49415189e-01, 4.16752070e-01, 2.55053401e-01, 4.16752070e-01,
          4.58292782e-01, 2.77144145e-02, 6.45048469e-02, 5.89611568e-03,
          1.08270263e-02, 3.87572438e-01, 4.58292782e-01, 4.58292782e-01,
          4.58292782e-01, 6.99519336e-01, 8.98994692e-03, 2.87659075e-02,
          9.49119776e-03, 8.35849568e-02, 1.60992704e-02, 3.40827592e-02,
          7.04049096e-02, 6.99519336e-01, 3.46552312e-01, 4.33178991e-01,
          4.33178991e-01, 1.54729828e-01, 4.33178991e-01, 4.33178991e-01,
          2.82908589e-01, 7.49072433e-02, 1.24130771e-01, 5.15729129e-01,
          5.75037161e-03, 9.47556179e-03, 3.56284492e-02, 5.15729129e-01,
          5.15729129e-01, 8.73303190e-02, 6.21638633e-02, 4.28994805e-01,
          5.42179763e-01, 6.00367459e-03, 1.21908607e-02, 2.42069736e-02,
          5.42179763e-01, 5.42179763e-01, 8.80736951e-03, 1.19870240e-02,
          3.34241092e-01 ]
      - [ 4.30548579e-01, 4.30548579e-01, 2.62075186e-01, 6.27540201e-02,
          1.39182121e-01, 2.82458127e-01, 3.85611892e-01, 3.45124215e-01,
          4.30548579e-01, 4.86230135e-01, 3.34371537e-01, 2.05584571e-01,
          1.04544699e-01, 2.68656999e-01, 1.15270011e-01, 3.30573589e-01,
          4.03190643e-01, 4.86230135e-01, 3.78346771e-01, 3.02336931e-01,
          2.90002912e-01, 1.92823246e-01, 3.72261405e-01, 2.69009978e-01,
          3.78346771e-01, 3.78346771e-01, 3.78346771e-01, 5.33344686e-01,
          5.33344686e-01, 5.33344686e-01, 4.23777103e-02, 3.28222848e-02,
          1.63853943e-01, 1.45422518e-01, 9.13601220e-02, 2.86510736e-01,
          4.06969756e-01, 4.06969756e-01, 4.27448750e-02, 1.16164023e-02,
          1.50384968e-02, 4.06969756e-01, 4.06969756e-01, 4.06969756e-01,
          4.06969756e-01, 5.48436940e-01, 9.71510336e-02, 2.98899096e-02,
          2.59513445e-02, 3.95339206e-02, 6.14445992e-02, 5.48436940e-01,
          2.75373250e-01, 5.48436940e-01, 4.38763350e-01, 4.38763350e-01,
          4.38763350e-01, 1.48061678e-01, 3.96910161e-01, 2.25004718e-01,
          3.15354884e-01, 1.37768686e-01, 2.63744891e-01, 3.93349975e-01,
          3.93349975e-01, 4.01125103e-02, 1.51911676e-01, 3.93349975e-01,
          3.93349975e-01, 3.93349975e-01, 2.07458258e-01, 3.93349975e-01,
          4.77326781e-01, 2.17589125e-01, 1.64571684e-02, 2.75085419e-01,
          4.77326781e-01, 4.16272014e-01, 1.21311098e-01, 2.05735136e-02,
          4.77326781e-01 ]
      - [ 6.81928575e-01, 2.05955848e-01, 7.88267851e-02, 0., 0., 0., 0.,
          1.20447814e-01, 6.81928575e-01, 6.64066970e-01, 2.36542448e-01,
          1.57279417e-01, 0., 7.79040437e-03, 7.83730671e-02,
          1.49281532e-01, 4.71513271e-02, 6.64066970e-01, 4.34994042e-01,
          4.02057827e-01, 4.20337379e-01, 8.82526189e-02, 8.25978070e-02,
          9.39916819e-02, 4.34994042e-01, 2.57324398e-01, 4.34994042e-01,
          4.77058560e-01, 4.77058560e-01, 4.47805226e-01, 1.22632366e-02,
          8.54781047e-02, 2.74864346e-01, 2.34864607e-01, 2.50597596e-01,
          3.72247279e-01, 4.05316800e-01, 3.96727562e-01, 1.11903168e-01,
          1.09283347e-02, 6.71419278e-02, 4.05316800e-01, 4.05316800e-01,
          4.05316800e-01, 4.05316800e-01, 4.38362896e-01, 2.88739145e-01,
          3.79984140e-01, 1.96810737e-01, 2.37827525e-01, 2.68618554e-01,
          4.38362896e-01, 1.54675484e-01, 4.38362896e-01, 3.70096177e-01,
          3.70096177e-01, 3.66354823e-01, 1.41695142e-01, 3.70096177e-01,
          3.70096177e-01, 2.88264364e-01, 2.72133917e-01, 3.70096177e-01,
          4.17649478e-01, 9.07197222e-02, 4.46530208e-02, 1.78130582e-01,
          4.17649478e-01, 4.17649478e-01, 4.04563457e-01, 3.04101199e-01,
          4.17649478e-01, 5.39312541e-01, 6.35115877e-02, 5.84199764e-02,
          1.62618250e-01, 5.39312541e-01, 2.95132548e-01, 3.21563631e-02,
          3.37178819e-03, 5.39312541e-01 ]
      - [ 4.97770548e-01, 4.97770548e-01, 4.97770548e-01, 0.,
          3.64556946e-02, 2.94213686e-02, 4.16142084e-02, 0.,
          4.97770548e-01, 4.70846027e-01, 4.70846027e-01, 3.13138396e-01,
          5.94185293e-02, 3.14688385e-01, 1.81930050e-01, 2.01833859e-01,
          2.36132622e-01, 4.70846027e-01, 3.96273106e-01, 1.91295192e-01,
          3.96273106e-01, 7.38595873e-02, 3.96273106e-01, 1.08617835e-01,
          3.96273106e-01, 3.96273106e-01, 3.96273106e-01, 5.81325591e-01,
          5.81325591e-01, 4.76698160e-01, 2.32187612e-03, 4.53283591e-03,
          2.44619348e-03, 5.96378595e-02, 1.82661880e-02, 2.95216888e-01,
          4.02628571e-01, 4.02628571e-01, 2.05476806e-01, 9.10887588e-03,
          1.17276022e-02, 3.78137261e-01, 4.02628571e-01, 4.02628571e-01,
          4.02628571e-01, 5.25060356e-01, 2.22721279e-01, 8.45732633e-03,
          5.53154573e-03, 3.82492952e-02, 1.27196670e-01, 5.25060356e-01,
          3.16768438e-01, 5.25060356e-01, 5.11427701e-01, 5.11427701e-01,
          3.79671156e-01, 1.32692739e-01, 5.11427701e-01, 1.11047417e-01,
          9.01633203e-02, 3.64577286e-02, 1.63308769e-01, 3.76678228e-01,
          3.76678228e-01, 4.95263375e-02, 2.40513347e-02, 3.76678228e-01,
          3.76678228e-01, 3.76678228e-01, 3.76678228e-01, 3.76678228e-01,
          5.21707475e-01, 3.52342516e-01, 3.84079944e-03, 1.93579830e-02,
          5.21707475e-01, 2.12605432e-01, 6.95936531e-02, 6.06184751e-02,
          5.21707475e-01 ]
      - [ 6.88430965e-01, 1.32578984e-01, 1.77277299e-03, 1.24365408e-02,
          0., 8.27066787e-03, 1.03902563e-01, 1.29050672e-01,
          6.88430965e-01, 5.26511848e-01, 3.16091597e-01, 1.32619768e-01,
          3.06885596e-02, 7.48769473e-03, 1.51622325e-01, 5.26511848e-01,
          1.46998197e-01, 5.26511848e-01, 3.71593684e-01, 3.71593684e-01,
          3.71593684e-01, 3.71593684e-01, 3.71593684e-01, 1.05108514e-01,
          1.67833254e-01, 3.58581483e-01, 3.71593684e-01, 4.70810026e-01,
          4.70810026e-01, 3.27463686e-01, 2.31298488e-02, 2.26487238e-02,
          1.09993611e-02, 1.57312080e-02, 4.70810026e-01, 4.70810026e-01,
          6.90264463e-01, 4.59390953e-02, 2.89517287e-02, 9.72712971e-03,
          6.29354343e-02, 4.87238951e-02, 7.72205964e-02, 1.57600939e-01,
          6.90264463e-01, 7.01868713e-01, 2.93560680e-02, 2.82677524e-02,
          4.61682603e-02, 3.90711874e-02, 1.67848263e-02, 2.77693756e-02,
          3.71818468e-02, 7.01868713e-01, 2.37911493e-01, 2.28988484e-01,
          3.18660647e-01, 4.96623009e-01, 4.96623009e-01, 3.58855009e-01,
          3.58634219e-02, 1.66358054e-01, 3.65309328e-01, 5.18273830e-01,
          8.43214337e-03, 4.03284393e-02, 3.93399507e-01, 5.18273830e-01,
          2.70509720e-01, 3.00749633e-02, 2.06557568e-02, 4.76068318e-01,
          5.57887495e-01, 1.98908541e-02, 1.33364415e-02, 5.00216782e-02,
          6.43908441e-01, 1.81067392e-01, 2.56788991e-02, 6.72920374e-03,
          4.80779707e-01 ]
      - [ 5.13643920e-01, 5.13643920e-01, 2.64880508e-01, 1.54357043e-03,
          1.93279833e-01, 2.78305650e-01, 1.11641787e-01, 7.70772174e-02,
          5.13643920e-01, 4.86780137e-01, 4.86780137e-01, 5.76847754e-02,
          1.12961959e-02, 9.67239887e-02, 4.98603955e-02, 1.78946808e-01,
          4.86780137e-01, 4.86780137e-01, 4.01403725e-01, 3.54537278e-01,
          4.08372059e-02, 6.77620471e-02, 2.41679564e-01, 4.01403725e-01,
          4.01403725e-01, 4.01403725e-01, 4.01403725e-01, 5.61020970e-01,
          5.61020970e-01, 5.61020970e-01, 1.23217534e-02, 2.35552080e-02,
          8.35607722e-02, 1.63769200e-01, 5.20656109e-02, 1.13771401e-01,
          4.05650467e-01, 4.05650467e-01, 9.12938938e-02, 2.64460570e-03,
          1.70970727e-02, 4.05650467e-01, 4.05650467e-01, 4.05650467e-01,
          4.05650467e-01, 4.74500656e-01, 5.46845049e-02, 6.22259779e-03,
          3.57194967e-03, 2.60697380e-02, 4.35731769e-01, 4.74500656e-01,
          3.55280608e-01, 4.74500656e-01, 5.16047478e-01, 5.16047478e-01,
          4.91026402e-01, 2.96766788e-01, 2.51525342e-01, 2.03621298e-01,
          1.54112965e-01, 4.00168076e-02, 5.45899160e-02, 3.94156367e-01,
          2.39217162e-01, 6.91395327e-02, 2.37216204e-01, 3.94156367e-01,
          3.94156367e-01, 3.94156367e-01, 3.17788512e-01, 3.94156367e-01,
          4.85707372e-01, 7.56203290e-03, 2.67838165e-02, 2.88006634e-01,
          4.85707372e-01, 4.43160444e-01, 7.10424930e-02, 4.74668294e-02,
          4.85707372e-01 ]
      - [ 4.18862402e-01, 4.18862402e-01, 5.54243214e-02, 5.00917016e-03,
          3.00119519e-01, 4.10549343e-01, 3.39545369e-01, 3.04085881e-01,
          4.18862402e-01, 4.00839418e-01, 1.76257536e-01, 1.27087217e-02,
          2.70914454e-02, 4.00839418e-01, 4.00839418e-01, 4.00839418e-01,
          4.00839418e-01, 4.00839418e-01, 4.13578987e-01, 4.13578987e-01,
          4.13578987e-01, 1.18580216e-03, 1.55111238e-01, 1.05980732e-01,
          4.13578987e-01, 3.24557841e-01, 4.13578987e-01, 3.28918487e-01,
          4.16187763e-01, 1.96312591e-01, 3.11768129e-02, 4.16187763e-01,
          4.16187763e-01, 4.16187763e-01, 3.53588045e-01, 1.73985198e-01,
          2.12117732e-01, 1.19325526e-01, 8.83025005e-02, 8.05978999e-02,
          4.40814972e-01, 4.40814972e-01, 4.40814972e-01, 4.40814972e-01,
          3.80525261e-01, 5.17572641e-01, 5.17572641e-01, 5.17572641e-01,
          2.95419190e-02, 8.51972401e-02, 1.21200748e-01, 1.17538959e-01,
          7.64698312e-02, 3.85619938e-01, 2.18847439e-01, 1.57654330e-01,
          4.43382651e-01, 3.36732060e-01, 1.10795490e-01, 1.03948109e-01,
          4.43382651e-01, 4.43382651e-01, 4.43382651e-01, 5.51858127e-01,
          5.51858127e-01, 1.79816186e-02, 3.17965671e-02, 1.34355202e-01,
          1.93255037e-01, 5.62253818e-02, 1.44749284e-01, 5.51858127e-01,
          5.58300436e-01, 5.58300436e-01, 9.08422917e-02, 1.24908639e-02,
          6.05223812e-02, 5.58300436e-01, 1.98334977e-01, 1.74550153e-02,
          8.72575566e-02 ]
      - [ 4.32458878e-01, 4.32458878e-01, 3.26837867e-01, 4.96643223e-03,
          3.23862582e-02, 7.68175870e-02, 3.65786582e-01, 4.32458878e-01,
          4.32458878e-01, 4.73702580e-01, 1.27211735e-01, 6.97876364e-02,
          8.82317945e-02, 1.59773692e-01, 2.08150119e-01, 4.73702580e-01,
          4.73702580e-01, 4.73702580e-01, 4.87647384e-01, 4.87647384e-01,
          3.67423892e-01, 5.14020063e-02, 2.13355243e-01, 6.86036497e-02,
          2.56801516e-01, 1.67072237e-01, 4.87647384e-01, 3.46923202e-01,
          3.91816586e-01, 3.91816586e-01, 2.34991554e-02, 6.00629486e-03,
          3.91816586e-01, 3.91816586e-01, 3.91816586e-01, 3.27933520e-01,
          3.98777276e-01, 3.98777276e-01, 1.83159679e-01, 8.64646882e-02,
          2.92019192e-02, 3.98777276e-01, 3.98777276e-01, 3.98777276e-01,
          3.98777276e-01, 4.86741632e-01, 4.86741632e-01, 4.86741632e-01,
          2.53151543e-02, 8.58986229e-02, 1.87261969e-01, 4.53697890e-02,
          4.82046120e-02, 4.86741632e-01, 2.94334531e-01, 2.42477506e-01,
          3.91225278e-01, 3.91225278e-01, 2.73597926e-01, 1.02574453e-01,
          3.91225278e-01, 3.91225278e-01, 3.91225278e-01, 4.35382515e-01,
          4.35382515e-01, 1.89188883e-01, 6.09808750e-02, 3.16050410e-01,
          4.16556209e-01, 1.88996792e-01, 2.79891789e-01, 4.35382515e-01,
          3.85732800e-01, 3.85732800e-01, 3.40579689e-01, 5.59189618e-02,
          3.85732800e-01, 3.85732800e-01, 3.85732800e-01, 1.72118112e-01,
          3.21638644e-01 ]
      - [ 5.67410052e-01, 5.67410052e-01, 6.17229417e-02, 2.81347483e-02,
          9.11302045e-02, 2.47198399e-02, 8.35871696e-02, 8.92609805e-02,
          5.67410052e-01, 4.87355053e-01, 1.16767436e-01, 1.78434625e-02,
          1.34376409e-02, 1.63236022e-01, 6.55213743e-02, 4.87355053e-01,
          4.87355053e-01, 4.87355053e-01, 4.75358248e-01, 4.75358248e-01,
          4.92526814e-02, 3.90271540e-03, 2.23160442e-02, 6.70203418e-02,
          4.75358248e-01, 2.89757252e-01, 4.75358248e-01, 3.74502271e-01,
          3.74502271e-01, 3.74502271e-01, 3.88877988e-02, 3.74502271e-01,
          3.66497904e-01, 3.74502271e-01, 3.74502271e-01, 1.37527972e-01,
          3.58961821e-01, 2.02349469e-01, 1.05762379e-02, 2.67012399e-02,
          4.19347525e-01, 4.19347525e-01, 4.19347525e-01, 4.19347525e-01,
          3.48966777e-01, 6.67677104e-01, 6.67677104e-01, 2.68237628e-02,
          7.00395228e-03, 5.81163242e-02, 2.41138577e-01, 1.41297668e-01,
          4.29522693e-02, 1.32835194e-01, 1.21356323e-01, 3.80281478e-01,
          3.93880129e-01, 3.93880129e-01, 3.00058722e-01, 1.17541552e-01,
          3.50957394e-01, 3.93880129e-01, 3.79837811e-01, 4.14145708e-01,
          4.14145708e-01, 1.33531513e-02, 4.92196791e-02, 3.92155558e-01,
          3.64098102e-01, 1.44367516e-01, 4.14145708e-01, 4.14145708e-01,
          4.36759710e-01, 4.36759710e-01, 9.07817185e-02, 2.02829465e-02,
          4.36759710e-01, 4.36759710e-01, 4.36759710e-01, 8.09025988e-02,
          1.63229808e-01 ]
      - [ 4.36050862e-01, 4.36050862e-01, 7.42894709e-02, 2.28200499e-02,
          1.89907532e-02, 1.96321711e-01, 4.36050862e-01, 4.36050862e-01,
          4.36050862e-01, 3.88881713e-01, 3.88881713e-01, 1.83461010e-01,
          1.22753143e-01, 2.00037181e-01, 3.88881713e-01, 3.88881713e-01,
          3.88881713e-01, 3.88881713e-01, 4.03158098e-01, 4.03158098e-01,
          1.63443759e-01, 1.07500674e-02, 2.79246509e-01, 4.03158098e-01,
          4.03158098e-01, 2.94091612e-01, 3.93101573e-01, 4.10116434e-01,
          4.10116434e-01, 4.10116434e-01, 1.36403297e-03, 2.21179500e-02,
          3.53954732e-01, 4.10116434e-01, 4.10116434e-01, 1.70735091e-01,
          4.33168560e-01, 3.16281408e-01, 7.37954080e-02, 4.30672504e-02,
          9.30463076e-02, 4.33168560e-01, 4.33168560e-01, 4.33168560e-01,
          3.59361768e-01, 6.79884136e-01, 6.79884136e-01, 8.01415667e-02,
          1.47626642e-02, 6.48570508e-02, 1.80992037e-01, 9.55194011e-02,
          1.57157611e-02, 1.25505328e-01, 1.14733353e-01, 3.23833674e-01,
          4.08786625e-01, 4.08786625e-01, 1.93551496e-01, 6.99255541e-02,
          4.08786625e-01, 4.08786625e-01, 4.08786625e-01, 4.73122567e-01,
          4.73122567e-01, 1.06501430e-02, 3.44080701e-02, 2.14399531e-01,
          1.98065281e-01, 1.15759812e-01, 4.73122567e-01, 4.73122567e-01,
          4.89509165e-01, 4.89509165e-01, 2.21596248e-02, 1.88663993e-02,
          3.83999735e-01, 4.89509165e-01, 2.72385836e-01, 3.68129127e-02,
          2.28913516e-01 ]
      - [ 3.82269651e-01, 3.82269651e-01, 3.82269651e-01, 2.40001418e-02,
          1.02878928e-01, 3.28999102e-01, 3.82269651e-01, 3.82269651e-01,
          3.82269651e-01, 3.65289539e-01, 1.69598550e-01, 3.65289539e-01,
          1.83116466e-01, 3.65289539e-01, 3.65289539e-01, 3.65289539e-01,
          3.65289539e-01, 3.65289539e-01, 3.52392673e-01, 3.52392673e-01,
          3.52392673e-01, 1.90302342e-01, 3.52392673e-01, 3.52392673e-01,
          3.52392673e-01, 3.01661998e-01, 3.52392673e-01, 1.22080967e-01,
          3.73667628e-01, 4.03366178e-01, 3.54955345e-02, 4.03366178e-01,
          3.06479335e-01, 4.03366178e-01, 4.03366178e-01, 3.08921486e-01,
          3.72587085e-01, 1.99536934e-01, 3.72587085e-01, 1.39311001e-01,
          3.72587085e-01, 3.22689295e-01, 3.72587085e-01, 3.72587085e-01,
          3.72587085e-01, 4.83500868e-01, 4.83500868e-01, 4.83500868e-01,
          9.69174355e-02, 1.18717216e-01, 5.39229736e-02, 1.47297457e-01,
          1.09486863e-01, 4.83500868e-01, 2.53305137e-01, 1.71279371e-01,
          4.15109634e-01, 4.15109634e-01, 2.01441184e-01, 1.39437597e-02,
          4.15109634e-01, 4.15109634e-01, 4.15109634e-01, 5.05202711e-01,
          5.05202711e-01, 1.47065595e-02, 5.21487221e-02, 3.06922883e-01,
          2.28361934e-01, 3.67135108e-02, 2.80411720e-01, 5.05202711e-01,
          4.27325308e-01, 4.27325308e-01, 2.81211972e-01, 1.16589898e-02,
          4.27325308e-01, 4.27325308e-01, 5.78826927e-02, 1.14098052e-02,
          4.27325308e-01 ]
      - [ 4.24933761e-01, 4.24933761e-01, 4.01088387e-01, 1.13701122e-02,
          1.05463015e-02, 7.62014985e-02, 3.26437384e-01, 4.24933761e-01,
          4.24933761e-01, 3.49271089e-01, 1.76303655e-01, 7.42171556e-02,
          2.07457468e-02, 7.44554028e-02, 4.37034279e-01, 4.61819857e-01,
          4.61819857e-01, 4.61819857e-01, 5.15785277e-01, 5.15785277e-01,
          4.30144995e-01, 4.30414313e-03, 1.13799907e-02, 3.93862091e-02,
          1.16289623e-01, 6.57316595e-02, 5.08145690e-01, 3.87490541e-01,
          3.87490541e-01, 3.87490541e-01, 3.35081220e-02, 3.73300700e-03,
          3.87490541e-01, 3.87490541e-01, 3.87490541e-01, 3.06755155e-01,
          4.00163949e-01, 4.00163949e-01, 1.71576872e-01, 3.77723575e-02,
          6.59531131e-02, 4.00163949e-01, 4.00163949e-01, 4.00163949e-01,
          4.00163949e-01, 4.88206148e-01, 4.88206148e-01, 4.88206148e-01,
          3.78587618e-02, 1.23005927e-01, 9.54749063e-02, 1.06031723e-01,
          6.94340467e-02, 4.88206148e-01, 3.24233323e-01, 2.15213984e-01,
          3.86363745e-01, 3.86363745e-01, 3.01866770e-01, 8.47791657e-02,
          3.86363745e-01, 3.86363745e-01, 3.86363745e-01, 4.22205746e-01,
          4.22205746e-01, 3.29516292e-01, 7.35075846e-02, 3.76744658e-01,
          2.35284001e-01, 2.55723298e-01, 2.90405840e-01, 4.22205746e-01,
          3.78622770e-01, 3.52831244e-01, 3.78622770e-01, 7.40227848e-02,
          3.78622770e-01, 3.78622770e-01, 3.78622770e-01, 1.63299233e-01,
          3.50435972e-01 ]
      - [ 4.57962185e-01, 4.57962185e-01, 2.30622232e-01, 8.47558025e-04,
          3.96128045e-03, 4.63028848e-02, 3.18058610e-01, 4.57962185e-01,
          4.57962185e-01, 3.99170429e-01, 2.10389838e-01, 2.43700624e-01,
          4.40940857e-02, 9.14331526e-02, 1.54119462e-01, 4.82401580e-01,
          4.82401580e-01, 4.82401580e-01, 4.37212139e-01, 4.37212139e-01,
          2.94325739e-01, 5.66045120e-02, 1.59139052e-01, 4.02877152e-01,
          4.08409178e-01, 1.98741436e-01, 3.59945387e-01, 2.85248399e-01,
          4.17972952e-01, 4.17972952e-01, 9.04165860e-03, 9.93466750e-03,
          4.17972952e-01, 4.17972952e-01, 4.17972952e-01, 2.01917276e-01,
          4.03877497e-01, 4.03877497e-01, 6.38832152e-02, 6.54240847e-02,
          9.43493024e-02, 4.03877497e-01, 4.03877497e-01, 4.03877497e-01,
          4.03877497e-01, 6.28878713e-01, 6.28878713e-01, 6.03034608e-02,
          4.86639291e-02, 2.50038922e-01, 1.57313824e-01, 1.76142111e-01,
          5.34276366e-02, 2.74939775e-01, 2.45241806e-01, 2.96403557e-01,
          3.82617682e-01, 3.82617682e-01, 3.17239255e-01, 1.24727331e-01,
          3.82617682e-01, 3.82617682e-01, 3.82617682e-01, 4.60675240e-01,
          4.60675240e-01, 3.14907581e-02, 2.95185652e-02, 2.52250552e-01,
          3.67954195e-01, 2.30707198e-01, 3.23456258e-01, 4.60675240e-01,
          4.29905415e-01, 4.29905415e-01, 6.55296221e-02, 1.70219056e-02,
          4.29905415e-01, 4.29905415e-01, 4.29905415e-01, 1.75319716e-01,
          1.90502793e-01 ]
      - [ 5.62070191e-01, 5.62070191e-01, 1.33042902e-01, 2.51982603e-02,
          1.02033913e-01, 4.12736721e-02, 1.20018974e-01, 4.20015007e-02,
          5.62070191e-01, 4.71331745e-01, 8.40906501e-02, 1.88600048e-02,
          1.06816376e-02, 2.58882433e-01, 1.79211259e-01, 4.71331745e-01,
          4.71331745e-01, 4.71331745e-01, 4.79649305e-01, 4.79649305e-01,
          1.67767420e-01, 8.85055512e-02, 2.08802983e-01, 6.39872029e-02,
          4.62256938e-01, 2.81589061e-01, 3.98040593e-01, 3.57210010e-01,
          3.73787969e-01, 3.73787969e-01, 2.57263985e-02, 3.73787969e-01,
          3.73787969e-01, 3.73787969e-01, 3.73787969e-01, 1.72337398e-01,
          3.29567254e-01, 3.65214527e-01, 1.78381652e-01, 3.17988060e-02,
          4.09453362e-01, 4.09453362e-01, 4.09453362e-01, 4.09453362e-01,
          2.24664390e-01, 5.27749896e-01, 5.27749896e-01, 5.27749896e-01,
          8.47276952e-03, 1.38878390e-01, 1.52032062e-01, 2.06010997e-01,
          6.95164204e-02, 2.63484031e-01, 2.79823154e-01, 2.51053780e-01,
          4.05495703e-01, 4.05495703e-01, 1.03890277e-01, 1.47286534e-01,
          4.05495703e-01, 4.05495703e-01, 4.05495703e-01, 4.91904229e-01,
          4.91904229e-01, 1.43155083e-01, 2.56972685e-02, 1.55507937e-01,
          1.19328283e-01, 2.50283837e-01, 3.83353561e-01, 4.91904229e-01,
          4.13990974e-01, 4.13990974e-01, 2.76046664e-01, 2.58150641e-02,
          4.13990974e-01, 4.13990974e-01, 4.13990974e-01, 2.07125589e-01,
          1.38392359e-01 ]
      - [ 4.78715718e-01, 4.78715718e-01, 1.11705989e-01, 2.61543300e-02,
          4.77414019e-02, 1.98060915e-01, 2.14435652e-01, 4.55038428e-01,
          4.78715718e-01, 4.16951746e-01, 3.15627813e-01, 1.41574010e-01,
          2.20362041e-02, 8.02578554e-02, 4.16951746e-01, 4.16951746e-01,
          4.16951746e-01, 4.16951746e-01, 3.58782291e-01, 3.58782291e-01,
          3.58782291e-01, 6.66543692e-02, 3.58782291e-01, 3.58782291e-01,
          3.58782291e-01, 3.01495612e-01, 3.58782291e-01, 4.13303912e-01,
          4.13303912e-01, 4.13303912e-01, 1.03543727e-02, 7.75457080e-03,
          4.13303912e-01, 4.13303912e-01, 3.59595716e-01, 1.10878870e-01,
          1.68537676e-01, 2.12763444e-01, 1.68743998e-01, 6.11690171e-02,
          6.92122728e-02, 5.07230759e-01, 5.07230759e-01, 5.07230759e-01,
          3.35269034e-01, 5.68037331e-01, 5.68037331e-01, 1.99832559e-01,
          8.69170353e-02, 1.86609223e-01, 8.17064941e-02, 2.66707569e-01,
          1.12403125e-01, 4.19810712e-01, 2.58461744e-01, 3.05736631e-01,
          3.96212071e-01, 3.96212071e-01, 1.87373519e-01, 1.25441223e-01,
          3.96212071e-01, 3.96212071e-01, 3.96212071e-01, 4.31785494e-01,
          4.31785494e-01, 4.87381481e-02, 5.29477000e-02, 3.31527382e-01,
          2.52954811e-01, 2.66189158e-01, 4.31785494e-01, 4.31785494e-01,
          4.44868088e-01, 4.44868088e-01, 2.10810490e-02, 1.72641054e-02,
          4.35908496e-01, 4.44868088e-01, 1.94651768e-01, 3.27864848e-02,
          4.14862096e-01 ]
      - [ 4.44282293e-01, 4.44282293e-01, 2.73690313e-01, 6.55051135e-03,
          1.49165746e-02, 6.28207400e-02, 3.56226027e-01, 4.44282293e-01,
          4.44282293e-01, 4.27999943e-01, 2.14274511e-01, 1.98477998e-01,
          5.89101017e-02, 7.87229091e-02, 2.19276309e-01, 4.72243696e-01,
          4.72243696e-01, 4.72243696e-01, 4.66792911e-01, 4.66792911e-01,
          2.92564452e-01, 1.16691574e-01, 3.49810213e-01, 2.73506820e-01,
          2.44583890e-01, 2.12284163e-01, 3.97839844e-01, 3.89507622e-01,
          3.89507622e-01, 3.89507622e-01, 3.18920389e-02, 9.80039034e-03,
          3.89507622e-01, 3.89507622e-01, 3.89507622e-01, 2.91029990e-01,
          4.01740313e-01, 4.01740313e-01, 1.54921487e-01, 4.06016149e-02,
          4.43375148e-02, 4.01740313e-01, 4.01740313e-01, 4.01740313e-01,
          4.01740313e-01, 4.88974333e-01, 4.88974333e-01, 4.47621912e-01,
          1.79706104e-02, 1.98710755e-01, 1.58983633e-01, 9.74828452e-02,
          5.36229834e-02, 4.88974333e-01, 3.48077685e-01, 2.29737505e-01,
          3.87813628e-01, 3.87813628e-01, 2.41852269e-01, 1.08161412e-01,
          3.87813628e-01, 3.87813628e-01, 3.87813628e-01, 4.61262435e-01,
          4.61262435e-01, 3.52494642e-02, 3.17603424e-02, 2.08044678e-01,
          4.61262435e-01, 1.97639138e-01, 2.44429246e-01, 4.61262435e-01,
          4.17011559e-01, 4.17011559e-01, 2.25109875e-01, 2.29497645e-02,
          4.17011559e-01, 4.17011559e-01, 4.17011559e-01, 1.60290226e-01,
          2.22367004e-01 ]
      - [ 5.57144225e-01, 5.57144225e-01, 5.81882261e-02, 2.98736747e-02,
          1.19091548e-01, 1.31502971e-01, 1.55208439e-01, 5.79958931e-02,
          5.57144225e-01, 4.91316617e-01, 3.04081619e-01, 3.57253477e-02,
          2.29599457e-02, 7.23365098e-02, 2.01872259e-01, 4.91316617e-01,
          3.61473173e-01, 4.91316617e-01, 3.61052036e-01, 3.61052036e-01,
          3.61052036e-01, 1.88575611e-01, 3.61052036e-01, 2.19822481e-01,
          3.61052036e-01, 3.61052036e-01, 3.61052036e-01, 4.01957035e-01,
          4.01957035e-01, 3.97964776e-01, 2.78051104e-02, 4.01957035e-01,
          4.01957035e-01, 4.01957035e-01, 1.50130302e-01, 8.03046748e-02,
          3.94553155e-01, 2.46312827e-01, 2.15167943e-02, 3.77535559e-02,
          3.94553155e-01, 3.94553155e-01, 3.94553155e-01, 3.93877238e-01,
          3.94553155e-01, 4.52698052e-01, 4.52698052e-01, 4.47117925e-01,
          2.18979381e-02, 1.29035130e-01, 2.77101725e-01, 2.91386068e-01,
          9.45121795e-02, 4.44903880e-01, 1.69285297e-01, 3.84094089e-01,
          3.84094089e-01, 3.84094089e-01, 2.60324627e-01, 1.20692402e-01,
          3.84094089e-01, 3.84094089e-01, 3.84094089e-01, 4.05296803e-01,
          4.05296803e-01, 2.94466674e-01, 7.71722868e-02, 4.05296803e-01,
          2.12228239e-01, 3.72648686e-01, 2.49629930e-01, 4.05296803e-01,
          4.21902567e-01, 4.21902567e-01, 1.81003988e-01, 1.15623251e-02,
          4.21902567e-01, 4.21902567e-01, 4.21902567e-01, 9.12596956e-02,
          2.54070997e-01 ]
      - [ 4.27104712e-01, 4.27104712e-01, 1.17555954e-01, 1.80638861e-02,
          3.16593461e-02, 2.92812467e-01, 4.27104712e-01, 4.06414270e-01,
          4.27104712e-01, 4.33612555e-01, 1.71849683e-01, 1.16198689e-01,
          6.83172420e-02, 8.86999890e-02, 4.33612555e-01, 4.33612555e-01,
          4.33612555e-01, 4.33612555e-01, 6.27770483e-01, 6.27770483e-01,
          1.26565114e-01, 2.29017958e-02, 4.54123393e-02, 7.47014489e-03,
          2.60132700e-01, 1.94216773e-01, 2.85464823e-01, 3.98269713e-01,
          4.03909892e-01, 4.03909892e-01, 2.74619851e-02, 6.09754864e-03,
          4.03909892e-01, 4.03909892e-01, 4.03909892e-01, 1.44356683e-01,
          3.98541182e-01, 3.98541182e-01, 1.17401004e-01, 9.87043977e-02,
          1.39580309e-01, 3.98541182e-01, 3.98541182e-01, 3.98541182e-01,
          3.98541182e-01, 5.09287536e-01, 5.09287536e-01, 5.09287536e-01,
          1.47047741e-02, 5.42807393e-02, 1.90709680e-01, 5.23693860e-02,
          4.19587940e-02, 4.15639907e-01, 2.47772813e-01, 2.41640657e-01,
          4.06399250e-01, 4.06399250e-01, 1.76190332e-01, 1.38973728e-01,
          4.06399250e-01, 4.06399250e-01, 4.06399250e-01, 4.62545484e-01,
          4.62545484e-01, 2.83145845e-01, 7.10047185e-02, 3.66423845e-01,
          2.01410219e-01, 1.70344546e-01, 2.53913373e-01, 4.62545484e-01,
          4.20883000e-01, 4.20883000e-01, 4.19034481e-01, 9.69604682e-03,
          2.65239209e-01, 4.20883000e-01, 2.02151984e-01, 1.80122256e-02,
          4.20883000e-01 ]
      - [ 4.54995364e-01, 5.39157428e-02, 1.61747232e-01, 0.,
          3.33628416e-01, 1.64302096e-01, 4.54995364e-01, 4.54995364e-01,
          4.54995364e-01, 0., 0., 0., 0., 0., 0., 0., 0., 0., 0., 0., 0.,
          0., 0., 0., 0., 0., 0., 4.06600863e-01, 5.36620952e-02,
          3.33627388e-02, 0., 4.06600863e-01, 4.06600863e-01,
          4.06600863e-01, 4.06600863e-01, 4.06600863e-01, 0., 0., 0., 0.,
          0., 0., 0., 0., 0., 0., 0., 0., 0., 0., 0., 0., 0., 0.,
          3.48533511e-01, 1.98679306e-02, 0., 0., 4.98958796e-01,
          4.98958796e-01, 4.98958796e-01, 3.11589688e-01, 1.70817092e-01,
          0., 0., 0., 0., 0., 0., 0., 0., 0., 0., 0., 0., 0., 0., 0., 0.,
          0., 0. ]
      - [ 7.00471044e-01, 0., 0., 0., 0., 0., 0., 0., 7.00471044e-01, 0.,
          0., 0., 0., 0., 0., 0., 0., 0., 0., 0., 0., 0., 0., 0., 0., 0.,
          0., 4.83856261e-01, 0., 8.62583518e-03, 2.06754923e-01,
          2.23537967e-01, 2.05025539e-01, 4.83856261e-01, 4.83856261e-01,
          3.97479504e-01, 0., 0., 0., 0., 0., 0., 0., 0., 0., 0., 0., 0.,
          0., 0., 0., 0., 0., 0., 2.31084481e-01, 2.75952797e-02,
          1.06533349e-01, 3.01257342e-01, 4.09790009e-01, 4.09790009e-01,
          4.09790009e-01, 4.09790009e-01, 4.09790009e-01, 0., 0., 0., 0.,
          0., 0., 0., 0., 0., 0., 0., 0., 0., 0., 0., 0., 0., 0. ]
      - [ 6.37484431e-01, 0., 0., 0., 0., 0., 4.03455466e-01,
          1.34485140e-01, 6.37484431e-01, 0., 0., 0., 0., 0., 0., 0., 0.,
          0., 0., 0., 0., 0., 0., 0., 0., 0., 0., 4.30654973e-01,
          6.54667988e-02, 2.50074208e-01, 3.94559130e-02, 4.30654973e-01,
          0., 4.30654973e-01, 4.30654973e-01, 4.30654973e-01, 0., 0., 0.,
          0., 0., 0., 0., 0., 0., 0., 0., 0., 0., 0., 0., 0., 0., 0.,
          2.84740716e-01, 5.74141601e-03, 1.45428866e-01, 1.87892660e-01,
          4.20763314e-01, 3.87383819e-01, 4.20763314e-01, 4.20763314e-01,
          4.20763314e-01, 0., 0., 0., 0., 0., 0., 0., 0., 0., 0., 0., 0.,
          0., 0., 0., 0., 0., 0. ]
      - [ 4.78821903e-01, 3.10173452e-01, 9.08674523e-02, 0.,
          1.82700455e-01, 1.93234086e-01, 4.78821903e-01, 3.63624692e-01,
          4.78821903e-01, 0., 0., 0., 0., 0., 0., 0., 0., 0., 0., 0., 0.,
          0., 0., 0., 0., 0., 0., 4.39337313e-01, 1.05805077e-01,
          4.25522663e-02, 2.75879383e-01, 2.23069102e-01, 2.90977210e-01,
          4.39337313e-01, 4.39337313e-01, 4.39337313e-01, 0., 0., 0., 0.,
          0., 0., 0., 0., 0., 0., 0., 0., 0., 0., 0., 0., 0., 0.,
          1.25945345e-01, 4.08712775e-02, 7.98848271e-02, 3.48786056e-01,
          4.52567488e-01, 1.75054863e-01, 4.52567488e-01, 4.52567488e-01,
          4.52567488e-01, 0., 0., 0., 0., 0., 0., 0., 0., 0., 0., 0., 0.,
          0., 0., 0., 0., 0., 0. ]
      - [ 0., 0., 0., 0., 0., 0., 0., 0., 0., 0., 0., 0., 0., 0., 0., 0.,
          0., 0., 0., 0., 0., 0., 0., 0., 0., 0., 0., 4.54991549e-01,
          3.51018846e-01, 1.54817805e-01, 0., 0., 1.42138705e-01,
          4.54991549e-01, 4.54991549e-01, 4.54991549e-01, 0., 0., 0., 0.,
          0., 0., 0., 0., 0., 0., 0., 0., 0., 0., 0., 0., 0., 0.,
          4.39842075e-01, 2.20719352e-01, 6.61936924e-02, 0.,
          3.59388202e-01, 4.39842075e-01, 4.39842075e-01, 4.39842075e-01,
          1.98755130e-01, 0., 0., 0., 0., 0., 0., 0., 0., 0., 0., 0., 0.,
          0., 0., 0., 0., 0., 0. ]
      - [ 4.34029669e-01, 4.34029669e-01, 2.27909118e-01, 2.29532458e-03,
          2.46500652e-02, 3.46413627e-02, 4.34029669e-01, 4.34029669e-01,
          4.34029669e-01, 4.58168596e-01, 3.90897959e-01, 1.88899729e-02,
          0., 8.03755783e-03, 5.02707139e-02, 4.58168596e-01,
          4.58168596e-01, 4.58168596e-01, 4.28644091e-01, 4.28644091e-01,
          4.28644091e-01, 7.43024349e-02, 2.59336591e-01, 1.08649163e-02,
          6.43808022e-02, 4.28644091e-01, 4.28644091e-01, 3.61216247e-01,
          4.41110581e-01, 4.41110581e-01, 1.03074852e-02, 7.17729656e-03,
          2.27825239e-01, 4.41110581e-01, 4.41110581e-01, 1.86388165e-01,
          4.17533398e-01, 4.17533398e-01, 4.17533398e-01, 1.63779724e-02,
          2.35317592e-02, 1.99310139e-01, 4.17533398e-01, 4.17533398e-01,
          2.89157003e-01, 4.16474074e-01, 4.16474074e-01, 3.58116657e-01,
          1.10562937e-02, 1.39123602e-02, 4.81074862e-03, 4.16474074e-01,
          4.16474074e-01, 4.16474074e-01, 1.18337058e-01, 4.15475935e-01,
          4.15475935e-01, 4.15475935e-01, 6.74403980e-02, 2.48364545e-02,
          4.15475935e-01, 4.15475935e-01, 3.37015569e-01, 3.71769220e-01,
          3.71769220e-01, 3.71769220e-01, 1.31248593e-01, 3.71769220e-01,
          1.07577950e-01, 3.71769220e-01, 3.71769220e-01, 3.71769220e-01,
          3.64564061e-01, 3.64564061e-01, 3.64564061e-01, 2.56357819e-01,
          3.64564061e-01, 1.70175508e-02, 3.64564061e-01, 3.64564061e-01,
          3.64564061e-01 ]
      - [ 3.96865934e-01, 3.96865934e-01, 2.04212472e-01, 3.43423570e-03,
          3.96865934e-01, 9.64639559e-02, 3.96865934e-01, 3.96865934e-01,
          3.96865934e-01, 3.74775141e-01, 3.74775141e-01, 3.74775141e-01,
          4.81311344e-02, 3.74775141e-01, 1.03654444e-01, 3.74775141e-01,
          3.74775141e-01, 3.74775141e-01, 3.94553930e-01, 2.19702169e-01,
          3.94553930e-01, 1.14478044e-01, 3.94553930e-01, 2.54404731e-02,
          3.94553930e-01, 3.94553930e-01, 3.94553930e-01, 4.60427433e-01,
          4.60427433e-01, 1.87601149e-01, 5.06775640e-03, 1.38487369e-01,
          4.60427433e-01, 4.60427433e-01, 2.82743394e-01, 1.14389308e-01,
          3.69780749e-01, 3.69780749e-01, 3.42611253e-01, 3.01361382e-02,
          2.76533872e-01, 3.69780749e-01, 3.69780749e-01, 3.69780749e-01,
          3.43300313e-01, 3.97692710e-01, 3.97692710e-01, 2.81339020e-01,
          1.10133082e-01, 3.36224079e-01, 3.00316494e-02, 3.97692710e-01,
          3.97692710e-01, 3.97692710e-01, 3.00582260e-01, 3.43166322e-01,
          3.43166322e-01, 3.43166322e-01, 2.86146313e-01, 3.43166322e-01,
          3.43166322e-01, 3.43166322e-01, 3.43166322e-01, 3.60325783e-01,
          3.60325783e-01, 3.60325783e-01, 2.12305427e-01, 3.60325783e-01,
          3.60325783e-01, 2.61723757e-01, 3.22209477e-01, 3.60325783e-01,
          3.81887287e-01, 3.81887287e-01, 2.88716048e-01, 1.66911796e-01,
          3.81887287e-01, 9.97035876e-02, 3.81887287e-01, 3.81887287e-01,
          3.81887287e-01 ]
      - [ 4.23566580e-01, 4.23566580e-01, 2.73145646e-01, 8.30561072e-02,
          1.21348843e-01, 3.79203320e-01, 1.95209190e-01, 4.23566580e-01,
          4.23566580e-01, 5.42699754e-01, 2.13069066e-01, 2.50200480e-01,
          1.86870873e-01, 9.29395556e-02, 8.21052343e-02, 3.64925832e-01,
          3.37735146e-01, 5.42699754e-01, 3.50602776e-01, 3.50602776e-01,
          3.50602776e-01, 2.84428895e-01, 3.50602776e-01, 3.13685745e-01,
          2.82249421e-01, 3.50602776e-01, 3.50602776e-01, 5.23996234e-01,
          5.23996234e-01, 5.23996234e-01, 5.24486266e-02, 7.03754574e-02,
          1.19280212e-01, 1.91284075e-01, 1.28232330e-01, 3.09978098e-01,
          3.94428194e-01, 3.94428194e-01, 1.16965607e-01, 2.13712044e-02,
          2.20182285e-01, 3.94428194e-01, 3.94428194e-01, 3.94428194e-01,
          3.94428194e-01, 3.87596786e-01, 3.87596786e-01, 3.87596786e-01,
          1.46004692e-01, 2.36628160e-01, 1.32022396e-01, 3.87596786e-01,
          3.87596786e-01, 3.87596786e-01, 1.03866711e-01, 5.08701324e-01,
          5.08701324e-01, 5.08701324e-01, 1.18318483e-01, 5.80308624e-02,
          3.01607937e-01, 2.97390670e-01, 1.04999267e-01, 3.38323534e-01,
          2.84459561e-01, 3.38323534e-01, 3.38323534e-01, 3.38323534e-01,
          3.38323534e-01, 3.38323534e-01, 3.38323534e-01, 3.38323534e-01,
          3.64067763e-01, 3.64067763e-01, 2.24063605e-01, 3.64067763e-01,
          3.64067763e-01, 1.35428146e-01, 3.64067763e-01, 3.64067763e-01,
          3.64067763e-01 ]
      - [ 4.36110646e-01, 4.36110646e-01, 2.44740508e-02, 6.18454535e-03,
          3.45296487e-02, 4.36110646e-01, 3.50934476e-01, 3.31495285e-01,
          4.36110646e-01, 4.41018343e-01, 1.51958555e-01, 4.03860444e-03,
          3.84543062e-04, 9.75441944e-04, 4.41018343e-01, 4.41018343e-01,
          4.41018343e-01, 4.41018343e-01, 4.78978962e-01, 4.78978962e-01,
          4.78978962e-01, 3.34002562e-02, 4.78978962e-01, 2.82603595e-02,
          5.14914766e-02, 4.52145822e-02, 2.66313046e-01, 4.43915427e-01,
          4.62536305e-01, 2.85451949e-01, 4.41927230e-03, 1.64177641e-02,
          4.62536305e-01, 4.62536305e-01, 2.27826536e-01, 1.51072040e-01,
          3.77224058e-01, 3.77224058e-01, 3.77224058e-01, 9.33309179e-03,
          7.62676122e-03, 3.77224058e-01, 3.77224058e-01, 3.77224058e-01,
          3.77224058e-01, 4.02638823e-01, 4.02638823e-01, 4.02638823e-01,
          3.58316973e-02, 1.46437973e-01, 2.32693944e-02, 4.02638823e-01,
          4.02638823e-01, 4.02638823e-01, 3.83555621e-01, 2.30641738e-01,
          3.83555621e-01, 3.83555621e-01, 1.98257744e-01, 1.44833848e-01,
          3.83555621e-01, 3.83555621e-01, 3.83555621e-01, 4.10724223e-01,
          4.10724223e-01, 4.10724223e-01, 9.41120535e-02, 2.78991133e-01,
          2.46797517e-01, 3.08514774e-01, 2.79885620e-01, 4.10724223e-01,
          3.55594814e-01, 2.83762068e-01, 2.17023090e-01, 2.30175644e-01,
          1.60537407e-01, 7.85286129e-02, 4.67739493e-01, 4.67739493e-01,
          4.67739493e-01 ]
      - [ 5.46098948e-01, 5.46098948e-01, 1.06148414e-01, 4.22038138e-02,
          1.86240952e-02, 1.06564514e-01, 1.48235127e-01, 2.30541244e-01,
          5.46098948e-01, 4.03143317e-01, 4.03143317e-01, 1.02136351e-01,
          5.61679248e-03, 1.01793721e-01, 4.03143317e-01, 4.03143317e-01,
          4.03143317e-01, 4.03143317e-01, 3.91824722e-01, 3.91824722e-01,
          3.91824722e-01, 1.01021834e-01, 2.95423239e-01, 1.88860103e-01,
          3.91824722e-01, 3.25994402e-01, 3.77568990e-01, 4.13682222e-01,
          4.13682222e-01, 4.13682222e-01, 1.01299740e-01, 2.15616032e-01,
          4.13682222e-01, 4.13682222e-01, 1.31313682e-01, 2.57308185e-01,
          3.73824835e-01, 3.73824835e-01, 3.15024853e-01, 1.03487018e-02,
          2.86810905e-01, 3.73824835e-01, 3.73824835e-01, 3.40487719e-01,
          3.73824835e-01, 3.89108866e-01, 3.89108866e-01, 3.89108866e-01,
          1.86681241e-01, 1.88172787e-01, 1.31983623e-01, 3.89108866e-01,
          3.89108866e-01, 3.89108866e-01, 1.59027830e-01, 3.88156652e-01,
          3.89448076e-01, 3.89448076e-01, 5.56141622e-02, 2.43297979e-01,
          3.89448076e-01, 3.89448076e-01, 3.88828784e-01, 3.69350195e-01,
          3.69350195e-01, 3.69350195e-01, 9.76402685e-02, 2.23296419e-01,
          3.44089508e-01, 3.69350195e-01, 3.69350195e-01, 3.69350195e-01,
          3.98399740e-01, 3.98399740e-01, 3.76965761e-01, 1.92785263e-01,
          1.34138361e-01, 7.17342272e-02, 3.98399740e-01, 3.98399740e-01,
          3.98399740e-01 ]
      - [ 5.12516141e-01, 5.12516141e-01, 3.86625260e-01, 3.23144235e-02,
          9.50925499e-02, 5.88472411e-02, 1.29365698e-01, 1.64617091e-01,
          5.12516141e-01, 4.70737606e-01, 1.79266736e-01, 7.78702274e-02,
          2.35406775e-02, 1.18650250e-01, 2.36833349e-01, 4.70737606e-01,
          4.70737606e-01, 4.70737606e-01, 4.63882446e-01, 4.63882446e-01,
          4.63882446e-01, 2.17570290e-01, 1.83025822e-01, 6.53787926e-02,
          2.11477503e-01, 6.91834390e-02, 4.63882446e-01, 3.55142772e-01,
          3.55142772e-01, 3.55142772e-01, 2.39765923e-02, 3.55142772e-01,
          3.55142772e-01, 3.55142772e-01, 3.55142772e-01, 3.36142868e-01,
          3.65073591e-01, 2.51008183e-01, 3.65073591e-01, 1.99098866e-02,
          3.65073591e-01, 3.65073591e-01, 3.65073591e-01, 3.65073591e-01,
          3.65073591e-01, 3.62646490e-01, 3.57480913e-01, 3.62646490e-01,
          3.62646490e-01, 2.80370861e-01, 3.00248340e-02, 3.62646490e-01,
          3.62646490e-01, 3.62646490e-01, 2.20698223e-01, 3.32381517e-01,
          3.80302876e-01, 3.80302876e-01, 2.70514101e-01, 2.01707825e-01,
          3.80302876e-01, 3.80302876e-01, 3.80302876e-01, 3.92752320e-01,
          3.92752320e-01, 3.92752320e-01, 8.91999304e-02, 3.92752320e-01,
          1.74147710e-01, 1.79627299e-01, 3.92752320e-01, 3.92752320e-01,
          4.41168875e-01, 1.79074943e-01, 2.49325603e-01, 1.61897629e-01,
          3.08277696e-01, 3.99536416e-02, 4.41168875e-01, 4.41168875e-01,
          4.41168875e-01 ]
      - [ 5.51747620e-01, 5.51747620e-01, 1.31942585e-01, 4.32618596e-02,
          3.31236571e-02, 1.11653425e-01, 1.79417804e-01, 1.27196476e-01,
          5.51747620e-01, 4.41215664e-01, 1.17449537e-01, 4.56887186e-02,
          4.27789204e-02, 6.72637597e-02, 4.41215664e-01, 4.41215664e-01,
          4.41215664e-01, 4.41215664e-01, 4.74079341e-01, 4.74079341e-01,
          4.74079341e-01, 1.88128486e-01, 1.19592384e-01, 1.17701724e-01,
          1.70787215e-01, 5.95263429e-02, 4.74079341e-01, 3.58276457e-01,
          3.58276457e-01, 3.58276457e-01, 2.53325906e-02, 3.32368731e-01,
          3.58276457e-01, 3.58276457e-01, 3.55820268e-01, 3.41894180e-01,
          3.74514788e-01, 3.74514788e-01, 3.67022991e-01, 1.97602231e-02,
          1.39978930e-01, 3.74514788e-01, 3.74514788e-01, 3.74514788e-01,
          3.74514788e-01, 3.61819863e-01, 3.61819863e-01, 3.61819863e-01,
          3.61819863e-01, 2.80812442e-01, 3.36797833e-02, 3.61819863e-01,
          3.61819863e-01, 3.61819863e-01, 2.08244279e-01, 3.36929947e-01,
          3.74149114e-01, 3.74149114e-01, 3.63409638e-01, 1.38617516e-01,
          3.57970566e-01, 3.74149114e-01, 3.74149114e-01, 3.87978435e-01,
          3.87978435e-01, 3.87978435e-01, 8.19813982e-02, 3.87978435e-01,
          2.11117581e-01, 2.04129010e-01, 3.87978435e-01, 3.87978435e-01,
          4.34053183e-01, 2.94302911e-01, 2.17809930e-01, 1.58653662e-01,
          2.85703361e-01, 3.46807279e-02, 4.34053183e-01, 4.34053183e-01,
          4.34053183e-01 ]
      - [ 4.24360603e-01, 4.24360603e-01, 4.24360603e-01, 1.44303525e-02,
          2.08996478e-02, 2.37448409e-01, 4.24360603e-01, 1.95766240e-01,
          4.24360603e-01, 4.13852453e-01, 2.25572944e-01, 3.76768798e-01,
          8.09339210e-02, 1.44639909e-01, 3.16175878e-01, 4.13852453e-01,
          4.02204126e-01, 4.13852453e-01, 4.45006609e-01, 2.98880845e-01,
          2.53479928e-01, 1.52858943e-01, 1.41505405e-01, 8.03731084e-02,
          4.45006609e-01, 4.45006609e-01, 4.45006609e-01, 3.84734124e-01,
          3.84734124e-01, 3.84734124e-01, 1.02728553e-01, 1.04678702e-02,
          3.84734124e-01, 3.84734124e-01, 3.84734124e-01, 3.12044144e-01,
          3.94998103e-01, 3.94998103e-01, 3.94998103e-01, 3.41480114e-02,
          5.45641370e-02, 3.00776541e-01, 3.94998103e-01, 3.48319650e-01,
          3.94998103e-01, 4.20106858e-01, 3.28783512e-01, 4.20106858e-01,
          1.32523319e-02, 7.08530247e-02, 7.75571307e-03, 4.20106858e-01,
          4.20106858e-01, 4.20106858e-01, 2.40793079e-01, 3.48614067e-01,
          3.93878311e-01, 3.93878311e-01, 1.99191213e-01, 3.42682041e-02,
          3.93878311e-01, 3.93878311e-01, 3.93878311e-01, 3.60240787e-01,
          3.60240787e-01, 3.60240787e-01, 1.49990827e-01, 3.60240787e-01,
          3.60240787e-01, 3.60240787e-01, 2.55909443e-01, 3.60240787e-01,
          2.77085245e-01, 3.08662713e-01, 3.54470879e-01, 3.54470879e-01,
          3.54470879e-01, 2.65540957e-01, 3.54470879e-01, 3.54470879e-01,
          3.54470879e-01 ]
      - [ 4.59569126e-01, 4.59569126e-01, 4.97581139e-02, 1.25708431e-02,
          5.48312180e-02, 2.63966203e-01, 2.74364561e-01, 4.59569126e-01,
          4.59569126e-01, 4.39007252e-01, 1.82273135e-01, 2.55274344e-02,
          7.77151156e-03, 5.47005087e-02, 4.33333308e-01, 4.39007252e-01,
          4.39007252e-01, 4.39007252e-01, 3.52776796e-01, 4.26280469e-01,
          4.26280469e-01, 2.48454228e-01, 4.26280469e-01, 2.44551506e-02,
          1.07628629e-01, 2.87823081e-01, 4.11572218e-01, 4.64978069e-01,
          4.64978069e-01, 1.80813253e-01, 8.51383526e-03, 1.19156111e-02,
          4.64978069e-01, 4.64978069e-01, 2.66561985e-01, 1.63015753e-01,
          3.91271025e-01, 3.91271025e-01, 2.69701391e-01, 5.55843413e-02,
          4.12871167e-02, 3.91271025e-01, 3.91271025e-01, 3.91271025e-01,
          3.91271025e-01, 4.04130310e-01, 4.04130310e-01, 3.92548203e-01,
          5.36841713e-02, 1.39125660e-01, 5.49930297e-02, 4.04130310e-01,
          4.04130310e-01, 4.04130310e-01, 2.32435733e-01, 2.85205930e-01,
          3.82351041e-01, 3.66308600e-01, 5.97199611e-02, 3.71878445e-01,
          3.82351041e-01, 3.82351041e-01, 3.82351041e-01, 4.19576466e-01,
          4.19576466e-01, 4.19576466e-01, 6.32001162e-02, 1.96473539e-01,
          2.14769140e-01, 3.63005489e-01, 2.66713589e-01, 4.19576466e-01,
          4.40768093e-01, 3.16348821e-01, 2.75542468e-01, 1.24512449e-01,
          1.51906133e-01, 6.25471398e-02, 4.40768093e-01, 4.40768093e-01,
          4.40768093e-01 ]
      - [ 4.58835572e-01, 4.58835572e-01, 1.49729908e-01, 9.23540741e-02,
          1.15698986e-01, 6.44680560e-02, 3.23737353e-01, 4.58835572e-01,
          4.58835572e-01, 3.85341197e-01, 3.21187139e-01, 2.92444706e-01,
          1.72511160e-01, 3.80110949e-01, 1.98165178e-01, 3.85341197e-01,
          3.85341197e-01, 3.85341197e-01, 4.27750021e-01, 3.56061041e-01,
          3.63343477e-01, 2.38749877e-01, 2.35281512e-01, 2.41873115e-01,
          3.52238387e-01, 2.75781780e-01, 4.27750021e-01, 4.09458369e-01,
          4.09458369e-01, 4.09458369e-01, 1.25030857e-02, 1.17628509e-02,
          2.24228293e-01, 4.09458369e-01, 4.09458369e-01, 3.27193975e-01,
          4.01163906e-01, 4.01163906e-01, 4.01163906e-01, 1.70663238e-01,
          6.32355958e-02, 1.51943177e-01, 4.01163906e-01, 4.01163906e-01,
          3.67584795e-01, 4.09752935e-01, 4.09752935e-01, 2.37866879e-01,
          8.32246169e-02, 2.07155310e-02, 3.04110318e-01, 4.09752935e-01,
          4.09752935e-01, 4.09752935e-01, 1.94904909e-01, 2.96092033e-01,
          4.04287010e-01, 4.04287010e-01, 2.29141787e-01, 2.35984754e-02,
          4.04287010e-01, 4.04287010e-01, 4.04287010e-01, 3.57501835e-01,
          3.57501835e-01, 3.57501835e-01, 2.84644604e-01, 3.09956938e-01,
          3.57501835e-01, 3.12737226e-01, 2.87210882e-01, 3.57501835e-01,
          3.66389751e-01, 2.19562680e-01, 3.66389751e-01, 3.66389751e-01,
          2.65890092e-01, 2.68301249e-01, 3.66389751e-01, 3.66389751e-01,
          3.66389751e-01 ]
      - [ 4.49227899e-01, 4.49227899e-01, 1.94354415e-01, 1.98476929e-02,
          7.41458237e-02, 4.94848974e-02, 3.77062321e-01, 4.49227899e-01,
          4.49227899e-01, 4.37216043e-01, 3.68763924e-01, 1.46703422e-01,
          2.89093871e-02, 7.83035085e-02, 2.57924765e-01, 4.37216043e-01,
          4.37216043e-01, 4.37216043e-01, 4.06415522e-01, 4.06415522e-01,
          4.06415522e-01, 8.84229466e-02, 1.83187261e-01, 7.29184970e-02,
          3.51253062e-01, 4.06415522e-01, 4.06415522e-01, 2.81298816e-01,
          4.63875204e-01, 4.63875204e-01, 1.23896291e-02, 1.94543675e-02,
          1.70097664e-01, 4.63875204e-01, 4.63875204e-01, 1.61405504e-01,
          4.22731489e-01, 4.22731489e-01, 4.22731489e-01, 3.23599875e-02,
          4.57367040e-02, 1.58397779e-01, 4.22731489e-01, 4.22731489e-01,
          2.72100329e-01, 4.10972476e-01, 4.12694991e-01, 3.77548844e-01,
          1.04016019e-02, 5.02790883e-02, 2.30424125e-02, 4.12694991e-01,
          4.12694991e-01, 4.12694991e-01, 1.02345631e-01, 3.89663577e-01,
          4.13588375e-01, 4.13588375e-01, 6.43357858e-02, 4.75198999e-02,
          4.13588375e-01, 4.13588375e-01, 3.78070742e-01, 3.64109278e-01,
          3.64109278e-01, 3.64109278e-01, 5.96150719e-02, 2.54518002e-01,
          3.64109278e-01, 3.64109278e-01, 3.64109278e-01, 3.64109278e-01,
          3.67346793e-01, 3.37379724e-01, 3.67346793e-01, 1.90324664e-01,
          3.67346793e-01, 1.91362306e-01, 3.67346793e-01, 3.67346793e-01,
          3.67346793e-01 ]
      - [ 4.45513695e-01, 4.45513695e-01, 2.22041607e-01, 1.82570715e-03,
          2.53899209e-02, 3.03852577e-02, 3.88260782e-01, 4.45513695e-01,
          4.45513695e-01, 4.61024374e-01, 3.78773689e-01, 2.00185888e-02,
          8.18240177e-03, 6.52642827e-03, 3.52330841e-02, 4.61024374e-01,
          4.61024374e-01, 4.61024374e-01, 4.25017416e-01, 4.25017416e-01,
          4.25017416e-01, 2.74226129e-01, 1.10951640e-01, 4.39770333e-02,
          5.57781495e-02, 4.25017416e-01, 4.25017416e-01, 3.36014777e-01,
          4.52204764e-01, 4.52204764e-01, 7.62780709e-03, 2.15841755e-02,
          1.79008916e-01, 4.52204764e-01, 4.52204764e-01, 1.79031402e-01,
          4.17800248e-01, 4.17800248e-01, 4.17800248e-01, 9.37841460e-03,
          2.38487124e-02, 1.69034883e-01, 4.17800248e-01, 4.17800248e-01,
          3.06286782e-01, 3.94231319e-01, 4.08943564e-01, 4.08943564e-01,
          6.33674189e-02, 1.49574960e-02, 9.11253411e-03, 4.08943564e-01,
          4.08943564e-01, 4.08943564e-01, 1.15074322e-01, 3.95144105e-01,
          3.95144105e-01, 3.95144105e-01, 3.18766087e-01, 4.57706451e-02,
          3.95144105e-01, 3.95144105e-01, 3.13702434e-01, 3.73467177e-01,
          3.73467177e-01, 3.73467177e-01, 8.01047906e-02, 3.73467177e-01,
          1.16222948e-01, 3.73467177e-01, 3.73467177e-01, 3.73467177e-01,
          2.41635427e-01, 3.46093744e-01, 3.88500065e-01, 2.49747336e-01,
          3.88500065e-01, 3.02475542e-02, 3.88500065e-01, 3.88500065e-01,
          3.88500065e-01 ]
      - [ 4.85951900e-01, 4.85951900e-01, 5.58425188e-02, 7.45271891e-02,
          1.50434062e-01, 1.08032592e-01, 2.69504994e-01, 4.13632035e-01,
          4.85951900e-01, 4.70185250e-01, 3.29798728e-01, 0.,
          1.73158143e-02, 4.40460779e-02, 0., 4.70185250e-01,
          4.70185250e-01, 4.70185250e-01, 3.88834089e-01, 3.88834089e-01,
          3.88834089e-01, 3.88834089e-01, 3.88834089e-01, 2.26990789e-01,
          1.09242097e-01, 1.59703508e-01, 3.88834089e-01, 3.88670087e-01,
          3.88670087e-01, 3.32747966e-01, 4.00588475e-03, 2.36812215e-02,
          3.88670087e-01, 3.88670087e-01, 3.59856755e-01, 3.88670087e-01,
          3.98372978e-01, 3.98372978e-01, 2.08690971e-01, 1.03498073e-02,
          1.24607328e-02, 3.98372978e-01, 3.98372978e-01, 3.98372978e-01,
          3.98372978e-01, 4.28400517e-01, 4.28400517e-01, 2.61928737e-01,
          6.53062314e-02, 6.88513294e-02, 2.17595939e-02, 4.28400517e-01,
          4.28400517e-01, 4.28400517e-01, 2.20711365e-01, 3.40757936e-01,
          3.52836818e-01, 3.52836818e-01, 3.52836818e-01, 3.52836818e-01,
          2.91002512e-01, 3.52836818e-01, 3.52836818e-01, 3.81927729e-01,
          3.81927729e-01, 3.45365673e-01, 1.83523804e-01, 3.81927729e-01,
          3.81927729e-01, 1.72160670e-01, 2.90245920e-01, 3.81927729e-01,
          3.65530580e-01, 3.19693655e-01, 2.86790878e-01, 2.97569841e-01,
          4.22011822e-01, 1.23172894e-01, 1.99292257e-01, 4.22011822e-01,
          4.22011822e-01 ]
      - [ 5.56415319e-01, 5.56415319e-01, 1.22303024e-01, 2.69788760e-03,
          6.35430813e-02, 3.06270830e-02, 1.72813252e-01, 1.25872999e-01,
          5.56415319e-01, 4.91939068e-01, 1.16126075e-01, 4.81853746e-02,
          1.44721167e-02, 1.00990199e-01, 2.92407367e-02, 4.91939068e-01,
          4.91939068e-01, 4.91939068e-01, 4.85057175e-01, 4.85057175e-01,
          4.85057175e-01, 1.73131242e-01, 3.53619233e-02, 1.98285524e-02,
          1.44198060e-01, 4.02762741e-02, 4.85057175e-01, 3.56928796e-01,
          3.56928796e-01, 3.56928796e-01, 9.95854288e-03, 3.56928796e-01,
          3.56928796e-01, 3.56928796e-01, 3.56928796e-01, 3.23338151e-01,
          3.76269668e-01, 3.76269668e-01, 1.67781338e-01, 4.46635596e-02,
          3.76269668e-01, 3.76269668e-01, 3.76269668e-01, 3.76269668e-01,
          3.41499984e-01, 3.59002650e-01, 3.59002650e-01, 3.59002650e-01,
          3.59002650e-01, 3.06568146e-01, 1.57789681e-02, 3.59002650e-01,
          3.59002650e-01, 3.59002650e-01, 1.87025487e-01, 3.22720706e-01,
          3.78034741e-01, 3.78034741e-01, 3.58928829e-01, 1.35269925e-01,
          3.71923476e-01, 3.78034741e-01, 3.78034741e-01, 3.87943476e-01,
          3.87943476e-01, 3.78690660e-01, 8.68013874e-02, 3.87943476e-01,
          2.27787912e-01, 2.01978445e-01, 3.87943476e-01, 3.87943476e-01,
          4.18348461e-01, 4.15320694e-01, 1.04977235e-01, 1.52908027e-01,
          2.94775337e-01, 4.44325022e-02, 4.18348461e-01, 4.18348461e-01,
          4.18348461e-01 ]
      - [ 5.42433798e-01, 5.42433798e-01, 1.04982242e-01, 6.17297515e-02,
          5.92154674e-02, 7.82331899e-02, 1.75014764e-01, 2.38308102e-01,
          5.42433798e-01, 4.64350849e-01, 1.60444170e-01, 1.64476559e-01,
          4.23539765e-02, 1.89824551e-01, 2.05555141e-01, 4.64350849e-01,
          4.64350849e-01, 4.64350849e-01, 4.38312769e-01, 4.38312769e-01,
          4.38312769e-01, 1.38818264e-01, 3.21446002e-01, 5.94521612e-02,
          2.43813649e-01, 2.03891024e-01, 4.38312769e-01, 3.95090222e-01,
          3.95090222e-01, 3.95090222e-01, 2.10972037e-02, 2.03203142e-01,
          3.95090222e-01, 3.95090222e-01, 2.18439236e-01, 3.55132967e-01,
          3.81736606e-01, 3.81736606e-01, 2.30951101e-01, 9.50374082e-03,
          2.61573255e-01, 3.81736606e-01, 3.81736606e-01, 3.81736606e-01,
          3.81736606e-01, 3.68451625e-01, 3.68451625e-01, 3.68451625e-01,
          3.68451625e-01, 3.68451625e-01, 1.60391536e-02, 2.13928357e-01,
          3.68451625e-01, 3.68451625e-01, 2.42769584e-01, 3.75766307e-01,
          3.75766307e-01, 3.75766307e-01, 3.10749680e-01, 1.99955374e-01,
          3.75766307e-01, 3.07830721e-01, 3.75766307e-01, 3.59216750e-01,
          3.59216750e-01, 3.10863942e-01, 8.02821144e-02, 3.59216750e-01,
          3.59216750e-01, 3.45122516e-01, 3.59216750e-01, 3.59216750e-01,
          4.18262929e-01, 2.95274019e-01, 2.22035691e-01, 2.61069953e-01,
          4.18262929e-01, 1.10370398e-01, 2.81461358e-01, 4.18262929e-01,
          4.18262929e-01 ]
      - [ 4.47111458e-01, 4.47111458e-01, 4.00558487e-02, 2.85344832e-02,
          1.48337767e-01, 3.70802194e-01, 4.47111458e-01, 1.84342608e-01,
          4.47111458e-01, 4.72946793e-01, 9.92449522e-02, 0.,
          4.69914899e-04, 9.79806706e-02, 2.84800857e-01, 4.72946793e-01,
          4.72946793e-01, 4.72946793e-01, 4.82729524e-01, 4.82729524e-01,
          4.82729524e-01, 4.82729524e-01, 1.09842449e-01, 1.96752567e-02,
          4.63427640e-02, 1.42699676e-02, 2.19689369e-01, 3.95384043e-01,
          3.95384043e-01, 3.03489149e-01, 1.16977636e-02, 3.95384043e-01,
          3.95384043e-01, 3.95384043e-01, 2.55628616e-01, 2.38367364e-01,
          3.58662099e-01, 3.58662099e-01, 3.58662099e-01, 1.13127083e-02,
          3.58662099e-01, 3.09546441e-01, 3.58662099e-01, 3.58662099e-01,
          3.58662099e-01, 3.93708795e-01, 3.93708795e-01, 3.93708795e-01,
          2.19128653e-01, 1.31984428e-01, 2.42836345e-02, 3.93708795e-01,
          3.93708795e-01, 3.93708795e-01, 2.72694707e-01, 3.30264211e-01,
          3.94533575e-01, 3.94533575e-01, 1.25632644e-01, 1.36215478e-01,
          3.94533575e-01, 3.94533575e-01, 3.94533575e-01, 3.99954230e-01,
          3.99954230e-01, 3.99954230e-01, 5.07266298e-02, 2.66066641e-01,
          2.31662929e-01, 3.62050116e-01, 3.13110620e-01, 3.99954230e-01,
          4.40722793e-01, 2.78825462e-01, 2.87260056e-01, 5.66914044e-02,
          2.27130055e-01, 5.98936044e-02, 4.40722793e-01, 4.40722793e-01,
          4.40722793e-01 ]
      - [ 4.31848586e-01, 4.31848586e-01, 1.03513688e-01, 9.06243473e-02,
          2.05604494e-01, 4.49344739e-02, 4.31848586e-01, 4.31848586e-01,
          4.31848586e-01, 4.69683647e-01, 2.80171901e-01, 1.04682811e-01,
          6.31997734e-02, 1.35703802e-01, 3.21439430e-02, 4.69683647e-01,
          4.69683647e-01, 4.69683647e-01, 4.04665291e-01, 3.84986252e-01,
          4.04665291e-01, 4.04665291e-01, 4.04665291e-01, 9.89584327e-02,
          8.89309198e-02, 1.06167749e-01, 4.04665291e-01, 3.94589186e-01,
          3.94589186e-01, 3.94589186e-01, 6.71466161e-03, 3.94589186e-01,
          1.08557001e-01, 3.94589186e-01, 3.94589186e-01, 2.23661840e-01,
          4.01573509e-01, 4.01573509e-01, 9.10975933e-02, 8.82150754e-02,
          4.01573509e-01, 1.11085363e-01, 4.01573509e-01, 4.01573509e-01,
          4.01573509e-01, 4.25235718e-01, 4.25235718e-01, 2.17887238e-01,
          3.81847322e-02, 1.97579101e-01, 6.04536682e-02, 4.25235718e-01,
          4.25235718e-01, 4.25235718e-01, 2.66006052e-01, 2.39963219e-01,
          3.82572502e-01, 3.82572502e-01, 3.82572502e-01, 1.07269727e-01,
          3.52875143e-01, 3.82572502e-01, 3.82572502e-01, 4.09900814e-01,
          4.09900814e-01, 5.97716197e-02, 2.83048660e-01, 4.09900814e-01,
          4.09900814e-01, 1.52040124e-01, 2.21373901e-01, 4.09900814e-01,
          3.83920163e-01, 3.61473024e-01, 9.59784687e-02, 4.01185274e-01,
          4.01185274e-01, 6.25328794e-02, 2.47009888e-01, 4.01185274e-01,
          4.01185274e-01 ]
      - [ 4.94602889e-01, 4.94602889e-01, 4.47196782e-01, 5.65399416e-03,
          1.18351668e-01, 6.86837360e-02, 1.42406046e-01, 1.48805335e-01,
          4.94602889e-01, 4.79694039e-01, 1.21963367e-01, 1.34496659e-01,
          4.37749699e-02, 1.96170554e-01, 3.76801267e-02, 4.79694039e-01,
          4.79694039e-01, 4.79694039e-01, 4.26131308e-01, 4.26131308e-01,
          4.26131308e-01, 4.26131308e-01, 1.79766119e-01, 5.50953597e-02,
          2.11035162e-01, 8.89758021e-02, 4.26131308e-01, 3.80284160e-01,
          3.80284160e-01, 3.80284160e-01, 6.42362935e-03, 2.01195180e-01,
          3.80284160e-01, 3.80284160e-01, 2.96620548e-01, 3.80284160e-01,
          3.67678076e-01, 2.23318964e-01, 3.67678076e-01, 1.20472526e-02,
          3.67678076e-01, 3.67678076e-01, 3.67678076e-01, 3.67678076e-01,
          3.67678076e-01, 3.80396456e-01, 3.46307397e-01, 3.80396456e-01,
          3.80396456e-01, 8.30983520e-02, 3.40103693e-02, 3.80396456e-01,
          3.80396456e-01, 3.80396456e-01, 2.53526479e-01, 3.54637444e-01,
          3.61458272e-01, 3.61458272e-01, 2.39788726e-01, 3.25696170e-01,
          3.46641481e-01, 3.61458272e-01, 3.61458272e-01, 3.90116096e-01,
          3.90116096e-01, 3.90116096e-01, 5.90450689e-02, 3.90116096e-01,
          2.52783507e-01, 1.24793544e-01, 3.90116096e-01, 3.90116096e-01,
          4.36942101e-01, 2.54811555e-01, 2.14633390e-01, 1.67264596e-01,
          3.03709954e-01, 2.73506846e-02, 4.36942101e-01, 4.36942101e-01,
          4.36942101e-01 ]
      - [ 3.63010406e-01, 3.63010406e-01, 3.63010406e-01, 1.62112802e-01,
          3.63010406e-01, 3.63010406e-01, 3.34341615e-01, 2.60093987e-01,
          3.63010406e-01, 5.55156052e-01, 5.55156052e-01, 1.29682124e-01,
          2.17094291e-02, 1.12399288e-01, 1.23969413e-01, 1.48898229e-01,
          4.89915647e-02, 5.55156052e-01, 5.66818058e-01, 5.66818058e-01,
          1.04875639e-02, 6.58883899e-03, 9.62339863e-02, 1.13502331e-03,
          1.20185703e-01, 8.14332068e-02, 5.66818058e-01, 6.78349018e-01,
          6.78349018e-01, 1.12252519e-01, 1.63776185e-02, 7.18744174e-02,
          1.29541427e-01, 1.29033521e-01, 4.54800315e-02, 1.39210239e-01,
          4.24162358e-01, 4.24162358e-01, 1.17691653e-02, 1.34296104e-01,
          4.24162358e-01, 4.24162358e-01, 2.77326494e-01, 3.33231501e-02,
          4.24162358e-01, 3.49446982e-01, 3.49446982e-01, 3.49446982e-01,
          3.49446982e-01, 3.49446982e-01, 3.49446982e-01, 3.49446982e-01,
          1.40011832e-01, 3.49446982e-01, 4.04019028e-01, 4.04019028e-01,
          4.04019028e-01, 4.04019028e-01, 4.04019028e-01, 4.04019028e-01,
          1.06228322e-01, 2.93685496e-02, 6.65472001e-02, 4.15088654e-01,
          8.29918906e-02, 9.57162157e-02, 4.15088654e-01, 4.15088654e-01,
          4.15088654e-01, 3.39759409e-01, 5.36172688e-02, 4.15088654e-01,
          3.92749369e-01, 3.92749369e-01, 3.23230416e-01, 3.92749369e-01,
          3.92749369e-01, 1.81491226e-01, 2.62187183e-01, 1.36590272e-01,
          3.92749369e-01 ]
      - [ 4.61144447e-01, 4.61144447e-01, 2.71981597e-01, 0.,
          1.05002724e-01, 3.65181938e-02, 4.61144447e-01, 2.41751835e-01,
          4.61144447e-01, 6.18968308e-01, 6.18968308e-01, 1.00581154e-01,
          1.27883498e-02, 1.13501385e-01, 1.57468040e-02, 3.16969454e-02,
          1.04754483e-02, 4.50612217e-01, 5.36810160e-01, 5.36810160e-01,
          3.65303122e-02, 7.62214139e-02, 2.34974220e-01, 1.43718362e-01,
          7.51273334e-02, 2.03685030e-01, 5.36810160e-01, 6.39489770e-01,
          6.39489770e-01, 2.25294773e-02, 2.62017306e-02, 7.17599839e-02,
          3.07301670e-01, 1.12137116e-01, 5.80088645e-02, 2.42906347e-01,
          5.01672924e-01, 5.01672924e-01, 1.69507484e-03, 1.12527777e-02,
          3.98878366e-01, 5.01672924e-01, 1.13091744e-01, 2.59256791e-02,
          2.59358853e-01, 3.91535878e-01, 3.91535878e-01, 3.91535878e-01,
          3.91535878e-01, 3.91535878e-01, 3.91535878e-01, 2.17925742e-01,
          6.76514879e-02, 1.55621663e-01, 4.00524437e-01, 4.00524437e-01,
          7.22935498e-02, 3.89150947e-01, 4.00524437e-01, 4.00524437e-01,
          2.37136379e-01, 1.67495236e-01, 3.36699188e-01, 4.54502106e-01,
          1.51811555e-01, 2.23326385e-02, 1.99437320e-01, 4.54502106e-01,
          4.54502106e-01, 1.55772150e-01, 2.85632104e-01, 4.54502106e-01,
          3.92472923e-01, 3.92472923e-01, 3.92472923e-01, 3.92472923e-01,
          3.92472923e-01, 2.29492784e-01, 1.16824746e-01, 7.45276883e-02,
          3.92472923e-01 ]
      - [ 3.86513174e-01, 2.95584410e-01, 2.30296806e-01, 2.00006947e-01,
          3.63668799e-01, 2.93094635e-01, 3.86513174e-01, 3.86513174e-01,
          3.86513174e-01, 4.96060044e-01, 4.96060044e-01, 2.86777437e-01,
          1.43909276e-01, 2.12128371e-01, 2.95347776e-02, 2.32458383e-01,
          2.32292846e-01, 4.96060044e-01, 5.10923803e-01, 5.10923803e-01,
          4.50939946e-02, 1.05532065e-01, 2.85463780e-01, 1.30264414e-02,
          1.89631507e-01, 2.84566134e-01, 5.10923803e-01, 4.20641989e-01,
          4.20641989e-01, 8.71681422e-02, 1.29684106e-01, 4.20641989e-01,
          2.02885166e-01, 4.20641989e-01, 2.57898718e-01, 3.94903570e-01,
          4.20766741e-01, 4.20766741e-01, 2.06608586e-02, 2.01778971e-02,
          4.20766741e-01, 4.20766741e-01, 3.66984189e-01, 1.12927914e-01,
          3.73301506e-01, 3.69757175e-01, 3.69757175e-01, 3.69757175e-01,
          2.35785767e-01, 3.69757175e-01, 3.69757175e-01, 3.69757175e-01,
          2.68691421e-01, 2.19530270e-01, 4.23903197e-01, 4.23903197e-01,
          4.07393277e-01, 2.29710504e-01, 4.23903197e-01, 8.20036829e-02,
          3.37069273e-01, 1.88331321e-01, 2.86598325e-01, 4.18986857e-01,
          2.31086880e-01, 2.79819407e-02, 1.36813864e-01, 4.18986857e-01,
          2.79655069e-01, 3.77498984e-01, 4.18986857e-01, 4.18986857e-01,
          3.82400990e-01, 3.82400990e-01, 3.82400990e-01, 2.89193064e-01,
          3.82400990e-01, 3.58427316e-01, 2.19850868e-01, 6.77479953e-02,
          3.82400990e-01 ]
      - [ 5.69316387e-01, 3.40045959e-01, 2.56537735e-01, 1.73308283e-01,
          2.80482322e-01, 5.03477640e-03, 1.72019839e-01, 1.62196055e-01,
          5.69316387e-01, 5.58689654e-01, 5.58689654e-01, 2.11948618e-01,
          8.45161453e-03, 1.02251731e-01, 1.32893946e-03, 2.26316173e-02,
          4.53399085e-02, 5.58689654e-01, 5.64979255e-01, 5.64979255e-01,
          8.64859000e-02, 2.14898754e-02, 7.58840889e-02, 1.30927227e-02,
          8.46381560e-02, 1.25373915e-01, 5.64979255e-01, 5.67981303e-01,
          5.67981303e-01, 8.51306319e-02, 3.18654925e-02, 6.12826869e-02,
          9.93566513e-02, 6.30288124e-02, 2.56394297e-02, 5.67981303e-01,
          4.29988623e-01, 4.29988623e-01, 1.53313056e-02, 1.06306039e-02,
          4.29988623e-01, 4.29988623e-01, 2.59221643e-01, 6.09072410e-02,
          4.29988623e-01, 3.56944770e-01, 3.56944770e-01, 3.56944770e-01,
          3.56944770e-01, 3.56944770e-01, 3.56944770e-01, 3.05884391e-01,
          1.04888096e-01, 3.56944770e-01, 4.34581608e-01, 4.34581608e-01,
          4.34581608e-01, 1.84521452e-01, 2.19981939e-01, 2.43244231e-01,
          2.80413657e-01, 1.41330883e-01, 4.34581608e-01, 3.78129959e-01,
          3.69046867e-01, 6.58513326e-03, 4.57149707e-02, 3.78129959e-01,
          3.78129959e-01, 3.78129959e-01, 3.78129959e-01, 3.78129959e-01,
          4.13584292e-01, 4.13584292e-01, 4.13584292e-01, 1.83072224e-01,
          4.13584292e-01, 2.18469173e-01, 2.18134373e-01, 1.08543798e-01,
          4.13584292e-01 ]
      - [ 5.12041926e-01, 3.58836383e-01, 3.61258209e-01, 1.58242524e-01,
          2.68304229e-01, 9.12979618e-03, 0., 3.37831438e-01,
          5.12041926e-01, 5.58668435e-01, 5.58668435e-01, 2.11935192e-01,
          8.44928715e-03, 1.02251202e-01, 1.32885529e-03, 2.26301812e-02,
          4.61831652e-02, 5.58668435e-01, 5.65021157e-01, 5.65021157e-01,
          8.30712914e-02, 2.00869944e-02, 7.59794042e-02, 1.31355729e-02,
          8.38088542e-02, 1.27817914e-01, 5.65021157e-01, 5.67704916e-01,
          5.67704916e-01, 8.08463991e-02, 3.10014635e-02, 7.06000328e-02,
          1.04398891e-01, 4.96317185e-02, 4.02533486e-02, 5.67704916e-01,
          4.29982483e-01, 4.29982483e-01, 1.53331188e-02, 1.06337555e-02,
          4.29982483e-01, 4.29982483e-01, 2.59252280e-01, 6.09940141e-02,
          4.29982483e-01, 3.56835932e-01, 3.56835932e-01, 3.56835932e-01,
          3.56835932e-01, 3.56835932e-01, 3.56835932e-01, 3.06254417e-01,
          1.06395237e-01, 3.56835932e-01, 4.33256298e-01, 4.33256298e-01,
          4.33256298e-01, 1.92938983e-01, 2.21726388e-01, 2.49833643e-01,
          2.76791453e-01, 1.39318407e-01, 4.33256298e-01, 3.78248781e-01,
          3.68311733e-01, 6.58740755e-03, 4.57282439e-02, 3.78248781e-01,
          3.78248781e-01, 3.78248781e-01, 3.78248781e-01, 3.78248781e-01,
          4.13586766e-01, 4.13586766e-01, 4.13586766e-01, 1.83182389e-01,
          4.13586766e-01, 2.18312070e-01, 2.18126491e-01, 1.08642697e-01,
          4.13586766e-01 ]
      - [ 3.61376166e-01, 3.61376166e-01, 3.61376166e-01, 6.02259263e-02,
          3.61376166e-01, 3.61376166e-01, 3.61376166e-01, 2.80380517e-01,
          3.61376166e-01, 5.53390980e-01, 5.53390980e-01, 8.29813108e-02,
          1.75704099e-02, 1.71723589e-01, 1.19814031e-01, 8.20273906e-02,
          1.34095177e-01, 5.53390980e-01, 5.12996972e-01, 5.12996972e-01,
          8.29595029e-02, 7.84698725e-02, 3.10776740e-01, 1.93030477e-01,
          1.99183226e-01, 1.37194663e-01, 5.12996972e-01, 5.73605478e-01,
          5.73605478e-01, 3.82862575e-02, 2.87824739e-02, 1.94122493e-01,
          3.71832848e-01, 5.33225127e-02, 1.99980754e-02, 3.93376648e-01,
          4.88369942e-01, 4.88369942e-01, 5.28432475e-03, 5.56612713e-03,
          4.11806047e-01, 4.88369942e-01, 1.81850508e-01, 3.36528849e-03,
          2.77277082e-01, 3.13077897e-01, 3.94424766e-01, 3.94424766e-01,
          2.78115422e-01, 3.94424766e-01, 3.94424766e-01, 3.94424766e-01,
          1.22757107e-01, 1.66643262e-01, 4.13404673e-01, 4.13404673e-01,
          8.63160118e-02, 2.03415751e-01, 4.13404673e-01, 4.13404673e-01,
          2.20032901e-01, 2.10024357e-01, 4.13404673e-01, 4.32646126e-01,
          3.82998675e-01, 2.56217606e-02, 7.87437186e-02, 4.32646126e-01,
          4.32646126e-01, 1.51909515e-01, 2.65190214e-01, 4.32646126e-01,
          3.88438374e-01, 3.88438374e-01, 3.88438374e-01, 8.39664266e-02,
          3.82151812e-01, 1.69453308e-01, 3.11983913e-01, 3.36813211e-01,
          3.88438374e-01 ]
      - [ 4.82799023e-01, 2.98535436e-01, 4.18051243e-01, 0., 0.,
          2.75450647e-02, 3.19338322e-01, 4.02941942e-01, 4.82799023e-01,
          4.95614827e-01, 4.95614827e-01, 4.95614827e-01, 0.,
          1.36400843e-02, 4.67146970e-02, 6.97817281e-02, 7.26361573e-02,
          4.95614827e-01, 5.24586856e-01, 5.24586856e-01, 6.45809472e-02,
          0., 4.28322324e-04, 1.46692258e-03, 6.51759952e-02,
          4.00956154e-01, 5.24586856e-01, 4.47030634e-01, 4.47030634e-01,
          4.47030634e-01, 0., 2.92862117e-01, 2.00441658e-01,
          2.36693174e-01, 1.19248904e-01, 4.47030634e-01, 4.40652192e-01,
          4.40652192e-01, 3.97644579e-01, 1.20987166e-02, 3.76659870e-01,
          2.74225771e-01, 1.87317312e-01, 5.14531918e-02, 4.40652192e-01,
          3.57197016e-01, 3.57197016e-01, 3.57197016e-01, 2.66909637e-02,
          3.57197016e-01, 3.20297837e-01, 3.57197016e-01, 3.57197016e-01,
          3.57197016e-01, 4.67762083e-01, 4.67762083e-01, 4.67762083e-01,
          1.00955933e-01, 2.68168032e-01, 1.04776867e-01, 1.53916940e-01,
          5.78576215e-02, 4.67762083e-01, 3.92514557e-01, 3.92514557e-01,
          1.38262153e-01, 2.03887206e-02, 3.92514557e-01, 3.92514557e-01,
          3.92514557e-01, 2.28343338e-01, 3.92514557e-01, 3.66008371e-01,
          3.66008371e-01, 3.66008371e-01, 2.11606342e-02, 3.66008371e-01,
          3.66008371e-01, 3.66008371e-01, 2.41165310e-01, 3.66008371e-01 ]
      - [ 3.54201406e-01, 3.54201406e-01, 3.54201406e-01, 8.11628997e-02,
          3.54201406e-01, 3.54201406e-01, 3.54201406e-01, 3.34160328e-01,
          3.54201406e-01, 5.06961763e-01, 5.06961763e-01, 3.94125074e-01,
          2.91025657e-02, 1.53057680e-01, 6.50850758e-02, 1.14395224e-01,
          1.64242461e-01, 5.06961763e-01, 5.12090981e-01, 5.12090981e-01,
          5.53827807e-02, 2.33780425e-02, 2.10932806e-01, 1.73200928e-02,
          9.05779451e-02, 3.89311224e-01, 5.12090981e-01, 4.71494585e-01,
          4.71494585e-01, 4.71494585e-01, 5.73424287e-02, 1.67719275e-01,
          9.09252241e-02, 8.95155370e-02, 2.41585732e-01, 4.71494585e-01,
          3.99361819e-01, 3.99361819e-01, 3.99361819e-01, 1.89186092e-02,
          3.99361819e-01, 3.99361819e-01, 1.33527234e-01, 1.44512221e-01,
          3.99361819e-01, 3.47205490e-01, 3.47205490e-01, 3.47205490e-01,
          3.47205490e-01, 3.47205490e-01, 3.47205490e-01, 3.47205490e-01,
          1.79214090e-01, 3.47205490e-01, 4.19355869e-01, 4.19355869e-01,
          4.19355869e-01, 3.18899572e-01, 4.19355869e-01, 3.71925123e-02,
          7.27289394e-02, 2.00249851e-01, 3.79346579e-01, 4.37144250e-01,
          1.84974939e-01, 1.24599837e-01, 6.09202273e-02, 4.37144250e-01,
          4.03516918e-01, 1.22372240e-01, 4.37144250e-01, 4.37144250e-01,
          3.96736711e-01, 3.96736711e-01, 3.96736711e-01, 2.24292353e-01,
          3.96736711e-01, 2.83459991e-01, 2.30526328e-01, 1.58863515e-01,
          3.96736711e-01 ]
      - [ 5.49711108e-01, 5.49711108e-01, 9.74362791e-02, 1.10414729e-01,
          7.63940588e-02, 4.36379313e-02, 1.44579038e-01, 1.93996966e-01,
          5.49711108e-01, 5.70172131e-01, 5.70172131e-01, 1.29150286e-01,
          3.78054157e-02, 2.41997410e-02, 1.21501377e-02, 6.19259756e-03,
          1.17072007e-02, 5.70172131e-01, 5.58408916e-01, 5.58408916e-01,
          5.54796010e-02, 2.46589687e-02, 1.05237342e-01, 3.53932306e-02,
          5.65881059e-02, 1.99364781e-01, 5.58408916e-01, 6.50012434e-01,
          6.50012434e-01, 1.01234995e-01, 1.37902079e-02, 2.96517685e-02,
          1.88422464e-02, 3.35038379e-02, 2.29411777e-02, 3.67636204e-01,
          4.67768431e-01, 4.67768431e-01, 2.01248173e-02, 2.54511945e-02,
          2.51936525e-01, 4.67768431e-01, 2.15453714e-01, 9.56738293e-02,
          4.67768431e-01, 3.85324866e-01, 3.85324866e-01, 3.13014537e-01,
          3.28094691e-01, 3.85324866e-01, 3.85324866e-01, 2.05015540e-01,
          7.82214329e-02, 3.85324866e-01, 4.26396221e-01, 4.26396221e-01,
          4.26396221e-01, 4.26396221e-01, 4.26396221e-01, 2.48830318e-01,
          2.69874688e-02, 1.22686429e-02, 1.54519796e-01, 3.90634984e-01,
          1.28393561e-01, 7.86476284e-02, 3.90634984e-01, 3.90634984e-01,
          3.90634984e-01, 3.90634984e-01, 2.40526348e-01, 3.90634984e-01,
          4.12574768e-01, 4.12574768e-01, 2.30087459e-01, 3.77263069e-01,
          4.12574768e-01, 3.20593178e-01, 1.15334429e-01, 6.04726635e-02,
          4.12574768e-01 ]
      - [ 5.50635457e-01, 2.54359901e-01, 1.74839899e-01, 9.88372229e-03,
          5.24800718e-02, 0., 3.17700148e-01, 4.34798002e-01,
          5.50635457e-01, 4.95522261e-01, 4.95522261e-01, 4.95522261e-01,
          0., 1.36591457e-02, 4.67799790e-02, 6.11010082e-02,
          8.23008940e-02, 4.95522261e-01, 5.28106987e-01, 5.28106987e-01,
          6.50782511e-02, 0., 4.28776548e-04, 1.46847835e-03,
          7.48423487e-02, 3.84962589e-01, 5.28106987e-01, 4.45835501e-01,
          4.45835501e-01, 4.45835501e-01, 9.24178120e-03, 3.04008514e-01,
          2.26429388e-01, 1.95329577e-01, 1.36157960e-01, 4.45835501e-01,
          4.39746916e-01, 4.39746916e-01, 3.99953246e-01, 1.20800370e-02,
          3.80646944e-01, 2.68370062e-01, 1.88422456e-01, 5.43067567e-02,
          4.39746916e-01, 3.56953532e-01, 3.56953532e-01, 3.56953532e-01,
          2.65206154e-02, 3.56953532e-01, 3.22210521e-01, 3.56953532e-01,
          3.56953532e-01, 3.56953532e-01, 4.70099688e-01, 4.70099688e-01,
          4.70099688e-01, 9.68030170e-02, 2.57729918e-01, 1.06421031e-01,
          1.45594016e-01, 5.48733734e-02, 4.70099688e-01, 3.92350107e-01,
          3.92350107e-01, 1.41945079e-01, 1.69899110e-02, 3.92350107e-01,
          3.92350107e-01, 3.92350107e-01, 2.28060886e-01, 3.92350107e-01,
          3.65533084e-01, 3.65533084e-01, 3.65533084e-01, 2.07198206e-02,
          3.65533084e-01, 3.65533084e-01, 3.65533084e-01, 2.46206254e-01,
          3.65533084e-01 ]
      - [ 5.71991801e-01, 1.76190436e-01, 3.65862340e-01, 0., 0.,
          1.70910403e-01, 3.71013254e-01, 9.04408172e-02, 5.71991801e-01,
          5.46493948e-01, 5.46493948e-01, 2.95843363e-01, 1.42430505e-02,
          8.74263644e-02, 3.06492235e-04, 3.12990062e-02, 4.71834242e-02,
          5.46493948e-01, 5.63336015e-01, 5.63336015e-01, 1.14889458e-01,
          1.45400343e-02, 1.14985600e-01, 2.21392326e-03, 7.79903531e-02,
          9.80417728e-02, 5.63336015e-01, 5.69243610e-01, 5.69243610e-01,
          8.09406266e-02, 1.06475130e-02, 2.47626919e-02, 1.29537255e-01,
          6.77495971e-02, 1.38388835e-02, 5.63382447e-01, 4.32164818e-01,
          4.32164818e-01, 4.68671359e-02, 9.96007025e-02, 4.32164818e-01,
          4.32164818e-01, 2.15579301e-01, 5.70933558e-02, 4.32164818e-01,
          3.49484295e-01, 3.49484295e-01, 3.49484295e-01, 3.49484295e-01,
          3.49484295e-01, 3.49484295e-01, 3.49484295e-01, 1.39262989e-01,
          3.49484295e-01, 4.39770520e-01, 4.39770520e-01, 4.39770520e-01,
          1.39146626e-01, 2.02229276e-01, 2.76225865e-01, 2.73569584e-01,
          1.03030190e-01, 4.39770520e-01, 4.24370021e-01, 1.35501444e-01,
          5.03730588e-02, 2.20370963e-01, 4.24370021e-01, 4.24370021e-01,
          4.24370021e-01, 1.60778686e-01, 4.24370021e-01, 4.02784348e-01,
          4.02784348e-01, 4.02784348e-01, 2.29701623e-01, 4.02784348e-01,
          1.89286530e-01, 2.93774635e-01, 9.95197892e-02, 4.02784348e-01 ]
      - [ 3.37893009e-01, 3.37893009e-01, 3.37893009e-01, 2.88531542e-01,
          3.37893009e-01, 3.37893009e-01, 3.37893009e-01, 3.37893009e-01,
          3.37893009e-01, 3.60673636e-01, 3.60673636e-01, 3.60673636e-01,
          3.60673636e-01, 3.60673636e-01, 2.17388108e-01, 3.60673636e-01,
          1.96317464e-01, 3.60673636e-01, 4.08817828e-01, 4.08817828e-01,
          2.10905060e-01, 1.49204671e-01, 4.08817828e-01, 1.37319744e-01,
          4.08817828e-01, 2.73233235e-01, 4.08817828e-01, 4.62596565e-01,
          4.62596565e-01, 4.62596565e-01, 1.54844131e-02, 4.58295569e-02,
          7.73412287e-02, 1.33782983e-01, 3.36418509e-01, 4.62596565e-01,
          4.52645451e-01, 4.52645451e-01, 8.59742016e-02, 8.04709196e-02,
          4.26236749e-01, 3.98355961e-01, 1.34865999e-01, 9.16174278e-02,
          4.52645451e-01, 3.55360776e-01, 3.55360776e-01, 3.55360776e-01,
          1.28758848e-01, 3.55360776e-01, 3.55360776e-01, 3.55360776e-01,
          3.09680253e-01, 3.55360776e-01, 4.10576165e-01, 4.10576165e-01,
          4.10576165e-01, 4.10576165e-01, 2.91249514e-01, 2.96194047e-01,
          2.04929709e-01, 1.63297251e-01, 2.83527851e-01, 3.58060777e-01,
          2.83770710e-01, 1.55798048e-01, 3.58060777e-01, 3.58060777e-01,
          3.58060777e-01, 3.49826932e-01, 3.58060777e-01, 3.58060777e-01,
          3.35742891e-01, 3.35742891e-01, 3.35742891e-01, 3.20227295e-01,
          3.35742891e-01, 3.24093938e-01, 3.35742891e-01, 3.35742891e-01,
          3.35742891e-01 ]
      - [ 4.65730667e-01, 2.11864665e-01, 4.65730667e-01, 1.58361644e-01,
          3.13570440e-01, 3.08784861e-02, 3.39413464e-01, 2.45329365e-01,
          4.65730667e-01, 4.46466833e-01, 4.46466833e-01, 4.46466833e-01,
          2.84925997e-01, 8.10357854e-02, 1.75711550e-02, 1.87365457e-01,
          2.73944408e-01, 4.46466833e-01, 4.80704993e-01, 4.80704993e-01,
          2.07363203e-01, 6.47484213e-02, 1.79882795e-01, 5.66201881e-02,
          1.69000015e-01, 4.36635345e-01, 4.80704993e-01, 5.25547504e-01,
          5.25547504e-01, 2.16975614e-01, 7.13166967e-02, 2.26995662e-01,
          1.07789561e-01, 1.90493837e-01, 1.20635249e-01, 5.25547504e-01,
