%YAML:1.0
---
opencv_ml_svm:
   format: 3
   svmType: C_SVC
   kernel:
      type: RBF
      gamma: 5.0624999999999998e-01
   C: 1.2500000000000000e+01
   term_criteria: { epsilon:1.1920928955078125e-07, iterations:1000 }
   var_count: 81
   class_count: 9
   class_labels: !!opencv-matrix
      rows: 9
      cols: 1
      dt: i
      data: [ 1, 2, 3, 4, 5, 6, 7, 8, 9 ]
   sv_total: 133
   support_vectors:
      - [ 4.07416642e-01, 4.07416642e-01, 4.07416642e-01, 0., 0., 0.,
          4.07416642e-01, 4.07416642e-01, 4.07416642e-01, 4.96428460e-01,
          8.46146047e-02, 4.60150018e-02, 0., 0., 0., 4.96428460e-01,
          4.96428460e-01, 4.96428460e-01, 7.04570413e-01, 0., 0., 0., 0.,
          0., 0., 1.13110524e-02, 7.04570413e-01, 3.74565899e-01,
          3.74565899e-01, 3.74565899e-01, 2.40314417e-02, 3.74565899e-01,
          1.16546504e-01, 3.74565899e-01, 3.74565899e-01, 3.74565899e-01,
          5.45846403e-01, 7.70528754e-03, 8.55689216e-03, 7.66216544e-03,
          5.45846403e-01, 1.23980239e-01, 2.39576072e-01, 1.66568786e-01,
          5.45846403e-01, 5.35663068e-01, 0., 0., 1.16714565e-02,
          5.35663068e-01, 3.42989057e-01, 7.95402229e-02, 9.86981839e-02,
          5.35663068e-01, 3.04086328e-01, 2.42016435e-01, 8.93982872e-02,
          1.35433495e-01, 6.86659813e-01, 5.68635166e-01, 1.79148037e-02,
          6.13825656e-02, 1.29746810e-01, 4.46810901e-01, 0., 0.,
          2.75173672e-02, 7.50710666e-01, 3.86110157e-01, 2.82650022e-03,
          1.56527050e-02, 2.81441778e-01, 3.10247600e-01, 0., 0.,
          2.89072059e-02, 6.48702621e-01, 6.48702621e-01, 5.00834137e-02,
          2.67979410e-02, 2.27107421e-01 ]
      - [ 4.05990273e-01, 4.05990273e-01, 2.52769645e-02, 7.93299917e-03,
          4.05990273e-01, 7.92067423e-02, 4.05990273e-01, 4.05990273e-01,
          4.05990273e-01, 5.59502065e-01, 3.02669685e-02, 1.55088061e-03,
          1.47588104e-02, 5.59502065e-01, 0., 2.53148936e-02,
          2.31318533e-01, 5.59502065e-01, 2.04578385e-01, 5.13916790e-01,
          5.13916790e-01, 1.64834946e-01, 5.13916790e-01, 0.,
          6.18782043e-02, 8.67839828e-02, 3.49503666e-01, 3.99861246e-01,
          3.99861246e-01, 3.99861246e-01, 2.26548404e-01, 3.99861246e-01,
          4.00889330e-02, 2.95266598e-01, 2.37584963e-01, 3.99861246e-01,
          5.64866841e-01, 1.33761810e-02, 1.24339368e-02, 3.70465964e-02,
          5.64866841e-01, 7.82668367e-02, 1.12775378e-01, 1.28785118e-01,
          5.64866841e-01, 3.72426808e-01, 3.26339155e-01, 3.72426808e-01,
          2.73223985e-02, 3.72426808e-01, 2.65531927e-01, 3.72426808e-01,
          3.53581190e-01, 3.72426808e-01, 4.34510291e-01, 3.70215140e-02,
          1.33093536e-01, 1.75360277e-01, 4.34510291e-01, 4.27559242e-02,
          4.34510291e-01, 4.34510291e-01, 4.34510291e-01, 5.73301315e-01,
          7.17201212e-04, 7.83295650e-03, 4.09422629e-02, 5.73301315e-01,
          6.73413724e-02, 4.18919809e-02, 1.49668157e-02, 5.73301315e-01,
          4.39627320e-01, 4.39627320e-01, 4.39627320e-01, 1.42907947e-02,
          4.10864919e-01, 1.54198021e-01, 1.64674282e-01, 5.10992855e-02,
          4.39627320e-01 ]
      - [ 4.07416642e-01, 4.07416642e-01, 4.07416642e-01, 0., 0., 0.,
          4.07416642e-01, 4.07416642e-01, 4.07416642e-01, 4.93006200e-01,
          1.46897554e-01, 3.57314423e-02, 0., 0., 0., 4.93006200e-01,
          4.93006200e-01, 4.93006200e-01, 6.88990891e-01, 8.97264332e-02,
          0., 0., 0., 0., 4.23117168e-02, 1.84021309e-01, 6.88990891e-01,
          3.76006752e-01, 3.76006752e-01, 3.76006752e-01, 3.86600755e-02,
          3.76006752e-01, 7.36584961e-02, 3.76006752e-01, 3.76006752e-01,
          3.75548720e-01, 5.10369718e-01, 1.87746715e-02, 1.07719721e-02,
          0., 5.10369718e-01, 1.41072139e-01, 2.38978520e-01,
          3.68768841e-01, 5.10369718e-01, 4.99555439e-01, 3.11122239e-02,
          0., 0., 4.99555439e-01, 3.02137733e-01, 3.37737828e-01,
          2.00054184e-01, 4.99555439e-01, 1.61759883e-01, 2.49857932e-01,
          1.85911968e-01, 2.29131073e-01, 7.60758758e-01, 4.81592745e-01,
          8.42100848e-03, 3.08040585e-02, 7.10093006e-02, 3.23575705e-01,
          2.28040750e-04, 1.22776080e-04, 0., 7.42463768e-01,
          5.23970604e-01, 2.37470516e-03, 1.63986553e-02, 2.48627543e-01,
          2.54007012e-01, 4.13036207e-04, 1.23910874e-03, 0.,
          6.63060009e-01, 6.63060009e-01, 1.82666555e-01, 3.35980803e-02,
          1.22744404e-01 ]
      - [ 4.07416642e-01, 4.07416642e-01, 4.07416642e-01, 0., 0., 0.,
          4.07416642e-01, 4.07416642e-01, 4.07416642e-01, 4.95588839e-01,
          1.08987875e-01, 2.71783601e-02, 0., 0., 0., 4.95588839e-01,
          4.95588839e-01, 4.95588839e-01, 6.98258579e-01, 0., 0., 0., 0.,
          0., 2.37890668e-02, 1.31657392e-01, 6.98258579e-01,
          3.84215236e-01, 3.84215236e-01, 3.84215236e-01, 3.27518433e-02,
          3.84215236e-01, 7.52545446e-02, 3.84215236e-01, 3.84215236e-01,
          3.22020978e-01, 5.28288484e-01, 1.48984408e-02, 9.80468001e-03,
          0., 5.28288484e-01, 1.49299845e-01, 2.27438018e-01,
          2.88307846e-01, 5.28288484e-01, 4.87774044e-01, 0., 0., 0.,
          4.87774044e-01, 2.94949651e-01, 3.70558321e-01, 2.38849193e-01,
          4.87774044e-01, 1.68453783e-01, 2.07297489e-01, 2.15276897e-01,
          1.86152831e-01, 7.82226801e-01, 4.76160765e-01, 5.78660751e-03,
          1.06278881e-02, 3.30581181e-02, 1.58291891e-01, 1.34306072e-04,
          1.15296374e-04, 0., 7.79290676e-01, 5.91340005e-01,
          1.70101516e-03, 3.77086969e-03, 1.00855500e-01, 6.08795397e-02,
          0., 0., 0., 6.87346041e-01, 6.87346041e-01, 1.98979437e-01,
          3.73854339e-02, 5.96026704e-02 ]
      - [ 4.07409579e-01, 4.07409579e-01, 4.07409579e-01, 0.,
          5.84211573e-03, 7.51008920e-04, 4.07409579e-01, 4.07409579e-01,
          4.07409579e-01, 4.92876738e-01, 1.47807986e-01, 3.68943252e-02,
          0., 1.25815840e-02, 8.86744529e-04, 4.92876738e-01,
          4.92876738e-01, 4.92876738e-01, 6.83676720e-01, 1.55293614e-01,
          0., 0., 8.50067846e-03, 0., 3.88338007e-02, 1.80695176e-01,
          6.83676720e-01, 3.76073211e-01, 3.76073211e-01, 3.76073211e-01,
          4.12053429e-02, 3.76073211e-01, 6.91204220e-02, 3.76073211e-01,
          3.76073211e-01, 3.75740558e-01, 5.10858953e-01, 1.83299668e-02,
          1.10281417e-02, 0., 5.10858953e-01, 1.33993626e-01,
          2.40002930e-01, 3.68719488e-01, 5.10858953e-01, 4.95766938e-01,
          8.68629217e-02, 0., 0., 4.95766938e-01, 2.86638469e-01,
          3.39867353e-01, 2.29079664e-01, 4.95766938e-01, 1.63202092e-01,
          2.48197287e-01, 1.81016266e-01, 2.35991403e-01, 7.72984445e-01,
          4.60269928e-01, 8.67191050e-03, 3.14481966e-02, 7.19164014e-02,
          3.28302592e-01, 4.41327080e-04, 1.23963240e-04, 0.,
          7.52649486e-01, 5.01676440e-01, 2.47890130e-03, 1.65189523e-02,
          2.57420599e-01, 2.38661557e-01, 4.72354330e-03, 0., 0.,
          6.66330814e-01, 6.66330814e-01, 1.88725412e-01, 3.86912115e-02,
          1.06104985e-01 ]
      - [ 4.07412827e-01, 4.07412827e-01, 4.07412827e-01, 1.34867884e-03,
          3.67288431e-03, 1.84872665e-03, 4.07412827e-01, 4.07412827e-01,
          4.07412827e-01, 4.93625551e-01, 1.15800247e-01, 5.15003689e-02,
          7.41714286e-03, 5.36739603e-02, 3.75151448e-02, 4.93625551e-01,
          4.93625551e-01, 4.93625551e-01, 6.91021204e-01, 1.60427187e-02,
          4.67314795e-02, 1.46073615e-02, 6.43999949e-02, 6.46768808e-02,
          8.11888501e-02, 1.43193573e-01, 6.91021204e-01, 3.83578986e-01,
          3.83578986e-01, 3.83578986e-01, 3.80771086e-02, 3.83578986e-01,
          7.36580342e-02, 3.83578986e-01, 3.83578986e-01, 3.26336384e-01,
          5.29476643e-01, 1.70393717e-02, 1.46603407e-02, 1.32719186e-04,
          5.29476643e-01, 1.37054890e-01, 2.32164145e-01, 2.83700556e-01,
          5.29476643e-01, 4.88341153e-01, 5.66005241e-04, 1.28429697e-03,
          3.93828057e-04, 4.88341153e-01, 2.91623920e-01, 3.61461163e-01,
          2.52963632e-01, 4.88341153e-01, 1.84094727e-01, 1.98670000e-01,
          2.01841876e-01, 2.06899807e-01, 7.81290054e-01, 4.72811043e-01,
          4.89929691e-03, 1.07321581e-02, 3.45017985e-02, 1.63836733e-01,
          4.99331276e-04, 7.98816327e-04, 5.17742825e-04, 8.05270791e-01,
          5.51831365e-01, 1.43813784e-03, 3.85428965e-03, 1.10109456e-01,
          6.70707226e-02, 8.84057197e-04, 2.65217130e-03, 0.,
          6.86650634e-01, 6.86650634e-01, 1.98915645e-01, 4.09216136e-02,
          6.64733723e-02 ]
      - [ 4.19965655e-01, 4.19965655e-01, 3.37561578e-01, 4.37277311e-04,
          9.11193027e-04, 4.23571531e-04, 4.19965655e-01, 4.19965655e-01,
          4.19965655e-01, 4.97002989e-01, 7.56938979e-02, 1.73922107e-02,
          2.78647151e-03, 2.83949394e-02, 1.19293984e-02, 4.97002989e-01,
          4.97002989e-01, 4.97002989e-01, 7.01474488e-01, 6.58971863e-03,
          2.05583572e-02, 5.53648081e-03, 4.49970625e-02, 9.13988426e-03,
          2.40387600e-02, 7.53782839e-02, 7.01474488e-01, 3.74697089e-01,
          3.74697089e-01, 3.74697089e-01, 3.53451632e-02, 3.74697089e-01,
          1.10553131e-01, 3.74697089e-01, 3.74697089e-01, 3.74697089e-01,
          5.21666229e-01, 9.61427763e-03, 5.15927467e-03, 0.,
          5.21666229e-01, 1.93046853e-01, 2.23052979e-01, 3.02067310e-01,
          5.21666229e-01, 4.86793607e-01, 9.96959861e-05, 2.99087958e-04,
          0., 4.86793607e-01, 4.24019307e-01, 2.45947227e-01,
          2.09645882e-01, 4.86793607e-01, 1.09481245e-01, 2.63612926e-01,
          1.84082374e-01, 2.01724097e-01, 6.93707883e-01, 5.92879415e-01,
          2.91104824e-03, 1.98677778e-02, 6.22755624e-02, 2.53597617e-01,
          1.38817937e-03, 1.35002483e-03, 0., 7.12907016e-01,
          6.18344069e-01, 6.31049101e-04, 8.62007402e-03, 1.94699228e-01,
          1.93495646e-01, 2.52754055e-03, 0., 0., 6.76114798e-01,
          6.76114798e-01, 1.45085916e-01, 4.70148362e-02, 1.35205403e-01 ]
      - [ 4.33125496e-01, 4.33125496e-01, 3.97168547e-02, 0., 0.,
          2.36870095e-01, 4.33125496e-01, 4.33125496e-01, 4.33125496e-01,
          6.69948578e-01, 0., 0., 0., 0., 0., 2.83532590e-01,
          1.23526596e-01, 6.69948578e-01, 6.97766483e-01, 7.08059669e-02,
          1.18864223e-01, 1.15874298e-02, 0., 0., 0., 1.42559269e-03,
          6.97766483e-01, 4.08799380e-01, 4.08799380e-01, 9.41213891e-02,
          3.39379758e-02, 4.08799380e-01, 3.23416620e-01, 4.08799380e-01,
          2.13828504e-01, 4.08799380e-01, 5.66493094e-01, 0., 0., 0.,
          5.66493094e-01, 1.77461937e-01, 8.99770297e-03, 5.12999017e-03,
          5.66493094e-01, 5.36837339e-01, 7.03775906e-04, 6.36231911e-04,
          1.06550020e-03, 5.36837339e-01, 3.44223589e-01, 7.12388828e-02,
          8.05541351e-02, 5.36837339e-01, 3.60527217e-01, 5.11482581e-02,
          7.53869414e-02, 1.19585790e-01, 7.48645425e-01, 4.24991161e-01,
          2.93511879e-02, 2.21122373e-02, 3.12265694e-01, 4.25323963e-01,
          0., 0., 0., 7.25681126e-01, 4.64030653e-01, 0., 0.,
          2.64420688e-01, 2.87805796e-01, 0., 5.53781865e-04,
          8.59147031e-03, 6.83082640e-01, 6.31042361e-01, 3.70214246e-02,
          2.16206275e-02, 2.08854705e-01 ]
      - [ 4.42300409e-01, 4.42300409e-01, 6.02898300e-02, 0.,
          6.28451444e-03, 1.17299438e-01, 4.42300409e-01, 4.42300409e-01,
          4.42300409e-01, 6.04944944e-01, 1.83694318e-01, 3.15464348e-01,
          0., 2.10384708e-02, 0., 3.15977484e-01, 1.68811202e-01,
          6.04944944e-01, 7.01948941e-01, 8.40089843e-03, 4.95683635e-03,
          0., 0., 0., 6.73756823e-02, 5.37921786e-02, 7.01948941e-01,
          4.11352396e-01, 4.11352396e-01, 1.48295239e-01, 3.48531753e-02,
          4.11352396e-01, 2.68957704e-01, 4.11352396e-01, 2.33007014e-01,
          4.11352396e-01, 5.61641216e-01, 1.12308864e-03, 1.48862682e-03,
          7.30722863e-03, 5.61641216e-01, 2.18719065e-01, 1.11521753e-02,
          7.05065951e-03, 5.61641216e-01, 5.38750589e-01, 2.65910712e-05,
          2.04082532e-03, 2.44975393e-03, 5.38750589e-01, 3.43981057e-01,
          5.28505407e-02, 5.23162447e-02, 5.38750589e-01, 3.16518754e-01,
          7.54976198e-02, 1.18122324e-01, 1.06686004e-01, 7.33031332e-01,
          4.96026695e-01, 4.97843549e-02, 2.47764308e-02, 2.73851126e-01,
          4.39754188e-01, 6.95589581e-04, 2.68440228e-03, 1.07281236e-02,
          7.13415802e-01, 4.70783800e-01, 8.69256910e-05, 1.07043697e-05,
          2.62245029e-01, 2.89542109e-01, 4.77308422e-05, 1.43938640e-03,
          2.51636142e-03, 7.25799799e-01, 5.89460075e-01, 3.39553542e-02,
          1.39470194e-02, 1.82527259e-01 ]
      - [ 4.40811604e-01, 4.40811604e-01, 3.19855623e-02, 0., 0.,
          1.51654720e-01, 4.40811604e-01, 4.40811604e-01, 4.40811604e-01,
          6.79647148e-01, 0., 0., 0., 0., 0., 2.33493894e-01,
          1.21881463e-01, 6.79647148e-01, 7.03894794e-01, 1.82900224e-02,
          4.06914949e-02, 3.85922613e-03, 1.75594818e-03, 0., 0.,
          5.41046588e-03, 7.03894794e-01, 4.08209473e-01, 4.08209473e-01,
          7.71909803e-02, 3.70320193e-02, 4.08209473e-01, 2.86993325e-01,
          4.08209473e-01, 2.70281971e-01, 4.08209473e-01, 5.67749441e-01,
          0., 0., 0., 5.67749441e-01, 1.64918318e-01, 8.50558933e-03,
          6.47678366e-03, 5.67749441e-01, 5.42053223e-01, 1.06581945e-04,
          3.35844787e-04, 1.87509431e-04, 5.42053223e-01, 3.17716926e-01,
          6.67948350e-02, 8.78399387e-02, 5.42053223e-01, 4.02280450e-01,
          5.72094694e-02, 6.64931238e-02, 1.26239687e-01, 7.50817418e-01,
          4.04488087e-01, 4.26047519e-02, 2.12180074e-02, 2.78285831e-01,
          4.26926345e-01, 0., 0., 0., 7.41573572e-01, 4.32815164e-01, 0.,
          0., 2.70317823e-01, 2.94888586e-01, 0., 0., 6.81370322e-04,
          7.14590311e-01, 5.83952427e-01, 3.81063856e-02, 2.50600278e-02,
          2.28445157e-01 ]
      - [ 5.07601917e-01, 5.07601917e-01, 3.46318223e-02, 0., 0.,
          2.75679916e-01, 3.45036447e-01, 1.61011681e-01, 5.07382989e-01,
          4.26256657e-01, 2.95411199e-01, 7.25636259e-04, 0., 0.,
          4.26256657e-01, 4.26256657e-01, 4.26256657e-01, 4.26256657e-01,
          6.91891372e-01, 0., 0., 0., 0., 0., 3.94044854e-02,
          1.84697255e-01, 6.91891372e-01, 4.51514006e-01, 4.51514006e-01,
          1.05854332e-01, 1.03239112e-01, 4.51514006e-01, 3.39076787e-01,
          4.00167733e-01, 1.73372865e-01, 2.38466904e-01, 4.59491223e-01,
          6.90093413e-02, 1.15382799e-03, 0., 4.59491223e-01,
          4.48878437e-01, 3.68489414e-01, 1.41329378e-01, 4.59491223e-01,
          4.54262704e-01, 0., 0., 0., 4.54262704e-01, 4.32865918e-01,
          3.56966048e-01, 2.48195946e-01, 4.54262704e-01, 1.08705170e-01,
          2.91692942e-01, 1.56412885e-01, 4.72523510e-01, 6.81679785e-01,
          4.25519168e-01, 1.01533690e-02, 2.13905778e-02, 4.72799689e-02,
          2.22678840e-01, 2.04489901e-04, 4.84968905e-06, 0.,
          7.28199899e-01, 6.33510709e-01, 2.65654363e-03, 9.01069399e-03,
          1.06987365e-01, 8.67577866e-02, 0., 0., 0., 6.86176062e-01,
          6.86176062e-01, 1.94585964e-01, 3.34498994e-02, 7.04648942e-02 ]
      - [ 4.90886927e-01, 4.90886927e-01, 3.75848189e-02, 0., 0.,
          2.39971936e-01, 3.88051003e-01, 2.50209153e-01, 4.90886927e-01,
          4.26412314e-01, 3.40591431e-01, 1.10804162e-03, 0., 0.,
          3.90418679e-01, 4.26412314e-01, 4.26412314e-01, 4.26412314e-01,
          6.95357323e-01, 3.00041512e-02, 0., 0., 0., 0., 8.86162277e-03,
          1.58228233e-01, 6.95357323e-01, 4.22809184e-01, 4.22809184e-01,
          9.42003727e-02, 5.85985407e-02, 4.22809184e-01, 3.61105710e-01,
          4.22809184e-01, 1.95212007e-01, 3.16059381e-01, 4.56364214e-01,
          8.69041607e-02, 1.39705604e-03, 0., 4.56364214e-01,
          4.05595839e-01, 4.21668857e-01, 1.44117743e-01, 4.56364214e-01,
          4.60879654e-01, 4.66461964e-02, 0., 0., 4.60879654e-01,
          4.60879654e-01, 2.72857875e-01, 2.62924135e-01, 4.60879654e-01,
          1.19736306e-01, 3.27024937e-01, 1.80128410e-01, 3.19035858e-01,
          7.10804582e-01, 4.69929725e-01, 2.66838297e-02, 3.24829780e-02,
          9.77150574e-02, 3.69983554e-01, 2.54070200e-03, 1.28377378e-05,
          0., 6.73343778e-01, 5.93056202e-01, 6.29458250e-03,
          1.25540299e-02, 2.26007000e-01, 2.14504674e-01, 6.86248159e-03,
          0., 0., 6.76132143e-01, 6.76132143e-01, 1.50034457e-01,
          4.76739109e-02, 8.99912119e-02 ]
      - [ 4.66072321e-01, 4.66072321e-01, 7.01819658e-02, 2.27189772e-02,
          4.66072321e-01, 2.69724369e-01, 3.06082040e-01, 1.84064135e-01,
          3.71370196e-01, 4.10691172e-01, 2.58846790e-01, 6.39541633e-03,
          2.16871570e-03, 4.10691172e-01, 2.92427450e-01, 4.10691172e-01,
          4.10691172e-01, 4.10691172e-01, 4.59940970e-01, 2.99940288e-01,
          4.59940970e-01, 6.84493259e-02, 4.59940970e-01, 1.18593201e-01,
          1.03321955e-01, 1.72724679e-01, 4.59940970e-01, 4.22580242e-01,
          4.22580242e-01, 4.22580242e-01, 3.92850816e-01, 4.22580242e-01,
          2.26513818e-01, 2.40185112e-01, 5.40243052e-02, 1.23429134e-01,
          5.39962351e-01, 8.35405886e-02, 3.65529209e-03, 2.17484608e-02,
          5.39962351e-01, 2.63046622e-01, 1.93993464e-01, 7.50824958e-02,
          5.39962351e-01, 4.46709245e-01, 9.58371237e-02, 1.16853185e-01,
          6.38594553e-02, 4.46709245e-01, 4.46709245e-01, 3.31656635e-01,
          2.45820433e-01, 4.46709245e-01, 1.90285612e-02, 6.16421215e-02,
          4.72777516e-01, 6.06602848e-01, 6.06602848e-01, 1.73731059e-01,
          0., 0., 1.20947044e-02, 5.25943004e-03, 5.62531920e-03,
          2.28256593e-03, 2.77111791e-02, 9.49917793e-01, 2.95539260e-01,
          0., 0., 1.88572030e-03, 1.11548407e-02, 2.02838242e-01,
          5.90553343e-01, 1.22636981e-01, 5.90553343e-01, 4.82747495e-01,
          8.49146843e-02, 5.78892976e-03, 1.22414465e-04 ]
      - [ 4.52400178e-01, 4.52400178e-01, 2.84208506e-02, 4.51822474e-04,
          0., 2.34615952e-01, 3.67130399e-01, 4.36859339e-01,
          4.52400178e-01, 4.63868290e-01, 7.72190914e-02, 4.95325483e-04,
          1.31597306e-04, 6.92158705e-04, 3.58758956e-01, 4.63868290e-01,
          4.63868290e-01, 4.63868290e-01, 7.04527080e-01, 0., 0., 0.,
          7.98495580e-03, 0., 0., 1.36660077e-02, 7.04527080e-01,
          4.26955521e-01, 4.26955521e-01, 1.13560759e-01, 1.52905649e-02,
          2.90033877e-01, 4.26955521e-01, 4.26955521e-01, 1.87302232e-01,
          3.66386861e-01, 5.07517755e-01, 1.18023381e-02, 8.00719194e-04,
          5.54329948e-04, 5.07517755e-01, 3.27390552e-01, 3.23082507e-01,
          1.02475859e-01, 5.07517755e-01, 5.45193374e-01, 0., 0.,
          3.29333008e-03, 5.45193374e-01, 2.59066284e-01, 1.44870266e-01,
          1.21385045e-01, 5.45193374e-01, 3.22918624e-01, 2.50657618e-01,
          2.02103272e-01, 1.45107165e-01, 6.07471704e-01, 6.07471704e-01,
          8.47054273e-02, 6.47583380e-02, 1.24557547e-01, 3.84392291e-01,
          5.31073939e-03, 1.45001535e-03, 8.96517362e-04, 6.50013626e-01,
          6.29311860e-01, 5.95297618e-03, 2.55842065e-03, 1.64708704e-01,
          2.30411604e-01, 0., 0., 1.08085694e-02, 6.76629901e-01,
          6.76629901e-01, 8.80900770e-02, 2.02514399e-02, 1.27329946e-01 ]
      - [ 4.17078227e-01, 4.17078227e-01, 1.90394074e-01, 1.19973071e-01,
          1.75910115e-01, 2.81995326e-01, 4.17078227e-01, 3.72702897e-01,
          4.17078227e-01, 4.57959890e-01, 2.85871774e-01, 2.48858356e-03,
          0., 9.11869667e-03, 2.73321301e-01, 4.57959890e-01,
          4.57959890e-01, 4.57959890e-01, 7.03671634e-01, 0., 0., 0., 0.,
          0., 6.70728879e-03, 5.12174666e-02, 7.03671634e-01,
          4.15960461e-01, 4.15960461e-01, 1.22956067e-01, 4.12977934e-02,
          4.15960461e-01, 4.15960461e-01, 4.15960461e-01, 1.49034396e-01,
          3.02810490e-01, 4.72658783e-01, 5.19907922e-02, 2.95628328e-03,
          7.41969515e-03, 4.72658783e-01, 3.79524589e-01, 4.09499139e-01,
          1.02784730e-01, 4.72658783e-01, 4.96720642e-01, 0., 0.,
          6.79285126e-03, 4.96720642e-01, 4.48146343e-01, 1.65873215e-01,
          1.62633061e-01, 4.96720642e-01, 3.37324440e-01, 3.08735609e-01,
          1.68844283e-01, 2.07961410e-01, 6.23407245e-01, 5.43601751e-01,
          8.75517428e-02, 4.54599746e-02, 1.37994662e-01, 5.29336751e-01,
          1.03460567e-03, 3.10381688e-03, 8.20915494e-03, 5.76749504e-01,
          5.76749504e-01, 1.60318557e-02, 9.49728396e-03, 2.19859675e-01,
          4.16425228e-01, 0., 0., 5.72796958e-03, 6.21459007e-01,
          6.21459007e-01, 1.02276452e-01, 4.66080122e-02, 1.87875167e-01 ]
      - [ 4.59860384e-01, 4.59860384e-01, 6.97505102e-02, 0., 0.,
          2.34519333e-01, 4.59860384e-01, 2.99425989e-01, 4.59860384e-01,
          4.60735083e-01, 2.14480817e-01, 2.10054708e-03, 0., 0.,
          3.16677034e-01, 4.60735083e-01, 4.60735083e-01, 4.60735083e-01,
          6.99789166e-01, 0., 0., 0., 0., 0., 1.63610522e-02,
          1.15485385e-01, 6.99789166e-01, 4.04334784e-01, 4.04334784e-01,
          9.48781222e-02, 3.76918390e-02, 4.04334784e-01, 4.04334784e-01,
          4.04334784e-01, 2.09599838e-01, 3.52382034e-01, 4.79284018e-01,
          3.41276042e-02, 1.36520935e-03, 2.19789986e-02, 4.79284018e-01,
          4.36978757e-01, 3.17104399e-01, 1.13657840e-01, 4.79284018e-01,
          5.24384201e-01, 5.71239693e-03, 0., 4.15327586e-02,
          5.24384201e-01, 3.32099676e-01, 1.98701143e-01, 1.35265157e-01,
          5.24384201e-01, 2.29735851e-01, 2.54152566e-01, 1.46278590e-01,
          1.67667150e-01, 6.65652692e-01, 5.96249998e-01, 7.19209462e-02,
          6.39618933e-02, 1.36387393e-01, 4.74268854e-01, 1.26719323e-03,
          0., 2.78622303e-02, 5.89248240e-01, 5.89248240e-01,
          9.83978622e-03, 1.15204994e-02, 2.71571040e-01, 4.00754035e-01,
          3.35426396e-03, 0., 8.78100395e-02, 7.00287998e-01,
          5.40628314e-01, 1.20028600e-01, 2.87750624e-02, 1.63605094e-01 ]
      - [ 4.69666243e-01, 4.69666243e-01, 1.10443175e-01, 0., 0.,
          5.10180928e-02, 4.69666243e-01, 3.13309491e-01, 4.69666243e-01,
          4.93014663e-01, 1.26700222e-01, 4.39040689e-03, 0., 0.,
          8.21575820e-02, 4.93014663e-01, 4.93014663e-01, 4.93014663e-01,
          6.95317328e-01, 7.29359612e-02, 0., 0., 0., 0., 2.49631964e-02,
          1.42069176e-01, 6.95317328e-01, 3.91548157e-01, 3.91548157e-01,
          2.85968214e-01, 9.14504454e-02, 3.91548157e-01, 3.01803887e-01,
          3.91548157e-01, 2.42126569e-01, 3.78148943e-01, 5.10305166e-01,
          2.86970772e-02, 5.50952740e-03, 7.53671005e-02, 5.10305166e-01,
          1.93799183e-01, 3.56870979e-01, 2.05475584e-01, 5.10305166e-01,
          4.94657189e-01, 3.26536037e-02, 0., 0., 4.94657189e-01,
          4.42225248e-01, 2.01731011e-01, 1.53874919e-01, 4.94657189e-01,
          2.44225606e-01, 2.09736466e-01, 1.94350198e-01, 2.97064364e-01,
          6.14368439e-01, 6.14368439e-01, 1.97678786e-02, 3.23942266e-02,
          8.87341052e-02, 4.14159060e-01, 3.50995315e-03, 6.13149256e-04,
          1.69807494e-01, 7.52562761e-01, 3.83748591e-01, 5.40774828e-03,
          1.60819162e-02, 2.79664248e-01, 2.95030028e-01, 1.47849182e-03,
          0., 0., 6.63043022e-01, 6.63043022e-01, 1.04443714e-01,
          2.56479811e-02, 1.24568708e-01 ]
      - [ 3.64618063e-01, 3.64618063e-01, 2.31292248e-01, 1.10619731e-01,
          3.64618063e-01, 3.64618063e-01, 3.64618063e-01, 3.64618063e-01,
          3.64618063e-01, 4.85238373e-01, 2.00029567e-01, 0., 0., 0.,
          1.15397327e-01, 4.85238373e-01, 4.85238373e-01, 4.85238373e-01,
          6.46339774e-01, 2.25245699e-01, 0., 0., 0., 0., 7.93480799e-02,
          3.17813158e-01, 6.46339774e-01, 4.30561751e-01, 4.30561751e-01,
          1.75412446e-01, 1.87662672e-02, 3.60545784e-01, 3.91992301e-01,
          4.30561751e-01, 2.01555848e-01, 2.90088266e-01, 4.62245226e-01,
          1.56296700e-01, 5.29062143e-03, 0., 4.62245226e-01,
          4.62245226e-01, 3.35936725e-01, 1.17366396e-01, 4.50872451e-01,
          4.71380472e-01, 1.53862000e-01, 0., 2.68856157e-03,
          4.71380472e-01, 4.71380472e-01, 2.05302790e-01, 2.01651886e-01,
          4.71380472e-01, 3.18855643e-01, 4.97554958e-01, 1.75205305e-01,
          1.91393733e-01, 5.34677446e-01, 5.34677446e-01, 5.66732138e-02,
          2.31472328e-02, 5.09374440e-02, 4.15187985e-01, 3.01428065e-02,
          1.78199890e-03, 0., 6.36045635e-01, 6.36045635e-01,
          2.25692522e-02, 1.28644984e-02, 1.02830023e-01, 1.24475181e-01,
          7.75314867e-04, 0., 1.10538397e-03, 6.97225034e-01,
          6.97225034e-01, 6.13156110e-02, 1.33864232e-03, 3.92067172e-02 ]
      - [ 4.40901756e-01, 4.40901756e-01, 1.51430825e-02, 0., 0.,
          2.76544988e-01, 4.40901756e-01, 3.75915021e-01, 4.40901756e-01,
          4.56934184e-01, 1.69668093e-01, 0., 0., 0., 3.62619966e-01,
          4.56934184e-01, 4.56934184e-01, 4.56934184e-01, 7.04615593e-01,
          0., 0., 0., 0., 0., 0., 0., 7.04615593e-01, 4.02046502e-01,
          4.02046502e-01, 4.84575182e-02, 1.40480679e-02, 4.02046502e-01,
          4.02046502e-01, 4.02046502e-01, 1.53589621e-01, 4.02046502e-01,
          5.35749137e-01, 1.64935105e-02, 6.27879286e-04, 2.54378514e-03,
          5.35749137e-01, 2.50555634e-01, 2.56287724e-01, 6.94839507e-02,
          5.35749137e-01, 5.61702311e-01, 0., 0., 1.88120990e-03,
          5.61702311e-01, 2.18729660e-01, 4.04561171e-03, 0.,
          5.61702311e-01, 3.86547476e-01, 2.01794624e-01, 4.59098965e-02,
          2.04744097e-02, 7.00541377e-01, 5.22649884e-01, 7.13780671e-02,
          3.73316035e-02, 1.73004344e-01, 5.08133769e-01, 2.94492207e-03,
          7.38644856e-04, 2.99253943e-03, 6.81032777e-01, 4.07406658e-01,
          6.43069623e-03, 2.21270183e-03, 3.24270517e-01, 4.13358212e-01,
          0., 0., 1.29008351e-03, 7.15991855e-01, 4.73956257e-01,
          2.77437246e-03, 0., 2.91032195e-01 ]
      - [ 5.89574695e-01, 3.25807720e-01, 2.89599281e-02, 4.94105218e-04,
          0., 0., 3.31651419e-02, 4.36837286e-01, 5.89574695e-01,
          7.04611361e-01, 0., 0., 0., 0., 0., 2.25700159e-03,
          2.60373484e-03, 7.04611361e-01, 5.92008293e-01, 4.68884915e-01,
          1.56664732e-03, 0., 1.43931592e-02, 4.72550653e-02,
          2.63015956e-01, 4.08407599e-02, 5.92008293e-01, 5.53099573e-01,
          2.06074327e-01, 6.63188174e-02, 1.48352131e-01, 5.53099573e-01,
          2.57500298e-02, 2.10006628e-03, 8.47255737e-02, 5.53099573e-01,
          5.74940979e-01, 0., 0., 7.65597820e-03, 5.74940979e-01,
          5.02891392e-02, 1.09623426e-04, 1.04249601e-04, 5.74940979e-01,
          4.68066424e-01, 9.99159738e-02, 2.95272825e-04, 4.46754068e-01,
          4.68066424e-01, 7.50216767e-02, 3.03310871e-01, 1.75693586e-01,
          4.68066424e-01, 1.31181283e-02, 3.17750312e-02, 6.73462301e-02,
          2.28538767e-01, 9.63704228e-01, 6.07895404e-02, 6.42912055e-04,
          1.32826273e-03, 3.93117592e-03, 0., 0., 0., 1.13156978e-02,
          9.90449607e-01, 9.48744863e-02, 5.13650652e-04, 1.71216874e-04,
          0., 1.78139545e-02, 0., 5.33228787e-03, 6.91151857e-01,
          6.91151857e-01, 4.63901907e-02, 1.29490629e-01, 1.33792043e-01,
          2.35094018e-02 ]
      - [ 6.70020640e-01, 1.33433282e-01, 4.43721786e-02, 0.,
          1.36113411e-03, 0., 1.28483579e-01, 2.43254080e-01,
          6.70020640e-01, 7.04615295e-01, 3.00833581e-05, 9.02500760e-05,
          0., 3.69988644e-04, 0., 7.83628901e-04, 2.61209643e-04,
          7.04615295e-01, 5.60930908e-01, 5.60930908e-01, 6.68344945e-02,
          0., 1.13911219e-02, 5.94906211e-02, 1.76498011e-01,
          1.05739996e-01, 5.60930908e-01, 5.71458817e-01, 3.37929949e-02,
          1.87107734e-02, 9.01187435e-02, 5.71458817e-01, 6.86707646e-02,
          7.49206310e-03, 1.45880040e-02, 5.71458817e-01, 5.73695779e-01,
          0., 0., 2.99784075e-02, 5.73695779e-01, 7.74087459e-02,
          1.82503845e-05, 6.08346136e-06, 5.73695779e-01, 4.70488518e-01,
          1.82059571e-01, 7.45329112e-02, 4.49900985e-01, 4.70488518e-01,
          8.51710364e-02, 2.17196763e-01, 1.88896865e-01, 4.70488518e-01,
          0., 0., 1.34189380e-02, 1.57455549e-01, 9.65223014e-01,
          1.83693424e-01, 0., 0., 0., 3.21908551e-03, 1.89854915e-03,
          5.69564756e-03, 8.15856457e-02, 9.73895371e-01, 1.87322780e-01,
          1.70624675e-03, 1.57772307e-03, 3.82508710e-03, 1.16373990e-02,
          1.32165640e-03, 3.09991837e-01, 6.50475264e-01, 6.50475264e-01,
          1.04603060e-01, 9.53998640e-02, 1.75605521e-01, 1.25436150e-02 ]
      - [ 6.44661129e-01, 9.07653198e-02, 2.66797487e-02, 0.,
          9.23056528e-03, 0., 2.62257662e-02, 3.90723318e-01,
          6.44661129e-01, 7.04615593e-01, 0., 0., 0., 0., 0., 0., 0.,
          7.04615593e-01, 6.46886408e-01, 3.67983133e-01, 1.86433047e-02,
          5.39104128e-03, 2.87748128e-02, 9.56496224e-02, 8.28495845e-02,
          6.31532595e-02, 6.46886408e-01, 5.70785701e-01, 3.93360220e-02,
          2.86561809e-02, 6.01323284e-02, 5.70785701e-01, 5.42690828e-02,
          1.76548085e-03, 8.93233418e-02, 5.70785701e-01, 5.73220193e-01,
          0., 0., 5.48230251e-03, 5.73220193e-01, 9.22047570e-02, 0., 0.,
          5.73220193e-01, 4.89009768e-01, 8.38713720e-02, 6.29272545e-04,
          4.31669325e-01, 4.89009768e-01, 1.46157980e-01, 1.94609210e-01,
          1.58480883e-01, 4.89009768e-01, 1.21079676e-03, 0.,
          7.35198334e-03, 8.35629031e-02, 9.82686996e-01, 1.32225826e-01,
          0., 0., 1.21079676e-03, 0., 0., 0., 8.53395183e-03,
          9.76487637e-01, 1.91462517e-01, 0., 0., 0., 3.35973455e-03, 0.,
          6.99391181e-04, 6.88688993e-01, 6.88688993e-01, 1.29364789e-01,
          1.16794400e-01, 1.18887588e-01, 4.21628263e-03 ]
      - [ 4.23163086e-01, 4.23163086e-01, 3.06675076e-01, 0., 0.,
          7.99265206e-02, 4.23163086e-01, 4.23163086e-01, 4.23163086e-01,
          6.11821175e-01, 2.70748198e-01, 2.44092405e-01, 0., 0.,
          5.61300153e-03, 2.45911717e-01, 2.27708384e-01, 6.11821175e-01,
          4.07416344e-01, 4.07416344e-01, 4.07416344e-01, 1.11704157e-03,
          2.79248401e-04, 3.19711893e-04, 4.07416344e-01, 4.07416344e-01,
          4.07416344e-01, 3.72217536e-01, 3.72217536e-01, 2.76461601e-01,
          1.23362236e-01, 3.72217536e-01, 3.72217536e-01, 3.72217536e-01,
          2.70844251e-01, 3.72217536e-01, 5.29791653e-01, 2.48333402e-02,
          4.16727960e-02, 1.00940436e-01, 5.29791653e-01, 3.72921675e-01,
          2.45360602e-02, 2.13707238e-02, 5.29791653e-01, 3.60316604e-01,
          3.60316604e-01, 3.60316604e-01, 3.60316604e-01, 3.60316604e-01,
          2.22641632e-01, 3.60316604e-01, 3.60316604e-01, 1.95024595e-01,
          1.92394722e-02, 3.66479531e-02, 1.08600058e-01, 3.06863636e-01,
          6.65420234e-01, 6.65420234e-01, 0., 0., 1.07865259e-02,
          1.98471057e-03, 9.12271719e-03, 2.56393760e-01, 1.89496294e-01,
          7.11117148e-01, 6.20869279e-01, 0., 0., 1.23272568e-03, 0.,
          3.95252071e-02, 4.41544592e-01, 4.41544592e-01, 4.41544592e-01,
          4.41544592e-01, 4.41544592e-01, 1.38633072e-01, 0. ]
      - [ 4.27439690e-01, 4.27439690e-01, 2.27587029e-01, 1.87419634e-02,
          6.02372177e-02, 1.62575930e-01, 4.27439690e-01, 4.27439690e-01,
          4.27439690e-01, 6.52334392e-01, 1.87566280e-02, 1.90252792e-02,
          1.38639873e-02, 4.45375778e-02, 1.62474945e-01, 3.05450439e-01,
          1.40781194e-01, 6.52334392e-01, 4.61009502e-01, 4.61009502e-01,
          4.61009502e-01, 8.18231776e-02, 1.02304175e-01, 1.32746652e-01,
          2.96484858e-01, 1.50300115e-01, 4.61009502e-01, 3.85478586e-01,
          3.85478586e-01, 2.25952834e-01, 1.36708692e-01, 3.85478586e-01,
          3.85478586e-01, 3.72506320e-01, 2.11365342e-01, 3.85478586e-01,
          4.97622102e-01, 4.14994359e-02, 2.54364684e-02, 3.93542498e-02,
          4.97622102e-01, 4.97622102e-01, 2.23301686e-02, 1.01169245e-02,
          4.97622102e-01, 3.63641769e-01, 3.15845549e-01, 3.63641769e-01,
          3.33197355e-01, 3.63641769e-01, 3.63641769e-01, 3.32378536e-01,
          1.18050173e-01, 3.63641769e-01, 1.39907688e-01, 9.20415223e-02,
          6.58837706e-02, 9.46977362e-02, 7.41819322e-01, 6.21693671e-01,
          1.78441294e-02, 2.48565935e-02, 1.16217151e-01, 1.49439037e-01,
          5.42053953e-03, 1.03992654e-03, 1.22357765e-02, 7.41096437e-01,
          6.46277010e-01, 0., 0., 5.65027781e-02, 3.18114161e-02,
          2.69132376e-01, 5.04241467e-01, 5.04241467e-01, 5.04241467e-01,
          3.48336935e-01, 1.88287258e-01, 3.88691835e-02, 2.09763143e-02 ]
      - [ 4.04641926e-01, 4.04641926e-01, 1.04880221e-01, 0.,
          5.04708104e-02, 4.04641926e-01, 4.04641926e-01, 4.04641926e-01,
          4.04641926e-01, 4.79000330e-01, 4.79000330e-01, 5.49288047e-03,
          1.60225499e-02, 8.64656344e-02, 3.28200638e-01, 4.79000330e-01,
          3.82736742e-01, 2.11955875e-01, 4.42648083e-01, 4.42648083e-01,
          3.87118608e-02, 4.63156551e-02, 9.96219441e-02, 4.82034460e-02,
          4.42648083e-01, 4.42648083e-01, 4.42648083e-01, 3.32778692e-01,
          3.32778692e-01, 3.32778692e-01, 3.32778692e-01, 3.32778692e-01,
          3.32778692e-01, 3.32778692e-01, 3.32778692e-01, 3.32778692e-01,
          4.79131281e-01, 4.79131281e-01, 2.09787115e-01, 5.16277663e-02,
          2.68490732e-01, 4.79131281e-01, 4.11053032e-01, 3.81012559e-02,
          1.31660342e-01, 2.20831901e-01, 3.93231124e-01, 3.93231124e-01,
          2.93397456e-01, 2.96438128e-01, 3.93231124e-01, 3.93231124e-01,
          3.93231124e-01, 1.39076756e-02, 1.42101198e-01, 1.18572135e-02,
          2.17752442e-01, 6.05325818e-01, 6.05325818e-01, 3.94530535e-01,
          3.07060615e-03, 5.29411845e-02, 1.86818942e-01, 1.68664068e-01,
          1.07871793e-01, 3.69047284e-01, 1.67254895e-01, 6.09483659e-01,
          6.09483659e-01, 2.09288761e-01, 2.87314644e-03, 5.39415590e-02,
          2.96940525e-05, 1.87140524e-01, 4.34987307e-01, 4.34987307e-01,
          4.34987307e-01, 4.34987307e-01, 4.34987307e-01, 1.20679401e-01,
          0. ]
      - [ 4.27603722e-01, 4.27603722e-01, 1.31122157e-01, 1.14733377e-03,
          4.27603722e-01, 4.27603722e-01, 4.27603722e-01, 1.74509645e-01,
          1.83999628e-01, 4.73371416e-01, 4.73371416e-01, 8.86978656e-02,
          1.48482315e-04, 1.48263797e-01, 4.73371416e-01, 4.73371416e-01,
          2.42022306e-01, 1.02593720e-01, 4.16375548e-01, 4.16375548e-01,
          3.34708333e-01, 1.75311223e-01, 2.71534771e-01, 4.16375548e-01,
          4.16375548e-01, 1.86089441e-01, 2.26366967e-01, 2.42088735e-01,
          4.04736489e-01, 4.04736489e-01, 6.13208152e-02, 6.66731372e-02,
          3.67019355e-01, 4.04736489e-01, 4.04736489e-01, 3.73087913e-01,
          2.77397752e-01, 5.48269510e-01, 1.23932838e-01, 0.,
          7.94371869e-03, 5.48269510e-01, 5.48269510e-01, 2.41829152e-03,
          1.86730977e-02, 3.44950296e-02, 4.92532313e-01, 4.92532313e-01,
          5.79029135e-02, 5.13173565e-02, 4.92532313e-01, 4.92532313e-01,
          1.32485628e-01, 0., 3.83014917e-01, 1.84745267e-01,
          3.20628554e-01, 3.83014917e-01, 3.83014917e-01, 3.49906683e-01,
          5.74742928e-02, 3.83014917e-01, 3.83014917e-01, 4.50362593e-01,
          4.91268009e-01, 1.77233741e-02, 1.94262620e-02, 2.38954797e-01,
          4.91268009e-01, 4.91268009e-01, 6.21357374e-03, 1.02003552e-01,
          5.19942783e-04, 5.37119329e-01, 5.37119329e-01, 1.02040857e-01,
          2.42717154e-02, 2.95782119e-01, 5.37119329e-01, 1.75087437e-01,
          0. ]
      - [ 4.07077134e-01, 4.07077134e-01, 4.72485572e-02, 0.,
          3.54486912e-01, 4.07077134e-01, 4.07077134e-01, 1.98698282e-01,
          4.07077134e-01, 4.18802708e-01, 4.18802708e-01, 5.22278212e-02,
          4.07360349e-04, 1.33621097e-01, 4.18802708e-01, 4.18802708e-01,
          3.96287620e-01, 3.41478080e-01, 4.27272648e-01, 4.27272648e-01,
          1.67387754e-01, 1.38908178e-01, 2.33251154e-01, 4.27272648e-01,
          2.92314649e-01, 2.79850155e-01, 4.27272648e-01, 3.48927319e-01,
          3.70547533e-01, 3.70547533e-01, 1.27504528e-01, 1.85627416e-01,
          3.70547533e-01, 3.70547533e-01, 3.70547533e-01, 3.70547533e-01,
          4.97802705e-01, 4.97802705e-01, 4.97366562e-02, 1.10189736e-04,
          2.38840170e-02, 4.97802705e-01, 4.97802705e-01, 6.95120543e-03,
          2.65650321e-02, 1.66950658e-01, 4.69696254e-01, 4.69696254e-01,
          1.35019481e-01, 1.59141183e-01, 4.69696254e-01, 4.69696254e-01,
          2.01974019e-01, 2.50641424e-02, 4.19192135e-01, 1.09434754e-01,
          1.86824709e-01, 4.19192135e-01, 4.19192135e-01, 2.61403531e-01,
          4.46214564e-02, 4.19192135e-01, 4.19192135e-01, 4.44498301e-01,
          4.44498301e-01, 4.49467963e-03, 2.94642970e-02, 4.44498301e-01,
          4.44498301e-01, 4.44498301e-01, 4.75946581e-03, 8.21904838e-02,
          1.95438787e-03, 4.78796303e-01, 4.78796303e-01, 2.30126634e-01,
          1.73828349e-01, 4.47469562e-01, 4.78796303e-01, 1.55153707e-01,
          1.50152744e-04 ]
      - [ 3.82942885e-01, 3.82942885e-01, 4.03627865e-02, 4.20333410e-04,
          3.82942885e-01, 3.82942885e-01, 3.82942885e-01, 3.38634670e-01,
          3.82942885e-01, 4.21241820e-01, 4.21241820e-01, 8.72142520e-03,
          3.46532091e-03, 1.55534878e-01, 4.21241820e-01, 4.21241820e-01,
          4.21241820e-01, 2.90326804e-01, 4.34782177e-01, 4.34782177e-01,
          2.07556218e-01, 1.34945422e-01, 2.39658892e-01, 4.34782177e-01,
          2.44358525e-01, 2.47138575e-01, 4.34782177e-01, 3.37044567e-01,
          3.37044567e-01, 3.37044567e-01, 3.32966864e-01, 3.00952375e-01,
          3.37044567e-01, 3.37044567e-01, 3.37044567e-01, 3.37044567e-01,
          4.97182906e-01, 4.97182906e-01, 1.19128646e-02, 1.34400208e-03,
          6.00218289e-02, 4.97182906e-01, 4.97182906e-01, 1.06888488e-02,
          4.90974896e-02, 2.25750878e-01, 4.65872198e-01, 4.65872198e-01,
          1.22405045e-01, 1.58709809e-01, 4.65872198e-01, 4.65872198e-01,
          1.86701894e-01, 3.47304717e-02, 4.07136351e-01, 7.56354555e-02,
          1.26689225e-01, 4.59254950e-01, 4.59254950e-01, 2.94438064e-01,
          3.29826064e-02, 2.95558453e-01, 4.59254950e-01, 4.49094892e-01,
          4.02881831e-01, 3.37134651e-03, 3.73672359e-02, 5.06069362e-01,
          5.06069362e-01, 3.30736846e-01, 3.46316723e-03, 8.90328437e-02,
          3.43892514e-03, 3.67165297e-01, 4.19955492e-01, 4.19955492e-01,
          3.84467304e-01, 4.19955492e-01, 4.19955492e-01, 8.78150612e-02,
          2.34951172e-03 ]
      - [ 3.89497489e-01, 3.89497489e-01, 3.31717730e-02, 5.91259159e-04,
          3.89497489e-01, 3.89497489e-01, 3.89497489e-01, 2.91132957e-01,
          3.89497489e-01, 4.17445004e-01, 4.17445004e-01, 1.09032113e-02,
          5.66164637e-03, 1.59133002e-01, 4.17445004e-01, 4.17445004e-01,
          4.17445004e-01, 3.14728737e-01, 4.38950121e-01, 4.38950121e-01,
          1.94252789e-01, 1.40435964e-01, 2.22204953e-01, 4.38950121e-01,
          2.26604909e-01, 2.58312166e-01, 4.38950121e-01, 3.42412502e-01,
          3.42412502e-01, 3.42412502e-01, 3.19849342e-01, 2.71202773e-01,
          3.42412502e-01, 3.42412502e-01, 3.42412502e-01, 3.42412502e-01,
          4.98875767e-01, 4.98875767e-01, 2.36033797e-02, 8.84078094e-04,
          5.80661409e-02, 4.98875767e-01, 4.91661906e-01, 1.15098832e-02,
          5.09219132e-02, 2.31705442e-01, 4.65345860e-01, 4.65345860e-01,
          1.19806156e-01, 1.56051934e-01, 4.65345860e-01, 4.65345860e-01,
          1.88218579e-01, 3.66798118e-02, 4.04195160e-01, 8.58320966e-02,
          1.32875130e-01, 4.55616623e-01, 4.55616623e-01, 2.77500987e-01,
          3.28588970e-02, 3.25893164e-01, 4.55616623e-01, 4.49198842e-01,
          4.33657587e-01, 4.59421519e-03, 2.69755032e-02, 5.00290573e-01,
          5.00290573e-01, 3.04475844e-01, 3.33835930e-03, 1.05442539e-01,
          4.34785150e-03, 3.76013935e-01, 4.32037592e-01, 4.32037592e-01,
          3.12692493e-01, 4.32037592e-01, 4.32037592e-01, 9.93389115e-02,
          2.84531317e-03 ]
      - [ 3.76020283e-01, 4.34981823e-01, 2.13595524e-01, 0.,
          2.79194582e-03, 2.82284498e-01, 4.34981823e-01, 4.34981823e-01,
          4.01647598e-01, 6.92694306e-01, 6.92694306e-01, 6.04244508e-03,
          2.90578064e-02, 4.18050624e-02, 8.76482800e-02, 3.37532945e-02,
          6.86548278e-02, 1.31418765e-01, 5.44857919e-01, 5.44857919e-01,
          7.01243281e-02, 6.46646544e-02, 9.00394022e-02, 2.41789445e-01,
          3.61364484e-01, 3.08012575e-01, 3.15744162e-01, 3.88561070e-01,
          1.36641115e-01, 3.88561070e-01, 3.88561070e-01, 2.41063982e-01,
          1.16005272e-01, 3.88561070e-01, 3.88561070e-01, 3.88561070e-01,
          5.42160213e-01, 5.42160213e-01, 2.52297439e-04, 3.28353350e-03,
          2.98921585e-01, 5.42160213e-01, 2.21014954e-02, 2.55194213e-03,
          1.51369721e-01, 4.28276747e-01, 4.28276747e-01, 4.28276747e-01,
          1.39140964e-01, 1.62346929e-01, 4.28276747e-01, 4.28276747e-01,
          1.81207389e-01, 7.99945183e-03, 3.56570691e-01, 1.19177597e-02,
          9.94874910e-02, 4.92514461e-01, 4.92514461e-01, 3.05698603e-01,
          3.55574442e-03, 1.91631794e-01, 4.92514461e-01, 5.64027548e-01,
          1.63698763e-01, 2.39989124e-04, 3.03302146e-02, 5.64027548e-01,
          5.64027548e-01, 6.63930038e-03, 9.17819503e-04, 1.10564068e-01,
          2.94647217e-02, 3.95347893e-01, 4.25936848e-01, 3.72609645e-01,
          3.56838673e-01, 4.25936848e-01, 4.25936848e-01, 1.67743549e-01,
          8.90079711e-04 ]
      - [ 4.13090467e-01, 4.13090467e-01, 5.83721586e-02, 5.78886643e-03,
          5.31339422e-02, 4.13090467e-01, 4.13090467e-01, 3.69311005e-01,
          4.13090467e-01, 3.93259615e-01, 3.93259615e-01, 1.36097714e-01,
          8.01994652e-02, 2.07841232e-01, 3.93259615e-01, 3.93259615e-01,
          3.93259615e-01, 3.93259615e-01, 4.38855082e-01, 4.38855082e-01,
          1.04042836e-01, 8.63126367e-02, 1.08485863e-01, 1.73301071e-01,
          4.38855082e-01, 4.38855082e-01, 4.06403691e-01, 3.53472143e-01,
          3.53472143e-01, 3.53472143e-01, 3.13626230e-01, 1.53326675e-01,
          3.53472143e-01, 3.53472143e-01, 3.53472143e-01, 3.53472143e-01,
          5.51279962e-01, 5.51279962e-01, 2.86209937e-02, 1.55011127e-02,
          1.00054637e-01, 5.51279962e-01, 2.56272912e-01, 2.05240529e-02,
          7.48246536e-02, 3.41362715e-01, 4.00959969e-01, 4.00959969e-01,
          2.15022787e-01, 1.70852304e-01, 4.00959969e-01, 4.00959969e-01,
          4.00959969e-01, 1.40074007e-02, 3.26719850e-01, 6.57014549e-02,
          1.62122488e-01, 4.58847612e-01, 4.58847612e-01, 4.38744843e-01,
          2.65343301e-02, 1.82334870e-01, 4.58847612e-01, 3.92076552e-01,
          2.61646330e-01, 5.44206873e-02, 6.41458929e-02, 6.05871797e-01,
          6.05871797e-01, 1.54545769e-01, 2.16116523e-03, 8.14930052e-02,
          1.18191913e-02, 3.08120787e-01, 3.91064256e-01, 3.91064256e-01,
          3.91064256e-01, 3.91064256e-01, 3.91064256e-01, 3.68978083e-01,
          1.46264341e-02 ]
      - [ 4.17589337e-01, 4.17589337e-01, 5.00774235e-02, 0.,
          1.10909916e-01, 4.17589337e-01, 4.17589337e-01, 3.30326051e-01,
          4.17589337e-01, 4.07220453e-01, 4.07220453e-01, 0., 0.,
          5.56999668e-02, 4.07220453e-01, 4.07220453e-01, 4.07220453e-01,
          4.04582471e-01, 4.31038380e-01, 4.31038380e-01, 1.27648354e-01,
          1.02937371e-01, 1.65476739e-01, 4.16839123e-01, 2.31490105e-01,
          3.95849437e-01, 4.31038380e-01, 3.40663284e-01, 3.40663284e-01,
          3.40663284e-01, 3.40663284e-01, 2.61121929e-01, 3.40663284e-01,
          3.40663284e-01, 3.40663284e-01, 3.40663284e-01, 5.51344693e-01,
          5.51344693e-01, 1.64026977e-04, 1.20404605e-02, 1.70001402e-01,
          5.51344693e-01, 1.64035991e-01, 2.88796499e-02, 1.60511568e-01,
          3.10865849e-01, 4.49452072e-01, 4.49452072e-01, 1.51088908e-01,
          1.31627440e-01, 4.49452072e-01, 4.49452072e-01, 2.21787885e-01,
          3.87401842e-02, 2.63204038e-01, 2.30117794e-02, 1.33248791e-01,
          5.58247566e-01, 5.58247566e-01, 3.26034933e-01, 7.24488171e-03,
          1.57650039e-01, 3.90357077e-01, 3.87609661e-01, 1.53869033e-01,
          7.98948575e-04, 9.88436788e-02, 6.30343616e-01, 6.30343616e-01,
          5.98410778e-02, 7.81344902e-03, 1.08216092e-01, 4.20996221e-03,
          4.05071080e-01, 4.05071080e-01, 4.05071080e-01, 4.05071080e-01,
          4.05071080e-01, 4.05071080e-01, 1.06879823e-01, 4.11643740e-03 ]
      - [ 4.07295287e-01, 4.07295287e-01, 2.40351819e-02, 2.15025549e-03,
          3.48233152e-03, 4.07295287e-01, 4.07295287e-01, 4.07295287e-01,
          4.07295287e-01, 4.22763884e-01, 4.22763884e-01, 1.17368296e-01,
          1.15472697e-01, 1.42987847e-01, 4.22763884e-01, 4.22763884e-01,
          4.22763884e-01, 2.33614281e-01, 5.79151571e-01, 5.79151571e-01,
          7.54415542e-02, 7.71094710e-02, 1.36468768e-01, 3.14829618e-01,
          3.08401823e-01, 2.45768696e-01, 1.96191788e-01, 3.70619625e-01,
          2.73886949e-01, 2.95449108e-01, 3.37952614e-01, 1.81622028e-01,
          3.70619625e-01, 3.70619625e-01, 3.70619625e-01, 3.70619625e-01,
          5.55385530e-01, 5.55385530e-01, 1.78818940e-03, 1.45210617e-03,
          2.41085723e-01, 5.55385530e-01, 3.44918221e-02, 1.01487366e-02,
          9.83573943e-02, 4.49853897e-01, 4.49853897e-01, 4.49853897e-01,
          1.20524302e-01, 1.77203655e-01, 4.49853897e-01, 3.60524684e-01,
          1.00588515e-01, 3.00895399e-03, 3.74173760e-01, 3.53144705e-02,
          1.23554103e-01, 4.71712500e-01, 4.71712500e-01, 3.07703167e-01,
          7.00840354e-03, 2.76588857e-01, 4.71712500e-01, 5.53362846e-01,
          2.54094511e-01, 1.24613019e-02, 6.45865314e-03, 5.53362846e-01,
          5.53362846e-01, 6.64821686e-03, 4.46352968e-03, 1.04964279e-01,
          6.20224848e-02, 4.27778304e-01, 4.27778304e-01, 4.07147765e-01,
          4.27778304e-01, 4.27778304e-01, 3.04687381e-01, 3.59003469e-02,
          3.23822605e-03 ]
      - [ 4.06201214e-01, 4.06201214e-01, 6.76879659e-02, 2.21689092e-03,
          3.68639305e-02, 4.06201214e-01, 4.06201214e-01, 4.06201214e-01,
          4.06201214e-01, 5.31658828e-01, 5.31658828e-01, 1.39357848e-03,
          5.53370919e-03, 1.68178491e-02, 5.19984663e-01, 3.46199542e-01,
          1.67654693e-01, 1.03472963e-01, 4.59697723e-01, 4.59697723e-01,
          2.94392437e-01, 9.76239741e-02, 1.03030309e-01, 4.33337092e-01,
          4.26746279e-01, 2.11774513e-01, 2.26295769e-01, 3.57060969e-01,
          1.75318629e-01, 2.70644218e-01, 3.57060969e-01, 3.57060969e-01,
          3.57060969e-01, 3.57060969e-01, 3.57060969e-01, 3.57060969e-01,
          5.40263712e-01, 5.40263712e-01, 1.29092699e-02, 5.14298817e-03,
          3.25146079e-01, 5.40263712e-01, 2.57758852e-02, 8.79928749e-03,
          1.10883735e-01, 4.02215689e-01, 4.40834910e-01, 4.40834910e-01,
          1.12543844e-01, 1.42347381e-01, 4.40834910e-01, 4.40834910e-01,
          1.53384253e-01, 4.66668420e-03, 2.25839823e-01, 1.59313045e-02,
          7.98744857e-02, 5.21421790e-01, 5.21421790e-01, 5.21421790e-01,
          7.40593605e-05, 8.86585563e-02, 3.37124377e-01, 4.21085417e-01,
          2.02912733e-01, 1.97790876e-01, 8.62283334e-02, 6.01399601e-01,
          6.01399601e-01, 3.75728938e-03, 4.58814809e-03, 7.45247081e-02,
          1.18191421e-01, 4.33672577e-01, 4.33672577e-01, 4.33672577e-01,
          4.33672577e-01, 4.33672577e-01, 2.02447534e-01, 1.88047234e-02,
          8.54907616e-04 ]
      - [ 3.52771997e-01, 1.25046670e-02, 2.24025152e-03, 2.31211190e-03,
          2.97084183e-01, 4.10333604e-01, 4.52486753e-01, 4.52486753e-01,
          4.52486753e-01, 6.50560081e-01, 6.50560081e-01, 1.71546894e-03,
          0., 1.06679246e-01, 3.68259043e-01, 4.51920275e-03,
          3.72130540e-04, 5.45485178e-03, 4.96138334e-01, 4.96138334e-01,
          6.47102308e-04, 0., 1.24653533e-01, 4.96138334e-01,
          4.24779385e-01, 1.88501731e-01, 1.58352703e-01, 4.20546681e-01,
          4.20546681e-01, 2.65389651e-01, 4.01350334e-02, 4.04099673e-02,
          1.94489092e-01, 4.20546681e-01, 4.20546681e-01, 4.20546681e-01,
          5.46625853e-01, 5.46625853e-01, 2.14899574e-05, 0.,
          3.41407694e-02, 5.46625853e-01, 3.08861911e-01, 1.27466982e-02,
          3.76542546e-02, 5.67740858e-01, 5.67740858e-01, 4.20125085e-04,
          0., 1.35050997e-01, 5.67740858e-01, 8.85298625e-02,
          1.16959279e-02, 3.35886329e-02, 3.59806836e-01, 3.59806836e-01,
          2.70921886e-01, 3.59806836e-01, 3.59806836e-01, 3.59806836e-01,
          2.15856463e-01, 3.59806836e-01, 3.15668881e-01, 5.66755474e-01,
          5.66755474e-01, 5.18032350e-02, 5.21674752e-03, 1.00768179e-01,
          5.66755474e-01, 1.32997736e-01, 3.29912314e-03, 1.18727060e-02,
          5.33494353e-01, 5.33494353e-01, 2.20848527e-03, 2.54828425e-04,
          1.23063691e-01, 5.33494353e-01, 3.53658587e-01, 2.43486241e-02,
          2.57712277e-03 ]
      - [ 4.18781042e-01, 3.31075966e-01, 9.65194330e-02, 0.,
          1.20616704e-03, 4.18781042e-01, 4.18781042e-01, 4.18781042e-01,
          4.18781042e-01, 6.97384655e-01, 6.97384655e-01, 0., 0., 0.,
          4.75204214e-02, 1.30014539e-01, 3.30010876e-02, 9.83215310e-03,
          4.64123070e-01, 4.64123070e-01, 1.27937853e-01, 9.77007225e-02,
          1.08317435e-01, 3.23876411e-01, 4.34871048e-01, 1.32206187e-01,
          4.64123070e-01, 4.05533612e-01, 2.19990417e-01, 2.67571241e-01,
          4.05533612e-01, 1.60188317e-01, 1.67364433e-01, 4.05533612e-01,
          4.05533612e-01, 4.05533612e-01, 5.60875535e-01, 5.60875535e-01,
          3.82546484e-02, 3.24660912e-02, 8.22139606e-02, 5.60875535e-01,
          1.31260708e-01, 4.30628657e-03, 1.55340120e-01, 3.98069531e-01,
          4.46233034e-01, 4.46233034e-01, 1.21380053e-01, 9.87196341e-02,
          4.46233034e-01, 4.46233034e-01, 1.19541295e-01, 4.26483713e-02,
          2.26084262e-01, 8.59522671e-02, 1.13981895e-01, 4.95622128e-01,
          4.95622128e-01, 3.41106087e-01, 3.53921279e-02, 2.62728930e-01,
          4.95622128e-01, 2.94324696e-01, 2.07888231e-01, 9.49258804e-02,
          8.73122215e-02, 6.45045519e-01, 6.45045519e-01, 7.98656195e-02,
          1.89176225e-03, 9.23665985e-02, 6.81491103e-03, 4.15360510e-01,
          4.15360510e-01, 4.15360510e-01, 3.94689530e-01, 4.15360510e-01,
          3.80154699e-01, 7.34230354e-02, 4.29291092e-03 ]
      - [ 4.05094236e-01, 4.05094236e-01, 1.06512696e-01, 0., 0.,
          4.05094236e-01, 4.05094236e-01, 4.05094236e-01, 4.05094236e-01,
          3.74729007e-01, 3.74729007e-01, 3.74729007e-01, 3.74729007e-01,
          5.50147379e-03, 1.15208641e-01, 3.74729007e-01, 3.74729007e-01,
          3.74729007e-01, 4.07951027e-01, 3.84612739e-01, 4.07951027e-01,
          4.07951027e-01, 1.38564454e-02, 0., 1.25241950e-01,
          4.07951027e-01, 4.07951027e-01, 3.40295374e-01, 3.40295374e-01,
          3.40295374e-01, 3.40295374e-01, 2.64938593e-01, 3.40295374e-01,
          3.40295374e-01, 3.40295374e-01, 3.40295374e-01, 3.88618916e-01,
          3.88618916e-01, 2.10663602e-01, 3.88618916e-01, 3.14910203e-01,
          2.87237436e-01, 1.22235484e-01, 3.88618916e-01, 3.88618916e-01,
          3.48554254e-01, 3.48554254e-01, 3.48554254e-01, 3.48554254e-01,
          1.56834140e-01, 3.48554254e-01, 3.48554254e-01, 3.48554254e-01,
          3.48554254e-01, 1.38904124e-01, 2.79735215e-02, 1.99897245e-01,
          5.52130282e-01, 5.52130282e-01, 5.52130282e-01, 2.37647500e-02,
          4.58478108e-02, 1.31301865e-01, 1.86431363e-01, 2.35906485e-02,
          1.85523078e-01, 5.37378192e-01, 5.37378192e-01, 5.37378192e-01,
          1.91361606e-02, 1.03360020e-01, 2.18004718e-01, 2.51352936e-01,
          9.27528068e-02, 1.99449379e-02, 2.08666950e-01, 6.24846816e-01,
          6.24846816e-01, 2.80651271e-01, 1.66205093e-02, 1.34654582e-01 ]
      - [ 4.53573942e-01, 4.53573942e-01, 1.39209807e-01, 9.94812217e-05,
          2.26340771e-01, 4.53573942e-01, 4.53573942e-01, 2.25099996e-01,
          2.26434261e-01, 3.50093216e-01, 3.50093216e-01, 3.50093216e-01,
          3.50093216e-01, 1.26412362e-01, 3.50093216e-01, 3.50093216e-01,
          3.50093216e-01, 3.50093216e-01, 1.90771878e-01, 1.83859751e-01,
          4.58898395e-01, 4.58898395e-01, 2.57721901e-01, 6.83714752e-05,
          1.28243715e-01, 4.58898395e-01, 4.58898395e-01, 3.07168037e-01,
          4.07548577e-01, 4.07548577e-01, 6.63772449e-02, 4.48605567e-02,
          3.67780030e-01, 4.07548577e-01, 4.07548577e-01, 3.09051245e-01,
          3.54438394e-01, 4.38028872e-01, 4.38028872e-01, 3.60761993e-02,
          4.81595993e-02, 3.97650190e-02, 4.38028872e-01, 4.38028872e-01,
          3.11959445e-01, 2.84700990e-01, 4.43016589e-01, 4.43016589e-01,
          3.23611170e-01, 3.20554487e-02, 6.17330410e-02, 4.43016589e-01,
          4.43016589e-01, 1.41076565e-01, 3.66734684e-01, 2.22584233e-01,
          3.66734684e-01, 3.66734684e-01, 3.66734684e-01, 3.66734684e-01,
          7.30213001e-02, 3.66734684e-01, 3.66734684e-01, 3.01656187e-01,
          2.70173430e-01, 2.87656486e-01, 3.82555962e-01, 3.82555962e-01,
          3.82555962e-01, 1.33027628e-01, 3.82555962e-01, 3.82555962e-01,
          3.88821542e-01, 3.88821542e-01, 9.56038386e-02, 1.98682949e-01,
          3.88821542e-01, 3.88821542e-01, 3.88821542e-01, 2.01016098e-01,
          3.88821542e-01 ]
      - [ 3.93605053e-01, 3.93605053e-01, 4.82840128e-02, 0.,
          3.69802028e-01, 3.93605053e-01, 3.93605053e-01, 2.86981344e-01,
          3.93605053e-01, 3.53147030e-01, 3.53147030e-01, 3.53147030e-01,
          3.53147030e-01, 1.87955037e-01, 2.96908796e-01, 3.53147030e-01,
          3.53147030e-01, 3.53147030e-01, 4.09303725e-01, 2.52978772e-01,
          4.09303725e-01, 4.09303725e-01, 2.99514204e-01, 0.,
          6.75024912e-02, 4.09303725e-01, 4.09303725e-01, 3.40750366e-01,
          3.40750366e-01, 3.40750366e-01, 2.60209531e-01, 3.40750366e-01,
          3.40750366e-01, 3.40750366e-01, 3.40750366e-01, 3.40750366e-01,
          3.74233156e-01, 3.74233156e-01, 3.74233156e-01, 2.31065020e-01,
          2.71849811e-01, 1.69307932e-01, 3.74233156e-01, 3.74233156e-01,
          3.74233156e-01, 3.57833296e-01, 3.57833296e-01, 3.57833296e-01,
          3.57833296e-01, 2.14861527e-01, 2.32264742e-01, 3.57833296e-01,
          3.57833296e-01, 3.57833296e-01, 3.97676498e-01, 9.79646295e-02,
          1.43409103e-01, 4.37908143e-01, 4.37908143e-01, 4.37908143e-01,
          2.97320224e-02, 1.98438495e-01, 4.37908143e-01, 2.90730000e-01,
          1.67888463e-01, 7.54202008e-02, 4.46203083e-01, 4.46203083e-01,
          4.46203083e-01, 7.13038445e-02, 2.97776014e-01, 4.31390613e-01,
          4.59894150e-01, 2.91398615e-01, 5.21506704e-02, 2.27366433e-01,
          4.59894150e-01, 4.59894150e-01, 2.15564176e-01, 7.06300512e-02,
          4.12448496e-01 ]
      - [ 3.97062272e-01, 3.97062272e-01, 1.21372409e-01, 1.76432021e-02,
          3.97062272e-01, 2.88825423e-01, 3.97062272e-01, 3.49177003e-01,
          3.80804807e-01, 4.00594056e-01, 4.00594056e-01, 3.33906919e-01,
          2.07458541e-01, 4.00594056e-01, 9.44920927e-02, 1.73661575e-01,
          4.00594056e-01, 4.00594056e-01, 2.61797100e-01, 3.08860958e-01,
          4.13854927e-01, 3.21778804e-01, 4.13854927e-01, 8.19883961e-03,
          2.07895577e-01, 4.13854927e-01, 4.13854927e-01, 3.51062715e-01,
          3.51062715e-01, 3.51062715e-01, 3.51062715e-01, 2.44331777e-01,
          3.51062715e-01, 3.51062715e-01, 3.51062715e-01, 2.72175252e-01,
          3.44532639e-01, 3.44532639e-01, 3.00520509e-01, 3.44532639e-01,
          3.44532639e-01, 3.44532639e-01, 2.74455518e-01, 3.44532639e-01,
          3.44532639e-01, 2.54924566e-01, 3.62230301e-01, 3.62230301e-01,
          3.62230301e-01, 1.81352600e-01, 3.62230301e-01, 3.62230301e-01,
          3.62230301e-01, 3.33527923e-01, 3.72231245e-01, 1.08127996e-01,
          3.72231245e-01, 3.72231245e-01, 3.72231245e-01, 1.21230587e-01,
          3.72231245e-01, 3.72231245e-01, 3.72231245e-01, 4.22741234e-01,
          1.88504755e-01, 7.29018748e-02, 4.22741234e-01, 4.22741234e-01,
          4.22741234e-01, 8.22542235e-02, 2.33692169e-01, 4.22741234e-01,
          3.75380903e-01, 3.75380903e-01, 3.75380903e-01, 5.95758818e-02,
          3.75380903e-01, 3.75380903e-01, 3.75380903e-01, 7.95269608e-02,
          3.75380903e-01 ]
      - [ 3.87603104e-01, 3.87603104e-01, 1.93707377e-01, 1.48134064e-02,
          3.87603104e-01, 3.87603104e-01, 3.87603104e-01, 2.38681555e-01,
          3.87603104e-01, 3.95914167e-01, 2.70627260e-01, 3.45057458e-01,
          3.95914167e-01, 3.95914167e-01, 2.00276300e-01, 2.01443225e-01,
          3.09933901e-01, 3.95914167e-01, 3.79961669e-01, 3.79961669e-01,
          3.79961669e-01, 3.29519808e-01, 3.79961669e-01, 1.45277160e-03,
          1.46265343e-01, 3.79961669e-01, 3.79961669e-01, 3.32778692e-01,
          3.32778692e-01, 3.32778692e-01, 3.32778692e-01, 3.32778692e-01,
          3.32778692e-01, 3.32778692e-01, 3.32778692e-01, 3.32778692e-01,
          3.56647342e-01, 3.56647342e-01, 2.25273862e-01, 3.56647342e-01,
          3.56647342e-01, 3.56647342e-01, 2.35174567e-01, 3.56647342e-01,
          3.56647342e-01, 2.07116708e-01, 3.63345772e-01, 3.63345772e-01,
          3.57172638e-01, 1.83791697e-01, 3.63345772e-01, 3.63345772e-01,
          3.63345772e-01, 3.63345772e-01, 4.39379215e-01, 6.40831441e-02,
          2.07544714e-01, 4.39379215e-01, 4.39379215e-01, 8.91410336e-02,
          3.13924193e-01, 2.64042974e-01, 4.39379215e-01, 4.51488018e-01,
          1.60365328e-01, 1.09469155e-02, 4.45488602e-01, 4.51488018e-01,
          3.28152210e-01, 3.81040424e-02, 2.24795789e-01, 4.51488018e-01,
          3.90672982e-01, 3.90672982e-01, 3.90672982e-01, 7.26016089e-02,
          3.90672982e-01, 3.90672982e-01, 2.70732820e-01, 4.21609990e-02,
          3.90672982e-01 ]
      - [ 4.09734458e-01, 4.09734458e-01, 1.38900965e-01, 1.68531272e-03,
          1.07801117e-01, 4.09734458e-01, 4.09734458e-01, 3.54369819e-01,
          4.09734458e-01, 3.60322177e-01, 3.60322177e-01, 3.60322177e-01,
          3.60322177e-01, 4.05816734e-02, 2.93136060e-01, 3.60322177e-01,
          3.60322177e-01, 3.60322177e-01, 4.09056276e-01, 3.52786928e-01,
          4.09056276e-01, 4.09056276e-01, 1.46884881e-02, 0.,
          1.86021626e-01, 4.09056276e-01, 4.09056276e-01, 3.38613123e-01,
          3.38613123e-01, 3.38613123e-01, 3.38613123e-01, 2.81684399e-01,
          3.38613123e-01, 3.38613123e-01, 3.38613123e-01, 3.38613123e-01,
          4.02647972e-01, 4.02647972e-01, 2.52545148e-01, 2.76068509e-01,
          3.28906268e-01, 1.89964667e-01, 2.51430362e-01, 4.02647972e-01,
          4.02647972e-01, 3.56626779e-01, 3.56626779e-01, 3.56626779e-01,
          3.56626779e-01, 1.09329112e-01, 3.56626779e-01, 3.56626779e-01,
          3.56626779e-01, 3.06929022e-01, 1.40944764e-01, 4.38564345e-02,
          2.44561389e-01, 5.58287859e-01, 5.58287859e-01, 4.78989691e-01,
          5.69279958e-03, 1.05808415e-01, 2.20898598e-01, 1.62822500e-01,
          6.42754957e-02, 8.84189177e-03, 5.45276403e-01, 5.45276403e-01,
          5.45276403e-01, 9.22696106e-03, 1.54623836e-01, 2.18772203e-01,
          3.29435885e-01, 1.83169976e-01, 1.16586247e-02, 2.77770549e-01,
          5.58563411e-01, 5.58563411e-01, 3.35268170e-01, 5.31921163e-02,
          1.89288914e-01 ]
      - [ 4.13736254e-01, 4.13736254e-01, 1.12767823e-01, 1.58628391e-04,
          2.82728113e-02, 4.13736254e-01, 4.13736254e-01, 3.55615646e-01,
          4.13736254e-01, 3.68766278e-01, 3.68766278e-01, 3.68766278e-01,
          3.68766278e-01, 4.01567630e-02, 2.06840798e-01, 3.68766278e-01,
          3.68766278e-01, 3.68766278e-01, 4.19203520e-01, 2.98418909e-01,
          4.19203520e-01, 4.19203520e-01, 4.73626815e-02, 9.47504886e-04,
          1.60799205e-01, 4.19203520e-01, 4.19203520e-01, 3.42006415e-01,
          3.42006415e-01, 3.42006415e-01, 3.42006415e-01, 2.46648818e-01,
          3.42006415e-01, 3.42006415e-01, 3.42006415e-01, 3.42006415e-01,
          4.01999146e-01, 4.01999146e-01, 1.65771052e-01, 4.01999146e-01,
          3.37489277e-01, 1.83921576e-01, 1.12965249e-01, 4.01999146e-01,
          4.01999146e-01, 3.55501205e-01, 3.55501205e-01, 3.55501205e-01,
          3.55501205e-01, 1.48462594e-01, 3.55501205e-01, 3.55501205e-01,
          3.55501205e-01, 2.99565345e-01, 1.29295975e-01, 3.18213366e-02,
          1.75338596e-01, 5.49816728e-01, 5.49816728e-01, 5.49816728e-01,
          2.09686975e-03, 5.73258549e-02, 1.89340532e-01, 1.43517941e-01,
          4.78737503e-02, 2.02308944e-03, 5.53462088e-01, 5.53462088e-01,
          5.53462088e-01, 2.89119524e-03, 1.18645102e-01, 1.96300060e-01,
          2.41390720e-01, 1.36388302e-01, 9.65617131e-03, 2.60070652e-01,
          5.82952499e-01, 5.82952499e-01, 3.89700353e-01, 3.23867351e-02,
          1.30365506e-01 ]
      - [ 4.12799984e-01, 4.12799984e-01, 1.15683623e-01, 1.33537804e-04,
          3.18701528e-02, 4.12799984e-01, 4.12799984e-01, 3.59803885e-01,
          4.12799984e-01, 3.69147032e-01, 3.69147032e-01, 3.69147032e-01,
          3.69147032e-01, 3.22455429e-02, 2.03433976e-01, 3.69147032e-01,
          3.69147032e-01, 3.69147032e-01, 4.18724209e-01, 3.04627031e-01,
          4.18724209e-01, 4.18724209e-01, 5.09451404e-02, 1.16630422e-03,
          1.54184237e-01, 4.18724209e-01, 4.18724209e-01, 3.41744870e-01,
          3.41744870e-01, 3.41744870e-01, 3.41744870e-01, 2.49537736e-01,
          3.41744870e-01, 3.41744870e-01, 3.41744870e-01, 3.41744870e-01,
          4.01888043e-01, 4.01888043e-01, 1.64816350e-01, 4.01888043e-01,
          3.41287941e-01, 1.80116728e-01, 1.11046053e-01, 4.01888043e-01,
          4.01888043e-01, 3.55777591e-01, 3.55777591e-01, 3.55777591e-01,
          3.55777591e-01, 1.52674556e-01, 3.55777591e-01, 3.55777591e-01,
          3.55777591e-01, 2.95113415e-01, 1.28432438e-01, 3.19402143e-02,
          1.76356509e-01, 5.49806237e-01, 5.49806237e-01, 5.49806237e-01,
          2.73326784e-03, 5.79955988e-02, 1.88841686e-01, 1.42835379e-01,
          4.80849668e-02, 2.11712974e-03, 5.53233802e-01, 5.53233802e-01,
          5.53233802e-01, 3.05424584e-03, 1.20685101e-01, 1.97432697e-01,
          2.43700862e-01, 1.36524498e-01, 1.00580202e-02, 2.72874504e-01,
          5.80066979e-01, 5.80066979e-01, 3.88546258e-01, 3.22652757e-02,
          1.29044175e-01 ]
      - [ 4.20594662e-01, 4.20594662e-01, 3.27786863e-01, 1.08455832e-03,
          3.58869578e-03, 6.19739555e-02, 4.20594662e-01, 4.20594662e-01,
          4.20594662e-01, 4.08160418e-01, 4.08160418e-01, 4.03502941e-01,
          0., 9.96539090e-03, 5.84340654e-03, 4.08160418e-01,
          4.08160418e-01, 4.08160418e-01, 4.21192139e-01, 4.26669806e-01,
          4.26669806e-01, 1.22716442e-01, 8.56731087e-04, 4.75843524e-04,
          2.74018854e-01, 4.26669806e-01, 4.26669806e-01, 3.53897482e-01,
          3.53897482e-01, 3.53897482e-01, 2.64543712e-01, 2.96533704e-01,
          2.95106858e-01, 3.53897482e-01, 3.53897482e-01, 3.53897482e-01,
          3.17456216e-01, 3.66313785e-01, 3.66313785e-01, 3.66313785e-01,
          2.34396905e-01, 1.88428238e-01, 3.66313785e-01, 3.66313785e-01,
          3.66313785e-01, 3.90534431e-01, 3.90534431e-01, 3.90534431e-01,
          6.80357441e-02, 8.33343565e-02, 3.90534431e-01, 3.90534431e-01,
          3.09421927e-01, 3.55242848e-01, 3.76613557e-01, 1.24196790e-01,
          9.62155387e-02, 4.75293070e-01, 4.75293070e-01, 4.75293070e-01,
          4.40719314e-02, 1.15027145e-01, 3.68576437e-01, 2.08462879e-01,
          6.66294843e-02, 2.78000087e-01, 4.57089484e-01, 4.57089484e-01,
          4.57089484e-01, 5.87658584e-02, 3.02913517e-01, 3.85034591e-01,
          4.76631224e-01, 2.51427591e-01, 1.99988857e-02, 2.91756749e-01,
          4.76631224e-01, 4.76631224e-01, 2.29538575e-01, 4.97081764e-02,
          3.31377238e-01 ]
      - [ 4.04826462e-01, 4.04826462e-01, 1.12467229e-01, 4.45368001e-04,
          7.75288427e-05, 4.04826462e-01, 4.04826462e-01, 4.04826462e-01,
          4.04826462e-01, 3.73899877e-01, 3.73899877e-01, 3.73899877e-01,
          3.73899877e-01, 2.93663936e-03, 1.32845953e-01, 3.73899877e-01,
          3.73899877e-01, 3.73899877e-01, 4.02822971e-01, 4.02822971e-01,
          4.02822971e-01, 4.02822971e-01, 2.39524335e-04, 1.84973964e-04,
          1.49591610e-01, 4.02822971e-01, 4.02822971e-01, 3.43073934e-01,
          3.43073934e-01, 3.43073934e-01, 3.43073934e-01, 2.34466463e-01,
          3.43073934e-01, 3.43073934e-01, 3.43073934e-01, 3.43073934e-01,
          3.69230837e-01, 3.69230837e-01, 1.41101703e-01, 3.69230837e-01,
          3.59937668e-01, 1.69876024e-01, 3.69230837e-01, 3.69230837e-01,
          3.69230837e-01, 3.68056566e-01, 3.68056566e-01, 3.68056566e-01,
          3.68056566e-01, 5.46613894e-02, 3.68056566e-01, 3.68056566e-01,
          3.68056566e-01, 2.12309808e-01, 1.45391807e-01, 4.85268347e-02,
          2.21701324e-01, 5.42126834e-01, 5.42126834e-01, 5.42126834e-01,
          8.25208612e-03, 8.85659829e-02, 1.79789782e-01, 1.79229513e-01,
          5.57156987e-02, 3.51128425e-03, 5.42450845e-01, 5.42450845e-01,
          5.42450845e-01, 2.21735910e-02, 1.36865750e-01, 2.39500478e-01,
          2.74037957e-01, 1.42179996e-01, 2.76314486e-02, 4.26022828e-01,
          5.36343396e-01, 5.36343396e-01, 3.57794642e-01, 2.51486897e-02,
          1.14433840e-01 ]
      - [ 4.17394608e-01, 4.17394608e-01, 2.79368848e-01, 2.67209456e-04,
          8.63897876e-05, 2.16083482e-01, 4.17394608e-01, 4.17394608e-01,
          4.17394608e-01, 4.12170947e-01, 4.12170947e-01, 3.81401986e-01,
          2.89824326e-02, 6.33642171e-03, 1.05110379e-02, 4.12170947e-01,
          4.12170947e-01, 4.12170947e-01, 4.28830445e-01, 4.28830445e-01,
          4.28830445e-01, 7.31818601e-02, 5.97696286e-03, 1.83694214e-02,
          2.65536904e-01, 4.28830445e-01, 4.28830445e-01, 3.88261497e-01,
          3.88261497e-01, 3.88261497e-01, 1.43776610e-01, 7.17705563e-02,
          2.56547362e-01, 3.88261497e-01, 3.88261497e-01, 3.88261497e-01,
          3.54947269e-01, 3.67466748e-01, 3.67466748e-01, 3.14043164e-01,
          1.88215420e-01, 2.47252956e-01, 3.67466748e-01, 3.67466748e-01,
          3.67466748e-01, 3.95447403e-01, 3.95447403e-01, 3.95447403e-01,
          1.10374250e-01, 9.15928856e-02, 3.00497234e-01, 3.95447403e-01,
          3.95447403e-01, 3.21381450e-01, 2.30072647e-01, 9.23898220e-02,
          2.29968831e-01, 5.07227063e-01, 5.07227063e-01, 5.07227063e-01,
          1.51690379e-01, 1.52033955e-01, 2.50233859e-01, 1.42114878e-01,
          6.17319234e-02, 4.58700627e-01, 4.58700627e-01, 4.58700627e-01,
          4.58700627e-01, 2.42179543e-01, 1.52181476e-01, 2.19033748e-01,
          3.37067962e-01, 1.78580761e-01, 9.09634307e-02, 3.77004474e-01,
          4.99179751e-01, 4.99179751e-01, 4.01761770e-01, 4.54919226e-02,
          1.93025634e-01 ]
      - [ 3.98250997e-01, 4.26068783e-01, 3.09243172e-01, 2.46883574e-04,
          7.69933453e-04, 1.23974100e-01, 4.26068783e-01, 4.26068783e-01,
          4.26068783e-01, 4.07339007e-01, 4.07339007e-01, 4.07339007e-01,
          1.68135427e-02, 5.51130436e-03, 8.19960143e-03, 4.07339007e-01,
          4.07339007e-01, 4.07339007e-01, 4.31774944e-01, 4.31774944e-01,
          4.31774944e-01, 1.58062309e-01, 1.24414163e-02, 2.42819972e-02,
          1.94450095e-01, 4.31774944e-01, 4.31774944e-01, 3.97899717e-01,
          3.97899717e-01, 3.97899717e-01, 1.24916889e-01, 5.51217087e-02,
          1.65642455e-01, 3.97899717e-01, 3.97899717e-01, 3.97899717e-01,
          3.33246768e-01, 3.66616189e-01, 3.66616189e-01, 2.37399280e-01,
          1.85075641e-01, 3.50193143e-01, 3.66616189e-01, 3.66616189e-01,
          3.66616189e-01, 3.88787806e-01, 3.88787806e-01, 3.88787806e-01,
          1.44661024e-01, 1.44226059e-01, 2.17835471e-01, 3.88787806e-01,
          3.88787806e-01, 3.88787806e-01, 1.90362588e-01, 7.34918937e-02,
          2.87943482e-01, 5.04674613e-01, 5.04674613e-01, 5.04674613e-01,
          1.40446782e-01, 1.60837382e-01, 2.46426523e-01, 1.23402990e-01,
          7.81029686e-02, 4.42455351e-01, 4.42455351e-01, 4.42455351e-01,
          4.42455351e-01, 3.80692095e-01, 1.18389770e-01, 1.79561913e-01,
          3.97679329e-01, 1.49666235e-01, 1.90279588e-01, 4.72668082e-01,
          4.72668082e-01, 4.72668082e-01, 1.65003479e-01, 6.23527654e-02,
          2.77784884e-01 ]
      - [ 4.01122659e-01, 4.01122659e-01, 4.01122659e-01, 1.37699638e-02,
          1.73805431e-01, 1.40826143e-02, 4.01122659e-01, 4.01122659e-01,
          4.01122659e-01, 3.80418569e-01, 3.80418569e-01, 3.56565952e-01,
          2.73056906e-02, 3.80418569e-01, 2.19209027e-03, 3.80418569e-01,
          3.80418569e-01, 3.80418569e-01, 4.00238842e-01, 4.00238842e-01,
          4.00238842e-01, 4.19823602e-02, 2.36877069e-01, 5.47066098e-03,
          3.70327741e-01, 4.00238842e-01, 4.00238842e-01, 2.02997416e-01,
          4.28420365e-01, 4.28420365e-01, 4.28420365e-01, 1.15293428e-01,
          6.19026870e-02, 4.28420365e-01, 4.28420365e-01, 1.40242025e-01,
          3.45480680e-01, 3.45480680e-01, 3.45480680e-01, 3.30917597e-01,
          2.69734412e-01, 3.13278943e-01, 3.45480680e-01, 3.45480680e-01,
          3.45480680e-01, 3.58216017e-01, 4.08660859e-01, 4.08660859e-01,
          1.10404447e-01, 9.67816561e-02, 3.35580260e-01, 4.08660859e-01,
          4.08660859e-01, 2.55761832e-01, 8.79598856e-02, 6.02882206e-02,
          5.16143978e-01, 5.16143978e-01, 5.16143978e-01, 3.77120584e-01,
          7.08572716e-02, 1.67601377e-01, 9.44933444e-02, 1.95660502e-01,
          1.44646198e-01, 3.13307166e-01, 5.00706911e-01, 5.00706911e-01,
          5.00706911e-01, 1.13745563e-01, 1.60188451e-01, 2.16591269e-01,
          1.96217731e-01, 2.63843596e-01, 4.16478872e-01, 4.16478872e-01,
          4.16478872e-01, 4.16478872e-01, 4.16478872e-01, 4.75531034e-02,
          1.34870365e-01 ]
      - [ 4.11482334e-01, 4.11482334e-01, 2.24799644e-02, 8.88717175e-03,
          1.27181001e-02, 4.11482334e-01, 4.11482334e-01, 3.85428160e-01,
          4.11482334e-01, 4.13470477e-01, 3.96545768e-01, 2.50692546e-01,
          1.08328901e-01, 2.05472723e-01, 1.94906831e-01, 4.13470477e-01,
          4.13470477e-01, 4.13470477e-01, 4.05037135e-01, 4.05037135e-01,
          4.05037135e-01, 4.05037135e-01, 1.25599205e-02, 9.72681865e-03,
          1.06634408e-01, 4.05037135e-01, 4.05037135e-01, 3.50542992e-01,
          3.50542992e-01, 1.15993530e-01, 3.50542992e-01, 3.50542992e-01,
          3.50542992e-01, 3.50542992e-01, 3.50542992e-01, 3.50542992e-01,
          3.99162769e-01, 3.99162769e-01, 2.70020906e-02, 3.99162769e-01,
          3.99162769e-01, 1.60687506e-01, 1.16091862e-01, 3.99162769e-01,
          3.99162769e-01, 3.54997933e-01, 3.54997933e-01, 3.54997933e-01,
          3.06920171e-01, 1.79083452e-01, 3.54997933e-01, 3.37699711e-01,
          3.54997933e-01, 3.54997933e-01, 3.69885534e-01, 2.79033743e-02,
          5.72782345e-02, 4.90138203e-01, 4.90138203e-01, 4.90138203e-01,
          6.36806479e-03, 7.97973126e-02, 3.56532454e-01, 2.57353425e-01,
          5.13869412e-02, 6.37868717e-02, 5.33963621e-01, 5.33963621e-01,
          3.70397568e-01, 1.76524743e-02, 2.97924519e-01, 3.53875756e-01,
          4.93906021e-01, 2.49903083e-01, 2.56468151e-02, 2.47010127e-01,
          4.93906021e-01, 4.93906021e-01, 1.37876183e-01, 7.08252415e-02,
          3.39246392e-01 ]
      - [ 4.07186121e-01, 4.07186121e-01, 3.26646045e-02, 1.20433513e-03,
          7.78097473e-03, 4.07186121e-01, 4.07186121e-01, 4.07186121e-01,
          4.07186121e-01, 4.48991925e-01, 4.48991925e-01, 6.97980598e-02,
          1.90966651e-02, 4.97943209e-03, 1.12775646e-01, 4.13715571e-01,
          4.48991925e-01, 4.48991925e-01, 4.15550441e-01, 4.15550441e-01,
          4.15550441e-01, 3.34264249e-01, 2.80203356e-04, 1.70603879e-02,
          1.42878801e-01, 4.15550441e-01, 4.15550441e-01, 3.45433325e-01,
          3.45433325e-01, 2.27753147e-01, 3.45433325e-01, 3.45433325e-01,
          3.45433325e-01, 3.30768943e-01, 3.45433325e-01, 3.45433325e-01,
          4.14351046e-01, 4.14351046e-01, 9.93786827e-02, 4.14351046e-01,
          2.59792238e-01, 2.26981804e-01, 9.24016014e-02, 4.14351046e-01,
          4.14351046e-01, 3.67910147e-01, 3.67910147e-01, 3.67910147e-01,
          1.96415514e-01, 1.50151372e-01, 3.67910147e-01, 3.51653069e-01,
          3.67910147e-01, 3.67083818e-01, 2.30640039e-01, 4.81966771e-02,
          8.80758688e-02, 5.07844388e-01, 5.07844388e-01, 5.07844388e-01,
          1.49454568e-02, 9.83808935e-02, 3.84750545e-01, 1.28100008e-01,
          4.78268974e-02, 9.73547921e-02, 5.50487816e-01, 5.50487816e-01,
          4.28535551e-01, 9.61467065e-03, 2.60684013e-01, 3.29488516e-01,
          4.20892984e-01, 2.78341293e-01, 4.14238311e-03, 2.82353491e-01,
          5.25375962e-01, 5.25375962e-01, 1.11879431e-01, 8.12235177e-02,
          2.98720002e-01 ]
      - [ 4.04093325e-01, 4.04093325e-01, 1.19437233e-01, 1.78021044e-02,
          4.04067077e-02, 4.04093325e-01, 4.04093325e-01, 4.04093325e-01,
          4.04093325e-01, 4.30965990e-01, 4.30965990e-01, 2.33685285e-01,
          4.39197235e-02, 6.97387755e-02, 7.50686005e-02, 4.30965990e-01,
          4.30965990e-01, 4.30965990e-01, 4.19017553e-01, 4.19017553e-01,
          4.19017553e-01, 2.97424883e-01, 1.08114742e-02, 5.25381416e-03,
          1.71259224e-01, 4.19017553e-01, 4.19017553e-01, 3.63832116e-01,
          3.63832116e-01, 3.07821244e-01, 2.46128350e-01, 2.16307729e-01,
          3.63832116e-01, 3.63832116e-01, 3.63832116e-01, 3.63832116e-01,
          3.92969579e-01, 3.92969579e-01, 1.78266481e-01, 3.92969579e-01,
          1.62041336e-01, 1.07178599e-01, 3.92969579e-01, 3.92969579e-01,
          3.92969579e-01, 3.84019494e-01, 3.84019494e-01, 3.84019494e-01,
          2.34176964e-01, 8.66109058e-02, 3.84019494e-01, 3.84019494e-01,
          3.52389067e-01, 2.68868417e-01, 4.51886177e-01, 1.12051204e-01,
          1.60292909e-01, 4.51886177e-01, 4.51886177e-01, 4.51886177e-01,
          3.16214263e-02, 1.48260772e-01, 3.42711478e-01, 2.10773468e-01,
          8.21494386e-02, 1.20282285e-01, 4.87484932e-01, 4.87484932e-01,
          3.21339935e-01, 7.46691227e-02, 3.28221977e-01, 4.87484932e-01,
          4.77163553e-01, 3.95409018e-01, 9.92116705e-03, 8.35266709e-02,
          4.77163553e-01, 4.77163553e-01, 1.77150533e-01, 4.91352007e-02,
          3.39056045e-01 ]
      - [ 4.07214075e-01, 4.07214075e-01, 3.02563272e-02, 3.09071830e-03,
          8.19126423e-03, 4.07214075e-01, 4.07214075e-01, 4.07214075e-01,
          4.07214075e-01, 4.34930533e-01, 4.34930533e-01, 1.94883570e-01,
          4.63089719e-02, 7.97934532e-02, 5.78067303e-02, 4.34930533e-01,
          4.34930533e-01, 4.34930533e-01, 4.05209690e-01, 4.05209690e-01,
          4.05209690e-01, 4.05209690e-01, 5.19255130e-03, 9.09407740e-04,
          1.03705935e-01, 4.05209690e-01, 4.05209690e-01, 3.56123298e-01,
          3.56123298e-01, 2.02986643e-01, 2.99963742e-01, 3.22982073e-01,
          3.56123298e-01, 3.56123298e-01, 3.56123298e-01, 3.56123298e-01,
          4.03457940e-01, 4.03457940e-01, 1.50062442e-01, 3.12701613e-01,
          2.41553530e-01, 5.85575737e-02, 4.03457940e-01, 4.03457940e-01,
          4.03457940e-01, 3.67285132e-01, 3.67285132e-01, 3.67285132e-01,
          3.64045084e-01, 7.27565214e-02, 3.67285132e-01, 3.62747997e-01,
          2.64431596e-01, 3.42643559e-01, 3.82446647e-01, 8.74793157e-02,
          4.50320691e-02, 4.64179665e-01, 4.64179665e-01, 4.64179665e-01,
          1.52991852e-02, 1.21762723e-01, 4.21864033e-01, 2.19835997e-01,
          8.76446739e-02, 1.49784572e-02, 4.97180700e-01, 4.97180700e-01,
          1.76765859e-01, 6.64643422e-02, 4.01958942e-01, 4.97180700e-01,
          4.65916127e-01, 3.71194899e-01, 1.30848447e-02, 1.54814646e-01,
          4.65916127e-01, 4.65916127e-01, 1.06991813e-01, 5.94046339e-02,
          4.08916056e-01 ]
      - [ 2.99398571e-01, 4.25458014e-01, 4.25458014e-01, 2.49685589e-02,
          1.96750015e-02, 5.21902414e-03, 4.25458014e-01, 4.25458014e-01,
          4.25458014e-01, 2.16144025e-01, 4.17152554e-01, 4.17152554e-01,
          4.17152554e-01, 2.48727009e-01, 1.23575628e-01, 4.17152554e-01,
          4.17152554e-01, 4.35582362e-02, 3.96769166e-01, 3.96769166e-01,
          3.96769166e-01, 3.96769166e-01, 1.79666866e-04, 0.,
          2.26895347e-01, 3.96769166e-01, 3.96769166e-01, 2.27382351e-02,
          2.65024483e-01, 3.87040377e-01, 4.40139353e-01, 1.15227411e-02,
          4.98126168e-03, 4.40139353e-01, 4.40139353e-01, 4.40139353e-01,
          5.64467192e-01, 2.77628396e-02, 1.17506526e-01, 1.30530775e-01,
          6.13240525e-03, 0., 8.26996714e-02, 5.64467192e-01,
          5.64467192e-01, 4.44975436e-01, 4.44975436e-01, 4.44975436e-01,
          2.91467518e-01, 4.08373866e-03, 1.27373144e-01, 4.44975436e-01,
          2.59592980e-01, 1.86976731e-01, 1.15010832e-02, 2.64826755e-04,
          3.39085251e-01, 7.94550419e-01, 2.40131691e-01, 4.98362491e-03,
          8.66542757e-03, 2.26358861e-01, 3.69658530e-01, 4.03842062e-01,
          5.09262923e-03, 3.48586924e-02, 4.57051575e-01, 4.57051575e-01,
          4.41674560e-01, 3.54748539e-04, 9.66450125e-02, 4.57051575e-01,
          4.90936816e-01, 2.89295822e-01, 1.62780389e-01, 6.14557937e-02,
          4.90936816e-01, 4.90936816e-01, 2.34131530e-01, 2.79410202e-02,
          3.20117533e-01 ]
      - [ 4.17757601e-01, 4.17757601e-01, 3.01204532e-01, 1.99147407e-03,
          1.02371734e-03, 1.80251271e-01, 4.17757601e-01, 4.17757601e-01,
          4.17757601e-01, 4.17173773e-01, 4.17173773e-01, 3.54309112e-01,
          2.17449549e-03, 5.14701940e-03, 9.83218104e-03, 4.17173773e-01,
          4.17173773e-01, 4.17173773e-01, 4.12109435e-01, 4.12109435e-01,
          4.12109435e-01, 2.15120569e-01, 0., 0., 3.16915512e-01,
          4.12109435e-01, 4.12109435e-01, 3.54860783e-01, 3.54860783e-01,
          3.54860783e-01, 2.05714568e-01, 3.51177305e-01, 2.74323672e-01,
          3.54860783e-01, 3.54860783e-01, 3.54860783e-01, 2.54829705e-01,
          3.76298130e-01, 3.76298130e-01, 3.38042051e-01, 1.27573565e-01,
          3.50060791e-01, 3.76298130e-01, 3.76298130e-01, 3.34381849e-01,
          4.01489258e-01, 4.01489258e-01, 4.01489258e-01, 1.05612554e-01,
          8.25380459e-02, 3.17550480e-01, 4.01489258e-01, 4.01489258e-01,
          2.66863316e-01, 3.79472405e-01, 1.52739927e-01, 1.68036729e-01,
          4.54552144e-01, 4.54552144e-01, 4.54552144e-01, 1.38824791e-01,
          2.01412693e-01, 3.46701920e-01, 1.56632155e-01, 9.18369591e-02,
          4.30533946e-01, 4.30533946e-01, 4.30533946e-01, 4.30533946e-01,
          3.32397997e-01, 2.72978365e-01, 1.90494284e-01, 3.98164630e-01,
          4.40842390e-01, 6.11388721e-02, 3.25279713e-01, 4.40842390e-01,
          4.40842390e-01, 2.56799608e-01, 1.32270113e-01, 2.47081205e-01 ]
      - [ 4.23164576e-01, 4.23164576e-01, 2.71515340e-01, 4.69684368e-03,
          7.84713309e-03, 1.63178727e-01, 4.23164576e-01, 4.23164576e-01,
          4.23164576e-01, 4.20389384e-01, 4.20389384e-01, 3.34076226e-01,
          2.36214814e-03, 1.77975092e-02, 1.53347757e-02, 4.20389384e-01,
          4.20389384e-01, 4.20389384e-01, 4.32609409e-01, 4.32609409e-01,
          4.32609409e-01, 1.50241211e-01, 1.30756665e-02, 1.09961757e-03,
          1.92819938e-01, 4.32609409e-01, 4.32609409e-01, 3.71587783e-01,
          3.71587783e-01, 3.71587783e-01, 2.27435246e-01, 2.40289241e-01,
          2.41572186e-01, 3.71587783e-01, 3.71587783e-01, 3.71587783e-01,
          2.60273039e-01, 3.98366392e-01, 3.98366392e-01, 1.99217156e-01,
          2.60290474e-01, 2.83733815e-01, 3.98366392e-01, 3.98366392e-01,
          3.24887156e-01, 3.95120293e-01, 3.95120293e-01, 3.95120293e-01,
          1.39686227e-01, 1.44610703e-01, 2.95581222e-01, 3.95120293e-01,
          3.95120293e-01, 2.96073854e-01, 2.76299983e-01, 1.88685685e-01,
          1.95978150e-01, 4.65837061e-01, 4.65837061e-01, 4.65837061e-01,
          1.60704091e-01, 2.14720726e-01, 3.49359959e-01, 1.37645826e-01,
          9.57980826e-02, 4.18336838e-01, 4.18336838e-01, 4.18336838e-01,
          4.18336838e-01, 4.00997907e-01, 2.69939125e-01, 1.84412763e-01,
          4.39788461e-01, 3.74265105e-01, 8.62281770e-02, 3.13973159e-01,
          4.50046033e-01, 4.50046033e-01, 2.31413543e-01, 1.18433110e-01,
          2.88687408e-01 ]
      - [ 4.22166258e-01, 4.22166258e-01, 3.09670717e-01, 2.92044692e-03,
          4.91197221e-03, 9.34469476e-02, 4.22166258e-01, 4.22166258e-01,
          4.22166258e-01, 4.14340168e-01, 4.14340168e-01, 3.70209634e-01,
          1.92524667e-03, 1.18338699e-02, 1.65238138e-02, 4.14340168e-01,
          4.14340168e-01, 4.14340168e-01, 4.12455231e-01, 4.12455231e-01,
          4.12455231e-01, 1.99827999e-01, 4.92643216e-04, 0.,
          3.24579060e-01, 4.12455231e-01, 4.12455231e-01, 3.56736422e-01,
          3.56736422e-01, 3.56736422e-01, 2.66683400e-01, 3.12319577e-01,
          2.53391087e-01, 3.56736422e-01, 3.56736422e-01, 3.56736422e-01,
          2.61367381e-01, 3.81517917e-01, 3.81517917e-01, 3.16207796e-01,
          2.09607810e-01, 3.41503173e-01, 3.81517917e-01, 3.81517917e-01,
          2.91727066e-01, 3.95807117e-01, 3.95807117e-01, 3.95807117e-01,
          1.18460178e-01, 1.38714716e-01, 3.17270488e-01, 3.95807117e-01,
          3.95807117e-01, 2.80703485e-01, 2.23957554e-01, 1.86879292e-01,
          1.77231535e-01, 4.95603293e-01, 4.95603293e-01, 4.95603293e-01,
          1.64237380e-01, 1.61929771e-01, 2.97481656e-01, 1.01989172e-01,
          9.50654373e-02, 4.28137630e-01, 4.28137630e-01, 4.28137630e-01,
          4.28137630e-01, 4.05217975e-01, 2.36109301e-01, 1.52076975e-01,
          3.69995832e-01, 3.92441779e-01, 8.80583003e-02, 3.54119837e-01,
          4.70284045e-01, 4.70284045e-01, 2.82674700e-01, 1.14786454e-01,
          1.89275235e-01 ]
      - [ 6.89692616e-01, 6.89692616e-01, 4.31425811e-04, 0.,
          5.29130772e-02, 1.66559964e-01, 9.70745981e-02, 1.96282957e-02,
          3.75801213e-02, 5.14818788e-01, 5.14818788e-01, 6.90512955e-02,
          1.12935126e-01, 4.52338040e-01, 3.10595632e-01, 2.22914279e-01,
          1.60229504e-01, 2.66112059e-01, 4.90105540e-01, 1.13063022e-01,
          7.83271864e-02, 7.42454156e-02, 9.78557989e-02, 1.68739893e-02,
          4.90105540e-01, 4.90105540e-01, 4.90105540e-01, 4.96798813e-01,
          4.96798813e-01, 2.03882635e-01, 2.77470469e-01, 4.96798813e-01,
          1.54905364e-01, 2.44821742e-01, 1.60927519e-01, 1.61932111e-01,
          3.68492246e-01, 3.68492246e-01, 2.02729672e-01, 3.15194696e-01,
          3.68492246e-01, 3.68492246e-01, 3.37002099e-01, 2.51730740e-01,
          3.68492246e-01, 3.27512652e-01, 1.93317682e-01, 1.65010825e-01,
          1.13644905e-01, 4.08303082e-01, 3.79862577e-01, 4.08303082e-01,
          4.08303082e-01, 4.08303082e-01, 3.28440107e-02, 8.61138701e-02,
          1.56472743e-01, 5.46110690e-01, 8.11447084e-01, 2.27094516e-02,
          5.84282540e-03, 1.86023880e-02, 3.66717428e-02, 1.50528729e-01,
          1.70389023e-02, 5.41967154e-01, 5.41967154e-01, 5.41967154e-01,
          2.44681656e-01, 1.32284626e-01, 1.89453121e-02, 1.12809516e-01,
          3.13447006e-02, 4.76809824e-03, 2.28899226e-01, 4.47582304e-01,
          4.88855422e-01, 4.88855422e-01, 4.88855422e-01, 7.40403384e-02,
          1.37719080e-01 ]
      - [ 5.86716354e-01, 5.86716354e-01, 1.83131755e-03, 7.66835874e-04,
          3.02714407e-02, 5.51980615e-01, 7.53015140e-03, 0.,
          3.10833706e-03, 5.30264080e-01, 5.30264080e-01, 2.69529939e-01,
          9.06623080e-02, 2.18815833e-01, 5.30264080e-01, 1.31882876e-01,
          5.62660992e-02, 4.31179889e-02, 2.97959685e-01, 3.61728311e-01,
          4.57219183e-01, 1.38512388e-01, 1.63421914e-01, 2.59160340e-01,
          4.57219183e-01, 4.57219183e-01, 1.88682839e-01, 4.29715872e-01,
          4.29715872e-01, 5.19128442e-02, 1.08956032e-01, 4.29715872e-01,
          4.29715872e-01, 3.03590000e-01, 1.05315126e-01, 3.73175651e-01,
          3.98099959e-01, 3.98099959e-01, 3.98099959e-01, 7.85479173e-02,
          3.98099959e-01, 3.98099959e-01, 1.93812206e-01, 3.72621641e-02,
          3.98099959e-01, 4.00457501e-01, 4.00746673e-01, 4.00746673e-01,
          5.07172048e-02, 1.32726356e-01, 1.11590251e-01, 4.00746673e-01,
          4.00746673e-01, 4.00746673e-01, 2.96861708e-01, 1.30266950e-01,
          9.37358439e-02, 5.80403388e-01, 6.74285054e-01, 9.88359004e-02,
          9.51030999e-02, 6.16968498e-02, 2.55416900e-01, 3.26516360e-01,
          3.19222003e-01, 4.52194184e-01, 4.52194184e-01, 4.52194184e-01,
          2.39686146e-01, 1.19945012e-01, 1.74663141e-02, 3.18414181e-01,
          2.74217248e-01, 2.95151621e-01, 3.75004143e-01, 3.23639393e-01,
          3.75004143e-01, 3.75004143e-01, 3.75004143e-01, 1.61434174e-01,
          3.75004143e-01 ]
      - [ 6.87681019e-01, 6.87681019e-01, 6.67791901e-05, 0.,
          1.21845221e-02, 2.13868424e-01, 3.10825370e-02, 0.,
          2.16867290e-02, 5.52145481e-01, 5.52145481e-01, 6.48165494e-02,
          1.30776122e-01, 3.67517382e-01, 3.69105339e-01, 1.16920285e-01,
          7.72476271e-02, 2.69273221e-01, 4.88857746e-01, 1.01875439e-01,
          8.29121768e-02, 8.61286819e-02, 9.19957012e-02, 7.78166726e-02,
          4.88857746e-01, 4.88857746e-01, 4.88857746e-01, 4.82637852e-01,
          4.82637852e-01, 1.19063593e-01, 2.91559130e-01, 4.82637852e-01,
          2.69447356e-01, 2.88042396e-01, 9.29979682e-02, 1.81548432e-01,
          3.65322649e-01, 3.65322649e-01, 2.29889810e-01, 3.42693061e-01,
          3.65322649e-01, 3.65322649e-01, 3.65322649e-01, 1.59054697e-01,
          3.65322649e-01, 2.80929953e-01, 2.71017492e-01, 3.06667805e-01,
          1.60531163e-01, 2.04601347e-01, 2.00156778e-01, 4.62338269e-01,
          4.62338269e-01, 4.62338269e-01, 7.72226155e-02, 1.54244214e-01,
          1.15415134e-01, 6.86783552e-01, 6.86783552e-01, 2.56088236e-03,
          3.68681774e-02, 2.28718538e-02, 6.95453808e-02, 3.12010646e-01,
          3.90136130e-02, 5.79738570e-03, 6.37564123e-01, 6.37564123e-01,
          1.50011525e-01, 3.22440639e-02, 3.14097814e-02, 2.39212349e-01,
          7.13250637e-02, 2.01689843e-02, 4.89869621e-03, 4.99431133e-01,
          4.99431133e-01, 4.99431133e-01, 2.57636249e-01, 2.46871293e-01,
          3.37457478e-01 ]
      - [ 6.80612624e-01, 6.80612624e-01, 1.53058663e-05, 0.,
          1.38161212e-01, 2.14128554e-01, 2.38326825e-02, 0.,
          3.50844674e-02, 4.96409953e-01, 4.96409953e-01, 5.48968762e-02,
          1.15694381e-01, 4.30036247e-01, 3.42881322e-01, 5.44572175e-02,
          2.01833650e-01, 3.73626173e-01, 4.81836170e-01, 1.40734598e-01,
          1.03624240e-01, 1.29648045e-01, 1.35177344e-01, 2.99564563e-02,
          4.81836170e-01, 4.81836170e-01, 4.81836170e-01, 4.66113627e-01,
          4.66113627e-01, 1.24768995e-01, 1.49662271e-01, 4.66113627e-01,
          2.70314366e-01, 2.51444429e-01, 2.36355796e-01, 3.36800337e-01,
          3.96985769e-01, 3.96985769e-01, 2.55450547e-01, 2.68837124e-01,
          3.96985769e-01, 3.96985769e-01, 2.03658909e-01, 1.70411900e-01,
          3.96985769e-01, 4.03524220e-01, 2.86067009e-01, 3.74531448e-01,
          2.07372129e-01, 2.70490855e-01, 7.97815099e-02, 4.03524220e-01,
          4.03524220e-01, 4.03524220e-01, 1.24671116e-01, 8.16248879e-02,
          1.50897175e-01, 6.37113690e-01, 7.20155954e-01, 4.01820987e-02,
          2.96327900e-02, 5.30303456e-02, 1.34136796e-01, 3.02091807e-01,
          5.17689213e-02, 7.98099488e-03, 5.92838228e-01, 5.92838228e-01,
          9.64050740e-02, 2.05127839e-02, 3.46844271e-02, 4.31561291e-01,
          2.09207565e-01, 4.35094982e-02, 1.01429597e-02, 4.79468912e-01,
          4.79468912e-01, 4.79468912e-01, 2.64510423e-01, 2.72784680e-01,
          3.39703768e-01 ]
      - [ 5.35901845e-01, 5.35901845e-01, 6.39431849e-02, 4.77301553e-02,
          1.14194967e-01, 4.11081582e-01, 3.27578813e-01, 2.71801144e-01,
          2.25138560e-01, 4.64243233e-01, 4.64243233e-01, 1.17111750e-01,
          1.28577545e-01, 3.74215573e-01, 4.64243233e-01, 1.97494775e-01,
          2.93546319e-01, 2.30953604e-01, 4.76694584e-01, 2.06289321e-01,
          1.27916530e-01, 1.02284104e-01, 1.25898138e-01, 3.25190946e-02,
          4.76694584e-01, 4.76694584e-01, 4.76694584e-01, 4.16368961e-01,
          4.16368961e-01, 1.25433087e-01, 3.37054491e-01, 4.16368961e-01,
          4.16368961e-01, 3.03780019e-01, 1.99208498e-01, 2.02688977e-01,
          3.77616018e-01, 3.77616018e-01, 3.22581381e-01, 2.73862123e-01,
          3.77616018e-01, 3.77616018e-01, 2.37723380e-01, 2.18372285e-01,
          3.77616018e-01, 3.80623460e-01, 2.03479156e-01, 2.62333006e-01,
          1.29343882e-01, 3.80623460e-01, 3.80623460e-01, 3.80623460e-01,
          3.80623460e-01, 3.80623460e-01, 2.11215928e-01, 8.16197023e-02,
          1.43170372e-01, 5.49466789e-01, 5.49466789e-01, 5.49466789e-01,
          4.64170836e-02, 6.41802251e-02, 1.03568457e-01, 3.26053232e-01,
          4.23319228e-02, 2.54415065e-01, 5.40255547e-01, 5.40255547e-01,
          4.12180990e-01, 1.05309106e-01, 3.40947695e-02, 2.36383736e-01,
          1.54362917e-01, 2.75643170e-02, 1.13977313e-01, 4.73495692e-01,
          4.74485934e-01, 4.74485934e-01, 4.74485934e-01, 1.10117100e-01,
          2.14354098e-01 ]
      - [ 6.89884305e-01, 6.89884305e-01, 0., 0., 5.85382283e-02,
          1.89677164e-01, 1.64171103e-02, 2.64792563e-03, 3.93929556e-02,
          5.35941899e-01, 5.35941899e-01, 6.49516433e-02, 8.24027434e-02,
          4.18061048e-01, 4.05027241e-01, 8.13640058e-02, 1.43205434e-01,
          2.07897365e-01, 4.82648849e-01, 1.11403450e-01, 1.13730535e-01,
          1.03971168e-01, 1.58015743e-01, 4.74898256e-02, 4.82648849e-01,
          4.82648849e-01, 4.82648849e-01, 4.74309772e-01, 4.74309772e-01,
          1.18743218e-01, 2.37621158e-01, 4.74309772e-01, 3.19222450e-01,
          3.22463721e-01, 1.29483163e-01, 1.64735407e-01, 3.96566808e-01,
          3.96566808e-01, 2.36178458e-01, 2.37100825e-01, 3.96566808e-01,
          3.96566808e-01, 2.82798260e-01, 1.33192942e-01, 3.96566808e-01,
          3.97282451e-01, 2.90207714e-01, 3.80616695e-01, 1.72475919e-01,
          2.79643238e-01, 1.66313067e-01, 3.97282451e-01, 3.97282451e-01,
          3.97282451e-01, 2.15875670e-01, 1.25996679e-01, 1.55390367e-01,
          6.12909675e-01, 6.12909675e-01, 2.01057971e-01, 2.50678182e-01,
          1.90229431e-01, 1.28409743e-01, 3.97969902e-01, 4.02575284e-02,
          5.07238992e-02, 5.68655550e-01, 5.68655550e-01, 2.79784560e-01,
          3.73700447e-02, 4.04214039e-02, 3.22024882e-01, 2.38078773e-01,
          9.28394422e-02, 1.29965007e-01, 4.65376616e-01, 4.65376616e-01,
          4.65376616e-01, 2.60565132e-01, 2.48636872e-01, 3.65676612e-01 ]
      - [ 4.79713678e-01, 4.79713678e-01, 0., 0., 1.30285442e-01,
          4.47197825e-01, 3.91731054e-01, 2.90605366e-01, 2.83007443e-01,
          4.85680789e-01, 4.85680789e-01, 1.88605770e-01, 1.40105709e-01,
          2.25593567e-01, 4.85680789e-01, 2.58839250e-01, 1.91445187e-01,
          2.78834105e-01, 4.34836060e-01, 2.73149043e-01, 3.27055633e-01,
          1.50937036e-01, 1.18531011e-01, 1.44635409e-01, 4.34836060e-01,
          4.34836060e-01, 4.34836060e-01, 4.51636165e-01, 4.51636165e-01,
          7.31199160e-02, 6.22107498e-02, 4.51636165e-01, 4.51636165e-01,
          2.98372090e-01, 1.61611065e-01, 2.35004574e-01, 3.86131942e-01,
          3.86131942e-01, 3.86131942e-01, 1.85969085e-01, 3.86131942e-01,
          3.86131942e-01, 2.56543875e-01, 1.75364941e-01, 3.45689267e-01,
          3.73843402e-01, 1.80015281e-01, 3.59375447e-01, 1.06109925e-01,
          3.73843402e-01, 3.53065610e-01, 3.73843402e-01, 3.73843402e-01,
          3.73843402e-01, 3.68924618e-01, 1.65655866e-01, 1.46258652e-01,
          2.86578774e-01, 7.72800148e-01, 2.38102034e-01, 1.01937674e-01,
          9.81188193e-02, 2.26471916e-01, 4.76099789e-01, 5.98348267e-02,
          1.55653194e-01, 4.83569205e-01, 4.83569205e-01, 4.83569205e-01,
          2.81294528e-02, 2.92644836e-02, 1.93715811e-01, 2.20480129e-01,
          2.47892812e-02, 8.04210901e-02, 3.89522940e-01, 5.53371966e-01,
          5.53371966e-01, 1.83775559e-01, 1.46178126e-01, 3.45643818e-01 ]
      - [ 5.74174821e-01, 5.74174821e-01, 2.27059331e-03, 1.60531432e-03,
          1.79031901e-02, 5.74174821e-01, 6.95357844e-02, 0.,
          8.53679888e-03, 3.88534129e-01, 3.88534129e-01, 3.88534129e-01,
          2.36305565e-01, 2.97083288e-01, 3.88534129e-01, 3.88534129e-01,
          2.34791100e-01, 2.05180153e-01, 3.65540534e-01, 8.81848857e-02,
          3.00856054e-01, 1.12135075e-01, 7.94534162e-02, 2.23178696e-02,
          5.36214471e-01, 5.36214471e-01, 4.10240293e-01, 4.07713234e-01,
          4.07713234e-01, 1.52371556e-01, 2.37855211e-01, 4.07713234e-01,
          4.07713234e-01, 2.85632610e-01, 1.54632211e-01, 3.81729752e-01,
          3.65098745e-01, 3.65098745e-01, 3.65098745e-01, 2.05663353e-01,
          3.65098745e-01, 3.65098745e-01, 3.65098745e-01, 1.44828871e-01,
          3.65098745e-01, 4.06610340e-01, 1.07279666e-01, 2.93796241e-01,
          1.16255738e-01, 4.06610340e-01, 2.40702555e-01, 4.06610340e-01,
          4.06610340e-01, 4.06610340e-01, 2.59064138e-01, 8.83450136e-02,
          1.55083835e-01, 6.08393371e-01, 6.08393371e-01, 3.30120206e-01,
          5.78005314e-02, 6.54587075e-02, 1.95103005e-01, 2.63074458e-01,
          5.24434410e-02, 4.63086367e-01, 4.63086367e-01, 4.63086367e-01,
          2.83000082e-01, 3.86061639e-01, 5.75393960e-02, 2.18233332e-01,
          1.42382845e-01, 2.19702721e-02, 2.76904076e-01, 3.84626269e-01,
          4.47874069e-01, 4.47874069e-01, 4.47874069e-01, 2.23389983e-01,
          3.13816637e-01 ]
      - [ 5.99618793e-01, 5.99618793e-01, 0., 0., 1.73056826e-01,
          4.94836956e-01, 6.84539368e-03, 9.31900358e-05, 8.26799218e-03,
          4.96149272e-01, 4.96149272e-01, 2.70420104e-01, 5.43746538e-02,
          3.85748565e-01, 4.96149272e-01, 8.76957849e-02, 6.81292787e-02,
          1.39049441e-01, 4.61688101e-01, 2.34345660e-01, 2.98984230e-01,
          4.26131450e-02, 9.96475443e-02, 1.51210412e-01, 4.61688101e-01,
          4.61688101e-01, 4.20715153e-01, 4.02260751e-01, 4.02260751e-01,
          1.63502291e-01, 3.15148979e-01, 4.02260751e-01, 4.02260751e-01,
          1.81520775e-01, 1.67066231e-01, 4.02260751e-01, 4.14854288e-01,
          3.26189846e-01, 4.14854288e-01, 1.28445536e-01, 4.14854288e-01,
          4.14854288e-01, 8.23227689e-02, 7.52344504e-02, 4.14854288e-01,
          3.59445304e-01, 2.61775017e-01, 3.59445304e-01, 3.13006014e-01,
          3.59445304e-01, 2.33889446e-01, 3.59445304e-01, 3.59445304e-01,
          3.59445304e-01, 3.82077724e-01, 2.68825572e-02, 1.02271914e-01,
          4.10291255e-01, 6.56134605e-01, 3.39434892e-02, 5.56044430e-02,
          9.13037583e-02, 4.74185675e-01, 4.11427289e-01, 3.15617882e-02,
          3.47674668e-01, 4.78757530e-01, 4.78757530e-01, 1.00495458e-01,
          3.80421989e-02, 6.99939504e-02, 4.78757530e-01, 3.86455566e-01,
          9.86153483e-02, 2.81762570e-01, 3.86455566e-01, 3.86455566e-01,
          3.86455566e-01, 3.86455566e-01, 1.04579039e-01, 3.86455566e-01 ]
      - [ 5.85344732e-01, 4.72208589e-01, 1.99355647e-01, 4.10280451e-02,
          1.84793517e-01, 7.76211172e-02, 6.53849244e-02, 6.50334684e-03,
          5.85344732e-01, 4.45337594e-01, 2.96367615e-01, 2.49395922e-01,
          1.66272521e-01, 6.71474040e-02, 1.41640067e-01, 4.45337594e-01,
          4.45337594e-01, 4.45337594e-01, 4.07217950e-01, 3.97869229e-01,
          3.55710149e-01, 4.07217950e-01, 7.16468925e-03, 2.26352159e-02,
          2.17331305e-01, 4.07217950e-01, 4.07217950e-01, 3.51582348e-01,
          3.94375771e-01, 3.94375771e-01, 2.85879940e-01, 3.55645537e-01,
          3.53213459e-01, 3.94375771e-01, 2.42581040e-01, 1.18477248e-01,
          3.74323398e-01, 1.93845615e-01, 3.74323398e-01, 3.74323398e-01,
          2.59754598e-01, 2.24730358e-01, 3.74323398e-01, 3.74323398e-01,
          3.74323398e-01, 3.49545836e-01, 3.49545836e-01, 3.49545836e-01,
          3.49545836e-01, 1.38019502e-01, 3.49545836e-01, 3.49545836e-01,
          3.49545836e-01, 3.49545836e-01, 0., 1.10157408e-01,
          4.40025330e-01, 4.40025330e-01, 4.40025330e-01, 4.40025330e-01,
          4.40025330e-01, 1.23929471e-01, 0., 1.50041163e-01,
          2.89983563e-02, 3.73384029e-01, 5.84919155e-01, 5.84919155e-01,
          1.79854363e-01, 1.72798812e-01, 1.24879837e-01, 2.63301432e-01,
          3.17166358e-01, 1.10391043e-01, 3.02767903e-02, 9.14334133e-02,
          6.25895083e-01, 6.25895083e-01, 2.38300964e-01, 2.09504794e-02,
          1.76005051e-01 ]
      - [ 4.98148829e-01, 2.88028419e-01, 2.53210992e-01, 8.47626030e-02,
          4.11924064e-01, 4.24484015e-01, 2.12915644e-01, 1.80908684e-02,
          4.43940699e-01, 4.21982378e-01, 1.46942317e-01, 3.35715115e-01,
          1.28547862e-01, 1.13289051e-01, 4.03464437e-01, 4.21982378e-01,
          3.67611259e-01, 4.21982378e-01, 3.66046935e-01, 3.03784877e-01,
          3.66046935e-01, 3.66046935e-01, 2.65622586e-01, 1.71930790e-01,
          3.66046935e-01, 3.66046935e-01, 3.66046935e-01, 1.74401954e-01,
          4.25545096e-01, 4.45918769e-01, 1.01746745e-01, 2.50120550e-01,
          3.64154637e-01, 4.45918769e-01, 4.24749106e-01, 2.05156468e-02,
          7.95525908e-02, 2.71631688e-01, 5.07228971e-01, 1.90816015e-01,
          7.22307861e-02, 2.22199365e-01, 5.07228971e-01, 5.07228971e-01,
          2.27985606e-01, 3.83642167e-01, 3.83642167e-01, 5.95188104e-02,
          3.83642167e-01, 2.69902110e-01, 1.91545978e-01, 3.83642167e-01,
          3.83642167e-01, 3.83642167e-01, 3.19931016e-04, 1.27170250e-01,
          4.47581023e-01, 4.47581023e-01, 2.86157459e-01, 3.10089797e-01,
          4.47581023e-01, 4.47581023e-01, 3.19931016e-04, 1.27279714e-01,
          2.10703947e-02, 4.39417899e-01, 4.39417899e-01, 4.39417899e-01,
          2.21496355e-02, 1.14173718e-01, 4.39417899e-01, 4.39417899e-01,
          4.35016066e-01, 2.37587616e-01, 1.64165103e-04, 1.30089581e-01,
          4.35016066e-01, 4.35016066e-01, 3.54951590e-01, 1.98335186e-01,
          4.35016066e-01 ]
      - [ 4.29950386e-01, 3.54615659e-01, 3.72787595e-01, 1.23990089e-01,
          4.29950386e-01, 4.29950386e-01, 3.07840705e-01, 2.66636759e-02,
          2.56046683e-01, 4.14284855e-01, 1.59459263e-01, 3.80711883e-01,
          1.59706801e-01, 1.39797702e-01, 4.14284855e-01, 4.14284855e-01,
          3.25571209e-01, 3.99437755e-01, 1.22917801e-01, 2.14003325e-01,
          4.58077252e-01, 4.58077252e-01, 6.94125018e-04, 3.42916660e-02,
          3.99026185e-01, 4.58077252e-01, 3.80283684e-01, 1.37131978e-02,
          4.62347329e-01, 4.62347329e-01, 8.99290740e-02, 1.58963561e-01,
          3.26746404e-01, 4.62347329e-01, 4.62347329e-01, 3.70497489e-03,
          9.96430963e-02, 3.23462039e-01, 4.91643280e-01, 1.03708468e-01,
          3.10202334e-02, 1.75305963e-01, 4.91643280e-01, 4.91643280e-01,
          3.36071342e-01, 4.70893294e-01, 4.70893294e-01, 4.70893294e-01,
          2.00762361e-01, 3.34529293e-04, 1.52812093e-01, 4.70893294e-01,
          1.78687707e-01, 1.12907477e-01, 2.32104881e-04, 1.37306511e-01,
          4.65338051e-01, 4.65338051e-01, 1.45571843e-01, 3.45159531e-01,
          4.65338051e-01, 4.31897253e-01, 4.36000619e-03, 3.15331638e-01,
          3.77435498e-02, 4.19193357e-01, 4.19193357e-01, 4.19193357e-01,
          9.36141387e-02, 8.70333686e-02, 4.19193357e-01, 4.19193357e-01,
          4.27205563e-01, 4.27205563e-01, 3.23760062e-02, 5.09802140e-02,
          4.27205563e-01, 4.27205563e-01, 4.16070849e-01, 3.08373962e-02,
          2.96649605e-01 ]
      - [ 5.00194967e-01, 2.02813432e-01, 1.68692723e-01, 8.92761052e-02,
