%YAML:1.0
---
opencv_ml_svm:
   format: 3
   svmType: C_SVC
   kernel:
      type: RBF
      gamma: 5.0624999999999998e-01
   C: 1.2500000000000000e+01
   term_criteria: { epsilon:1.1920928955078125e-07, iterations:1000 }
   var_count: 81
   class_count: 9
   class_labels: !!opencv-matrix
      rows: 9
      cols: 1
      dt: i
      data: [ 1, 2, 3, 4, 5, 6, 7, 8, 9 ]
   sv_total: 127
   support_vectors:
      - [ 4.82307911e-01, 4.82307911e-01, 1.16298674e-02, 0., 0.,
          2.28439152e-01, 4.38009501e-01, 2.65774637e-01, 4.63823974e-01,
          4.21697199e-01, 3.97684693e-01, 0., 0., 0., 3.55415732e-01,
          4.21697199e-01, 4.21697199e-01, 4.21697199e-01, 6.91021442e-01,
          0., 0., 0., 0., 0., 4.74513136e-03, 1.95084587e-01,
          6.91021442e-01, 4.53742117e-01, 4.53742117e-01, 8.33503082e-02,
          7.76074529e-02, 4.53742117e-01, 2.94059277e-01, 3.90025884e-01,
          2.16435432e-01, 2.81809300e-01, 4.95584965e-01, 7.54342824e-02,
          0., 1.59511736e-04, 4.95584965e-01, 3.42197984e-01,
          3.35558027e-01, 1.51154995e-01, 4.95584965e-01, 4.59751815e-01,
          0., 0., 1.24120282e-03, 4.59751815e-01, 4.59751815e-01,
          2.56532639e-01, 2.90017843e-01, 4.59751815e-01, 1.07241377e-01,
          2.73570210e-01, 1.64664283e-01, 3.42533618e-01, 7.35050082e-01,
          4.68902737e-01, 3.23077803e-03, 1.59284733e-02, 3.80215868e-02,
          1.82261929e-01, 3.61192564e-04, 0., 4.06798441e-04,
          7.92975008e-01, 5.64351499e-01, 5.82344714e-04, 5.43796318e-03,
          1.07398279e-01, 6.70118034e-02, 0., 0., 3.88118718e-03,
          6.92090154e-01, 6.92090154e-01, 1.52803823e-01, 3.94360200e-02,
          7.55223557e-02 ]
      - [ 4.07320350e-01, 4.07320350e-01, 4.07320350e-01, 0., 0.,
          2.17195190e-02, 4.07320350e-01, 4.07320350e-01, 4.07320350e-01,
          4.85521048e-01, 2.14534506e-01, 7.04607517e-02, 0., 0.,
          3.51869203e-02, 4.85521048e-01, 4.85521048e-01, 4.85521048e-01,
          7.04426527e-01, 0., 0., 0., 0., 0., 0., 2.31234040e-02,
          7.04426527e-01, 3.78643006e-01, 3.78643006e-01, 3.78643006e-01,
          2.76428461e-02, 3.78643006e-01, 1.47536859e-01, 3.78643006e-01,
          3.36842507e-01, 3.78643006e-01, 5.14902592e-01, 4.06113230e-02,
          2.77482420e-02, 2.95655914e-02, 5.14902592e-01, 1.58518851e-01,
          3.65330517e-01, 1.93896025e-01, 5.14902592e-01, 5.22525072e-01,
          3.10112140e-03, 2.91131466e-04, 6.28714124e-03, 5.22525072e-01,
          3.49733174e-01, 1.74369529e-01, 1.51383147e-01, 5.22525072e-01,
          3.30129981e-01, 3.23610634e-01, 1.72736406e-01, 1.52706757e-01,
          6.08170033e-01, 5.77824056e-01, 4.58889231e-02, 5.55926412e-02,
          1.34583980e-01, 5.42064548e-01, 2.42913584e-03, 1.18578307e-03,
          6.89527616e-02, 6.81418061e-01, 3.61569107e-01, 1.13013983e-02,
          1.94626339e-02, 3.14694256e-01, 3.90916944e-01, 2.09474168e-03,
          1.96653127e-04, 1.38279665e-02, 6.23850763e-01, 6.23850763e-01,
          1.15902580e-01, 4.19476815e-02, 2.17225954e-01 ]
      - [ 4.07409579e-01, 4.07409579e-01, 4.07409579e-01, 0.,
          5.84211573e-03, 7.51008920e-04, 4.07409579e-01, 4.07409579e-01,
          4.07409579e-01, 4.92876738e-01, 1.47807986e-01, 3.68943252e-02,
          0., 1.25815840e-02, 8.86744529e-04, 4.92876738e-01,
          4.92876738e-01, 4.92876738e-01, 6.83676720e-01, 1.55293614e-01,
          0., 0., 8.50067846e-03, 0., 3.88338007e-02, 1.80695176e-01,
          6.83676720e-01, 3.76073211e-01, 3.76073211e-01, 3.76073211e-01,
          4.12053429e-02, 3.76073211e-01, 6.91204220e-02, 3.76073211e-01,
          3.76073211e-01, 3.75740558e-01, 5.10858953e-01, 1.83299668e-02,
          1.10281417e-02, 0., 5.10858953e-01, 1.33993626e-01,
          2.40002930e-01, 3.68719488e-01, 5.10858953e-01, 4.95766938e-01,
          8.68629217e-02, 0., 0., 4.95766938e-01, 2.86638469e-01,
          3.39867353e-01, 2.29079664e-01, 4.95766938e-01, 1.63202092e-01,
          2.48197287e-01, 1.81016266e-01, 2.35991403e-01, 7.72984445e-01,
          4.60269928e-01, 8.67191050e-03, 3.14481966e-02, 7.19164014e-02,
          3.28302592e-01, 4.41327080e-04, 1.23963240e-04, 0.,
          7.52649486e-01, 5.01676440e-01, 2.47890130e-03, 1.65189523e-02,
          2.57420599e-01, 2.38661557e-01, 4.72354330e-03, 0., 0.,
          6.66330814e-01, 6.66330814e-01, 1.88725412e-01, 3.86912115e-02,
          1.06104985e-01 ]
      - [ 4.07416642e-01, 4.07416642e-01, 4.07416642e-01, 0., 0., 0.,
          4.07416642e-01, 4.07416642e-01, 4.07416642e-01, 4.98749405e-01,
          3.84649099e-03, 1.70061248e-04, 0., 0., 0., 4.98749405e-01,
          4.98749405e-01, 4.98749405e-01, 6.96404278e-01, 0., 0., 0., 0.,
          0., 5.00554703e-02, 1.43474132e-01, 6.96404278e-01,
          3.74801248e-01, 3.74801248e-01, 3.74801248e-01, 5.16069643e-02,
          3.74801248e-01, 1.01293847e-01, 3.74801248e-01, 3.74801248e-01,
          3.74801248e-01, 5.37388861e-01, 6.69948524e-04, 5.66288727e-05,
          0., 5.37388861e-01, 1.94503203e-01, 1.54313847e-01,
          2.58124739e-01, 5.37388861e-01, 4.82384980e-01, 0., 0., 0.,
          4.82384980e-01, 3.81189555e-01, 3.41969877e-01, 1.86674461e-01,
          4.82384980e-01, 1.28567204e-01, 1.94858924e-01, 1.93048120e-01,
          2.56593317e-01, 7.56085694e-01, 5.07329464e-01, 7.11305439e-03,
          2.01024953e-02, 7.30942488e-02, 2.45056704e-01, 0., 0., 0.,
          7.26254106e-01, 6.12818301e-01, 1.14601059e-03, 5.97985275e-03,
          1.72248214e-01, 1.58544913e-01, 0., 0., 0., 6.82298005e-01,
          6.82298005e-01, 1.69891119e-01, 2.89108213e-02, 8.53959769e-02 ]
      - [ 4.33125496e-01, 4.33125496e-01, 3.97168547e-02, 0., 0.,
          2.36870095e-01, 4.33125496e-01, 4.33125496e-01, 4.33125496e-01,
          6.69948578e-01, 0., 0., 0., 0., 0., 2.83532590e-01,
          1.23526596e-01, 6.69948578e-01, 6.97766483e-01, 7.08059669e-02,
          1.18864223e-01, 1.15874298e-02, 0., 0., 0., 1.42559269e-03,
          6.97766483e-01, 4.08799380e-01, 4.08799380e-01, 9.41213891e-02,
          3.39379758e-02, 4.08799380e-01, 3.23416620e-01, 4.08799380e-01,
          2.13828504e-01, 4.08799380e-01, 5.66493094e-01, 0., 0., 0.,
          5.66493094e-01, 1.77461937e-01, 8.99770297e-03, 5.12999017e-03,
          5.66493094e-01, 5.36837339e-01, 7.03775906e-04, 6.36231911e-04,
          1.06550020e-03, 5.36837339e-01, 3.44223589e-01, 7.12388828e-02,
          8.05541351e-02, 5.36837339e-01, 3.60527217e-01, 5.11482581e-02,
          7.53869414e-02, 1.19585790e-01, 7.48645425e-01, 4.24991161e-01,
          2.93511879e-02, 2.21122373e-02, 3.12265694e-01, 4.25323963e-01,
          0., 0., 0., 7.25681126e-01, 4.64030653e-01, 0., 0.,
          2.64420688e-01, 2.87805796e-01, 0., 5.53781865e-04,
          8.59147031e-03, 6.83082640e-01, 6.31042361e-01, 3.70214246e-02,
          2.16206275e-02, 2.08854705e-01 ]
      - [ 4.40811604e-01, 4.40811604e-01, 3.19855623e-02, 0., 0.,
          1.51654720e-01, 4.40811604e-01, 4.40811604e-01, 4.40811604e-01,
          6.79647148e-01, 0., 0., 0., 0., 0., 2.33493894e-01,
          1.21881463e-01, 6.79647148e-01, 7.03894794e-01, 1.82900224e-02,
          4.06914949e-02, 3.85922613e-03, 1.75594818e-03, 0., 0.,
          5.41046588e-03, 7.03894794e-01, 4.08209473e-01, 4.08209473e-01,
          7.71909803e-02, 3.70320193e-02, 4.08209473e-01, 2.86993325e-01,
          4.08209473e-01, 2.70281971e-01, 4.08209473e-01, 5.67749441e-01,
          0., 0., 0., 5.67749441e-01, 1.64918318e-01, 8.50558933e-03,
          6.47678366e-03, 5.67749441e-01, 5.42053223e-01, 1.06581945e-04,
          3.35844787e-04, 1.87509431e-04, 5.42053223e-01, 3.17716926e-01,
          6.67948350e-02, 8.78399387e-02, 5.42053223e-01, 4.02280450e-01,
          5.72094694e-02, 6.64931238e-02, 1.26239687e-01, 7.50817418e-01,
          4.04488087e-01, 4.26047519e-02, 2.12180074e-02, 2.78285831e-01,
          4.26926345e-01, 0., 0., 0., 7.41573572e-01, 4.32815164e-01, 0.,
          0., 2.70317823e-01, 2.94888586e-01, 0., 0., 6.81370322e-04,
          7.14590311e-01, 5.83952427e-01, 3.81063856e-02, 2.50600278e-02,
          2.28445157e-01 ]
      - [ 4.81037527e-01, 4.81037527e-01, 9.05632414e-03, 7.06825824e-03,
          6.71129953e-03, 2.52580702e-01, 3.57673466e-01, 3.30302685e-01,
          4.81037527e-01, 4.58022594e-01, 2.34882057e-01, 1.73963867e-02,
          1.70461647e-02, 4.10756981e-03, 3.17027748e-01, 4.58022594e-01,
          4.58022594e-01, 4.58022594e-01, 5.85005462e-01, 2.63843596e-01,
          2.64038801e-01, 7.75202215e-02, 2.88031667e-01, 1.34739697e-01,
          2.02776089e-01, 1.48732573e-01, 5.85005462e-01, 3.97554606e-01,
          3.97554606e-01, 1.87188536e-01, 1.02234378e-01, 3.97554606e-01,
          3.97554606e-01, 3.97554606e-01, 2.07432732e-01, 3.42432857e-01,
          4.77709621e-01, 2.40169436e-01, 1.33677122e-05, 4.34072608e-05,
          4.77709621e-01, 3.60240221e-01, 3.32780331e-01, 1.11409284e-01,
          4.77709621e-01, 4.26287383e-01, 9.65996087e-03, 1.53573696e-03,
          1.20889384e-03, 4.26287383e-01, 4.24715489e-01, 4.26287383e-01,
          2.97283530e-01, 4.26287383e-01, 1.63656786e-01, 1.60852835e-01,
          2.86635458e-01, 4.47145939e-01, 7.12259173e-01, 3.64409328e-01,
          5.92537932e-02, 4.42400053e-02, 1.12063311e-01, 3.48873019e-01,
          3.69472243e-02, 0., 2.05977296e-04, 7.72490025e-01,
          5.06674528e-01, 9.62626748e-03, 7.64886336e-03, 1.24906272e-01,
          7.46079460e-02, 2.02815095e-03, 0., 0., 6.73965156e-01,
          6.73965156e-01, 2.66457289e-01, 5.34492023e-02, 7.33962581e-02 ]
      - [ 4.61859196e-01, 4.61859196e-01, 1.77742317e-02, 2.23101524e-04,
          0., 2.06084222e-01, 3.28846365e-01, 4.52237159e-01,
          4.61859196e-01, 4.69021082e-01, 2.27128282e-01, 5.21707833e-02,
          1.91335771e-02, 2.03897320e-02, 2.45563209e-01, 4.69021082e-01,
          4.69021082e-01, 4.69021082e-01, 5.52147329e-01, 2.49182791e-01,
          3.19670975e-01, 1.56105652e-01, 3.89090151e-01, 1.06131583e-01,
          9.84835029e-02, 1.54104516e-01, 5.52147329e-01, 4.05870676e-01,
          4.05870676e-01, 1.74604148e-01, 5.16647696e-02, 4.05870676e-01,
          4.05870676e-01, 4.05870676e-01, 2.27523312e-01, 2.95580268e-01,
          5.14958322e-01, 1.55916080e-01, 4.80063987e-04, 9.77462158e-04,
          5.14958322e-01, 2.59517103e-01, 2.93252170e-01, 1.47153094e-01,
          5.14958322e-01, 4.51259226e-01, 1.64500729e-04, 1.24615734e-03,
          8.46701022e-03, 4.51259226e-01, 2.17436418e-01, 4.29073453e-01,
          3.91320676e-01, 4.51259226e-01, 1.41177475e-01, 2.70917177e-01,
          3.03385496e-01, 2.46118665e-01, 7.42228687e-01, 4.30622488e-01,
          4.97413650e-02, 3.36313955e-02, 8.18705410e-02, 2.61500508e-01,
          2.62256227e-02, 5.73556218e-03, 6.44797646e-03, 8.91880512e-01,
          3.39498192e-01, 1.24601042e-02, 8.50956980e-03, 1.04970291e-01,
          7.35519603e-02, 8.22531510e-05, 2.68995587e-04, 5.99987209e-02,
          7.27370679e-01, 5.49653590e-01, 3.65079731e-01, 9.60786641e-02,
          1.00140326e-01 ]
      - [ 4.36387539e-01, 4.36387539e-01, 2.71660723e-02, 0., 0.,
          3.01713049e-01, 4.36387539e-01, 3.77008945e-01, 4.36387539e-01,
          4.53961045e-01, 1.46968618e-01, 9.08649701e-04, 0., 0.,
          3.86707097e-01, 4.53961045e-01, 4.53961045e-01, 4.53961045e-01,
          7.04615593e-01, 0., 0., 0., 0., 0., 0., 0., 7.04615593e-01,
          4.00854260e-01, 4.00854260e-01, 2.45187525e-02, 1.57714300e-02,
          4.00854260e-01, 4.00854260e-01, 4.00854260e-01, 1.76184222e-01,
          4.00854260e-01, 5.15516937e-01, 1.45726381e-02, 2.52113590e-04,
          2.26594019e-03, 5.15516937e-01, 3.53792548e-01, 2.59232700e-01,
          7.06411600e-02, 5.15516937e-01, 5.40697336e-01, 0., 0.,
          2.10992876e-03, 5.40697336e-01, 3.31760645e-01, 3.61301377e-02,
          7.85147548e-02, 5.40697336e-01, 3.01602513e-01, 2.14169398e-01,
          4.51366194e-02, 8.84328112e-02, 6.81144416e-01, 5.60804904e-01,
          1.07131958e-01, 3.90307866e-02, 2.34626129e-01, 5.50693035e-01,
          0., 0., 2.59035919e-03, 5.93242466e-01, 4.97766912e-01,
          5.72933536e-03, 3.02392943e-03, 3.01755518e-01, 4.46784854e-01,
          0., 0., 1.53707457e-03, 6.08838260e-01, 6.08838260e-01,
          2.21345313e-02, 2.40137447e-02, 2.27743477e-01 ]
      - [ 5.15882790e-01, 3.73900473e-01, 1.50325134e-01, 7.55104572e-02,
          1.15583315e-01, 8.12383667e-02, 9.15560871e-02, 5.15882790e-01,
          5.15882790e-01, 6.96460068e-01, 2.17789710e-02, 4.58376221e-02,
          4.39757071e-02, 1.15470029e-01, 4.80612926e-02, 4.95607257e-02,
          1.80451777e-02, 6.96460068e-01, 5.71559846e-01, 5.23412526e-02,
          9.01114196e-02, 8.04105997e-02, 2.57582724e-01, 5.61824553e-02,
          3.16198498e-01, 3.92580032e-01, 5.71559846e-01, 5.15287817e-01,
          2.23460987e-01, 1.93579853e-01, 2.04459414e-01, 5.15287817e-01,
          8.41621757e-02, 1.33935676e-03, 2.48983189e-01, 5.15287817e-01,
          5.72058260e-01, 3.68242298e-04, 1.99859714e-04, 1.99825149e-02,
          5.72058260e-01, 1.10160150e-01, 5.74636040e-04, 7.28715269e-04,
          5.72058260e-01, 4.31141049e-01, 8.25864496e-04, 4.17165924e-04,
          3.56224775e-01, 4.31141049e-01, 1.79541886e-01, 4.31141049e-01,
          3.05009216e-01, 4.31141049e-01, 1.14911068e-02, 2.08287630e-02,
          1.01723425e-01, 2.91223705e-01, 9.24213350e-01, 2.01807991e-01,
          8.83519650e-03, 4.57081292e-03, 7.66866049e-03, 3.17813344e-02,
          2.23108530e-02, 8.85929633e-03, 6.20486997e-02, 9.65353608e-01,
          2.26140797e-01, 1.27067193e-02, 2.54117996e-02, 3.28466743e-02,
          1.00817280e-02, 2.73104291e-03, 5.50380396e-03, 6.07269526e-01,
          6.07269526e-01, 3.11150938e-01, 3.95108074e-01, 5.54453321e-02,
          1.56577900e-02 ]
      - [ 4.98311102e-01, 4.98311102e-01, 3.27522457e-02, 0., 0., 0.,
          2.63562296e-02, 4.98311102e-01, 4.98311102e-01, 7.02417791e-01,
          0., 0., 0., 0., 0., 3.63469496e-03, 7.87002221e-02,
          7.02417791e-01, 6.23006284e-01, 2.18742862e-01, 0., 0., 0., 0.,
          2.95837283e-01, 2.86597162e-01, 6.23006284e-01, 4.46371466e-01,
          4.46371466e-01, 2.25312948e-01, 1.42865866e-01, 4.46371466e-01,
          8.05232972e-02, 3.57368123e-03, 3.47675145e-01, 4.46371466e-01,
          5.72450936e-01, 0., 0., 3.36701772e-03, 5.72450936e-01,
          1.04213797e-01, 2.98955856e-04, 1.76500008e-02, 5.72450936e-01,
          4.29731905e-01, 7.57905915e-02, 0., 4.29731905e-01,
          4.29731905e-01, 1.01487048e-01, 4.29731905e-01, 2.37310186e-01,
          4.29731905e-01, 3.26946005e-02, 5.39560094e-02, 1.76285669e-01,
          2.89346129e-01, 9.03382003e-01, 2.34618872e-01, 0.,
          1.47400633e-03, 3.25771272e-02, 2.17108354e-02, 0., 0.,
          1.01568736e-02, 9.70131040e-01, 2.19953522e-01, 0.,
          3.54330201e-04, 1.46188540e-02, 9.12011310e-05, 0., 0.,
          6.08165860e-01, 6.08165860e-01, 2.59913415e-01, 4.24531966e-01,
          8.00862238e-02, 1.17842384e-04 ]
      - [ 5.27117252e-01, 4.45356965e-01, 3.90666239e-02, 7.33523676e-03,
          6.64193481e-02, 3.99301872e-02, 1.19147696e-01, 4.67873424e-01,
          5.27117252e-01, 6.97828412e-01, 3.20376568e-02, 5.22491299e-02,
          3.01161818e-02, 1.12447612e-01, 2.89350115e-02, 2.30159052e-02,
          2.07398273e-02, 6.97828412e-01, 4.84309644e-01, 4.84309644e-01,
          9.28977653e-02, 2.36823000e-02, 1.11116156e-01, 3.15499157e-02,
          4.03458834e-01, 3.25857729e-01, 4.84309644e-01, 4.43148285e-01,
          3.73784363e-01, 1.97637558e-01, 1.28342494e-01, 4.43148285e-01,
          4.43148285e-01, 3.53644090e-03, 1.21623039e-01, 4.43148285e-01,
          5.29808342e-01, 5.17212786e-03, 2.72650295e-03, 6.06574491e-02,
          5.29808342e-01, 3.85867447e-01, 4.18973796e-04, 3.33165261e-03,
          5.29808342e-01, 4.26296055e-01, 1.40478596e-01, 7.04142451e-02,
          4.26296055e-01, 4.26296055e-01, 1.76211253e-01, 4.26296055e-01,
          1.91760764e-01, 4.19896781e-01, 6.17124997e-02, 1.22005045e-01,
          2.35443980e-01, 3.04293752e-01, 6.41402662e-01, 6.41402662e-01,
          4.77209501e-02, 3.57990973e-02, 2.28175931e-02, 3.09082568e-01,
          4.51876253e-01, 4.47808027e-01, 1.89462289e-01, 4.51876253e-01,
          4.51876253e-01, 1.18155666e-01, 1.43069431e-01, 1.28531426e-01,
          3.39055151e-01, 2.77390033e-01, 3.39055151e-01, 3.39055151e-01,
          3.39055151e-01, 3.39055151e-01, 3.39055151e-01, 3.39055151e-01,
          3.39055151e-01 ]
      - [ 5.29699266e-01, 3.13496202e-01, 6.68256581e-02, 1.69771425e-02,
          7.93882236e-02, 5.29207475e-02, 2.02062294e-01, 5.29699266e-01,
          5.29699266e-01, 6.94632828e-01, 3.78259681e-02, 9.76220667e-02,
          6.89479485e-02, 1.00834824e-01, 3.86306234e-02, 2.50887200e-02,
          5.68415085e-03, 6.94632828e-01, 5.00240028e-01, 5.00240028e-01,
          2.10292153e-02, 2.72097271e-02, 5.36120832e-02, 2.61631291e-02,
          4.00887579e-01, 2.80769467e-01, 5.00240028e-01, 5.28680563e-01,
          1.76173061e-01, 1.28040984e-01, 1.88054606e-01, 5.28680563e-01,
          9.94564220e-02, 2.31447630e-02, 2.50973195e-01, 5.28680563e-01,
          5.70738733e-01, 8.74439720e-04, 7.71794992e-04, 6.54171919e-03,
          5.70738733e-01, 1.30493000e-01, 0., 0., 5.70738733e-01,
          4.29099560e-01, 1.98293954e-01, 4.47877363e-04, 3.62811476e-01,
          4.29099560e-01, 1.25225514e-01, 4.29099560e-01, 2.69394934e-01,
          4.29099560e-01, 6.63784221e-02, 7.40435719e-03, 7.54207969e-02,
          2.88141698e-01, 9.11208451e-01, 2.52926558e-01, 1.52428832e-03,
          0., 5.88108450e-02, 1.20574059e-02, 0., 9.46060289e-04,
          2.11414210e-02, 9.59280133e-01, 2.63732672e-01, 0., 0.,
          7.97740649e-03, 0., 0., 0., 6.38906062e-01, 6.38906062e-01,
          2.79197842e-01, 2.94841796e-01, 1.11068621e-01, 0. ]
      - [ 4.23163086e-01, 4.23163086e-01, 3.06675076e-01, 0., 0.,
          7.99265206e-02, 4.23163086e-01, 4.23163086e-01, 4.23163086e-01,
          6.11821175e-01, 2.70748198e-01, 2.44092405e-01, 0., 0.,
          5.61300153e-03, 2.45911717e-01, 2.27708384e-01, 6.11821175e-01,
          4.07416344e-01, 4.07416344e-01, 4.07416344e-01, 1.11704157e-03,
          2.79248401e-04, 3.19711893e-04, 4.07416344e-01, 4.07416344e-01,
          4.07416344e-01, 3.72217536e-01, 3.72217536e-01, 2.76461601e-01,
          1.23362236e-01, 3.72217536e-01, 3.72217536e-01, 3.72217536e-01,
          2.70844251e-01, 3.72217536e-01, 5.29791653e-01, 2.48333402e-02,
          4.16727960e-02, 1.00940436e-01, 5.29791653e-01, 3.72921675e-01,
          2.45360602e-02, 2.13707238e-02, 5.29791653e-01, 3.60316604e-01,
          3.60316604e-01, 3.60316604e-01, 3.60316604e-01, 3.60316604e-01,
          2.22641632e-01, 3.60316604e-01, 3.60316604e-01, 1.95024595e-01,
          1.92394722e-02, 3.66479531e-02, 1.08600058e-01, 3.06863636e-01,
          6.65420234e-01, 6.65420234e-01, 0., 0., 1.07865259e-02,
          1.98471057e-03, 9.12271719e-03, 2.56393760e-01, 1.89496294e-01,
          7.11117148e-01, 6.20869279e-01, 0., 0., 1.23272568e-03, 0.,
          3.95252071e-02, 4.41544592e-01, 4.41544592e-01, 4.41544592e-01,
          4.41544592e-01, 4.41544592e-01, 1.38633072e-01, 0. ]
      - [ 4.07416642e-01, 4.07416642e-01, 4.07416642e-01, 0., 0., 0.,
          4.07416642e-01, 4.07416642e-01, 4.07416642e-01, 5.25990486e-01,
          1.00670792e-01, 8.34311694e-02, 0., 0., 0., 4.72895950e-01,
          4.47983384e-01, 5.25990486e-01, 4.07416642e-01, 4.07416642e-01,
          4.07416642e-01, 3.45649052e-04, 0., 0., 4.07416642e-01,
          4.07416642e-01, 4.07416642e-01, 3.75224441e-01, 3.75224441e-01,
          3.75224441e-01, 1.34261444e-01, 3.75224441e-01, 2.46077195e-01,
          3.75224441e-01, 2.70020485e-01, 3.75224441e-01, 5.38677156e-01,
          1.06554423e-02, 1.49801224e-02, 3.71274091e-02, 5.38677156e-01,
          3.37044418e-01, 7.04497993e-02, 6.18285052e-02, 5.38677156e-01,
          3.64282727e-01, 3.36017489e-01, 3.64282727e-01, 3.64282727e-01,
          3.64282727e-01, 1.65811509e-01, 3.64282727e-01, 3.64282727e-01,
          2.44433701e-01, 1.81651860e-02, 9.72309932e-02, 1.56242296e-01,
          3.14427137e-01, 7.39708126e-01, 5.58917403e-01, 0., 0., 0., 0.,
          2.16039200e-03, 8.91227424e-02, 7.84566402e-02, 8.07629049e-01,
          5.70589483e-01, 0., 0., 0., 0., 4.86698374e-03, 4.53197211e-01,
          4.53197211e-01, 4.53197211e-01, 3.79390746e-01, 4.53197211e-01,
          1.73093513e-01, 0. ]
      - [ 3.93961161e-01, 3.93961161e-01, 3.93961161e-01, 0., 0.,
          2.54621208e-01, 3.93961161e-01, 3.93961161e-01, 3.93961161e-01,
          6.10494018e-01, 1.07846655e-01, 2.50453115e-01, 0., 0.,
          8.90513957e-02, 3.29169422e-01, 2.40537301e-01, 6.10494018e-01,
          4.08266604e-01, 4.08266604e-01, 4.08266604e-01, 0., 0.,
          2.08123475e-01, 4.08266604e-01, 3.45250577e-01, 4.08266604e-01,
          3.68256062e-01, 3.68256062e-01, 3.68256062e-01, 4.60263006e-02,
          3.68256062e-01, 3.68256062e-01, 3.68256062e-01, 2.11930990e-01,
          3.68256062e-01, 5.23433626e-01, 1.85148735e-02, 5.64841293e-02,
          2.73776203e-02, 5.23433626e-01, 4.07320946e-01, 3.95866223e-02,
          3.26188281e-02, 5.23433626e-01, 3.67569178e-01, 3.15609485e-01,
          3.67569178e-01, 2.18531221e-01, 3.67569178e-01, 1.95754319e-01,
          3.67569178e-01, 3.67569178e-01, 3.67569178e-01, 1.36565212e-02,
          2.17880577e-01, 2.93033004e-01, 1.81089267e-01, 6.43137395e-01,
          6.43137395e-01, 2.71943398e-03, 0., 4.14707232e-04,
          5.74526857e-05, 7.90167749e-02, 3.02827477e-01, 3.98242511e-02,
          7.01589406e-01, 6.33430779e-01, 0., 0., 0., 0., 2.61329710e-01,
          4.24028128e-01, 4.01645988e-01, 4.24028128e-01, 4.05312538e-01,
          3.95476878e-01, 2.92686701e-01, 1.43557303e-02 ]
      - [ 4.04641926e-01, 4.04641926e-01, 1.04880221e-01, 0.,
          5.04708104e-02, 4.04641926e-01, 4.04641926e-01, 4.04641926e-01,
          4.04641926e-01, 4.79000330e-01, 4.79000330e-01, 5.49288047e-03,
          1.60225499e-02, 8.64656344e-02, 3.28200638e-01, 4.79000330e-01,
          3.82736742e-01, 2.11955875e-01, 4.42648083e-01, 4.42648083e-01,
          3.87118608e-02, 4.63156551e-02, 9.96219441e-02, 4.82034460e-02,
          4.42648083e-01, 4.42648083e-01, 4.42648083e-01, 3.32778692e-01,
          3.32778692e-01, 3.32778692e-01, 3.32778692e-01, 3.32778692e-01,
          3.32778692e-01, 3.32778692e-01, 3.32778692e-01, 3.32778692e-01,
          4.79131281e-01, 4.79131281e-01, 2.09787115e-01, 5.16277663e-02,
          2.68490732e-01, 4.79131281e-01, 4.11053032e-01, 3.81012559e-02,
          1.31660342e-01, 2.20831901e-01, 3.93231124e-01, 3.93231124e-01,
          2.93397456e-01, 2.96438128e-01, 3.93231124e-01, 3.93231124e-01,
          3.93231124e-01, 1.39076756e-02, 1.42101198e-01, 1.18572135e-02,
          2.17752442e-01, 6.05325818e-01, 6.05325818e-01, 3.94530535e-01,
          3.07060615e-03, 5.29411845e-02, 1.86818942e-01, 1.68664068e-01,
          1.07871793e-01, 3.69047284e-01, 1.67254895e-01, 6.09483659e-01,
          6.09483659e-01, 2.09288761e-01, 2.87314644e-03, 5.39415590e-02,
          2.96940525e-05, 1.87140524e-01, 4.34987307e-01, 4.34987307e-01,
          4.34987307e-01, 4.34987307e-01, 4.34987307e-01, 1.20679401e-01,
          0. ]
      - [ 4.00590569e-01, 4.00590569e-01, 1.08728737e-01, 0.,
          4.00590569e-01, 4.00590569e-01, 4.00590569e-01, 2.46368527e-01,
          3.48015487e-01, 4.83966976e-01, 4.83966976e-01, 7.55126774e-02,
          0., 9.80351418e-02, 4.83966976e-01, 4.83966976e-01,
          1.84158623e-01, 9.50930119e-02, 3.53534967e-01, 3.53534967e-01,
          3.53534967e-01, 2.75415391e-01, 2.58070111e-01, 3.53534967e-01,
          3.53534967e-01, 3.22633028e-01, 3.53534967e-01, 3.68422061e-01,
          3.68422061e-01, 3.68422061e-01, 1.85559720e-01, 1.08365610e-01,
          3.68422061e-01, 3.68422061e-01, 3.68422061e-01, 3.68422061e-01,
          3.22323561e-01, 5.40528297e-01, 1.14920571e-01, 1.88698745e-04,
          1.74235590e-02, 5.40528297e-01, 5.40528297e-01, 2.68515572e-03,
          2.60658879e-02, 1.53191444e-02, 4.77421969e-01, 4.77421969e-01,
          8.13478753e-02, 5.34825511e-02, 4.77421969e-01, 4.77421969e-01,
          2.71647096e-01, 0., 3.94751698e-01, 1.44507810e-01,
          1.96317583e-01, 4.18911695e-01, 4.18911695e-01, 3.65327656e-01,
          3.39313559e-02, 3.45668405e-01, 4.18911695e-01, 2.85893559e-01,
          3.97368401e-01, 4.71810177e-02, 2.83064488e-02, 4.99646008e-01,
          4.99646008e-01, 4.99646008e-01, 3.77976079e-03, 5.82499206e-02,
          0., 4.33211118e-01, 4.81183857e-01, 3.52020770e-01,
          3.03989738e-01, 2.70060182e-01, 4.81183857e-01, 2.34915510e-01,
          0. ]
      - [ 3.95912021e-01, 3.95912021e-01, 9.85090062e-02, 0.,
          3.95912021e-01, 3.95912021e-01, 3.95912021e-01, 2.14156017e-01,
          3.95912021e-01, 4.29791212e-01, 4.29791212e-01, 3.95042747e-02,
          0., 1.62362576e-01, 4.29791212e-01, 4.29791212e-01,
          3.49963129e-01, 3.26233596e-01, 3.73327732e-01, 3.73327732e-01,
          2.32773736e-01, 1.37602195e-01, 2.94806242e-01, 3.73327732e-01,
          3.73327732e-01, 3.73327732e-01, 3.73327732e-01, 3.08651209e-01,
          3.34779680e-01, 3.50948662e-01, 3.50948662e-01, 2.23966047e-01,
          3.50948662e-01, 3.50948662e-01, 3.50948662e-01, 3.50948662e-01,
          4.94378388e-01, 4.94378388e-01, 5.97996637e-02, 3.28272535e-03,
          6.29782453e-02, 4.94378388e-01, 4.94378388e-01, 9.02639143e-03,
          9.89337862e-02, 1.13295533e-01, 4.66373771e-01, 4.66373771e-01,
          1.22688539e-01, 1.46138862e-01, 4.66373771e-01, 4.66373771e-01,
          2.75703192e-01, 8.15555546e-03, 3.23063672e-01, 6.01281486e-02,
          1.98189512e-01, 4.89526659e-01, 4.89526659e-01, 2.28940576e-01,
          1.54546145e-02, 2.76196361e-01, 4.89526659e-01, 4.14691240e-01,
          3.64722878e-01, 5.54490043e-03, 5.92826754e-02, 5.00279009e-01,
          5.00279009e-01, 4.02353019e-01, 6.43591955e-03, 1.54852629e-01,
          8.62469431e-04, 4.31114674e-01, 4.31114674e-01, 3.38758826e-01,
          3.36239368e-01, 4.31114674e-01, 4.31114674e-01, 1.56329557e-01,
          0. ]
      - [ 4.17784125e-01, 4.17784125e-01, 1.66124359e-01, 9.46998596e-04,
          6.85647875e-02, 4.17784125e-01, 4.17784125e-01, 3.01346064e-01,
          4.17784125e-01, 4.23871130e-01, 4.23871130e-01, 2.22952180e-02,
          7.78359547e-03, 7.30067790e-02, 4.23871130e-01, 4.23871130e-01,
          3.26722264e-01, 4.05541509e-01, 4.21714991e-01, 4.20142770e-01,
          1.99127182e-01, 9.00299400e-02, 1.32522002e-01, 2.52227873e-01,
          4.21714991e-01, 3.95978272e-01, 4.21714991e-01, 3.45118731e-01,
          3.45118731e-01, 3.45118731e-01, 3.45118731e-01, 2.09036663e-01,
          3.45118731e-01, 3.45118731e-01, 3.45118731e-01, 3.45118731e-01,
          4.95235026e-01, 4.95235026e-01, 1.06054589e-01, 2.27559675e-02,
          1.25570968e-01, 4.95235026e-01, 4.65512007e-01, 3.65533382e-02,
          1.17088482e-01, 2.16743901e-01, 4.39300686e-01, 4.39300686e-01,
          1.08729824e-01, 9.39620957e-02, 4.39300686e-01, 4.39300686e-01,
          3.89646918e-01, 6.49446845e-02, 3.03326547e-01, 7.81312659e-02,
          3.78668308e-01, 4.74665880e-01, 4.74665880e-01, 3.55040103e-01,
          6.70756847e-02, 1.56742513e-01, 3.84735942e-01, 3.89232874e-01,
          2.95734078e-01, 1.23810083e-01, 1.56251624e-01, 5.76124668e-01,
          5.76124668e-01, 1.96036324e-01, 7.47837266e-03, 1.14966311e-01,
          9.67043394e-04, 3.08045238e-01, 4.13152456e-01, 4.13152456e-01,
          4.13152456e-01, 4.13152456e-01, 4.13152456e-01, 2.17956617e-01,
          0. ]
      - [ 3.76020283e-01, 4.34981823e-01, 2.13595524e-01, 0.,
          2.79194582e-03, 2.82284498e-01, 4.34981823e-01, 4.34981823e-01,
          4.01647598e-01, 6.92694306e-01, 6.92694306e-01, 6.04244508e-03,
          2.90578064e-02, 4.18050624e-02, 8.76482800e-02, 3.37532945e-02,
          6.86548278e-02, 1.31418765e-01, 5.44857919e-01, 5.44857919e-01,
          7.01243281e-02, 6.46646544e-02, 9.00394022e-02, 2.41789445e-01,
          3.61364484e-01, 3.08012575e-01, 3.15744162e-01, 3.88561070e-01,
          1.36641115e-01, 3.88561070e-01, 3.88561070e-01, 2.41063982e-01,
          1.16005272e-01, 3.88561070e-01, 3.88561070e-01, 3.88561070e-01,
          5.42160213e-01, 5.42160213e-01, 2.52297439e-04, 3.28353350e-03,
          2.98921585e-01, 5.42160213e-01, 2.21014954e-02, 2.55194213e-03,
          1.51369721e-01, 4.28276747e-01, 4.28276747e-01, 4.28276747e-01,
          1.39140964e-01, 1.62346929e-01, 4.28276747e-01, 4.28276747e-01,
          1.81207389e-01, 7.99945183e-03, 3.56570691e-01, 1.19177597e-02,
          9.94874910e-02, 4.92514461e-01, 4.92514461e-01, 3.05698603e-01,
          3.55574442e-03, 1.91631794e-01, 4.92514461e-01, 5.64027548e-01,
          1.63698763e-01, 2.39989124e-04, 3.03302146e-02, 5.64027548e-01,
          5.64027548e-01, 6.63930038e-03, 9.17819503e-04, 1.10564068e-01,
          2.94647217e-02, 3.95347893e-01, 4.25936848e-01, 3.72609645e-01,
          3.56838673e-01, 4.25936848e-01, 4.25936848e-01, 1.67743549e-01,
          8.90079711e-04 ]
      - [ 4.10791487e-01, 4.10791487e-01, 1.77398488e-01, 2.23255455e-02,
          3.23851742e-02, 3.45153183e-01, 4.10791487e-01, 4.10791487e-01,
          4.10791487e-01, 5.90553820e-01, 5.90553820e-01, 5.54547980e-02,
          7.01111406e-02, 2.24427402e-01, 2.64705628e-01, 2.90430158e-01,
          2.75686145e-01, 8.84056836e-02, 4.42706168e-01, 4.42706168e-01,
          4.14500758e-02, 4.15688381e-02, 8.34245831e-02, 7.23072588e-02,
          4.42706168e-01, 4.42706168e-01, 4.42706168e-01, 3.62309277e-01,
          3.00009847e-01, 3.62309277e-01, 3.62309277e-01, 1.65176630e-01,
          3.02461445e-01, 3.62309277e-01, 3.62309277e-01, 3.62309277e-01,
          5.49275577e-01, 5.49275577e-01, 1.39986485e-01, 4.01136279e-02,
          1.83512002e-01, 5.49275577e-01, 1.37135267e-01, 3.32712270e-02,
          1.20867349e-01, 1.84780717e-01, 4.14790630e-01, 4.14790630e-01,
          2.38492042e-01, 2.10756406e-01, 4.14790630e-01, 4.14790630e-01,
          4.14790630e-01, 1.26254782e-02, 1.75370887e-01, 1.45317828e-02,
          1.94223404e-01, 5.42266190e-01, 5.42266190e-01, 5.42266190e-01,
          5.46459947e-03, 7.36928955e-02, 1.95645973e-01, 2.21780419e-01,
          9.59893018e-02, 2.79049128e-01, 6.58985451e-02, 6.49405181e-01,
          6.49405181e-01, 7.66343251e-02, 7.25330319e-03, 5.93757965e-02,
          1.91525870e-03, 1.66606247e-01, 4.42380250e-01, 4.42380250e-01,
          3.94715488e-01, 4.42380250e-01, 4.42380250e-01, 1.70922533e-01,
          1.92303536e-03 ]
      - [ 4.04420376e-01, 4.04420376e-01, 5.08188643e-02, 0.,
          1.97774440e-01, 4.04420376e-01, 4.04420376e-01, 3.69436651e-01,
          4.04420376e-01, 4.72362757e-01, 4.72362757e-01, 2.21720152e-03,
          0., 5.29194549e-02, 3.81097436e-01, 4.72362757e-01,
          3.70166212e-01, 2.02085853e-01, 4.99818385e-01, 4.99818385e-01,
          1.75420731e-01, 5.69961928e-02, 1.42398223e-01, 4.23267603e-01,
          2.33508140e-01, 2.26379216e-01, 3.95150542e-01, 3.61586481e-01,
          2.94747353e-01, 3.57056677e-01, 3.19910139e-01, 1.61107257e-01,
          3.61586481e-01, 3.61586481e-01, 3.61586481e-01, 3.61586481e-01,
          5.65656900e-01, 5.65656900e-01, 1.43691388e-04, 7.75375578e-04,
          5.46344705e-02, 5.65656900e-01, 1.71243593e-01, 1.84110936e-03,
          4.62042205e-02, 3.89187396e-01, 4.50392246e-01, 4.50392246e-01,
          5.42614870e-02, 1.06361516e-01, 4.50392246e-01, 4.50392246e-01,
          1.34852916e-01, 1.33863306e-02, 4.43442315e-01, 6.89946339e-02,
          9.63096544e-02, 4.43442315e-01, 4.43442315e-01, 3.61670375e-01,
          1.67641509e-02, 2.52752542e-01, 4.43442315e-01, 5.43490052e-01,
          3.11752051e-01, 0., 2.59629246e-02, 5.43490052e-01,
          5.43490052e-01, 7.22800046e-02, 4.30846296e-04, 7.30767995e-02,
          1.11159151e-02, 4.41338032e-01, 4.41589743e-01, 3.59898329e-01,
          2.71472961e-01, 4.41589743e-01, 4.41589743e-01, 1.11602902e-01,
          1.39960926e-03 ]
      - [ 4.14145947e-01, 4.14145947e-01, 9.28930268e-02, 2.85230274e-03,
          6.40646974e-03, 4.14145947e-01, 4.14145947e-01, 3.60000253e-01,
          4.14145947e-01, 4.31538910e-01, 4.31538910e-01, 3.41288485e-02,
          2.98883189e-02, 7.24842697e-02, 4.31538910e-01, 4.31538910e-01,
          3.86939079e-01, 3.06189477e-01, 4.49106038e-01, 4.49106038e-01,
          1.43511608e-01, 6.87819794e-02, 1.28963292e-01, 1.65773541e-01,
          4.00805146e-01, 4.49106038e-01, 4.00426626e-01, 3.39727610e-01,
          3.39727610e-01, 3.39727610e-01, 3.39727610e-01, 2.70715207e-01,
          3.39727610e-01, 3.39727610e-01, 3.39727610e-01, 3.39727610e-01,
          5.13091803e-01, 5.13091803e-01, 3.40377651e-02, 1.61264390e-02,
          4.05984521e-01, 5.13091803e-01, 7.72176236e-02, 5.27183600e-02,
          1.73500165e-01, 4.16542858e-01, 4.16542858e-01, 4.16542858e-01,
          1.24093235e-01, 2.24185467e-01, 4.16542858e-01, 4.16542858e-01,
          2.47896150e-01, 3.44712883e-02, 2.05173150e-01, 1.56707130e-02,
          1.36345208e-01, 5.22331893e-01, 5.22331893e-01, 5.09869874e-01,
          2.15644930e-02, 1.39506832e-01, 3.29084128e-01, 4.35734570e-01,
          2.24366054e-01, 2.00232640e-01, 1.61956057e-01, 5.81549823e-01,
          5.81549823e-01, 7.52552133e-03, 1.69442277e-02, 1.04504697e-01,
          2.38583679e-03, 4.14904356e-01, 4.14904356e-01, 4.14904356e-01,
          4.14904356e-01, 4.14904356e-01, 3.64950597e-01, 4.39527743e-02,
          8.20090063e-04 ]
      - [ 4.07032728e-01, 4.07032728e-01, 2.83384055e-01, 0., 0.,
          2.95379400e-01, 4.07032728e-01, 4.07032728e-01, 4.07032728e-01,
          6.46942079e-01, 6.46942079e-01, 2.39019725e-03, 0.,
          3.79227810e-02, 9.61005911e-02, 3.50787729e-01, 1.43069655e-01,
          4.76722009e-02, 4.67562288e-01, 4.67562288e-01, 2.70823445e-02,
          5.23623340e-02, 8.97014067e-02, 5.51372245e-02, 4.05799985e-01,
          4.00313526e-01, 4.67562288e-01, 3.83678764e-01, 2.71887004e-01,
          3.83678764e-01, 3.83678764e-01, 1.20488688e-01, 1.56430990e-01,
          3.83678764e-01, 3.83678764e-01, 3.83678764e-01, 5.41115701e-01,
          5.41115701e-01, 8.33463203e-03, 5.52136358e-03, 2.00877637e-01,
          5.41115701e-01, 1.20507464e-01, 3.29918191e-02, 2.45184034e-01,
          3.87319148e-01, 3.87319148e-01, 3.87319148e-01, 2.49166831e-01,
          2.51204014e-01, 3.87319148e-01, 3.87319148e-01, 3.42918754e-01,
          5.71763068e-02, 1.61339194e-01, 2.05298178e-02, 2.27691948e-01,
          5.34978449e-01, 5.34978449e-01, 4.76964295e-01, 6.05150918e-03,
          9.77192298e-02, 3.26921284e-01, 3.42529386e-01, 1.15781590e-01,
          3.03196274e-02, 6.64751083e-02, 6.49296701e-01, 6.49296701e-01,
          3.39516923e-02, 4.40644659e-03, 1.14468761e-01, 2.56239693e-03,
          3.40756774e-01, 4.21694905e-01, 3.71679366e-01, 4.21694905e-01,
          4.21694905e-01, 4.21694905e-01, 1.73821613e-01, 1.12642983e-05 ]
      - [ 4.05094236e-01, 4.05094236e-01, 1.06512696e-01, 0., 0.,
          4.05094236e-01, 4.05094236e-01, 4.05094236e-01, 4.05094236e-01,
          3.74729007e-01, 3.74729007e-01, 3.74729007e-01, 3.74729007e-01,
          5.50147379e-03, 1.15208641e-01, 3.74729007e-01, 3.74729007e-01,
          3.74729007e-01, 4.07951027e-01, 3.84612739e-01, 4.07951027e-01,
          4.07951027e-01, 1.38564454e-02, 0., 1.25241950e-01,
          4.07951027e-01, 4.07951027e-01, 3.40295374e-01, 3.40295374e-01,
          3.40295374e-01, 3.40295374e-01, 2.64938593e-01, 3.40295374e-01,
          3.40295374e-01, 3.40295374e-01, 3.40295374e-01, 3.88618916e-01,
          3.88618916e-01, 2.10663602e-01, 3.88618916e-01, 3.14910203e-01,
          2.87237436e-01, 1.22235484e-01, 3.88618916e-01, 3.88618916e-01,
          3.48554254e-01, 3.48554254e-01, 3.48554254e-01, 3.48554254e-01,
          1.56834140e-01, 3.48554254e-01, 3.48554254e-01, 3.48554254e-01,
          3.48554254e-01, 1.38904124e-01, 2.79735215e-02, 1.99897245e-01,
          5.52130282e-01, 5.52130282e-01, 5.52130282e-01, 2.37647500e-02,
          4.58478108e-02, 1.31301865e-01, 1.86431363e-01, 2.35906485e-02,
          1.85523078e-01, 5.37378192e-01, 5.37378192e-01, 5.37378192e-01,
          1.91361606e-02, 1.03360020e-01, 2.18004718e-01, 2.51352936e-01,
          9.27528068e-02, 1.99449379e-02, 2.08666950e-01, 6.24846816e-01,
          6.24846816e-01, 2.80651271e-01, 1.66205093e-02, 1.34654582e-01 ]
      - [ 4.29737389e-01, 4.29737389e-01, 8.33914652e-02, 0.,
          1.41245395e-01, 4.29737389e-01, 4.29737389e-01, 2.99294412e-01,
          3.74871641e-01, 3.52781802e-01, 3.52781802e-01, 3.52781802e-01,
          3.52781802e-01, 6.77346289e-02, 3.47422272e-01, 3.52781802e-01,
          3.52781802e-01, 3.52781802e-01, 2.79385716e-01, 2.27922693e-01,
          4.54994261e-01, 4.54994261e-01, 8.23015422e-02, 0.,
          1.74921706e-01, 4.54994261e-01, 4.54994261e-01, 3.71480435e-01,
          3.71480435e-01, 3.71480435e-01, 1.95914939e-01, 1.14668578e-01,
          3.71480435e-01, 3.71480435e-01, 3.71480435e-01, 3.41717601e-01,
          3.96750778e-01, 3.96750778e-01, 3.96750778e-01, 1.37708813e-01,
          1.57540768e-01, 8.82418081e-02, 3.96750778e-01, 3.96750778e-01,
          3.96750778e-01, 3.36539149e-01, 4.04950351e-01, 4.04950351e-01,
          4.04950351e-01, 3.49255241e-02, 1.55474901e-01, 4.04950351e-01,
          4.04950351e-01, 1.93338752e-01, 3.97140861e-01, 1.54791087e-01,
          2.47136861e-01, 3.97481322e-01, 3.97481322e-01, 3.97481322e-01,
          2.72378754e-02, 3.47222835e-01, 3.97481322e-01, 2.77024865e-01,
          1.87175587e-01, 3.25145982e-02, 4.21693712e-01, 4.21693712e-01,
          4.21693712e-01, 7.77601823e-02, 4.06944484e-01, 4.21693712e-01,
          4.05906767e-01, 4.05906767e-01, 5.00162654e-02, 2.95761138e-01,
          4.05906767e-01, 4.05906767e-01, 3.40915889e-01, 1.18745513e-01,
          3.41472298e-01 ]
      - [ 4.51562643e-01, 4.51562643e-01, 9.18152258e-02, 0.,
          1.21652573e-01, 4.51562643e-01, 4.51562643e-01, 2.74605125e-01,
          2.84985691e-01, 3.52147847e-01, 3.52147847e-01, 3.52147847e-01,
          3.52147847e-01, 6.64595813e-02, 3.52147847e-01, 3.52147847e-01,
          3.52147847e-01, 3.52147847e-01, 2.65920848e-01, 2.64989614e-01,
          4.54991728e-01, 4.54991728e-01, 1.07071780e-01, 0.,
          1.22423321e-01, 4.54991728e-01, 4.54991728e-01, 2.33280316e-01,
          4.23441082e-01, 4.23441082e-01, 3.10904365e-02, 4.14282158e-02,
          4.23441082e-01, 4.23441082e-01, 4.23441082e-01, 2.05318540e-01,
          4.17678595e-01, 4.17678595e-01, 4.17678595e-01, 4.28244658e-02,
          2.93563455e-02, 6.02401607e-02, 4.17678595e-01, 4.17678595e-01,
          3.42382908e-01, 1.08266033e-01, 4.42163765e-01, 4.42163765e-01,
          4.42163765e-01, 2.85567325e-02, 2.41689440e-02, 4.42163765e-01,
          4.42163765e-01, 7.01297373e-02, 3.62582654e-01, 2.25421041e-01,
          3.62582654e-01, 3.62582654e-01, 3.62582654e-01, 3.62582654e-01,
          1.59058243e-01, 3.62582654e-01, 3.62582654e-01, 3.57398748e-01,
          2.90799260e-01, 2.02543005e-01, 3.70411098e-01, 3.70411098e-01,
          3.70411098e-01, 2.38654166e-01, 3.70411098e-01, 3.70411098e-01,
          3.80728334e-01, 3.80728334e-01, 2.27036044e-01, 1.84123173e-01,
          3.80728334e-01, 3.80728334e-01, 3.80728334e-01, 2.02547312e-01,
          3.80728334e-01 ]
      - [ 4.28212970e-01, 4.28212970e-01, 1.64525717e-01, 1.35200666e-04,
          7.58802742e-02, 4.28212970e-01, 4.28212970e-01, 2.14625359e-01,
          4.28212970e-01, 3.59796792e-01, 3.59796792e-01, 3.59796792e-01,
          3.59796792e-01, 1.63363919e-01, 2.52074331e-01, 3.59796792e-01,
          3.59796792e-01, 3.59796792e-01, 4.06421512e-01, 1.80249497e-01,
          4.06421512e-01, 4.06421512e-01, 2.57917792e-01, 7.65244896e-03,
          2.66416222e-01, 4.06421512e-01, 4.06421512e-01, 3.44587058e-01,
          3.44587058e-01, 3.44587058e-01, 3.44587058e-01, 2.15952188e-01,
          3.44587058e-01, 3.44587058e-01, 3.44587058e-01, 3.44587058e-01,
          3.55028003e-01, 3.55028003e-01, 3.55028003e-01, 2.71235704e-01,
          3.55028003e-01, 2.01419756e-01, 3.55028003e-01, 3.55028003e-01,
          3.55028003e-01, 3.47913206e-01, 3.47913206e-01, 3.47913206e-01,
          3.35222870e-01, 2.98445374e-01, 3.47913206e-01, 3.47913206e-01,
          3.47913206e-01, 2.62332737e-01, 2.54056841e-01, 1.34286031e-01,
          3.12319934e-01, 5.27407765e-01, 5.27407765e-01, 2.67579585e-01,
          5.15726022e-02, 2.86527842e-01, 3.19275707e-01, 2.71724492e-01,
          1.43628165e-01, 4.66405451e-02, 5.13824105e-01, 5.13824105e-01,
          4.50815678e-01, 5.20501174e-02, 2.36855894e-01, 3.28868866e-01,
          4.09157515e-01, 2.80654997e-01, 5.53709194e-02, 1.13460943e-01,
          5.16303301e-01, 5.16303301e-01, 3.80005121e-01, 8.61572176e-02,
          2.18545735e-01 ]
      - [ 4.27307904e-01, 4.27307904e-01, 1.74729958e-01, 5.40593464e-05,
          6.79073706e-02, 4.27307904e-01, 4.27307904e-01, 2.18241423e-01,
          4.27307904e-01, 3.61981362e-01, 3.61981362e-01, 3.61981362e-01,
          3.61981362e-01, 1.45334646e-01, 2.40931436e-01, 3.61981362e-01,
          3.61981362e-01, 3.61981362e-01, 4.10997391e-01, 2.45880514e-01,
          4.10997391e-01, 4.10997391e-01, 2.26281375e-01, 4.05502832e-03,
          1.99055478e-01, 4.10997391e-01, 4.10997391e-01, 3.44897211e-01,
          3.44897211e-01, 3.44897211e-01, 3.44897211e-01, 2.11946428e-01,
          3.44897211e-01, 3.44897211e-01, 3.44897211e-01, 3.44897211e-01,
          3.53936285e-01, 3.53936285e-01, 3.53936285e-01, 2.84002811e-01,
          3.53936285e-01, 1.97256312e-01, 3.53936285e-01, 3.53936285e-01,
          3.53936285e-01, 3.47338945e-01, 3.47338945e-01, 3.47338945e-01,
          3.47338945e-01, 2.90819466e-01, 3.47338945e-01, 3.47338945e-01,
          3.47338945e-01, 2.59698361e-01, 2.31297716e-01, 1.38455316e-01,
          3.07727188e-01, 5.36138177e-01, 5.36138177e-01, 2.70093322e-01,
          5.01804128e-02, 2.83734053e-01, 3.10514867e-01, 2.63120472e-01,
          1.43228218e-01, 4.53163907e-02, 5.17007768e-01, 5.17007768e-01,
          4.39795017e-01, 5.06719537e-02, 2.47318313e-01, 3.33599597e-01,
          4.06941414e-01, 2.87441045e-01, 5.65888211e-02, 1.24127239e-01,
          5.16564727e-01, 5.16564727e-01, 3.74770910e-01, 8.96704569e-02,
          2.14091733e-01 ]
      - [ 4.12799984e-01, 4.12799984e-01, 1.15683623e-01, 1.33537804e-04,
          3.18701528e-02, 4.12799984e-01, 4.12799984e-01, 3.59803885e-01,
          4.12799984e-01, 3.69147032e-01, 3.69147032e-01, 3.69147032e-01,
          3.69147032e-01, 3.22455429e-02, 2.03433976e-01, 3.69147032e-01,
          3.69147032e-01, 3.69147032e-01, 4.18724209e-01, 3.04627031e-01,
          4.18724209e-01, 4.18724209e-01, 5.09451404e-02, 1.16630422e-03,
          1.54184237e-01, 4.18724209e-01, 4.18724209e-01, 3.41744870e-01,
          3.41744870e-01, 3.41744870e-01, 3.41744870e-01, 2.49537736e-01,
          3.41744870e-01, 3.41744870e-01, 3.41744870e-01, 3.41744870e-01,
          4.01888043e-01, 4.01888043e-01, 1.64816350e-01, 4.01888043e-01,
          3.41287941e-01, 1.80116728e-01, 1.11046053e-01, 4.01888043e-01,
          4.01888043e-01, 3.55777591e-01, 3.55777591e-01, 3.55777591e-01,
          3.55777591e-01, 1.52674556e-01, 3.55777591e-01, 3.55777591e-01,
          3.55777591e-01, 2.95113415e-01, 1.28432438e-01, 3.19402143e-02,
          1.76356509e-01, 5.49806237e-01, 5.49806237e-01, 5.49806237e-01,
          2.73326784e-03, 5.79955988e-02, 1.88841686e-01, 1.42835379e-01,
          4.80849668e-02, 2.11712974e-03, 5.53233802e-01, 5.53233802e-01,
          5.53233802e-01, 3.05424584e-03, 1.20685101e-01, 1.97432697e-01,
          2.43700862e-01, 1.36524498e-01, 1.00580202e-02, 2.72874504e-01,
          5.80066979e-01, 5.80066979e-01, 3.88546258e-01, 3.22652757e-02,
          1.29044175e-01 ]
      - [ 4.20594662e-01, 4.20594662e-01, 3.27786863e-01, 1.08455832e-03,
          3.58869578e-03, 6.19739555e-02, 4.20594662e-01, 4.20594662e-01,
          4.20594662e-01, 4.08160418e-01, 4.08160418e-01, 4.03502941e-01,
          0., 9.96539090e-03, 5.84340654e-03, 4.08160418e-01,
          4.08160418e-01, 4.08160418e-01, 4.21192139e-01, 4.26669806e-01,
          4.26669806e-01, 1.22716442e-01, 8.56731087e-04, 4.75843524e-04,
          2.74018854e-01, 4.26669806e-01, 4.26669806e-01, 3.53897482e-01,
          3.53897482e-01, 3.53897482e-01, 2.64543712e-01, 2.96533704e-01,
          2.95106858e-01, 3.53897482e-01, 3.53897482e-01, 3.53897482e-01,
          3.17456216e-01, 3.66313785e-01, 3.66313785e-01, 3.66313785e-01,
          2.34396905e-01, 1.88428238e-01, 3.66313785e-01, 3.66313785e-01,
          3.66313785e-01, 3.90534431e-01, 3.90534431e-01, 3.90534431e-01,
          6.80357441e-02, 8.33343565e-02, 3.90534431e-01, 3.90534431e-01,
          3.09421927e-01, 3.55242848e-01, 3.76613557e-01, 1.24196790e-01,
          9.62155387e-02, 4.75293070e-01, 4.75293070e-01, 4.75293070e-01,
          4.40719314e-02, 1.15027145e-01, 3.68576437e-01, 2.08462879e-01,
          6.66294843e-02, 2.78000087e-01, 4.57089484e-01, 4.57089484e-01,
          4.57089484e-01, 5.87658584e-02, 3.02913517e-01, 3.85034591e-01,
          4.76631224e-01, 2.51427591e-01, 1.99988857e-02, 2.91756749e-01,
          4.76631224e-01, 4.76631224e-01, 2.29538575e-01, 4.97081764e-02,
          3.31377238e-01 ]
      - [ 4.18540001e-01, 4.18540001e-01, 3.43410611e-01, 6.78862678e-04,
          1.46609941e-03, 4.47969735e-02, 4.18540001e-01, 4.18540001e-01,
          4.18540001e-01, 4.07054275e-01, 4.07054275e-01, 4.07054275e-01,
          3.82904299e-02, 1.00315148e-02, 1.44127645e-02, 4.07054275e-01,
          4.07054275e-01, 4.07054275e-01, 4.04755205e-01, 4.04755205e-01,
          4.04755205e-01, 1.13938205e-01, 3.73372249e-03, 0.,
          4.04755205e-01, 4.04755205e-01, 4.04755205e-01, 3.17979723e-01,
          3.75872970e-01, 3.75872970e-01, 3.69411200e-01, 1.37132317e-01,
          1.95494249e-01, 3.75872970e-01, 3.75872970e-01, 3.69491339e-01,
          3.61450583e-01, 3.61450583e-01, 3.61450583e-01, 2.70530999e-01,
          2.84928828e-01, 2.41118819e-01, 3.61450583e-01, 3.61450583e-01,
          3.61450583e-01, 3.67581159e-01, 4.01353568e-01, 4.01353568e-01,
          7.10708871e-02, 3.34587805e-02, 3.84555310e-01, 4.01353568e-01,
          3.94300073e-01, 2.60949552e-01, 1.33259535e-01, 4.89673689e-02,
          4.02344406e-01, 5.04291713e-01, 5.04291713e-01, 5.04291713e-01,
          6.33130521e-02, 1.22256592e-01, 1.76184788e-01, 1.45025864e-01,
          7.50331655e-02, 4.68637913e-01, 4.68637913e-01, 4.68637913e-01,
          4.68637913e-01, 1.16563939e-01, 1.31203756e-01, 2.43657738e-01,
          2.21200734e-01, 1.52733922e-01, 1.08128816e-01, 2.90044308e-01,
          5.17184854e-01, 5.17184854e-01, 5.17184854e-01, 3.38475071e-02,
          1.52229235e-01 ]
      - [ 4.19719040e-01, 4.19719040e-01, 3.32653850e-01, 3.18405405e-03,
          1.85912400e-02, 6.30274490e-02, 4.19719040e-01, 4.19719040e-01,
          4.19719040e-01, 4.04857248e-01, 4.04857248e-01, 4.04857248e-01,
          5.79235889e-02, 7.73347020e-02, 5.62447198e-02, 4.04857248e-01,
          4.04857248e-01, 4.04857248e-01, 4.02138442e-01, 4.02138442e-01,
          4.02138442e-01, 1.60270497e-01, 1.82507827e-03, 9.24116932e-04,
          4.02138442e-01, 4.02138442e-01, 4.02138442e-01, 3.07009339e-01,
          3.86401534e-01, 3.86401534e-01, 3.86401534e-01, 8.08373317e-02,
          2.08790004e-01, 3.86401534e-01, 3.86401534e-01, 3.24386060e-01,
          3.64504099e-01, 3.64504099e-01, 3.64504099e-01, 2.64909685e-01,
          2.72432119e-01, 2.34056681e-01, 3.64504099e-01, 3.64504099e-01,
          3.64504099e-01, 3.02963793e-01, 4.15004253e-01, 4.15004253e-01,
          7.63029531e-02, 3.93038690e-02, 4.15004253e-01, 4.15004253e-01,
          4.15004253e-01, 1.88566968e-01, 1.41258284e-01, 6.84326217e-02,
          3.98645014e-01, 5.02865970e-01, 5.02865970e-01, 5.02865970e-01,
          5.73008545e-02, 1.40911296e-01, 1.72223851e-01, 1.57694310e-01,
          1.08458236e-01, 4.63938624e-01, 4.63938624e-01, 4.63938624e-01,
          4.63938624e-01, 1.25498563e-01, 1.88376144e-01, 2.15739965e-01,
          2.18698248e-01, 2.24876329e-01, 9.90962535e-02, 2.37817734e-01,
          5.19497395e-01, 5.19497395e-01, 5.19497395e-01, 5.85193112e-02,
          1.30303919e-01 ]
      - [ 4.20813709e-01, 4.20813709e-01, 3.28451902e-01, 0., 0.,
          4.99476679e-02, 4.20813709e-01, 4.20813709e-01, 4.20813709e-01,
          4.07060385e-01, 4.07060385e-01, 4.07060385e-01, 4.08860669e-02,
          0., 8.54243431e-03, 4.07060385e-01, 4.07060385e-01,
          4.07060385e-01, 3.79511029e-01, 4.08159018e-01, 4.08159018e-01,
          1.37567788e-01, 2.28865945e-04, 2.16983928e-04, 4.08159018e-01,
          4.08159018e-01, 4.08159018e-01, 3.15475225e-01, 3.86824816e-01,
          3.86824816e-01, 3.28713715e-01, 1.16209522e-01, 2.01793537e-01,
          3.86824816e-01, 3.86824816e-01, 3.68509501e-01, 3.69396359e-01,
          3.69396359e-01, 3.69396359e-01, 2.06163108e-01, 2.79904157e-01,
          2.38197058e-01, 3.69396359e-01, 3.69396359e-01, 3.69396359e-01,
          3.87888819e-01, 3.94690365e-01, 3.94690365e-01, 6.36027306e-02,
          3.87391970e-02, 3.94690365e-01, 3.94690365e-01, 3.94690365e-01,
          2.47286677e-01, 1.36979327e-01, 6.13494366e-02, 4.40131634e-01,
          4.93575156e-01, 4.93575156e-01, 4.93575156e-01, 5.56166470e-02,
          1.16325960e-01, 1.77068681e-01, 1.55350283e-01, 1.04631707e-01,
          4.69541609e-01, 4.69541609e-01, 4.69541609e-01, 4.69541609e-01,
          1.24487527e-01, 1.26397669e-01, 2.16512963e-01, 2.30367348e-01,
          1.42750293e-01, 6.65451884e-02, 2.31708288e-01, 5.30298769e-01,
          5.30298769e-01, 5.30298769e-01, 3.46827693e-02, 1.35229692e-01 ]
      - [ 4.05414313e-01, 4.05414313e-01, 6.02088235e-02, 0.,
          7.84876123e-02, 4.05414313e-01, 4.05414313e-01, 4.05414313e-01,
          4.05414313e-01, 3.73706549e-01, 3.73706549e-01, 3.73706549e-01,
          3.73706549e-01, 7.73521662e-02, 1.12636209e-01, 3.73706549e-01,
          3.73706549e-01, 3.73706549e-01, 4.06461954e-01, 3.26857388e-01,
          4.06461954e-01, 4.06461954e-01, 2.41092443e-01, 0.,
          7.01542720e-02, 4.06461954e-01, 4.06461954e-01, 3.53626370e-01,
          3.53626370e-01, 3.53626370e-01, 2.74135262e-01, 2.14372411e-01,
          3.53626370e-01, 3.53626370e-01, 3.53626370e-01, 3.53626370e-01,
          3.93447965e-01, 3.93447965e-01, 2.60255426e-01, 3.13265562e-01,
          1.83879763e-01, 1.49609491e-01, 3.93447965e-01, 3.93447965e-01,
          3.93447965e-01, 3.61109853e-01, 3.61109853e-01, 3.61109853e-01,
          3.61109853e-01, 1.29332140e-01, 3.25661629e-01, 3.61109853e-01,
          3.61109853e-01, 3.02006632e-01, 4.35936838e-01, 1.27948210e-01,
          8.89244974e-02, 4.35936838e-01, 4.35936838e-01, 4.35936838e-01,
          2.29748413e-02, 1.43647775e-01, 4.35936838e-01, 2.39082009e-01,
          9.51071084e-02, 8.92341211e-02, 4.41118926e-01, 4.41118926e-01,
          4.41118926e-01, 4.85612042e-02, 3.75131577e-01, 4.41118926e-01,
          4.72616583e-01, 3.26624960e-01, 2.32429318e-02, 2.14804307e-01,
          4.72616583e-01, 4.72616583e-01, 1.53095365e-01, 6.23157918e-02,
          3.80123228e-01 ]
      - [ 4.05786186e-01, 4.05786186e-01, 8.70684385e-02, 6.82945037e-03,
          1.85475480e-02, 4.05786186e-01, 4.05786186e-01, 4.05786186e-01,
          4.05786186e-01, 4.05034989e-01, 4.05034989e-01, 3.25008452e-01,
          7.70745501e-02, 1.56742275e-01, 1.98866740e-01, 4.05034989e-01,
          4.05034989e-01, 4.05034989e-01, 3.90482783e-01, 3.90482783e-01,
          3.90482783e-01, 2.83450127e-01, 1.52280424e-02, 2.57319417e-02,
          3.90482783e-01, 3.90482783e-01, 3.90482783e-01, 3.32778692e-01,
          3.32778692e-01, 3.32778692e-01, 3.32778692e-01, 3.32778692e-01,
          3.32778692e-01, 3.32778692e-01, 3.32778692e-01, 3.32778692e-01,
          4.00593758e-01, 4.00593758e-01, 3.59348580e-02, 4.00593758e-01,
          4.00593758e-01, 1.72521785e-01, 4.57257591e-02, 4.00593758e-01,
          4.00593758e-01, 3.58190745e-01, 3.58190745e-01, 3.58190745e-01,
          2.36288384e-01, 2.06118762e-01, 3.58190745e-01, 3.58190745e-01,
          3.58190745e-01, 3.58190745e-01, 2.05401152e-01, 2.84143128e-02,
          1.36457771e-01, 5.30008733e-01, 5.30008733e-01, 5.30008733e-01,
          8.39259662e-03, 6.19628616e-02, 2.94026554e-01, 1.48963436e-01,
          5.30773103e-02, 4.28062538e-03, 5.77600420e-01, 5.77600420e-01,
          4.26150501e-01, 8.79617501e-03, 1.56448245e-01, 3.09523195e-01,
          3.41703951e-01, 2.24929810e-01, 9.60798096e-03, 2.44957179e-01,
          5.48065484e-01, 5.48065484e-01, 2.37509578e-01, 7.32867196e-02,
          3.23329985e-01 ]
      - [ 4.14507955e-01, 4.14507955e-01, 3.61220576e-02, 0., 0.,
          4.14507955e-01, 4.14507955e-01, 3.68062705e-01, 4.14507955e-01,
          4.31478262e-01, 4.31478262e-01, 1.57935068e-01, 0., 0.,
          1.99696884e-01, 4.31478262e-01, 4.31478262e-01, 4.31478262e-01,
          4.31239575e-01, 4.31239575e-01, 4.31239575e-01, 7.62425037e-03,
          0., 0., 2.56507874e-01, 4.31239575e-01, 4.31239575e-01,
          3.40894878e-01, 3.40894878e-01, 3.09267849e-01, 3.40894878e-01,
          2.95773864e-01, 3.40894878e-01, 3.40894878e-01, 3.40894878e-01,
          3.40894878e-01, 3.94520730e-01, 3.94520730e-01, 6.49541616e-02,
          3.94520730e-01, 3.94520730e-01, 2.31521755e-01, 6.60140812e-02,
          3.94520730e-01, 3.94520730e-01, 3.81874055e-01, 3.81874055e-01,
          3.81874055e-01, 3.12186461e-02, 1.69536799e-01, 3.81874055e-01,
          3.81874055e-01, 3.81874055e-01, 3.02491128e-01, 2.42689580e-01,
          6.46165386e-02, 1.57327145e-01, 5.08008182e-01, 5.08008182e-01,
          5.08008182e-01, 6.26487564e-03, 1.45053625e-01, 3.34371686e-01,
          2.25431144e-01, 8.44017640e-02, 7.74197578e-02, 5.18289745e-01,
          5.18289745e-01, 5.13051033e-01, 8.12875293e-03, 2.28887975e-01,
          2.79215604e-01, 4.50923473e-01, 2.69441962e-01, 2.79553123e-02,
          1.38442770e-01, 5.54292738e-01, 5.54292738e-01, 1.69457898e-01,
          7.08807409e-02, 2.24421218e-01 ]
      - [ 4.00126189e-01, 4.00126189e-01, 1.63885504e-01, 5.56561500e-02,
          7.37626478e-02, 4.00126189e-01, 4.00126189e-01, 4.00126189e-01,
          4.00126189e-01, 3.71203035e-01, 3.71203035e-01, 3.71203035e-01,
          1.79088026e-01, 2.64192790e-01, 2.60136098e-01, 3.71203035e-01,
          3.71203035e-01, 3.71203035e-01, 4.16056693e-01, 4.16056693e-01,
          4.16056693e-01, 3.97787131e-02, 8.86587892e-03, 1.63703207e-02,
          3.58327925e-01, 4.16056693e-01, 4.16056693e-01, 3.41593772e-01,
          3.41593772e-01, 3.41593772e-01, 3.41593772e-01, 2.51190305e-01,
          3.41593772e-01, 3.41593772e-01, 3.41593772e-01, 3.41593772e-01,
          3.79029483e-01, 3.79029483e-01, 2.81936228e-02, 3.79029483e-01,
          3.79029483e-01, 1.66881457e-01, 3.24944794e-01, 3.79029483e-01,
          3.79029483e-01, 3.96327168e-01, 3.96327168e-01, 3.96327168e-01,
          4.61605117e-02, 2.21303865e-01, 3.96327168e-01, 3.96327168e-01,
          2.67955989e-01, 2.96240032e-01, 2.76552826e-01, 1.26102477e-01,
          3.17720562e-01, 4.57989842e-01, 4.57989842e-01, 4.57989842e-01,
          5.08851297e-02, 1.90951720e-01, 3.65759075e-01, 2.60687053e-01,
          1.78391263e-01, 2.58754771e-02, 4.91665035e-01, 4.91665035e-01,
          4.60003674e-01, 6.99007362e-02, 2.03200802e-01, 3.91649842e-01,
          4.73849088e-01, 2.54614532e-01, 1.77809931e-02, 1.00256257e-01,
          5.14528155e-01, 5.14528155e-01, 3.17209274e-01, 6.01468757e-02,
          2.47819528e-01 ]
      - [ 4.06949103e-01, 4.06949103e-01, 4.39337678e-02, 7.89497979e-03,
          1.72308274e-02, 4.06949103e-01, 4.06949103e-01, 4.06949103e-01,
          4.06949103e-01, 4.10441071e-01, 4.10441071e-01, 2.04581454e-01,
          2.85137873e-02, 1.07598953e-01, 3.15192610e-01, 4.10441071e-01,
          4.10441071e-01, 4.10441071e-01, 4.09628600e-01, 4.09628600e-01,
          4.09628600e-01, 1.44870535e-01, 1.01374760e-02, 9.60464776e-03,
          3.68439466e-01, 4.09628600e-01, 4.09628600e-01, 3.37750971e-01,
          3.37750971e-01, 3.37750971e-01, 3.37750971e-01, 2.89861679e-01,
          3.37750971e-01, 3.37750971e-01, 3.37750971e-01, 3.37750971e-01,
          4.15579885e-01, 4.15579885e-01, 1.51745370e-02, 2.99095273e-01,
          4.15579885e-01, 1.13806754e-01, 1.72264487e-01, 4.15579885e-01,
          4.15579885e-01, 3.70649070e-01, 3.70649070e-01, 3.70649070e-01,
          1.69088557e-01, 2.41475642e-01, 3.70649070e-01, 3.70649070e-01,
          3.70649070e-01, 2.91738331e-01, 2.68730640e-01, 6.20713979e-02,
          1.86979771e-01, 5.01922250e-01, 5.01922250e-01, 5.01922250e-01,
          2.24282183e-02, 1.91268891e-01, 3.01814646e-01, 2.20435783e-01,
          1.08155474e-01, 1.56327020e-04, 5.51192403e-01, 5.51192403e-01,
          2.53398150e-01, 1.28859142e-02, 3.04929733e-01, 4.11364973e-01,
          4.82233346e-01, 3.47391903e-01, 1.14906831e-02, 8.07582438e-02,
          4.99182701e-01, 4.99182701e-01, 2.32305482e-01, 7.29473382e-02,
          2.78345972e-01 ]
      - [ 4.04162794e-01, 4.04162794e-01, 2.53825814e-01, 0., 0.,
          3.38817358e-01, 4.04162794e-01, 4.04162794e-01, 4.04162794e-01,
          4.04719681e-01, 4.04719681e-01, 4.04719681e-01, 1.02255374e-01,
          0., 5.20819426e-02, 4.04719681e-01, 4.04719681e-01,
          4.04719681e-01, 4.01189327e-01, 3.83708388e-01, 4.01189327e-01,
          3.10121775e-01, 0., 0., 3.29807490e-01, 4.01189327e-01,
          4.01189327e-01, 3.33325714e-01, 3.93243134e-01, 3.93243134e-01,
          3.47110629e-01, 7.33647346e-02, 2.36821681e-01, 3.93243134e-01,
          3.93243134e-01, 2.90606588e-01, 3.72387975e-01, 3.72387975e-01,
          3.65733206e-01, 2.73274422e-01, 2.32231557e-01, 2.01356649e-01,
          3.72387975e-01, 3.72387975e-01, 3.72387975e-01, 3.48598450e-01,
          4.08390492e-01, 4.08390492e-01, 1.33106738e-01, 4.04881649e-02,
          4.08390492e-01, 4.08390492e-01, 4.08390492e-01, 1.45357862e-01,
          2.92300731e-01, 1.51782438e-01, 4.15458500e-01, 4.15458500e-01,
          4.15458500e-01, 4.15458500e-01, 1.14935607e-01, 3.06820750e-01,
          2.99332440e-01, 2.91691542e-01, 1.83696479e-01, 1.58621460e-01,
          4.46530879e-01, 4.46530879e-01, 4.46530879e-01, 1.16858736e-01,
          3.42485785e-01, 3.49897683e-01, 4.53208417e-01, 3.58705491e-01,
          7.94866756e-02, 2.11336508e-01, 4.53208417e-01, 4.53208417e-01,
          3.76013607e-01, 8.45850706e-02, 2.26025835e-01 ]
      - [ 3.80071372e-01, 3.80071372e-01, 3.80071372e-01, 2.25934655e-05,
          0., 3.80071372e-01, 3.80071372e-01, 3.59829754e-01,
          3.80071372e-01, 4.07224625e-01, 4.07224625e-01, 4.07224625e-01,
          2.59997956e-02, 0., 1.62611902e-02, 4.07224625e-01,
          4.07224625e-01, 4.07224625e-01, 3.79605353e-01, 3.79605353e-01,
          3.79605353e-01, 3.62380743e-01, 0., 1.69264562e-02,
          3.79605353e-01, 3.79605353e-01, 3.79605353e-01, 3.34709883e-01,
          3.34709883e-01, 3.34709883e-01, 3.34709883e-01, 3.34709883e-01,
          3.16875458e-01, 3.34709883e-01, 3.34709883e-01, 3.34709883e-01,
          3.32778692e-01, 3.32778692e-01, 3.32778692e-01, 3.32778692e-01,
          3.32778692e-01, 3.32778692e-01, 3.32778692e-01, 3.32778692e-01,
          3.32778692e-01, 3.80138785e-01, 3.80138785e-01, 3.80138785e-01,
          1.81779549e-01, 1.33472413e-01, 3.80138785e-01, 3.80138785e-01,
          3.80138785e-01, 2.79840291e-01, 1.78419709e-01, 3.59146558e-02,
          2.28361249e-01, 5.33612788e-01, 5.33612788e-01, 5.33612788e-01,
          8.25838670e-02, 6.80558681e-02, 2.09091544e-01, 1.52617410e-01,
          1.04417510e-01, 4.65524882e-01, 4.74097222e-01, 4.74097222e-01,
          4.74097222e-01, 1.67779520e-01, 1.12478867e-01, 1.71026558e-01,
          1.97192520e-01, 1.39246613e-01, 6.98428079e-02, 4.29314792e-01,
          5.30589819e-01, 5.30589819e-01, 4.01346207e-01, 4.98234183e-02,
          1.43614560e-01 ]
      - [ 4.07173932e-01, 4.07173932e-01, 4.07173932e-01, 0., 0.,
          3.44799533e-02, 4.07173932e-01, 4.07173932e-01, 4.07173932e-01,
          4.07416642e-01, 4.07416642e-01, 4.07416642e-01, 0., 0., 0.,
          4.07416642e-01, 4.07416642e-01, 4.07416642e-01, 3.98543209e-01,
          3.98543209e-01, 3.98543209e-01, 2.07360387e-01, 0., 0.,
          3.98543209e-01, 3.98543209e-01, 3.98543209e-01, 3.68852288e-01,
          3.68852288e-01, 3.68852288e-01, 3.68852288e-01, 1.26804486e-01,
          1.66947380e-01, 3.68852288e-01, 3.68852288e-01, 3.68852288e-01,
          3.48955005e-01, 3.48955005e-01, 3.48955005e-01, 3.48955005e-01,
          2.60291219e-01, 2.76359975e-01, 3.48955005e-01, 3.48955005e-01,
          3.48955005e-01, 3.93896073e-01, 3.93896073e-01, 3.93896073e-01,
          1.62885994e-01, 1.07605785e-01, 2.63251483e-01, 3.93896073e-01,
          3.93896073e-01, 3.35979015e-01, 1.81420460e-01, 5.26561216e-02,
          3.69028658e-01, 4.91468817e-01, 4.91468817e-01, 4.91468817e-01,
          7.50217959e-02, 1.05064146e-01, 2.86236972e-01, 1.85021222e-01,
          7.04817846e-02, 4.42909211e-01, 4.60324347e-01, 4.60324347e-01,
          4.60324347e-01, 1.86367840e-01, 1.26742065e-01, 2.71184266e-01,
          3.33495528e-01, 1.81640223e-01, 6.39170781e-02, 3.46824437e-01,
          5.01276851e-01, 5.01276851e-01, 4.23962265e-01, 5.37147596e-02,
          2.03032777e-01 ]
      - [ 3.78484100e-01, 3.78484100e-01, 3.78484100e-01, 7.61434203e-03,
          0., 3.78484100e-01, 3.78484100e-01, 3.69674802e-01,
          3.78484100e-01, 4.07270193e-01, 4.07270193e-01, 4.07270193e-01,
          1.81613527e-02, 0., 1.96889360e-02, 4.07270193e-01,
          4.07270193e-01, 4.07270193e-01, 3.77251565e-01, 3.77251565e-01,
          3.77251565e-01, 3.77251565e-01, 0., 0., 3.77251565e-01,
          3.77251565e-01, 3.77251565e-01, 3.34988385e-01, 3.34988385e-01,
          3.34988385e-01, 3.34988385e-01, 3.34988385e-01, 3.14507812e-01,
          3.34988385e-01, 3.34988385e-01, 3.34988385e-01, 3.32778692e-01,
          3.32778692e-01, 3.32778692e-01, 3.32778692e-01, 3.32778692e-01,
          3.32778692e-01, 3.32778692e-01, 3.32778692e-01, 3.32778692e-01,
          3.80418718e-01, 3.80418718e-01, 3.80418718e-01, 1.69751450e-01,
          1.37756720e-01, 3.80418718e-01, 3.80418718e-01, 3.80418718e-01,
          2.83013254e-01, 1.61062196e-01, 3.78824696e-02, 2.65938103e-01,
          5.33695638e-01, 5.33695638e-01, 5.33695638e-01, 9.02870968e-02,
          5.61928712e-02, 1.75409451e-01, 1.52514473e-01, 9.84220132e-02,
          4.73304957e-01, 4.73304957e-01, 4.73304957e-01, 4.73304957e-01,
          1.55419588e-01, 1.22711241e-01, 1.64442658e-01, 2.26669401e-01,
          1.49964929e-01, 5.89477830e-02, 4.28579539e-01, 5.34688830e-01,
          5.34688830e-01, 3.73288810e-01, 5.03011830e-02, 1.41341835e-01 ]
      - [ 4.07416642e-01, 4.07416642e-01, 4.07416642e-01, 1.04510269e-04,
          5.28426135e-05, 0., 4.07416642e-01, 4.07416642e-01,
          4.07416642e-01, 4.07416075e-01, 4.07416075e-01, 4.07416075e-01,
          1.55683293e-03, 6.49780268e-04, 0., 4.07416075e-01,
          4.07416075e-01, 4.07416075e-01, 4.07829195e-01, 4.07829195e-01,
          4.07829195e-01, 8.04855525e-02, 0., 0., 3.97271574e-01,
          4.07829195e-01, 4.07829195e-01, 3.47994566e-01, 3.47994566e-01,
          3.47994566e-01, 3.47994566e-01, 2.61465162e-01, 2.83650428e-01,
          3.47994566e-01, 3.47994566e-01, 3.47994566e-01, 3.45504731e-01,
          3.45504731e-01, 3.11895728e-01, 3.45504731e-01, 2.57411718e-01,
          3.45504731e-01, 3.41712326e-01, 3.45504731e-01, 3.45504731e-01,
          3.85735750e-01, 3.85735750e-01, 3.85735750e-01, 1.03675865e-01,
          1.48495287e-01, 3.85735750e-01, 3.85735750e-01, 3.85735750e-01,
          2.65696168e-01, 1.38514727e-01, 4.16049995e-02, 2.99074829e-01,
          5.30103922e-01, 5.30103922e-01, 5.30103922e-01, 1.76983159e-02,
          8.18230435e-02, 1.85214132e-01, 1.31624490e-01, 5.10551371e-02,
          2.53873855e-01, 5.29535711e-01, 5.29535711e-01, 5.29535711e-01,
          2.43039988e-02, 1.63992152e-01, 2.04009652e-01, 2.51269132e-01,
          2.10036606e-01, 3.11340839e-02, 3.81940693e-01, 5.43168008e-01,
          5.43168008e-01, 3.42930943e-01, 6.26214966e-02, 1.69971287e-01 ]
      - [ 3.82982045e-01, 3.82982045e-01, 3.82982045e-01, 8.86620861e-03,
          0., 3.82982045e-01, 3.82982045e-01, 3.40652049e-01,
          3.82982045e-01, 4.07072455e-01, 4.07072455e-01, 4.07072455e-01,
          3.59962620e-02, 0., 1.97398588e-02, 4.07072455e-01,
          4.07072455e-01, 4.07072455e-01, 3.86536837e-01, 3.15712065e-01,
          3.86536837e-01, 3.86536837e-01, 0., 0., 3.86536837e-01,
          3.86536837e-01, 3.86536837e-01, 3.33151788e-01, 3.33151788e-01,
          3.33151788e-01, 3.33151788e-01, 3.33151788e-01, 3.29773098e-01,
          3.33151788e-01, 3.33151788e-01, 3.33151788e-01, 3.32778692e-01,
          3.32778692e-01, 3.32778692e-01, 3.32778692e-01, 3.32778692e-01,
          3.32778692e-01, 3.32778692e-01, 3.32778692e-01, 3.32778692e-01,
          3.71334225e-01, 3.71334225e-01, 3.71334225e-01, 1.99244753e-01,
          2.02210188e-01, 3.71334225e-01, 3.71334225e-01, 3.71334225e-01,
          2.97267467e-01, 1.63488001e-01, 3.53449658e-02, 2.77847767e-01,
          5.31454980e-01, 5.31454980e-01, 5.31454980e-01, 5.30191995e-02,
          6.16702735e-02, 1.88595027e-01, 1.42934665e-01, 1.10218279e-01,
          4.75886017e-01, 4.75886017e-01, 4.75886017e-01, 4.75886017e-01,
          1.28810272e-01, 1.15606889e-01, 1.63833678e-01, 2.13839889e-01,
          1.44965470e-01, 6.74484149e-02, 2.80545950e-01, 5.27696788e-01,
          5.27696788e-01, 5.15217543e-01, 5.52896671e-02, 1.38918340e-01 ]
      - [ 6.89692616e-01, 6.89692616e-01, 4.31425811e-04, 0.,
          5.29130772e-02, 1.66559964e-01, 9.70745981e-02, 1.96282957e-02,
          3.75801213e-02, 5.14818788e-01, 5.14818788e-01, 6.90512955e-02,
          1.12935126e-01, 4.52338040e-01, 3.10595632e-01, 2.22914279e-01,
          1.60229504e-01, 2.66112059e-01, 4.90105540e-01, 1.13063022e-01,
          7.83271864e-02, 7.42454156e-02, 9.78557989e-02, 1.68739893e-02,
          4.90105540e-01, 4.90105540e-01, 4.90105540e-01, 4.96798813e-01,
          4.96798813e-01, 2.03882635e-01, 2.77470469e-01, 4.96798813e-01,
          1.54905364e-01, 2.44821742e-01, 1.60927519e-01, 1.61932111e-01,
          3.68492246e-01, 3.68492246e-01, 2.02729672e-01, 3.15194696e-01,
          3.68492246e-01, 3.68492246e-01, 3.37002099e-01, 2.51730740e-01,
          3.68492246e-01, 3.27512652e-01, 1.93317682e-01, 1.65010825e-01,
          1.13644905e-01, 4.08303082e-01, 3.79862577e-01, 4.08303082e-01,
          4.08303082e-01, 4.08303082e-01, 3.28440107e-02, 8.61138701e-02,
          1.56472743e-01, 5.46110690e-01, 8.11447084e-01, 2.27094516e-02,
          5.84282540e-03, 1.86023880e-02, 3.66717428e-02, 1.50528729e-01,
          1.70389023e-02, 5.41967154e-01, 5.41967154e-01, 5.41967154e-01,
          2.44681656e-01, 1.32284626e-01, 1.89453121e-02, 1.12809516e-01,
          3.13447006e-02, 4.76809824e-03, 2.28899226e-01, 4.47582304e-01,
          4.88855422e-01, 4.88855422e-01, 4.88855422e-01, 7.40403384e-02,
          1.37719080e-01 ]
      - [ 6.10402584e-01, 6.10402584e-01, 4.44850230e-05, 0.,
          4.38974425e-02, 4.96522278e-01, 1.60098746e-02, 0.,
          2.23663985e-03, 4.82971579e-01, 4.82971579e-01, 3.13122123e-01,
          1.28199041e-01, 2.72901565e-01, 4.82971579e-01, 1.39503255e-01,
          2.52831817e-01, 1.51824653e-01, 3.68855387e-01, 1.72313884e-01,
          3.69968146e-01, 1.08288273e-01, 1.07823767e-01, 1.10851906e-01,
          5.11187315e-01, 5.11187315e-01, 3.66068900e-01, 3.96589190e-01,
          3.96589190e-01, 9.54676196e-02, 2.12353706e-01, 3.96589190e-01,
          3.96589190e-01, 3.62228721e-01, 1.96618706e-01, 3.77927780e-01,
          3.82303834e-01, 3.82303834e-01, 3.82303834e-01, 1.38772637e-01,
          3.82303834e-01, 3.82303834e-01, 2.84987688e-01, 1.36994720e-01,
          3.82303834e-01, 2.96805352e-01, 3.26435387e-01, 4.31250483e-01,
          5.55977151e-02, 1.95788905e-01, 1.25325307e-01, 4.31250483e-01,
          4.31250483e-01, 4.31250483e-01, 1.20106682e-01, 9.10851583e-02,
          1.01167522e-01, 6.65999115e-01, 6.65999115e-01, 2.04155203e-02,
          7.19836652e-02, 8.21310803e-02, 2.46861026e-01, 3.29491794e-01,
          8.11896324e-02, 4.22868282e-01, 4.90735859e-01, 4.90735859e-01,
          1.54919416e-01, 1.03077151e-01, 3.35427001e-02, 4.28638577e-01,
          1.69294015e-01, 4.79543060e-02, 2.79251933e-01, 4.14052725e-01,
          4.14052725e-01, 4.14052725e-01, 4.14052725e-01, 2.41414070e-01,
          3.77998203e-01 ]
      - [ 5.74070275e-01, 5.74070275e-01, 2.11988157e-03, 0.,
          6.03518635e-02, 5.74070275e-01, 4.35565785e-02, 6.06686948e-03,
          4.08338988e-03, 4.55936402e-01, 4.55936402e-01, 3.13432872e-01,
          1.32522270e-01, 3.35091054e-01, 4.55936402e-01, 3.45298052e-01,
          1.35119990e-01, 7.89635703e-02, 2.71010578e-01, 2.99507231e-01,
          3.63038331e-01, 1.28243372e-01, 1.56592563e-01, 1.45268828e-01,
          5.39831936e-01, 5.39831936e-01, 2.33994052e-01, 3.98161978e-01,
          3.98161978e-01, 9.05804038e-02, 2.21308574e-01, 3.98161978e-01,
          3.98161978e-01, 3.34810227e-01, 2.20810190e-01, 3.79279852e-01,
          3.72297823e-01, 3.72297823e-01, 3.72297823e-01, 1.53201267e-01,
          3.72297823e-01, 3.72297823e-01, 3.46370399e-01, 1.45613715e-01,
          3.72297823e-01, 3.85841459e-01, 3.24909270e-01, 3.47633570e-01,
          6.39804378e-02, 3.15042734e-01, 2.66252339e-01, 3.85841459e-01,
          3.85841459e-01, 3.85841459e-01, 1.86377794e-01, 9.33751017e-02,
          1.01749435e-01, 6.67328358e-01, 6.67328358e-01, 8.51561725e-02,
          5.67339882e-02, 6.74871579e-02, 1.83984309e-01, 2.22973734e-01,
          3.06100279e-01, 4.33979660e-01, 4.33979660e-01, 4.33979660e-01,
          3.31703991e-01, 3.55325431e-01, 3.58233750e-02, 2.22863361e-01,
          1.88931555e-01, 1.33135304e-01, 4.16129857e-01, 2.72330850e-01,
          4.37290251e-01, 4.37290251e-01, 4.37290251e-01, 1.75416842e-01,
          3.00739557e-01 ]
      - [ 6.98145270e-01, 6.98145270e-01, 0., 1.57069378e-02,
          2.41593178e-02, 1.07467584e-01, 4.04892286e-04, 0.,
          7.64029771e-02, 5.67213833e-01, 5.67213833e-01, 9.91789848e-02,
          1.00269534e-01, 2.38778710e-01, 3.17197859e-01, 2.35400736e-01,
          1.89073041e-01, 2.86689162e-01, 4.80777651e-01, 2.19326422e-01,
          1.07338749e-01, 6.03398755e-02, 7.93412030e-02, 3.23682837e-02,
          4.80777651e-01, 4.80777651e-01, 4.80777651e-01, 4.63254511e-01,
          4.63254511e-01, 2.49336824e-01, 1.68875307e-01, 4.63254511e-01,
          3.43601078e-01, 1.65696591e-01, 1.68349117e-01, 2.94978887e-01,
          3.67648095e-01, 3.67648095e-01, 3.67648095e-01, 1.82695359e-01,
          3.67648095e-01, 3.67648095e-01, 3.56526166e-01, 1.57631487e-01,
          3.67648095e-01, 4.16006088e-01, 2.92821258e-01, 4.16006088e-01,
          1.35351270e-01, 1.17352530e-01, 1.16416350e-01, 4.16006088e-01,
          4.16006088e-01, 4.14983541e-01, 2.84378409e-01, 1.29640684e-01,
          2.94804156e-01, 6.07061148e-01, 6.07061148e-01, 6.64321855e-02,
          6.51742741e-02, 1.04773134e-01, 2.29491830e-01, 3.00261676e-01,
          1.44696489e-01, 4.06146973e-01, 4.06146973e-01, 4.06146973e-01,
          4.06146973e-01, 2.52806634e-01, 9.04274434e-02, 3.91074091e-01,
          1.87270284e-01, 1.64025068e-01, 3.86896372e-01, 3.86896372e-01,
          3.86896372e-01, 3.86896372e-01, 3.86896372e-01, 3.86896372e-01,
          1.89809501e-01 ]
      - [ 6.59546077e-01, 6.59546077e-01, 1.12452224e-04, 0.,
          1.17018357e-01, 3.30707043e-01, 0., 0., 1.87896006e-02,
          5.01618981e-01, 5.01618981e-01, 1.45646378e-01, 8.08209106e-02,
          3.46573293e-01, 4.22510237e-01, 1.43613294e-01, 1.09420873e-01,
          3.64385039e-01, 4.91671860e-01, 6.20535091e-02, 1.14282094e-01,
          4.29420732e-02, 7.50271976e-02, 6.11579008e-02, 4.91671860e-01,
          4.91671860e-01, 4.91671860e-01, 4.39354271e-01, 4.39354271e-01,
          1.46242768e-01, 8.29209536e-02, 4.39354271e-01, 4.39354271e-01,
          2.81122625e-01, 9.42317620e-02, 3.27582151e-01, 3.90227079e-01,
          3.90227079e-01, 3.90227079e-01, 1.38456360e-01, 3.90227079e-01,
          3.90227079e-01, 2.28902757e-01, 1.04268692e-01, 3.90227079e-01,
          4.06048447e-01, 1.73710823e-01, 3.16381544e-01, 4.38924842e-02,
          2.00535342e-01, 1.20913334e-01, 4.63128865e-01, 4.63128865e-01,
          4.63128865e-01, 2.27857128e-01, 7.84494206e-02, 2.02816531e-01,
          5.61237693e-01, 7.35175610e-01, 4.50162701e-02, 6.84039965e-02,
          3.51236910e-02, 1.73332110e-01, 3.23162049e-01, 4.10898924e-02,
          1.86410218e-01, 6.09903038e-01, 6.09903038e-01, 1.96935132e-01,
          6.80917874e-02, 1.36476001e-02, 2.55870819e-01, 1.03551589e-01,
          1.52469492e-02, 7.11239651e-02, 3.39146882e-01, 4.86194134e-01,
          4.86194134e-01, 4.86194134e-01, 1.82533979e-01, 3.48764151e-01 ]
      - [ 6.61296010e-01, 6.61296010e-01, 7.31241796e-03, 9.35913704e-04,
          9.05672237e-02, 3.31596047e-01, 6.78936904e-03, 1.67735372e-04,
          2.26802398e-02, 4.85811442e-01, 4.85811442e-01, 1.19468428e-01,
          9.32308882e-02, 3.94328356e-01, 4.42253411e-01, 8.11938867e-02,
          1.35274634e-01, 3.52396071e-01, 4.85745907e-01, 7.38061816e-02,
          1.61230847e-01, 7.35150799e-02, 1.16384491e-01, 3.09746955e-02,
          4.85745907e-01, 4.85745907e-01, 4.85745907e-01, 4.14515346e-01,
          4.14515346e-01, 1.59945667e-01, 9.60911885e-02, 4.14515346e-01,
          4.14515346e-01, 3.35802168e-01, 9.18669030e-02, 3.90574455e-01,
          3.95953864e-01, 3.95953864e-01, 3.77200097e-01, 1.43498942e-01,
          3.95953864e-01, 3.95953864e-01, 1.99526623e-01, 9.72846970e-02,
          3.95953864e-01, 2.92762429e-01, 2.71499246e-01, 3.93881053e-01,
          7.21929520e-02, 2.06091806e-01, 9.77123454e-02, 4.55941677e-01,
          4.55941677e-01, 4.55941677e-01, 9.74417850e-02, 8.23976323e-02,
          2.02894911e-01, 6.02000058e-01, 7.43600547e-01, 4.72054770e-03,
          4.27787788e-02, 2.33389810e-02, 1.31850049e-01, 2.85530835e-01,
          3.60459052e-02, 1.32331431e-01, 6.36400104e-01, 6.36400104e-01,
          1.20824344e-01, 5.11757620e-02, 1.18070589e-02, 2.56788522e-01,
          7.17711300e-02, 2.03214660e-02, 8.03462937e-02, 4.60309744e-01,
          4.60309744e-01, 4.60309744e-01, 4.60309744e-01, 2.04676375e-01,
          3.06512415e-01 ]
      - [ 6.76199913e-01, 6.76199913e-01, 8.53251433e-04, 4.59989242e-04,
          9.79203656e-02, 2.60116130e-01, 1.08285733e-02, 9.10723675e-03,
          3.61512490e-02, 4.87204880e-01, 4.87204880e-01, 1.04530439e-01,
          7.43928999e-02, 3.78609657e-01, 3.38680893e-01, 1.11718565e-01,
          1.45460501e-01, 4.60701555e-01, 4.92651284e-01, 4.87167723e-02,
          1.02726795e-01, 4.79776338e-02, 9.34305340e-02, 1.73509829e-02,
          4.92651284e-01, 4.92651284e-01, 4.92651284e-01, 4.41914380e-01,
          4.41914380e-01, 1.72803998e-01, 8.24231058e-02, 4.41914380e-01,
          4.41914380e-01, 2.76602447e-01, 1.73260331e-01, 2.66926348e-01,
          3.93460721e-01, 3.93460721e-01, 3.90781939e-01, 1.28561601e-01,
          3.93460721e-01, 3.93460721e-01, 1.95067927e-01, 1.21336028e-01,
          3.93460721e-01, 4.45464432e-01, 1.89791977e-01, 3.01999778e-01,
          5.75232357e-02, 2.29577005e-01, 1.36223271e-01, 4.45464432e-01,
          4.45464432e-01, 4.45464432e-01, 1.42360330e-01, 8.11700672e-02,
          2.27524713e-01, 4.93130296e-01, 8.06357205e-01, 3.13026868e-02,
          4.65033613e-02, 4.99436222e-02, 1.19599387e-01, 3.01988751e-01,
          3.00481617e-02, 2.86952913e-01, 6.14440501e-01, 6.14440501e-01,
          1.55356497e-01, 6.01928383e-02, 1.53670888e-02, 1.90666646e-01,
          9.92151350e-02, 1.32406428e-02, 1.44472569e-01, 3.74834418e-01,
          4.95761156e-01, 4.95761156e-01, 4.95761156e-01, 1.56514242e-01,
          2.48640910e-01 ]
      - [ 5.74223518e-01, 5.74223518e-01, 3.52073158e-03, 9.41960432e-04,
          8.87728930e-02, 5.71583748e-01, 1.45932951e-03, 2.08797189e-03,
          1.38653452e-02, 4.72793907e-01, 4.72793907e-01, 2.74712026e-01,
          9.96036381e-02, 3.88894737e-01, 4.72793907e-01, 2.00250179e-01,
          1.52572989e-01, 1.57067180e-01, 4.44637448e-01, 1.84064537e-01,
          3.93724859e-01, 8.95465016e-02, 1.53556213e-01, 1.06807657e-01,
          4.44637448e-01, 4.44637448e-01, 4.12972569e-01, 4.38414961e-01,
          4.38414961e-01, 4.13115695e-02, 8.99145305e-02, 4.38414961e-01,
          4.38414961e-01, 1.37163073e-01, 7.73124024e-02, 4.38414961e-01,
          3.91323000e-01, 3.91323000e-01, 3.91323000e-01, 9.54299793e-02,
          3.91323000e-01, 3.91323000e-01, 2.46610135e-01, 8.58200341e-02,
          3.91323000e-01, 4.02384520e-01, 2.89300740e-01, 4.02384520e-01,
          4.54940125e-02, 2.95670986e-01, 1.15011178e-01, 4.02384520e-01,
          4.02384520e-01, 4.02384520e-01, 4.10775542e-01, 4.46376391e-02,
          5.34786656e-02, 4.05933589e-01, 7.35020339e-01, 9.64614749e-02,
          4.83218022e-02, 4.59071361e-02, 3.16686273e-01, 3.49918187e-01,
          5.24033010e-02, 4.46094185e-01, 4.96893227e-01, 4.96893227e-01,
          1.22112632e-01, 1.28043830e-01, 1.09737916e-02, 3.81596029e-01,
          2.24018410e-01, 4.67753336e-02, 3.31515402e-01, 3.01956952e-01,
          4.33312863e-01, 4.33312863e-01, 4.33312863e-01, 1.02772325e-01,
          4.10337299e-01 ]
      - [ 6.52957916e-01, 6.52957916e-01, 7.71766827e-02, 6.63020834e-02,
          1.62205100e-01, 2.25147396e-01, 1.94144353e-01, 8.81484970e-02,
          8.92006680e-02, 5.57051003e-01, 5.57051003e-01, 1.04947999e-01,
          1.08334109e-01, 2.16348305e-01, 3.17393720e-01, 2.81391561e-01,
          2.21228480e-01, 2.74602771e-01, 4.94189471e-01, 1.04603440e-01,
          6.12145811e-02, 3.73255089e-02, 4.35287990e-02, 1.39446985e-02,
          4.94189471e-01, 4.94189471e-01, 4.94189471e-01, 4.62007731e-01,
          4.62007731e-01, 1.51691362e-01, 4.06496748e-02, 4.62007731e-01,
          4.44110841e-01, 2.52524704e-01, 9.85419229e-02, 2.44244948e-01,
          3.71829778e-01, 3.71829778e-01, 3.71829778e-01, 1.88700065e-01,
          3.71829778e-01, 3.71829778e-01, 3.25458378e-01, 1.58776164e-01,
          3.71829778e-01, 4.44185823e-01, 1.60155892e-01, 2.55767852e-01,
          6.76372871e-02, 2.92378306e-01, 1.58845156e-01, 4.44185823e-01,
          4.44185823e-01, 4.44185823e-01, 1.94837227e-01, 2.70199925e-01,
          3.62567276e-01, 2.68777013e-01, 7.37865150e-01, 3.26242417e-01,
          6.24498911e-02, 3.87560800e-02, 1.47269189e-01, 3.27913284e-01,
          7.06712678e-02, 4.91051495e-01, 4.91051495e-01, 4.91051495e-01,
          2.62669235e-01, 2.09062532e-01, 2.73366254e-02, 2.13845089e-01,
          1.68558642e-01, 2.46531032e-02, 2.77281642e-01, 2.86668658e-01,
          4.79328394e-01, 4.79328394e-01, 4.79328394e-01, 2.14590251e-01,
          2.67978340e-01 ]
      - [ 6.80009365e-01, 6.80009365e-01, 5.35570532e-02, 2.71941219e-02,
          1.17744647e-01, 2.07681417e-01, 7.07662851e-02, 2.58904807e-02,
          4.58757393e-02, 5.43430686e-01, 5.43430686e-01, 1.03218488e-01,
          1.06373198e-01, 2.21924588e-01, 3.14031035e-01, 2.53631920e-01,
          2.02912673e-01, 3.58610272e-01, 4.93158102e-01, 1.09799504e-01,
          7.66379982e-02, 4.12456729e-02, 4.79706787e-02, 1.79787055e-02,
          4.93158102e-01, 4.93158102e-01, 4.93158102e-01, 4.57944155e-01,
          4.57944155e-01, 1.72211587e-01, 4.66495976e-02, 4.57944155e-01,
          4.42350030e-01, 2.28957713e-01, 1.03674367e-01, 2.74974316e-01,
          3.72111529e-01, 3.72111529e-01, 3.72111529e-01, 1.94678530e-01,
          3.72111529e-01, 3.72111529e-01, 3.17771077e-01, 1.63101926e-01,
          3.72111529e-01, 3.93166542e-01, 1.66832194e-01, 2.72879303e-01,
          7.46404752e-02, 2.81597167e-01, 1.40313745e-01, 4.59701449e-01,
          4.59701449e-01, 4.59701449e-01, 1.84647918e-01, 2.36743614e-01,
          3.75665784e-01, 2.76903391e-01, 7.80731976e-01, 2.07933798e-01,
          5.96655272e-02, 3.77604477e-02, 1.62790343e-01, 3.19500089e-01,
          7.41520077e-02, 4.97902155e-01, 4.97902155e-01, 4.97902155e-01,
          2.13975757e-01, 2.02319890e-01, 2.99612302e-02, 2.36880139e-01,
          1.31457806e-01, 2.91103143e-02, 2.63453037e-01, 3.12503219e-01,
          4.53122437e-01, 4.53122437e-01, 4.53122437e-01, 2.59105802e-01,
          3.56628686e-01 ]
      - [ 5.73238134e-01, 5.73238134e-01, 2.08980916e-03, 0.,
          1.51408151e-01, 5.59154987e-01, 2.69382726e-02, 1.67695689e-03,
          2.75742020e-02, 4.40870255e-01, 4.40870255e-01, 2.67439932e-01,
          1.22814365e-01, 4.35267389e-01, 4.40870255e-01, 1.42658174e-01,
          1.46471545e-01, 3.07613432e-01, 4.60462123e-01, 1.04455307e-01,
          2.44131058e-01, 7.21944273e-02, 9.82284844e-02, 4.45516743e-02,
          4.81597275e-01, 4.81597275e-01, 4.81597275e-01, 4.19992298e-01,
          4.19992298e-01, 1.51282907e-01, 9.22416896e-02, 4.19992298e-01,
          4.19992298e-01, 2.46566460e-01, 1.47128135e-01, 4.19992298e-01,
          3.93950015e-01, 3.93950015e-01, 3.93950015e-01, 1.66461438e-01,
          3.93950015e-01, 3.93950015e-01, 1.64847270e-01, 1.00003764e-01,
          3.93950015e-01, 4.12955195e-01, 1.96121365e-01, 3.18805844e-01,
          7.11143464e-02, 3.63079220e-01, 1.91734672e-01, 4.12955195e-01,
          4.12955195e-01, 4.12955195e-01, 1.77935496e-01, 3.73450480e-02,
          1.46213889e-01, 3.67742479e-01, 8.70198905e-01, 8.61717463e-02,
          2.94750426e-02, 3.23442630e-02, 1.87247083e-01, 2.12723598e-01,
          1.99272297e-02, 2.78026164e-01, 6.25797689e-01, 6.25797689e-01,
          2.13465065e-01, 5.72340712e-02, 7.60268606e-03, 1.96617648e-01,
          9.31977183e-02, 8.43092985e-03, 1.22641370e-01, 4.56551105e-01,
          5.04268587e-01, 5.04268587e-01, 4.40118641e-01, 1.23622611e-01,
          2.12523878e-01 ]
      - [ 5.82188487e-01, 5.82188487e-01, 6.91404939e-02, 5.82929738e-02,
          2.57221967e-01, 4.75454241e-01, 1.01306491e-01, 5.37470840e-02,
          5.24382629e-02, 4.59733307e-01, 4.59733307e-01, 1.60210654e-01,
          1.05476312e-01, 4.00531828e-01, 4.46313918e-01, 2.19519377e-01,
          2.12679908e-01, 2.87858546e-01, 4.82925177e-01, 7.65703842e-02,
          1.83067575e-01, 7.60732442e-02, 1.04726546e-01, 7.86015168e-02,
          4.82925177e-01, 4.82925177e-01, 4.82925177e-01, 4.05991614e-01,
          4.05991614e-01, 9.92700085e-02, 2.63794750e-01, 4.05991614e-01,
          4.05991614e-01, 2.50784457e-01, 1.71648279e-01, 4.05991614e-01,
          3.70503515e-01, 3.70503515e-01, 3.70503515e-01, 2.52409279e-01,
          3.70503515e-01, 3.70503515e-01, 2.88107723e-01, 1.61073864e-01,
          3.70503515e-01, 3.93059701e-01, 1.69228896e-01, 3.16884845e-01,
          1.02984712e-01, 3.93059701e-01, 2.89712667e-01, 3.93059701e-01,
          3.93059701e-01, 3.93059701e-01, 2.66518593e-01, 1.62295684e-01,
          1.53640047e-01, 6.07551754e-01, 6.07551754e-01, 1.59780066e-02,
          1.13736257e-01, 1.22279458e-01, 3.26457590e-01, 3.17222625e-01,
          6.22533374e-02, 3.25075328e-01, 5.09199321e-01, 5.09199321e-01,
          3.16639960e-01, 9.44673270e-02, 6.59066141e-02, 3.90689909e-01,
          2.04711393e-01, 2.80677918e-02, 1.34794265e-01, 3.89816999e-01,
          4.73876238e-01, 4.73876238e-01, 3.59093577e-01, 1.98840544e-01,
          4.06007886e-01 ]
      - [ 5.73692381e-01, 5.73692381e-01, 4.21700941e-04, 7.42715711e-05,
          8.94364901e-03, 5.73692381e-01, 8.25676396e-02, 0.,
          2.19080248e-03, 3.87396365e-01, 3.87396365e-01, 3.87396365e-01,
          1.39636159e-01, 2.49306068e-01, 3.87396365e-01, 3.87396365e-01,
          3.27439189e-01, 2.38499478e-01, 2.77319491e-01, 1.01597011e-01,
          3.24287653e-01, 6.35158420e-02, 7.81116113e-02, 3.00634075e-02,
          5.45187533e-01, 5.45187533e-01, 4.43471253e-01, 4.36983436e-01,
          4.36983436e-01, 8.89080912e-02, 1.51691318e-01, 4.36983436e-01,
          4.36983436e-01, 2.85161972e-01, 1.31669179e-01, 3.19762021e-01,
          3.64862442e-01, 3.64862442e-01, 3.64862442e-01, 1.04779631e-01,
          3.64862442e-01, 3.64862442e-01, 3.64862442e-01, 2.31308892e-01,
          3.64862442e-01, 4.06859130e-01, 1.51588574e-01, 3.33398640e-01,
          2.20429115e-02, 4.06859130e-01, 1.83423623e-01, 4.06859130e-01,
          4.06859130e-01, 4.06859130e-01, 3.80655527e-01, 1.30804539e-01,
          1.26521707e-01, 5.73293209e-01, 5.73293209e-01, 2.73407489e-01,
          6.67168498e-02, 8.96570310e-02, 2.67745972e-01, 2.83316791e-01,
          1.18241847e-01, 4.16732371e-01, 4.16732371e-01, 4.16732371e-01,
          4.16732371e-01, 4.00126100e-01, 7.38431215e-02, 2.03397378e-01,
          2.30940625e-01, 4.43226919e-02, 2.94581056e-01, 1.69842854e-01,
          4.78321642e-01, 4.78321642e-01, 4.78321642e-01, 2.30738521e-01,
          2.91006386e-01 ]
      - [ 6.20071709e-01, 6.20071709e-01, 1.96906421e-05, 0.,
          1.57696471e-01, 3.93221676e-01, 6.57417858e-03, 0.,
          2.12829679e-01, 4.55934852e-01, 4.55934852e-01, 2.20660254e-01,
          1.13771074e-01, 3.35594863e-01, 4.55934852e-01, 2.57928342e-01,
          1.36641383e-01, 3.35200518e-01, 4.72813100e-01, 2.14144304e-01,
          1.96826488e-01, 6.50374293e-02, 8.73465091e-02, 6.79035410e-02,
          4.72813100e-01, 4.72813100e-01, 4.72813100e-01, 4.16105956e-01,
          4.16105956e-01, 2.05091596e-01, 8.94333795e-02, 4.16105956e-01,
          4.16105956e-01, 3.04145157e-01, 1.06519997e-01, 3.86464685e-01,
          3.76409560e-01, 3.76409560e-01, 3.76409560e-01, 1.25896275e-01,
          3.76409560e-01, 3.76409560e-01, 2.69229323e-01, 2.40416780e-01,
          3.76409560e-01, 3.97148937e-01, 2.09104389e-01, 3.97148937e-01,
          4.86802682e-02, 3.76770884e-01, 1.39086977e-01, 3.97148937e-01,
          3.97148937e-01, 3.97148937e-01, 2.24022865e-01, 1.54473633e-01,
          2.36218035e-01, 4.23091114e-01, 7.35613942e-01, 2.96919316e-01,
          9.28883702e-02, 5.03064841e-02, 2.08221480e-01, 2.50079930e-01,
          1.45357430e-01, 5.11701047e-01, 5.11701047e-01, 5.11701047e-01,
          1.39675036e-01, 1.94501922e-01, 7.44136497e-02, 2.50657946e-01,
          1.90785661e-01, 6.14684671e-02, 3.56367826e-01, 2.70500034e-01,
          4.74982262e-01, 4.74982262e-01, 4.74982262e-01, 2.05583483e-01,
          1.89264148e-01 ]
      - [ 5.85344732e-01, 4.72208589e-01, 1.99355647e-01, 4.10280451e-02,
          1.84793517e-01, 7.76211172e-02, 6.53849244e-02, 6.50334684e-03,
          5.85344732e-01, 4.45337594e-01, 2.96367615e-01, 2.49395922e-01,
          1.66272521e-01, 6.71474040e-02, 1.41640067e-01, 4.45337594e-01,
          4.45337594e-01, 4.45337594e-01, 4.07217950e-01, 3.97869229e-01,
          3.55710149e-01, 4.07217950e-01, 7.16468925e-03, 2.26352159e-02,
          2.17331305e-01, 4.07217950e-01, 4.07217950e-01, 3.51582348e-01,
          3.94375771e-01, 3.94375771e-01, 2.85879940e-01, 3.55645537e-01,
          3.53213459e-01, 3.94375771e-01, 2.42581040e-01, 1.18477248e-01,
          3.74323398e-01, 1.93845615e-01, 3.74323398e-01, 3.74323398e-01,
          2.59754598e-01, 2.24730358e-01, 3.74323398e-01, 3.74323398e-01,
          3.74323398e-01, 3.49545836e-01, 3.49545836e-01, 3.49545836e-01,
          3.49545836e-01, 1.38019502e-01, 3.49545836e-01, 3.49545836e-01,
          3.49545836e-01, 3.49545836e-01, 0., 1.10157408e-01,
          4.40025330e-01, 4.40025330e-01, 4.40025330e-01, 4.40025330e-01,
          4.40025330e-01, 1.23929471e-01, 0., 1.50041163e-01,
          2.89983563e-02, 3.73384029e-01, 5.84919155e-01, 5.84919155e-01,
          1.79854363e-01, 1.72798812e-01, 1.24879837e-01, 2.63301432e-01,
          3.17166358e-01, 1.10391043e-01, 3.02767903e-02, 9.14334133e-02,
          6.25895083e-01, 6.25895083e-01, 2.38300964e-01, 2.09504794e-02,
          1.76005051e-01 ]
      - [ 4.20307219e-01, 3.58292907e-01, 3.23380947e-01, 1.35926604e-01,
          4.20307219e-01, 4.20307219e-01, 2.93993831e-01, 3.44012789e-02,
          3.56070131e-01, 3.87181133e-01, 1.85663536e-01, 3.87181133e-01,
          2.18963653e-01, 1.19417839e-01, 3.87181133e-01, 3.87181133e-01,
          3.87181133e-01, 3.87181133e-01, 1.78324610e-01, 2.65452683e-01,
          4.46060330e-01, 4.46060330e-01, 2.32832902e-03, 2.08676234e-02,
          3.53844047e-01, 4.46060330e-01, 4.13187057e-01, 2.50962283e-02,
          4.64143276e-01, 4.64143276e-01, 1.16206065e-01, 1.73203066e-01,
          2.98992008e-01, 4.64143276e-01, 4.64143276e-01, 1.09033752e-02,
          1.52771503e-01, 3.41432303e-01, 4.88210648e-01, 1.23222455e-01,
          3.67337503e-02, 2.14238018e-01, 4.88210648e-01, 4.88210648e-01,
          2.78798640e-01, 3.76896650e-01, 4.59331900e-01, 4.59331900e-01,
          2.97622859e-01, 2.01144977e-03, 2.41805390e-01, 4.59331900e-01,
          2.61879951e-01, 6.90601245e-02, 4.29822365e-04, 1.82107180e-01,
          4.64834660e-01, 4.64834660e-01, 1.97987214e-01, 2.42141470e-01,
          4.64834660e-01, 4.64834660e-01, 8.79752450e-03, 3.99484068e-01,
          5.86507209e-02, 3.99484068e-01, 3.99484068e-01, 3.99484068e-01,
          1.36332959e-01, 1.28286108e-01, 3.99484068e-01, 3.99484068e-01,
          4.34402078e-01, 4.34402078e-01, 3.31060626e-02, 2.96062380e-02,
          4.34402078e-01, 4.34402078e-01, 4.34402078e-01, 3.05420849e-02,
          2.21876889e-01 ]
      - [ 4.00134146e-01, 4.00134146e-01, 3.41545045e-01, 1.77530274e-01,
          4.00134146e-01, 4.00134146e-01, 3.01559955e-01, 1.27040232e-02,
          3.41032982e-01, 3.89363259e-01, 1.75477758e-01, 3.78245533e-01,
          2.15801105e-01, 1.32888064e-01, 3.89363259e-01, 3.89363259e-01,
          3.89363259e-01, 3.89363259e-01, 1.51227474e-01, 2.76615441e-01,
          4.34218079e-01, 4.34218079e-01, 0., 3.03062927e-02,
          4.34218079e-01, 4.34218079e-01, 3.75735134e-01, 1.76368561e-02,
          4.74787325e-01, 4.74787325e-01, 1.19775906e-01, 9.86505225e-02,
          3.43982846e-01, 4.74787325e-01, 4.19849753e-01, 1.23949873e-03,
          6.61388189e-02, 4.14704919e-01, 4.87132847e-01, 1.51126042e-01,
          2.93717701e-02, 2.09674582e-01, 4.87132847e-01, 4.87132847e-01,
          1.98039308e-01, 2.97224581e-01, 4.87762511e-01, 4.87762511e-01,
          2.83633053e-01, 0., 1.71209410e-01, 4.87762511e-01,
          2.81264722e-01, 6.46449327e-02, 0., 1.54119283e-01,
          4.73261267e-01, 4.73261267e-01, 1.70123681e-01, 3.29309762e-01,
          4.73261267e-01, 4.02746052e-01, 4.21451550e-04, 3.11131537e-01,
          6.76537231e-02, 4.17417586e-01, 4.17417586e-01, 4.17417586e-01,
          1.16158873e-01, 9.88444164e-02, 4.17417586e-01, 4.17417586e-01,
          4.29002494e-01, 4.29002494e-01, 4.37055714e-02, 4.57079150e-02,
          4.29002494e-01, 4.29002494e-01, 4.29002494e-01, 6.62262589e-02,
          2.59063214e-01 ]
      - [ 4.02730048e-01, 4.02730048e-01, 3.29632610e-01, 1.04149602e-01,
          4.02730048e-01, 4.02730048e-01, 2.55639851e-01, 1.27565553e-02,
          4.02730048e-01, 3.98211122e-01, 2.03050807e-01, 3.62754673e-01,
          1.67347461e-01, 2.00930625e-01, 3.98211122e-01, 3.98211122e-01,
          3.47180903e-01, 3.98211122e-01, 1.86261371e-01, 3.19963962e-01,
          4.24963802e-01, 4.24963802e-01, 2.51638740e-02, 4.91387099e-02,
          3.65047663e-01, 4.24963802e-01, 4.24963802e-01, 2.35306155e-02,
          4.71737295e-01, 4.71737295e-01, 1.27856135e-01, 1.45051911e-01,
          3.51578355e-01, 4.71737295e-01, 4.07561302e-01, 5.04409755e-03,
          1.14167124e-01, 3.81479979e-01, 4.56438273e-01, 2.09197357e-01,
          4.88796644e-02, 2.05230534e-01, 4.56438273e-01, 4.56438273e-01,
          3.51567388e-01, 4.42980051e-01, 4.42980051e-01, 4.42980051e-01,
          2.72666186e-01, 1.12679284e-02, 2.50720680e-01, 4.42980051e-01,
          2.14429885e-01, 1.65332645e-01, 0., 1.40314400e-01,
          4.32897180e-01, 4.32897180e-01, 3.27146649e-01, 4.32897180e-01,
          4.32897180e-01, 3.45488042e-01, 8.76670761e-04, 2.50971287e-01,
          1.54290795e-02, 4.28930432e-01, 4.28930432e-01, 4.28930432e-01,
          9.54739898e-02, 5.88962324e-02, 4.28930432e-01, 4.28930432e-01,
          4.55849499e-01, 4.20437157e-01, 2.10880954e-02, 7.89388642e-02,
          4.55849499e-01, 4.55849499e-01, 3.19196552e-01, 4.32857685e-02,
          2.91284740e-01 ]
      - [ 5.10698736e-01, 4.72890705e-01, 3.00620824e-01, 8.34101886e-02,
          1.73434243e-01, 3.25470179e-01, 1.24010444e-01, 3.04701831e-02,
          5.10698736e-01, 4.08741087e-01, 2.88553864e-01, 4.08741087e-01,
          1.83771878e-01, 4.25081402e-02, 2.04274535e-01, 4.08741087e-01,
          4.08741087e-01, 4.08741087e-01, 3.22627127e-01, 3.33374083e-01,
          4.20019954e-01, 4.20019954e-01, 0., 5.82310697e-03,
          2.73635685e-01, 4.20019954e-01, 4.20019954e-01, 3.52745980e-01,
          4.09844071e-01, 4.09844071e-01, 2.25223720e-01, 2.37681627e-01,
          4.09844071e-01, 4.09844071e-01, 2.86354274e-01, 1.01834767e-01,
          3.74354392e-01, 2.05773830e-01, 3.74354392e-01, 3.74354392e-01,
          1.48945078e-01, 3.01471829e-01, 3.74354392e-01, 3.74354392e-01,
          3.74354392e-01, 3.63989651e-01, 3.63989651e-01, 3.63989651e-01,
          3.63989651e-01, 5.31440526e-02, 3.63989651e-01, 3.63989651e-01,
          3.63989651e-01, 2.57137924e-01, 0., 1.51990831e-01,
          4.25908238e-01, 4.25908238e-01, 4.25908238e-01, 4.25908238e-01,
          4.25908238e-01, 2.56201684e-01, 3.96784395e-03, 2.64876753e-01,
          3.87508757e-02, 2.45620504e-01, 4.77117985e-01, 4.77117985e-01,
          4.21476811e-01, 8.05450231e-02, 2.14407563e-01, 4.21734244e-01,
          4.01126325e-01, 2.40998775e-01, 2.60086209e-02, 2.15715617e-01,
          5.51074505e-01, 5.51074505e-01, 3.08954120e-01, 2.28213072e-02,
          1.58002228e-01 ]
      - [ 5.50254524e-01, 1.39975667e-01, 1.18188389e-01, 9.93191078e-02,
          4.63099390e-01, 3.18218142e-01, 1.21845528e-01, 1.22266263e-01,
          5.50254524e-01, 4.82061684e-01, 3.25848199e-02, 1.65832847e-01,
          1.04954995e-01, 1.60469666e-01, 1.79727003e-02, 4.82061684e-01,
          4.82061684e-01, 4.82061684e-01, 4.27902937e-01, 4.27902937e-01,
          4.27902937e-01, 1.28095206e-02, 6.04353845e-04, 0.,
          4.03774709e-01, 4.27902937e-01, 3.16422939e-01, 3.76703173e-01,
          2.51235127e-01, 3.76703173e-01, 3.14311475e-01, 3.76703173e-01,
          3.76703173e-01, 3.76703173e-01, 3.34001333e-01, 1.15075558e-01,
          1.82680577e-01, 6.27478138e-02, 4.32365477e-01, 4.32365477e-01,
          1.53044328e-01, 1.57935042e-02, 4.32365477e-01, 4.32365477e-01,
          4.32365477e-01, 4.22689497e-01, 4.22689497e-01, 4.22689497e-01,
          9.55978129e-03, 8.50696936e-02, 4.22689497e-01, 4.22689497e-01,
          1.88023701e-01, 2.44467646e-01, 1.73932337e-03, 1.20412201e-01,
          4.24448103e-01, 4.24448103e-01, 3.63935173e-01, 3.58020723e-01,
          4.24448103e-01, 4.24448103e-01, 2.33834120e-03, 1.85471579e-01,
          9.15936567e-03, 4.50967759e-01, 4.50967759e-01, 4.50967759e-01,
          8.24435726e-02, 2.56430469e-02, 3.74258846e-01, 4.50967759e-01,
          4.99274403e-01, 3.37810338e-01, 1.07697723e-02, 1.08351737e-01,
          4.99274403e-01, 4.99274403e-01, 1.73162043e-01, 3.62327024e-02,
          2.99864948e-01 ]
      - [ 5.55095613e-01, 4.04276609e-01, 2.76324570e-01, 1.04033150e-01,
          2.49597624e-01, 1.38577506e-01, 1.93317994e-01, 9.32855010e-02,
          5.55095613e-01, 4.55022067e-01, 2.36119434e-01, 3.19823265e-01,
          7.74043351e-02, 5.52017838e-02, 1.40232649e-02, 4.55022067e-01,
          4.55022067e-01, 4.55022067e-01, 4.04622883e-01, 4.04622883e-01,
          4.04622883e-01, 1.16768472e-01, 1.80456473e-03, 1.29171903e-03,
          4.04622883e-01, 4.04622883e-01, 4.04622883e-01, 2.48538136e-01,
          3.23150277e-01, 4.45715338e-01, 3.30633104e-01, 3.17841023e-01,
          3.23854893e-01, 4.45715338e-01, 3.27005088e-01, 9.93520245e-02,
          3.94040644e-01, 1.73808485e-01, 3.94040644e-01, 3.94040644e-01,
          1.79301009e-01, 4.57925089e-02, 3.94040644e-01, 3.94040644e-01,
          3.94040644e-01, 4.19377089e-01, 4.19377089e-01, 4.19377089e-01,
          3.43264043e-02, 7.48404786e-02, 4.19377089e-01, 4.19377089e-01,
          2.58925498e-01, 2.06405178e-01, 0., 8.76683444e-02,
          4.33095068e-01, 4.33095068e-01, 4.33095068e-01, 4.33095068e-01,
          4.33095068e-01, 2.23900065e-01, 0., 1.69222608e-01,
          2.28006002e-02, 4.21174735e-01, 5.78197598e-01, 5.78197598e-01,
          1.83209002e-01, 7.47495294e-02, 1.21062741e-01, 2.55436867e-01,
          2.46316150e-01, 1.07445017e-01, 1.47911282e-02, 3.88052240e-02,
          5.50464392e-01, 5.50464392e-01, 5.50464392e-01, 1.61244813e-02,
          1.06155269e-01 ]
      - [ 5.58200240e-01, 3.54658157e-01, 3.04487377e-01, 1.09086521e-01,
          2.81129718e-01, 1.37938753e-01, 1.93098515e-01, 7.42152557e-02,
          5.58200240e-01, 4.58284616e-01, 1.41333297e-01, 3.51264209e-01,
          8.79714191e-02, 6.33928999e-02, 1.42815560e-02, 4.58284616e-01,
          4.58284616e-01, 4.58284616e-01, 4.04619783e-01, 4.04619783e-01,
          4.04619783e-01, 1.16851419e-01, 8.03732895e-04, 1.91365121e-04,
          4.04619783e-01, 4.04619783e-01, 4.04619783e-01, 2.27695584e-01,
          3.19088727e-01, 4.45413798e-01, 3.31645191e-01, 3.41920763e-01,
          3.02225381e-01, 4.45413798e-01, 3.35565537e-01, 1.19408429e-01,
          3.94175291e-01, 1.71183392e-01, 3.94175291e-01, 3.94175291e-01,
          1.75765708e-01, 6.01657294e-02, 3.94175291e-01, 3.94175291e-01,
          3.94175291e-01, 4.16349471e-01, 4.16349471e-01, 4.16349471e-01,
          3.49885561e-02, 8.83790329e-02, 4.16349471e-01, 4.16349471e-01,
          2.67614633e-01, 2.20122263e-01, 1.04090422e-02, 9.18253437e-02,
          4.31690514e-01, 4.31690514e-01, 4.31690514e-01, 4.31690514e-01,
          4.31690514e-01, 2.35241145e-01, 5.06664347e-03, 1.66058585e-01,
          2.43445113e-02, 4.13450032e-01, 5.54795802e-01, 5.54795802e-01,
          3.04365963e-01, 6.77119568e-02, 1.22365758e-01, 2.59917349e-01,
          2.65014052e-01, 1.33831024e-01, 3.07333749e-02, 4.50847223e-02,
          5.71439803e-01, 5.71439803e-01, 4.81750250e-01, 2.07140818e-02,
          1.32568061e-01 ]
      - [ 5.65873086e-01, 3.40149552e-01, 3.04062337e-01, 1.06938280e-01,
          2.65272081e-01, 1.44681126e-01, 1.92762107e-01, 7.66434893e-02,
          5.65873086e-01, 4.53763485e-01, 2.04574898e-01, 3.45228106e-01,
          8.10758621e-02, 6.23602085e-02, 1.91563200e-02, 4.53763485e-01,
          4.53763485e-01, 4.53763485e-01, 4.04246062e-01, 4.04246062e-01,
          4.04246062e-01, 1.24355964e-01, 2.21710280e-03, 1.75837206e-03,
          4.04246062e-01, 4.04246062e-01, 4.04246062e-01, 2.45856807e-01,
          3.18609357e-01, 4.45652962e-01, 3.27969968e-01, 3.25156361e-01,
          3.21109921e-01, 4.45652962e-01, 3.25230360e-01, 1.19165659e-01,
          3.94108385e-01, 1.70336664e-01, 3.94108385e-01, 3.94108385e-01,
          1.81399256e-01, 4.70525548e-02, 3.94108385e-01, 3.94108385e-01,
