%YAML:1.0
---
opencv_ml_svm:
   format: 3
   svmType: C_SVC
   kernel:
      type: RBF
      gamma: 5.0624999999999998e-01
   C: 1.2500000000000000e+01
   term_criteria: { epsilon:1.1920928955078125e-07, iterations:1000 }
   var_count: 81
   class_count: 9
   class_labels: !!opencv-matrix
      rows: 9
      cols: 1
      dt: i
      data: [ 1, 2, 3, 4, 5, 6, 7, 8, 9 ]
   sv_total: 124
   support_vectors:
      - [ 4.82307911e-01, 4.82307911e-01, 1.16298674e-02, 0., 0.,
          2.28439152e-01, 4.38009501e-01, 2.65774637e-01, 4.63823974e-01,
          4.21697199e-01, 3.97684693e-01, 0., 0., 0., 3.55415732e-01,
          4.21697199e-01, 4.21697199e-01, 4.21697199e-01, 6.91021442e-01,
          0., 0., 0., 0., 0., 4.74513136e-03, 1.95084587e-01,
          6.91021442e-01, 4.53742117e-01, 4.53742117e-01, 8.33503082e-02,
          7.76074529e-02, 4.53742117e-01, 2.94059277e-01, 3.90025884e-01,
          2.16435432e-01, 2.81809300e-01, 4.95584965e-01, 7.54342824e-02,
          0., 1.59511736e-04, 4.95584965e-01, 3.42197984e-01,
          3.35558027e-01, 1.51154995e-01, 4.95584965e-01, 4.59751815e-01,
          0., 0., 1.24120282e-03, 4.59751815e-01, 4.59751815e-01,
          2.56532639e-01, 2.90017843e-01, 4.59751815e-01, 1.07241377e-01,
          2.73570210e-01, 1.64664283e-01, 3.42533618e-01, 7.35050082e-01,
          4.68902737e-01, 3.23077803e-03, 1.59284733e-02, 3.80215868e-02,
          1.82261929e-01, 3.61192564e-04, 0., 4.06798441e-04,
          7.92975008e-01, 5.64351499e-01, 5.82344714e-04, 5.43796318e-03,
          1.07398279e-01, 6.70118034e-02, 0., 0., 3.88118718e-03,
          6.92090154e-01, 6.92090154e-01, 1.52803823e-01, 3.94360200e-02,
          7.55223557e-02 ]
      - [ 4.07409579e-01, 4.07409579e-01, 4.07409579e-01, 0.,
          5.84211573e-03, 7.51008920e-04, 4.07409579e-01, 4.07409579e-01,
          4.07409579e-01, 4.92876738e-01, 1.47807986e-01, 3.68943252e-02,
          0., 1.25815840e-02, 8.86744529e-04, 4.92876738e-01,
          4.92876738e-01, 4.92876738e-01, 6.83676720e-01, 1.55293614e-01,
          0., 0., 8.50067846e-03, 0., 3.88338007e-02, 1.80695176e-01,
          6.83676720e-01, 3.76073211e-01, 3.76073211e-01, 3.76073211e-01,
          4.12053429e-02, 3.76073211e-01, 6.91204220e-02, 3.76073211e-01,
          3.76073211e-01, 3.75740558e-01, 5.10858953e-01, 1.83299668e-02,
          1.10281417e-02, 0., 5.10858953e-01, 1.33993626e-01,
          2.40002930e-01, 3.68719488e-01, 5.10858953e-01, 4.95766938e-01,
          8.68629217e-02, 0., 0., 4.95766938e-01, 2.86638469e-01,
          3.39867353e-01, 2.29079664e-01, 4.95766938e-01, 1.63202092e-01,
          2.48197287e-01, 1.81016266e-01, 2.35991403e-01, 7.72984445e-01,
          4.60269928e-01, 8.67191050e-03, 3.14481966e-02, 7.19164014e-02,
          3.28302592e-01, 4.41327080e-04, 1.23963240e-04, 0.,
          7.52649486e-01, 5.01676440e-01, 2.47890130e-03, 1.65189523e-02,
          2.57420599e-01, 2.38661557e-01, 4.72354330e-03, 0., 0.,
          6.66330814e-01, 6.66330814e-01, 1.88725412e-01, 3.86912115e-02,
          1.06104985e-01 ]
      - [ 4.07416642e-01, 4.07416642e-01, 4.07416642e-01, 0., 0., 0.,
          4.07416642e-01, 4.07416642e-01, 4.07416642e-01, 4.98749405e-01,
          3.84649099e-03, 1.70061248e-04, 0., 0., 0., 4.98749405e-01,
          4.98749405e-01, 4.98749405e-01, 6.96404278e-01, 0., 0., 0., 0.,
          0., 5.00554703e-02, 1.43474132e-01, 6.96404278e-01,
          3.74801248e-01, 3.74801248e-01, 3.74801248e-01, 5.16069643e-02,
          3.74801248e-01, 1.01293847e-01, 3.74801248e-01, 3.74801248e-01,
          3.74801248e-01, 5.37388861e-01, 6.69948524e-04, 5.66288727e-05,
          0., 5.37388861e-01, 1.94503203e-01, 1.54313847e-01,
          2.58124739e-01, 5.37388861e-01, 4.82384980e-01, 0., 0., 0.,
          4.82384980e-01, 3.81189555e-01, 3.41969877e-01, 1.86674461e-01,
          4.82384980e-01, 1.28567204e-01, 1.94858924e-01, 1.93048120e-01,
          2.56593317e-01, 7.56085694e-01, 5.07329464e-01, 7.11305439e-03,
          2.01024953e-02, 7.30942488e-02, 2.45056704e-01, 0., 0., 0.,
          7.26254106e-01, 6.12818301e-01, 1.14601059e-03, 5.97985275e-03,
          1.72248214e-01, 1.58544913e-01, 0., 0., 0., 6.82298005e-01,
          6.82298005e-01, 1.69891119e-01, 2.89108213e-02, 8.53959769e-02 ]
      - [ 4.33125496e-01, 4.33125496e-01, 3.97168547e-02, 0., 0.,
          2.36870095e-01, 4.33125496e-01, 4.33125496e-01, 4.33125496e-01,
          6.69948578e-01, 0., 0., 0., 0., 0., 2.83532590e-01,
          1.23526596e-01, 6.69948578e-01, 6.97766483e-01, 7.08059669e-02,
          1.18864223e-01, 1.15874298e-02, 0., 0., 0., 1.42559269e-03,
          6.97766483e-01, 4.08799380e-01, 4.08799380e-01, 9.41213891e-02,
          3.39379758e-02, 4.08799380e-01, 3.23416620e-01, 4.08799380e-01,
          2.13828504e-01, 4.08799380e-01, 5.66493094e-01, 0., 0., 0.,
          5.66493094e-01, 1.77461937e-01, 8.99770297e-03, 5.12999017e-03,
          5.66493094e-01, 5.36837339e-01, 7.03775906e-04, 6.36231911e-04,
          1.06550020e-03, 5.36837339e-01, 3.44223589e-01, 7.12388828e-02,
          8.05541351e-02, 5.36837339e-01, 3.60527217e-01, 5.11482581e-02,
          7.53869414e-02, 1.19585790e-01, 7.48645425e-01, 4.24991161e-01,
          2.93511879e-02, 2.21122373e-02, 3.12265694e-01, 4.25323963e-01,
          0., 0., 0., 7.25681126e-01, 4.64030653e-01, 0., 0.,
          2.64420688e-01, 2.87805796e-01, 0., 5.53781865e-04,
          8.59147031e-03, 6.83082640e-01, 6.31042361e-01, 3.70214246e-02,
          2.16206275e-02, 2.08854705e-01 ]
      - [ 4.42300409e-01, 4.42300409e-01, 6.02898300e-02, 0.,
          6.28451444e-03, 1.17299438e-01, 4.42300409e-01, 4.42300409e-01,
          4.42300409e-01, 6.04944944e-01, 1.83694318e-01, 3.15464348e-01,
          0., 2.10384708e-02, 0., 3.15977484e-01, 1.68811202e-01,
          6.04944944e-01, 7.01948941e-01, 8.40089843e-03, 4.95683635e-03,
          0., 0., 0., 6.73756823e-02, 5.37921786e-02, 7.01948941e-01,
          4.11352396e-01, 4.11352396e-01, 1.48295239e-01, 3.48531753e-02,
          4.11352396e-01, 2.68957704e-01, 4.11352396e-01, 2.33007014e-01,
          4.11352396e-01, 5.61641216e-01, 1.12308864e-03, 1.48862682e-03,
          7.30722863e-03, 5.61641216e-01, 2.18719065e-01, 1.11521753e-02,
          7.05065951e-03, 5.61641216e-01, 5.38750589e-01, 2.65910712e-05,
          2.04082532e-03, 2.44975393e-03, 5.38750589e-01, 3.43981057e-01,
          5.28505407e-02, 5.23162447e-02, 5.38750589e-01, 3.16518754e-01,
          7.54976198e-02, 1.18122324e-01, 1.06686004e-01, 7.33031332e-01,
          4.96026695e-01, 4.97843549e-02, 2.47764308e-02, 2.73851126e-01,
          4.39754188e-01, 6.95589581e-04, 2.68440228e-03, 1.07281236e-02,
          7.13415802e-01, 4.70783800e-01, 8.69256910e-05, 1.07043697e-05,
          2.62245029e-01, 2.89542109e-01, 4.77308422e-05, 1.43938640e-03,
          2.51636142e-03, 7.25799799e-01, 5.89460075e-01, 3.39553542e-02,
          1.39470194e-02, 1.82527259e-01 ]
      - [ 4.70266193e-01, 4.70266193e-01, 1.86960176e-01, 0., 0., 0.,
          2.75222540e-01, 4.70266193e-01, 4.70266193e-01, 5.29242098e-01,
          9.64857861e-02, 8.78144987e-03, 0., 0., 0., 3.80836397e-01,
          5.29242098e-01, 5.29242098e-01, 6.92659378e-01, 0., 0., 0., 0.,
          0., 3.83896306e-02, 1.79046646e-01, 6.92659378e-01,
          4.30749476e-01, 4.30749476e-01, 1.96294606e-01, 8.09971318e-02,
          4.30749476e-01, 1.44629836e-01, 1.45294920e-01, 4.07916933e-01,
          4.30749476e-01, 5.50423384e-01, 2.56191939e-02, 5.45393303e-03,
          7.76256993e-02, 5.50423384e-01, 9.28090736e-02, 7.84753039e-02,
          2.53222734e-01, 5.50423384e-01, 4.60179776e-01, 0., 0.,
          3.31421793e-02, 4.60179776e-01, 4.13122088e-01, 3.53947580e-01,
          2.51117975e-01, 4.60179776e-01, 1.32559285e-01, 1.85560912e-01,
          1.17588423e-01, 2.46506244e-01, 8.19970131e-01, 4.38254207e-01,
          4.29778331e-04, 2.44372291e-03, 2.82116085e-02, 1.33870706e-01,
          2.84028793e-04, 0., 2.44861200e-01, 9.07281697e-01,
          2.76942760e-01, 1.19092794e-04, 9.53921408e-04, 1.14938445e-01,
          5.09250686e-02, 0., 0., 9.69306752e-02, 6.86506987e-01,
          6.86506987e-01, 1.86135218e-01, 3.25530842e-02, 5.35553657e-02 ]
      - [ 4.87537533e-01, 4.87537533e-01, 2.80412585e-02, 0., 0.,
          3.32191080e-01, 3.89234185e-01, 1.60336658e-01, 4.81036842e-01,
          4.28974301e-01, 2.74990708e-01, 4.89822123e-04, 0., 0.,
          4.28974301e-01, 4.28974301e-01, 4.28974301e-01, 4.28974301e-01,
          6.99966967e-01, 0., 0., 0., 0., 0., 8.48634075e-03,
          1.14162311e-01, 6.99966967e-01, 4.26033080e-01, 4.26033080e-01,
          9.52753276e-02, 5.15874773e-02, 4.26033080e-01, 4.26033080e-01,
          4.26033080e-01, 1.31142139e-01, 2.43487895e-01, 4.65533108e-01,
          6.88212439e-02, 2.11487117e-04, 1.01916166e-03, 4.65533108e-01,
          4.65533108e-01, 3.43388468e-01, 7.62412772e-02, 4.65533108e-01,
          5.08154809e-01, 0., 0., 1.88819785e-02, 5.08154809e-01,
          3.04193109e-01, 2.23180786e-01, 2.78498173e-01, 5.08154809e-01,
          1.35135978e-01, 2.42396668e-01, 1.94397166e-01, 2.84505546e-01,
          6.33187652e-01, 6.24874830e-01, 3.82222123e-02, 2.58465856e-02,
          6.63527921e-02, 2.75799096e-01, 3.60717857e-03, 0.,
          3.27669969e-03, 6.74298584e-01, 6.74298584e-01, 7.38837710e-03,
          5.91493584e-03, 8.79367292e-02, 9.33673382e-02, 0., 0.,
          3.87204401e-02, 7.37473369e-01, 6.36879146e-01, 1.49737045e-01,
          4.84800711e-02, 9.03815776e-02 ]
      - [ 4.63793814e-01, 4.63793814e-01, 4.48179580e-02, 0., 0.,
          2.26456270e-01, 4.63793814e-01, 2.85758168e-01, 4.63793814e-01,
          4.74855751e-01, 6.99985549e-02, 1.25713961e-03, 0., 0.,
          2.97327876e-01, 4.74855751e-01, 4.74855751e-01, 4.74855751e-01,
          6.88971817e-01, 0., 0., 0., 0., 0., 7.17477687e-03,
          2.09060997e-01, 6.88971817e-01, 3.93984944e-01, 3.93984944e-01,
          1.38810992e-01, 4.40181717e-02, 3.93984944e-01, 3.78249347e-01,
          3.93984944e-01, 2.59330213e-01, 3.78994405e-01, 5.16056180e-01,
          1.69186778e-02, 4.12354450e-04, 0., 5.16056180e-01,
          2.95392007e-01, 3.11721414e-01, 1.05788738e-01, 5.16056180e-01,
          4.74593014e-01, 0., 0., 0., 4.74593014e-01, 4.06101227e-01,
          2.66376495e-01, 2.89256603e-01, 4.74593014e-01, 7.80811384e-02,
          1.53675482e-01, 1.99513674e-01, 2.65783280e-01, 6.58939660e-01,
          6.43740892e-01, 9.83661320e-03, 2.50503793e-02, 6.27224669e-02,
          1.85792655e-01, 1.24350050e-03, 0., 0., 6.93784058e-01,
          6.86601102e-01, 1.14418729e-03, 5.11433324e-03, 7.59537220e-02,
          4.13451605e-02, 0., 0., 0., 6.95729017e-01, 6.95729017e-01,
          1.45634994e-01, 2.53409576e-02, 3.76304314e-02 ]
      - [ 4.46839899e-01, 4.46839899e-01, 2.58343488e-01, 0., 0.,
          2.18488693e-01, 4.14522737e-01, 3.32010508e-01, 4.46839899e-01,
          4.33857739e-01, 3.58725041e-01, 4.18575071e-02, 0., 0.,
          3.35112333e-01, 4.33857739e-01, 4.33857739e-01, 4.33857739e-01,
          7.04610884e-01, 0., 0., 0., 0., 0., 0., 3.64861521e-03,
          7.04610884e-01, 4.08477843e-01, 4.08477843e-01, 2.27374464e-01,
          3.85637432e-02, 4.08477843e-01, 4.08477843e-01, 4.08477843e-01,
          2.13587999e-01, 2.50684321e-01, 4.58793640e-01, 2.16888770e-01,
          1.34048220e-02, 5.06520155e-04, 4.58793640e-01, 4.22600657e-01,
          3.45145375e-01, 1.37859493e-01, 4.58793640e-01, 5.14248788e-01,
          1.31029283e-05, 3.93087867e-05, 4.49186307e-04, 5.14248788e-01,
          3.25211883e-01, 2.56052285e-01, 1.73732236e-01, 5.14248788e-01,
          3.63422543e-01, 3.54122400e-01, 1.06104895e-01, 1.55888692e-01,
          6.69473112e-01, 4.63858157e-01, 1.34751648e-01, 5.46334833e-02,
          1.25605881e-01, 5.60010433e-01, 6.65770993e-02, 1.55389274e-03,
          9.34462296e-04, 6.40067041e-01, 4.59660739e-01, 3.08913887e-02,
          1.33961989e-02, 2.31202275e-01, 3.69245112e-01, 1.33692774e-05,
          4.01078360e-05, 2.10596505e-03, 6.45021379e-01, 5.85710585e-01,
          1.59417376e-01, 6.96432441e-02, 2.60461628e-01 ]
      - [ 3.46356213e-01, 3.46356213e-01, 3.46356213e-01, 1.91933319e-01,
          3.46356213e-01, 3.46356213e-01, 3.46356213e-01, 3.46356213e-01,
          3.46356213e-01, 4.63439196e-01, 3.24666768e-01, 7.06746662e-03,
          0., 0., 1.75525054e-01, 4.63439196e-01, 4.63439196e-01,
          4.63439196e-01, 6.83322728e-01, 1.15635760e-01, 0., 0., 0., 0.,
          1.28460780e-01, 1.71595201e-01, 6.83322728e-01, 3.93759221e-01,
          3.93759221e-01, 3.93759221e-01, 2.04223208e-02, 3.05958360e-01,
          3.93759221e-01, 3.93759221e-01, 2.14265496e-01, 2.84424484e-01,
          4.54946101e-01, 1.76273555e-01, 1.86729096e-02, 0.,
          4.54946101e-01, 4.36441749e-01, 3.61755222e-01, 1.47507548e-01,
          4.54946101e-01, 4.26000088e-01, 3.93078960e-02, 0., 0.,
          4.26000088e-01, 4.26000088e-01, 3.57995778e-01, 3.74345034e-01,
          4.26000088e-01, 3.45972329e-01, 3.49632829e-01, 2.97013611e-01,
          1.39970824e-01, 5.58702886e-01, 5.58702886e-01, 5.94106317e-02,
          4.06783596e-02, 1.23247035e-01, 4.34780777e-01, 5.55075146e-02,
          3.15768225e-03, 0., 6.22913420e-01, 6.22913420e-01,
          2.25548577e-02, 1.63940340e-02, 1.57592729e-01, 2.09672108e-01,
          2.74438120e-04, 0., 0., 6.62748694e-01, 6.62748694e-01,
          2.33910561e-01, 9.47630554e-02, 8.51771235e-02 ]
      - [ 4.66739029e-01, 4.66739029e-01, 1.02072693e-02, 0., 0.,
          2.38749802e-01, 4.66739029e-01, 2.58555651e-01, 4.66739029e-01,
          4.72715437e-01, 1.32316291e-01, 0., 0., 0., 2.89709300e-01,
          4.72715437e-01, 4.72715437e-01, 4.72715437e-01, 7.04615593e-01,
          0., 0., 0., 0., 0., 0., 0., 7.04615593e-01, 4.01389211e-01,
          4.01389211e-01, 2.10518055e-02, 1.72442831e-02, 4.01389211e-01,
          4.01389211e-01, 4.01389211e-01, 1.69025868e-01, 4.01389211e-01,
          5.22472680e-01, 1.40056256e-02, 1.77904276e-05, 2.14791112e-03,
          5.22472680e-01, 3.00634831e-01, 2.83954054e-01, 6.80962875e-02,
          5.22472680e-01, 5.34018993e-01, 0., 1.34153801e-04,
          3.08391382e-03, 5.34018993e-01, 3.69922876e-01, 2.05090921e-02,
          4.31854986e-02, 5.34018993e-01, 3.14036638e-01, 2.27365896e-01,
          4.98641171e-02, 8.96839127e-02, 7.37251580e-01, 4.82198805e-01,
          1.04462564e-01, 5.17307706e-02, 2.05312416e-01, 5.47440290e-01,
          0., 9.58361943e-06, 2.40340130e-03, 6.17223084e-01,
          4.56649303e-01, 6.93840487e-03, 5.92218572e-03, 3.23364496e-01,
          4.40202206e-01, 0., 9.49143941e-05, 2.18188227e-03,
          6.06559873e-01, 6.06559873e-01, 1.14916265e-02, 1.42030595e-02,
          2.52977103e-01 ]
      - [ 5.15882790e-01, 3.73900473e-01, 1.50325134e-01, 7.55104572e-02,
          1.15583315e-01, 8.12383667e-02, 9.15560871e-02, 5.15882790e-01,
          5.15882790e-01, 6.96460068e-01, 2.17789710e-02, 4.58376221e-02,
          4.39757071e-02, 1.15470029e-01, 4.80612926e-02, 4.95607257e-02,
          1.80451777e-02, 6.96460068e-01, 5.71559846e-01, 5.23412526e-02,
          9.01114196e-02, 8.04105997e-02, 2.57582724e-01, 5.61824553e-02,
          3.16198498e-01, 3.92580032e-01, 5.71559846e-01, 5.15287817e-01,
          2.23460987e-01, 1.93579853e-01, 2.04459414e-01, 5.15287817e-01,
          8.41621757e-02, 1.33935676e-03, 2.48983189e-01, 5.15287817e-01,
          5.72058260e-01, 3.68242298e-04, 1.99859714e-04, 1.99825149e-02,
          5.72058260e-01, 1.10160150e-01, 5.74636040e-04, 7.28715269e-04,
          5.72058260e-01, 4.31141049e-01, 8.25864496e-04, 4.17165924e-04,
          3.56224775e-01, 4.31141049e-01, 1.79541886e-01, 4.31141049e-01,
          3.05009216e-01, 4.31141049e-01, 1.14911068e-02, 2.08287630e-02,
          1.01723425e-01, 2.91223705e-01, 9.24213350e-01, 2.01807991e-01,
          8.83519650e-03, 4.57081292e-03, 7.66866049e-03, 3.17813344e-02,
          2.23108530e-02, 8.85929633e-03, 6.20486997e-02, 9.65353608e-01,
          2.26140797e-01, 1.27067193e-02, 2.54117996e-02, 3.28466743e-02,
          1.00817280e-02, 2.73104291e-03, 5.50380396e-03, 6.07269526e-01,
          6.07269526e-01, 3.11150938e-01, 3.95108074e-01, 5.54453321e-02,
          1.56577900e-02 ]
      - [ 4.98311102e-01, 4.98311102e-01, 3.27522457e-02, 0., 0., 0.,
          2.63562296e-02, 4.98311102e-01, 4.98311102e-01, 7.02417791e-01,
          0., 0., 0., 0., 0., 3.63469496e-03, 7.87002221e-02,
          7.02417791e-01, 6.23006284e-01, 2.18742862e-01, 0., 0., 0., 0.,
          2.95837283e-01, 2.86597162e-01, 6.23006284e-01, 4.46371466e-01,
          4.46371466e-01, 2.25312948e-01, 1.42865866e-01, 4.46371466e-01,
          8.05232972e-02, 3.57368123e-03, 3.47675145e-01, 4.46371466e-01,
          5.72450936e-01, 0., 0., 3.36701772e-03, 5.72450936e-01,
          1.04213797e-01, 2.98955856e-04, 1.76500008e-02, 5.72450936e-01,
          4.29731905e-01, 7.57905915e-02, 0., 4.29731905e-01,
          4.29731905e-01, 1.01487048e-01, 4.29731905e-01, 2.37310186e-01,
          4.29731905e-01, 3.26946005e-02, 5.39560094e-02, 1.76285669e-01,
          2.89346129e-01, 9.03382003e-01, 2.34618872e-01, 0.,
          1.47400633e-03, 3.25771272e-02, 2.17108354e-02, 0., 0.,
          1.01568736e-02, 9.70131040e-01, 2.19953522e-01, 0.,
          3.54330201e-04, 1.46188540e-02, 9.12011310e-05, 0., 0.,
          6.08165860e-01, 6.08165860e-01, 2.59913415e-01, 4.24531966e-01,
          8.00862238e-02, 1.17842384e-04 ]
      - [ 5.27117252e-01, 4.45356965e-01, 3.90666239e-02, 7.33523676e-03,
          6.64193481e-02, 3.99301872e-02, 1.19147696e-01, 4.67873424e-01,
          5.27117252e-01, 6.97828412e-01, 3.20376568e-02, 5.22491299e-02,
          3.01161818e-02, 1.12447612e-01, 2.89350115e-02, 2.30159052e-02,
          2.07398273e-02, 6.97828412e-01, 4.84309644e-01, 4.84309644e-01,
          9.28977653e-02, 2.36823000e-02, 1.11116156e-01, 3.15499157e-02,
          4.03458834e-01, 3.25857729e-01, 4.84309644e-01, 4.43148285e-01,
          3.73784363e-01, 1.97637558e-01, 1.28342494e-01, 4.43148285e-01,
          4.43148285e-01, 3.53644090e-03, 1.21623039e-01, 4.43148285e-01,
          5.29808342e-01, 5.17212786e-03, 2.72650295e-03, 6.06574491e-02,
          5.29808342e-01, 3.85867447e-01, 4.18973796e-04, 3.33165261e-03,
          5.29808342e-01, 4.26296055e-01, 1.40478596e-01, 7.04142451e-02,
          4.26296055e-01, 4.26296055e-01, 1.76211253e-01, 4.26296055e-01,
          1.91760764e-01, 4.19896781e-01, 6.17124997e-02, 1.22005045e-01,
          2.35443980e-01, 3.04293752e-01, 6.41402662e-01, 6.41402662e-01,
          4.77209501e-02, 3.57990973e-02, 2.28175931e-02, 3.09082568e-01,
          4.51876253e-01, 4.47808027e-01, 1.89462289e-01, 4.51876253e-01,
          4.51876253e-01, 1.18155666e-01, 1.43069431e-01, 1.28531426e-01,
          3.39055151e-01, 2.77390033e-01, 3.39055151e-01, 3.39055151e-01,
          3.39055151e-01, 3.39055151e-01, 3.39055151e-01, 3.39055151e-01,
          3.39055151e-01 ]
      - [ 4.23163086e-01, 4.23163086e-01, 3.06675076e-01, 0., 0.,
          7.99265206e-02, 4.23163086e-01, 4.23163086e-01, 4.23163086e-01,
          6.11821175e-01, 2.70748198e-01, 2.44092405e-01, 0., 0.,
          5.61300153e-03, 2.45911717e-01, 2.27708384e-01, 6.11821175e-01,
          4.07416344e-01, 4.07416344e-01, 4.07416344e-01, 1.11704157e-03,
          2.79248401e-04, 3.19711893e-04, 4.07416344e-01, 4.07416344e-01,
          4.07416344e-01, 3.72217536e-01, 3.72217536e-01, 2.76461601e-01,
          1.23362236e-01, 3.72217536e-01, 3.72217536e-01, 3.72217536e-01,
          2.70844251e-01, 3.72217536e-01, 5.29791653e-01, 2.48333402e-02,
          4.16727960e-02, 1.00940436e-01, 5.29791653e-01, 3.72921675e-01,
          2.45360602e-02, 2.13707238e-02, 5.29791653e-01, 3.60316604e-01,
          3.60316604e-01, 3.60316604e-01, 3.60316604e-01, 3.60316604e-01,
          2.22641632e-01, 3.60316604e-01, 3.60316604e-01, 1.95024595e-01,
          1.92394722e-02, 3.66479531e-02, 1.08600058e-01, 3.06863636e-01,
          6.65420234e-01, 6.65420234e-01, 0., 0., 1.07865259e-02,
          1.98471057e-03, 9.12271719e-03, 2.56393760e-01, 1.89496294e-01,
          7.11117148e-01, 6.20869279e-01, 0., 0., 1.23272568e-03, 0.,
          3.95252071e-02, 4.41544592e-01, 4.41544592e-01, 4.41544592e-01,
          4.41544592e-01, 4.41544592e-01, 1.38633072e-01, 0. ]
      - [ 4.12801117e-01, 4.12801117e-01, 3.79278630e-01, 0., 0., 0.,
          4.12801117e-01, 4.12801117e-01, 4.12801117e-01, 5.59296191e-01,
          7.01471232e-03, 9.08993464e-03, 0., 4.60610166e-02,
          6.86887698e-03, 4.35624212e-01, 4.20382291e-01, 5.59296191e-01,
          4.06908005e-01, 4.06908005e-01, 4.06908005e-01, 6.71828538e-03,
          4.90587354e-02, 6.18906971e-03, 4.06908005e-01, 4.06908005e-01,
          4.06908005e-01, 3.95714074e-01, 4.28463608e-01, 3.13124210e-01,
          1.07828289e-01, 4.28463608e-01, 2.82943666e-01, 3.05935442e-01,
          2.70498991e-01, 3.39810401e-01, 5.40482223e-01, 5.99113177e-04,
          2.96698906e-03, 4.26967815e-03, 5.40482223e-01, 3.35566223e-01,
          5.09222299e-02, 5.49008511e-02, 5.40482223e-01, 3.86258036e-01,
          1.99883252e-01, 3.86258036e-01, 3.42952460e-01, 3.86258036e-01,
          2.03251883e-01, 3.86258036e-01, 2.26459175e-01, 3.86258036e-01,
          0., 1.10131301e-01, 1.42928287e-01, 1.88569620e-01,
          7.69090176e-01, 5.76808691e-01, 0., 0., 0., 0., 3.04535404e-03,
          2.15777215e-02, 1.01113645e-02, 8.28669846e-01, 5.51778615e-01,
          0., 0., 0., 0., 3.26328389e-02, 4.43978786e-01, 4.43978786e-01,
          4.43978786e-01, 4.43978786e-01, 4.43978786e-01, 9.44163874e-02,
          0. ]
      - [ 4.34519917e-01, 4.34519917e-01, 2.18425646e-01, 0., 0.,
          6.25458881e-02, 4.34519917e-01, 4.34519917e-01, 4.34519917e-01,
          6.73101604e-01, 1.25623196e-02, 2.25725584e-02, 0., 0.,
          1.15010235e-02, 2.53568262e-01, 1.48500651e-01, 6.73101604e-01,
          4.25967455e-01, 4.25967455e-01, 4.25967455e-01, 0.,
          1.26886822e-03, 0., 4.09637570e-01, 3.19604725e-01,
          4.25967455e-01, 3.85880679e-01, 3.56341749e-01, 3.85880679e-01,
          5.76583482e-02, 3.85880679e-01, 2.55076259e-01, 3.85880679e-01,
          2.37186819e-01, 3.85880679e-01, 5.34480393e-01, 9.33903852e-04,
          2.63207243e-03, 3.43686878e-03, 5.34480393e-01, 3.70132685e-01,
          2.14446392e-02, 1.33004226e-02, 5.34480393e-01, 3.78918499e-01,
          2.89003283e-01, 3.78918499e-01, 2.82364875e-01, 3.78918499e-01,
          2.76184052e-01, 3.78918499e-01, 1.96945935e-01, 3.78918499e-01,
          3.90685815e-03, 4.94715795e-02, 1.40832260e-01, 1.33312032e-01,
          8.12786102e-01, 5.39614260e-01, 0., 0., 3.90685815e-03,
          6.63887477e-04, 5.12699317e-03, 2.28695963e-02, 1.01535209e-02,
          7.76101053e-01, 6.23913467e-01, 0., 0., 6.63887477e-04,
          3.38510261e-04, 1.54937193e-01, 4.56966877e-01, 4.56966877e-01,
          4.56966877e-01, 4.34489965e-01, 3.91706944e-01, 5.25154471e-02,
          3.38510261e-04 ]
      - [ 4.04641926e-01, 4.04641926e-01, 1.04880221e-01, 0.,
          5.04708104e-02, 4.04641926e-01, 4.04641926e-01, 4.04641926e-01,
          4.04641926e-01, 4.79000330e-01, 4.79000330e-01, 5.49288047e-03,
          1.60225499e-02, 8.64656344e-02, 3.28200638e-01, 4.79000330e-01,
          3.82736742e-01, 2.11955875e-01, 4.42648083e-01, 4.42648083e-01,
          3.87118608e-02, 4.63156551e-02, 9.96219441e-02, 4.82034460e-02,
          4.42648083e-01, 4.42648083e-01, 4.42648083e-01, 3.32778692e-01,
          3.32778692e-01, 3.32778692e-01, 3.32778692e-01, 3.32778692e-01,
          3.32778692e-01, 3.32778692e-01, 3.32778692e-01, 3.32778692e-01,
          4.79131281e-01, 4.79131281e-01, 2.09787115e-01, 5.16277663e-02,
          2.68490732e-01, 4.79131281e-01, 4.11053032e-01, 3.81012559e-02,
          1.31660342e-01, 2.20831901e-01, 3.93231124e-01, 3.93231124e-01,
          2.93397456e-01, 2.96438128e-01, 3.93231124e-01, 3.93231124e-01,
          3.93231124e-01, 1.39076756e-02, 1.42101198e-01, 1.18572135e-02,
          2.17752442e-01, 6.05325818e-01, 6.05325818e-01, 3.94530535e-01,
          3.07060615e-03, 5.29411845e-02, 1.86818942e-01, 1.68664068e-01,
          1.07871793e-01, 3.69047284e-01, 1.67254895e-01, 6.09483659e-01,
          6.09483659e-01, 2.09288761e-01, 2.87314644e-03, 5.39415590e-02,
          2.96940525e-05, 1.87140524e-01, 4.34987307e-01, 4.34987307e-01,
          4.34987307e-01, 4.34987307e-01, 4.34987307e-01, 1.20679401e-01,
          0. ]
      - [ 4.36689347e-01, 4.36689347e-01, 1.57722130e-01, 3.12784663e-03,
          3.74866039e-01, 4.36689347e-01, 4.36689347e-01, 1.63965106e-01,
          2.01376230e-01, 4.71832901e-01, 4.71832901e-01, 8.92611817e-02,
          0., 1.18545212e-01, 4.71832901e-01, 4.71832901e-01,
          2.61089474e-01, 1.20804943e-01, 3.95361811e-01, 3.95361811e-01,
          2.69496113e-01, 1.45098433e-01, 3.24199319e-01, 3.95361811e-01,
          3.95361811e-01, 3.41802269e-01, 2.34927192e-01, 2.47517288e-01,
          4.04251575e-01, 4.04251575e-01, 5.57684749e-02, 6.90324232e-02,
          4.04251575e-01, 4.04251575e-01, 4.04251575e-01, 3.31246942e-01,
          2.67323375e-01, 5.49805164e-01, 1.24851778e-01, 0.,
          1.04477061e-02, 5.49805164e-01, 5.49805164e-01, 6.07121177e-03,
          2.13681702e-02, 3.43888812e-02, 4.80330944e-01, 4.80330944e-01,
          7.73023441e-02, 1.04039744e-01, 4.80330944e-01, 4.80330944e-01,
          2.33127475e-01, 3.79113044e-04, 3.74974430e-01, 1.72767788e-01,
          3.74974430e-01, 3.74974430e-01, 3.74974430e-01, 3.41663212e-01,
          7.76950493e-02, 3.74974430e-01, 3.74974430e-01, 4.48229253e-01,
          4.82996464e-01, 2.03369930e-02, 1.76034756e-02, 2.92377710e-01,
          4.82996464e-01, 4.82996464e-01, 9.52822156e-03, 9.00599808e-02,
          1.95121771e-04, 5.21188736e-01, 5.21188736e-01, 1.92621410e-01,
          7.44086504e-02, 2.89472729e-01, 5.21188736e-01, 2.31187463e-01,
          3.54681615e-05 ]
      - [ 3.93037051e-01, 3.93037051e-01, 8.40285495e-02, 0.,
          3.93037051e-01, 3.93037051e-01, 3.93037051e-01, 2.49287218e-01,
          3.93037051e-01, 4.49724048e-01, 4.49724048e-01, 7.07854331e-02,
          9.41022241e-04, 1.50008842e-01, 4.49724048e-01, 4.49724048e-01,
          3.08619857e-01, 2.52468765e-01, 3.93514723e-01, 3.93514723e-01,
          2.06254959e-01, 1.38064384e-01, 3.38089824e-01, 3.93514723e-01,
          3.69411767e-01, 2.53536254e-01, 3.93514723e-01, 3.20028931e-01,
          2.78507590e-01, 3.58347207e-01, 3.58347207e-01, 2.14378953e-01,
          3.58347207e-01, 3.58347207e-01, 3.58347207e-01, 3.58347207e-01,
          4.94000107e-01, 4.94000107e-01, 6.14731237e-02, 5.02373418e-03,
          6.29940182e-02, 4.94000107e-01, 4.94000107e-01, 1.07714050e-02,
          1.05039954e-01, 9.66082290e-02, 4.74681944e-01, 4.74681944e-01,
          1.13024853e-01, 1.72564179e-01, 4.74681944e-01, 4.74681944e-01,
          2.05101788e-01, 3.74381430e-03, 2.94328213e-01, 5.13089076e-02,
          1.28967047e-01, 5.14734209e-01, 5.14734209e-01, 1.92616135e-01,
          1.17007336e-02, 2.38481566e-01, 5.14734209e-01, 4.16155607e-01,
          3.14516485e-01, 2.97038653e-03, 6.58769459e-02, 5.03641665e-01,
          5.03641665e-01, 4.37379241e-01, 7.43174786e-03, 1.40888572e-01,
          7.55224319e-04, 3.76463979e-01, 4.10585016e-01, 4.10585016e-01,
          4.10585016e-01, 4.10585016e-01, 4.10585016e-01, 1.06171094e-01,
          0. ]
      - [ 4.04408216e-01, 4.04408216e-01, 6.12710565e-02, 0.,
          3.29309225e-01, 4.04408216e-01, 4.04408216e-01, 2.56965667e-01,
          4.04408216e-01, 4.13077265e-01, 4.13077265e-01, 8.43758043e-03,
          1.73856516e-03, 1.45851001e-01, 4.13077265e-01, 4.13077265e-01,
          3.97906870e-01, 3.65602940e-01, 4.26461607e-01, 4.26461607e-01,
          1.83537185e-01, 1.09188475e-01, 2.25694895e-01, 3.96833152e-01,
          2.61994392e-01, 3.57026249e-01, 4.26461607e-01, 3.44327658e-01,
          3.44327658e-01, 3.44327658e-01, 3.44327658e-01, 2.19242766e-01,
          3.44327658e-01, 3.44327658e-01, 3.44327658e-01, 3.44327658e-01,
          4.96035576e-01, 4.96035576e-01, 1.14482744e-02, 4.11273772e-03,
          6.97177649e-02, 4.96035576e-01, 4.96035576e-01, 1.89803243e-02,
          7.39712417e-02, 2.18159750e-01, 4.56186265e-01, 4.56186265e-01,
          1.36597633e-01, 1.66888610e-01, 4.56186265e-01, 4.56186265e-01,
          2.59942234e-01, 3.66781875e-02, 3.26398790e-01, 7.39661679e-02,
          1.67132080e-01, 4.74767655e-01, 4.74767655e-01, 2.81185240e-01,
          2.74309423e-02, 3.15098494e-01, 4.74767655e-01, 4.44418520e-01,
          3.87586981e-01, 3.49058583e-03, 7.18118176e-02, 5.10985315e-01,
          5.10985315e-01, 3.26123059e-01, 8.96059163e-03, 1.15531735e-01,
          1.09005498e-03, 3.43902349e-01, 4.32346404e-01, 4.32346404e-01,
          3.36208671e-01, 4.32346404e-01, 4.32346404e-01, 1.29156440e-01,
          0. ]
      - [ 3.76020283e-01, 4.34981823e-01, 2.13595524e-01, 0.,
          2.79194582e-03, 2.82284498e-01, 4.34981823e-01, 4.34981823e-01,
          4.01647598e-01, 6.92694306e-01, 6.92694306e-01, 6.04244508e-03,
          2.90578064e-02, 4.18050624e-02, 8.76482800e-02, 3.37532945e-02,
          6.86548278e-02, 1.31418765e-01, 5.44857919e-01, 5.44857919e-01,
          7.01243281e-02, 6.46646544e-02, 9.00394022e-02, 2.41789445e-01,
          3.61364484e-01, 3.08012575e-01, 3.15744162e-01, 3.88561070e-01,
          1.36641115e-01, 3.88561070e-01, 3.88561070e-01, 2.41063982e-01,
          1.16005272e-01, 3.88561070e-01, 3.88561070e-01, 3.88561070e-01,
          5.42160213e-01, 5.42160213e-01, 2.52297439e-04, 3.28353350e-03,
          2.98921585e-01, 5.42160213e-01, 2.21014954e-02, 2.55194213e-03,
          1.51369721e-01, 4.28276747e-01, 4.28276747e-01, 4.28276747e-01,
          1.39140964e-01, 1.62346929e-01, 4.28276747e-01, 4.28276747e-01,
          1.81207389e-01, 7.99945183e-03, 3.56570691e-01, 1.19177597e-02,
          9.94874910e-02, 4.92514461e-01, 4.92514461e-01, 3.05698603e-01,
          3.55574442e-03, 1.91631794e-01, 4.92514461e-01, 5.64027548e-01,
          1.63698763e-01, 2.39989124e-04, 3.03302146e-02, 5.64027548e-01,
          5.64027548e-01, 6.63930038e-03, 9.17819503e-04, 1.10564068e-01,
          2.94647217e-02, 3.95347893e-01, 4.25936848e-01, 3.72609645e-01,
          3.56838673e-01, 4.25936848e-01, 4.25936848e-01, 1.67743549e-01,
          8.90079711e-04 ]
      - [ 4.11637694e-01, 4.11637694e-01, 8.12758282e-02, 0.,
          7.52015486e-02, 4.11637694e-01, 4.11637694e-01, 3.69322211e-01,
          4.11637694e-01, 4.44022745e-01, 4.44022745e-01, 2.35722568e-02,
          1.44385062e-02, 8.89892057e-02, 4.44022745e-01, 4.44022745e-01,
          4.02470767e-01, 1.90457121e-01, 4.17915314e-01, 4.17915314e-01,
          1.09760411e-01, 1.82344064e-01, 2.33786181e-01, 1.50354534e-01,
          4.17915314e-01, 4.17915314e-01, 4.17915314e-01, 3.54266524e-01,
          3.54266524e-01, 3.54266524e-01, 3.32027018e-01, 8.76650810e-02,
          3.54266524e-01, 3.54266524e-01, 3.54266524e-01, 3.54266524e-01,
          4.91039991e-01, 4.91039991e-01, 1.13925070e-01, 2.65544895e-02,
          8.42388943e-02, 4.91039991e-01, 4.91039991e-01, 3.88964526e-02,
          9.12211388e-02, 8.16486925e-02, 3.98578435e-01, 3.98578435e-01,
          3.80335331e-01, 2.53497988e-01, 3.98578435e-01, 3.98578435e-01,
          3.80691141e-01, 7.11764721e-03, 2.09753782e-01, 4.60628495e-02,
          2.17001572e-01, 5.32947719e-01, 5.32947719e-01, 4.69192892e-01,
          1.84421334e-02, 1.60013497e-01, 2.95493841e-01, 1.92947060e-01,
          1.76595852e-01, 1.43927649e-01, 1.16022140e-01, 5.44248819e-01,
          5.44248819e-01, 5.43882072e-01, 9.09724925e-03, 6.05792925e-02,
          1.44316318e-05, 4.05892223e-01, 4.05892223e-01, 4.05892223e-01,
          4.05892223e-01, 4.05892223e-01, 4.05892223e-01, 8.63375068e-02,
          0. ]
      - [ 4.23500061e-01, 4.23500061e-01, 1.03461929e-01, 1.50029504e-04,
          3.61146545e-03, 2.97136992e-01, 4.23500061e-01, 4.23500061e-01,
          4.23500061e-01, 5.21641850e-01, 5.21641850e-01, 1.42379652e-03,
          4.09630040e-04, 4.83168587e-02, 1.30084500e-01, 5.21641850e-01,
          3.91354352e-01, 7.77360350e-02, 4.87216949e-01, 4.87216949e-01,
          1.12823946e-02, 4.91364188e-02, 9.78788510e-02, 4.42504957e-02,
          3.55504036e-01, 4.44426954e-01, 4.27076817e-01, 3.65952581e-01,
          3.24538141e-01, 3.65952581e-01, 3.65952581e-01, 1.01145685e-01,
          2.77957976e-01, 3.65952581e-01, 3.65952581e-01, 3.65952581e-01,
          5.40433824e-01, 5.40433824e-01, 2.01602560e-02, 5.69699053e-03,
          1.50372878e-01, 5.40433824e-01, 2.53563583e-01, 5.50488904e-02,
          1.67394906e-01, 2.73464322e-01, 3.80760461e-01, 3.80760461e-01,
          3.80760461e-01, 3.80760461e-01, 3.80760461e-01, 3.80760461e-01,
          2.26982087e-01, 4.60042013e-03, 1.86463594e-01, 1.12385722e-02,
          2.18918130e-01, 5.60944498e-01, 5.60944498e-01, 4.68794465e-01,
          1.37356985e-02, 1.00273505e-01, 2.28580981e-01, 2.91987300e-01,
          9.50429514e-02, 1.22015327e-01, 3.26955728e-02, 6.57280385e-01,
          6.57280385e-01, 1.20543621e-01, 7.12990109e-03, 6.76380843e-02,
          2.04537809e-03, 4.05553102e-01, 4.05553102e-01, 4.05553102e-01,
          4.05553102e-01, 4.05553102e-01, 4.05553102e-01, 9.54139754e-02,
          8.66509159e-04 ]
      - [ 4.17780936e-01, 4.17780936e-01, 9.54690576e-02, 5.69444208e-04,
          1.14293590e-01, 4.17780936e-01, 4.17780936e-01, 3.17717463e-01,
          4.17780936e-01, 4.15472418e-01, 4.15472418e-01, 9.71345324e-03,
          2.27044523e-02, 7.75048211e-02, 4.15472418e-01, 4.15472418e-01,
          4.15472418e-01, 3.55170548e-01, 4.38692898e-01, 4.38692898e-01,
          9.36060101e-02, 6.38463795e-02, 8.40329453e-02, 1.16019987e-01,
          4.38692898e-01, 4.38692898e-01, 4.38692898e-01, 3.46873611e-01,
          3.46873611e-01, 3.46873611e-01, 3.46873611e-01, 1.84292525e-01,
          3.46873611e-01, 3.46873611e-01, 3.46873611e-01, 3.46873611e-01,
          5.51280975e-01, 5.51280975e-01, 7.39621297e-02, 3.63124460e-02,
          9.40840319e-02, 5.51280975e-01, 2.34678626e-01, 3.28369327e-02,
          1.04735628e-01, 3.19749206e-01, 4.07046527e-01, 4.07046527e-01,
          2.07144484e-01, 1.46613181e-01, 4.07046527e-01, 4.07046527e-01,
          4.07046527e-01, 2.92514637e-02, 2.78618038e-01, 5.00959605e-02,
          1.78899154e-01, 4.83165979e-01, 4.83165979e-01, 4.83165979e-01,
          3.38500068e-02, 1.66720465e-01, 3.92099619e-01, 3.83716285e-01,
          2.39332557e-01, 1.10790998e-01, 1.53965965e-01, 6.04759872e-01,
          6.04759872e-01, 1.15714543e-01, 5.61462762e-03, 9.25896838e-02,
          1.68740179e-03, 1.64434001e-01, 4.24790442e-01, 4.24790442e-01,
          3.89972597e-01, 4.24790442e-01, 4.24790442e-01, 3.07975680e-01,
          6.60292244e-06 ]
      - [ 4.20863599e-01, 4.20863599e-01, 5.81726283e-02, 3.16595542e-03,
          8.70700739e-03, 4.20863599e-01, 4.20863599e-01, 3.26642096e-01,
          4.20863599e-01, 3.90145808e-01, 3.90145808e-01, 2.91176468e-01,
          1.01744778e-01, 1.59634501e-01, 3.90145808e-01, 3.90145808e-01,
          3.90145808e-01, 3.38252455e-01, 4.54469919e-01, 4.54469919e-01,
          1.08952567e-01, 5.89198656e-02, 1.46971956e-01, 1.59588754e-01,
          4.54469919e-01, 4.54469919e-01, 3.26920927e-01, 3.32778692e-01,
          3.32778692e-01, 3.32778692e-01, 3.32778692e-01, 3.32778692e-01,
          3.32778692e-01, 3.32778692e-01, 3.32778692e-01, 3.32778692e-01,
          4.86992270e-01, 4.86992270e-01, 2.54217461e-02, 1.01128845e-02,
          3.73116374e-01, 4.86992270e-01, 2.18609944e-01, 2.96737459e-02,
          3.08247089e-01, 4.20279503e-01, 4.20279503e-01, 4.20279503e-01,
          1.26387924e-01, 1.92835927e-01, 4.20279503e-01, 4.20279503e-01,
          2.43726179e-01, 8.07417370e-03, 2.69751787e-01, 8.55619647e-03,
          1.44316271e-01, 5.61506987e-01, 5.61506987e-01, 5.83868213e-02,
          9.39854514e-03, 1.90310389e-01, 4.80032086e-01, 5.42978823e-01,
          2.00818300e-01, 1.17913291e-01, 5.42821772e-02, 5.42978823e-01,
          5.42978823e-01, 7.86878765e-02, 1.64551921e-02, 2.15543479e-01,
          1.87704172e-02, 4.06965345e-01, 4.06965345e-01, 4.06965345e-01,
          4.06965345e-01, 4.06965345e-01, 4.06965345e-01, 4.30853851e-02,
          1.00675749e-03 ]
      - [ 4.14145947e-01, 4.14145947e-01, 9.28930268e-02, 2.85230274e-03,
          6.40646974e-03, 4.14145947e-01, 4.14145947e-01, 3.60000253e-01,
          4.14145947e-01, 4.31538910e-01, 4.31538910e-01, 3.41288485e-02,
          2.98883189e-02, 7.24842697e-02, 4.31538910e-01, 4.31538910e-01,
          3.86939079e-01, 3.06189477e-01, 4.49106038e-01, 4.49106038e-01,
          1.43511608e-01, 6.87819794e-02, 1.28963292e-01, 1.65773541e-01,
          4.00805146e-01, 4.49106038e-01, 4.00426626e-01, 3.39727610e-01,
          3.39727610e-01, 3.39727610e-01, 3.39727610e-01, 2.70715207e-01,
          3.39727610e-01, 3.39727610e-01, 3.39727610e-01, 3.39727610e-01,
          5.13091803e-01, 5.13091803e-01, 3.40377651e-02, 1.61264390e-02,
          4.05984521e-01, 5.13091803e-01, 7.72176236e-02, 5.27183600e-02,
          1.73500165e-01, 4.16542858e-01, 4.16542858e-01, 4.16542858e-01,
          1.24093235e-01, 2.24185467e-01, 4.16542858e-01, 4.16542858e-01,
          2.47896150e-01, 3.44712883e-02, 2.05173150e-01, 1.56707130e-02,
          1.36345208e-01, 5.22331893e-01, 5.22331893e-01, 5.09869874e-01,
          2.15644930e-02, 1.39506832e-01, 3.29084128e-01, 4.35734570e-01,
          2.24366054e-01, 2.00232640e-01, 1.61956057e-01, 5.81549823e-01,
          5.81549823e-01, 7.52552133e-03, 1.69442277e-02, 1.04504697e-01,
          2.38583679e-03, 4.14904356e-01, 4.14904356e-01, 4.14904356e-01,
          4.14904356e-01, 4.14904356e-01, 3.64950597e-01, 4.39527743e-02,
          8.20090063e-04 ]
      - [ 4.09750849e-01, 4.09750849e-01, 1.55032903e-01, 0.,
          2.11043389e-05, 3.63858163e-01, 4.09750849e-01, 4.09750849e-01,
          4.09750849e-01, 6.62140131e-01, 6.62140131e-01, 3.68976034e-03,
          0., 5.27162151e-03, 9.02703255e-02, 3.09204340e-01,
          1.10247739e-01, 2.40484737e-02, 5.04172921e-01, 5.04172921e-01,
          2.99763065e-02, 4.26652357e-02, 9.02892798e-02, 8.25831592e-02,
          2.52808362e-01, 3.88317853e-01, 5.04172921e-01, 3.90979975e-01,
          1.72113687e-01, 3.90979975e-01, 3.90979975e-01, 1.74854219e-01,
          1.36765718e-01, 3.90979975e-01, 3.90979975e-01, 3.90979975e-01,
          5.50337017e-01, 5.50337017e-01, 5.95149072e-03, 5.76550281e-03,
          1.62776202e-01, 5.50337017e-01, 8.59788954e-02, 2.10198015e-02,
          2.26920322e-01, 3.67381692e-01, 4.15288448e-01, 4.15288448e-01,
          2.44866982e-01, 2.60971904e-01, 4.15288448e-01, 4.15288448e-01,
          2.06873313e-01, 1.27028776e-02, 2.00490221e-01, 6.21524360e-03,
          1.70296505e-01, 5.86859703e-01, 5.86859703e-01, 3.48196298e-01,
          2.06387928e-03, 1.05025209e-01, 3.22211772e-01, 3.73737872e-01,
          7.51091987e-02, 1.73427165e-02, 4.40123342e-02, 6.46426618e-01,
          6.46426618e-01, 4.73699942e-02, 3.36200022e-03, 8.94256458e-02,
          4.26573539e-03, 2.90989667e-01, 4.25142050e-01, 4.25142050e-01,
          4.25142050e-01, 4.25142050e-01, 4.25142050e-01, 8.56219158e-02,
          8.05259260e-05 ]
      - [ 4.10207838e-01, 4.10207838e-01, 1.78551048e-01, 0.,
          1.50474487e-04, 3.50241899e-01, 4.10207838e-01, 4.10207838e-01,
          4.10207838e-01, 6.90979958e-01, 6.90979958e-01, 0., 0.,
          4.45382763e-03, 9.98773873e-02, 1.60209119e-01, 4.96347509e-02,
          8.35006963e-03, 5.00607610e-01, 5.00607610e-01, 3.59488018e-02,
          6.96856007e-02, 1.39035389e-01, 1.25634238e-01, 2.73224205e-01,
          3.56737643e-01, 5.00607610e-01, 3.99277061e-01, 1.69289723e-01,
          3.99277061e-01, 3.40963453e-01, 2.01912060e-01, 1.14963993e-01,
          3.99277061e-01, 3.99277061e-01, 3.99277061e-01, 5.54247081e-01,
          5.54247081e-01, 1.24844944e-03, 1.50702428e-03, 1.57701775e-01,
          5.54247081e-01, 1.41890228e-01, 1.31558189e-02, 1.66481540e-01,
          3.27173859e-01, 4.13882464e-01, 4.13882464e-01, 2.78076887e-01,
          2.98034489e-01, 4.13882464e-01, 4.13882464e-01, 1.93285912e-01,
          1.08258044e-02, 2.04840630e-01, 1.08298855e-02, 1.29385710e-01,
          5.90323567e-01, 5.90323567e-01, 3.68970960e-01, 2.67108646e-03,
          8.40110257e-02, 3.08414817e-01, 3.15738320e-01, 6.61226958e-02,
          8.48671608e-03, 2.69562230e-02, 6.62427485e-01, 6.62427485e-01,
          7.98702985e-02, 2.23280583e-03, 6.72360063e-02, 1.99845550e-03,
          4.05532181e-01, 4.05532181e-01, 4.05532181e-01, 4.05532181e-01,
          4.05532181e-01, 4.05532181e-01, 9.59511325e-02, 1.77637106e-04 ]
      - [ 4.05094236e-01, 4.05094236e-01, 1.06512696e-01, 0., 0.,
          4.05094236e-01, 4.05094236e-01, 4.05094236e-01, 4.05094236e-01,
          3.74729007e-01, 3.74729007e-01, 3.74729007e-01, 3.74729007e-01,
          5.50147379e-03, 1.15208641e-01, 3.74729007e-01, 3.74729007e-01,
          3.74729007e-01, 4.07951027e-01, 3.84612739e-01, 4.07951027e-01,
          4.07951027e-01, 1.38564454e-02, 0., 1.25241950e-01,
          4.07951027e-01, 4.07951027e-01, 3.40295374e-01, 3.40295374e-01,
          3.40295374e-01, 3.40295374e-01, 2.64938593e-01, 3.40295374e-01,
          3.40295374e-01, 3.40295374e-01, 3.40295374e-01, 3.88618916e-01,
          3.88618916e-01, 2.10663602e-01, 3.88618916e-01, 3.14910203e-01,
          2.87237436e-01, 1.22235484e-01, 3.88618916e-01, 3.88618916e-01,
          3.48554254e-01, 3.48554254e-01, 3.48554254e-01, 3.48554254e-01,
          1.56834140e-01, 3.48554254e-01, 3.48554254e-01, 3.48554254e-01,
          3.48554254e-01, 1.38904124e-01, 2.79735215e-02, 1.99897245e-01,
          5.52130282e-01, 5.52130282e-01, 5.52130282e-01, 2.37647500e-02,
          4.58478108e-02, 1.31301865e-01, 1.86431363e-01, 2.35906485e-02,
          1.85523078e-01, 5.37378192e-01, 5.37378192e-01, 5.37378192e-01,
          1.91361606e-02, 1.03360020e-01, 2.18004718e-01, 2.51352936e-01,
          9.27528068e-02, 1.99449379e-02, 2.08666950e-01, 6.24846816e-01,
          6.24846816e-01, 2.80651271e-01, 1.66205093e-02, 1.34654582e-01 ]
      - [ 3.90132159e-01, 3.90132159e-01, 5.55628613e-02, 0.,
          2.82483041e-01, 3.90132159e-01, 3.90132159e-01, 3.90132159e-01,
          3.90132159e-01, 3.60240698e-01, 3.60240698e-01, 3.60240698e-01,
          3.60240698e-01, 1.86165646e-01, 2.30932340e-01, 3.60240698e-01,
          3.60240698e-01, 3.60240698e-01, 3.29409927e-01, 2.33296514e-01,
          4.38051075e-01, 4.38051075e-01, 2.45717302e-01, 0.,
          6.89499974e-02, 4.38051075e-01, 4.38051075e-01, 3.61353248e-01,
          3.74695480e-01, 3.74695480e-01, 8.64314884e-02, 1.38225481e-01,
          3.74695480e-01, 3.74695480e-01, 3.74695480e-01, 3.70297641e-01,
          3.97045940e-01, 4.06054556e-01, 4.06054556e-01, 7.62359127e-02,
          8.10187086e-02, 3.89956832e-02, 4.06054556e-01, 4.06054556e-01,
          4.06054556e-01, 2.92943239e-01, 4.14477110e-01, 4.14477110e-01,
          4.14477110e-01, 9.38672349e-02, 9.25921053e-02, 4.14477110e-01,
          4.14477110e-01, 1.83584064e-01, 3.83653224e-01, 2.03191459e-01,
          2.98136920e-01, 3.83653224e-01, 3.83653224e-01, 3.83653224e-01,
          5.80804311e-02, 3.55911016e-01, 3.83653224e-01, 3.04459453e-01,
          2.23447829e-01, 1.28269941e-01, 4.04545754e-01, 4.04545754e-01,
          4.04545754e-01, 1.36362255e-01, 4.04545754e-01, 4.04545754e-01,
          3.99121165e-01, 3.99121165e-01, 8.85413960e-02, 1.50075868e-01,
          3.99121165e-01, 3.99121165e-01, 3.99121165e-01, 9.93191525e-02,
          3.99121165e-01 ]
      - [ 4.20410216e-01, 4.20410216e-01, 1.38686568e-01, 0.,
          3.90742779e-01, 4.20410216e-01, 4.20410216e-01, 2.42510259e-01,
          2.41031796e-01, 3.51938158e-01, 3.51938158e-01, 3.51938158e-01,
          3.51938158e-01, 1.96641088e-01, 3.01318228e-01, 3.51938158e-01,
          3.51938158e-01, 3.51938158e-01, 1.37396798e-01, 1.89994037e-01,
          4.61509287e-01, 4.61509287e-01, 1.85729384e-01, 0.,
          2.32283846e-01, 4.61509287e-01, 4.61509287e-01, 3.68473440e-01,
          3.74063939e-01, 3.74063939e-01, 1.03844509e-01, 1.00814007e-01,
          3.74063939e-01, 3.74063939e-01, 3.74063939e-01, 3.74063939e-01,
          3.41805279e-01, 4.17436212e-01, 4.17436212e-01, 6.88176081e-02,
          7.60837346e-02, 4.60565984e-02, 4.17436212e-01, 4.17436212e-01,
          4.11510885e-01, 2.62684166e-01, 4.63469595e-01, 4.63469595e-01,
          2.64879614e-01, 2.36585569e-02, 1.18165165e-01, 4.63469595e-01,
          4.33476150e-01, 9.67984498e-02, 3.96106184e-01, 1.64571628e-01,
          3.15869570e-01, 3.96106184e-01, 3.96106184e-01, 3.96106184e-01,
          3.84271108e-02, 2.88458467e-01, 3.96106184e-01, 3.40518713e-01,
          1.80253193e-01, 2.16446519e-01, 3.96020532e-01, 3.96020532e-01,
          3.96020532e-01, 1.28798649e-01, 3.96020532e-01, 3.96020532e-01,
          4.14629698e-01, 4.14629698e-01, 1.02303587e-01, 1.38623580e-01,
          4.14629698e-01, 4.14629698e-01, 4.14629698e-01, 1.18666261e-01,
          3.04146141e-01 ]
      - [ 3.93100530e-01, 3.93100530e-01, 6.31804392e-02, 2.95205478e-04,
          3.93100530e-01, 3.93100530e-01, 3.93100530e-01, 2.54780084e-01,
          3.93100530e-01, 3.56655687e-01, 3.56655687e-01, 3.56655687e-01,
          3.56655687e-01, 2.39854932e-01, 2.20189199e-01, 3.56655687e-01,
          3.56655687e-01, 3.56655687e-01, 4.02999282e-01, 2.34958351e-01,
          4.23122793e-01, 4.23122793e-01, 2.37411126e-01, 0.,
          7.52582997e-02, 4.23122793e-01, 4.23122793e-01, 3.40658993e-01,
          3.40658993e-01, 3.40658993e-01, 2.97444254e-01, 3.09488922e-01,
          3.40658993e-01, 3.40658993e-01, 3.40658993e-01, 3.40658993e-01,
          3.75298828e-01, 3.75298828e-01, 3.33496451e-01, 2.63302535e-01,
          2.89031178e-01, 1.67084932e-01, 3.75298828e-01, 3.75298828e-01,
          3.75298828e-01, 3.59410942e-01, 3.59410942e-01, 3.59410942e-01,
          3.59410942e-01, 1.87645063e-01, 2.87511826e-01, 3.59410942e-01,
          3.59410942e-01, 3.21679860e-01, 3.21190476e-01, 1.16918139e-01,
          1.92907482e-01, 4.39718962e-01, 4.39718962e-01, 4.39718962e-01,
          1.84981376e-02, 2.60399640e-01, 4.39718962e-01, 2.44723707e-01,
          1.60379574e-01, 4.33396287e-02, 4.52242583e-01, 4.52242583e-01,
          4.52242583e-01, 4.57346849e-02, 3.09840918e-01, 4.43091363e-01,
          4.51212406e-01, 3.64033490e-01, 4.09745015e-02, 1.95510820e-01,
          4.51212406e-01, 4.51212406e-01, 2.86693603e-01, 7.67863914e-02,
          3.52422833e-01 ]
      - [ 3.92253190e-01, 3.92253190e-01, 6.09287992e-02, 2.94558820e-04,
          3.92253190e-01, 3.92253190e-01, 3.92253190e-01, 2.63046771e-01,
          3.92253190e-01, 3.56928796e-01, 3.56928796e-01, 3.56928796e-01,
          3.56928796e-01, 2.40043804e-01, 2.16854528e-01, 3.56928796e-01,
          3.56928796e-01, 3.56928796e-01, 3.95918369e-01, 2.42206365e-01,
          4.23010409e-01, 4.23010409e-01, 2.40957379e-01, 0.,
          8.09163228e-02, 4.23010409e-01, 4.23010409e-01, 3.38006288e-01,
          3.38006288e-01, 3.38006288e-01, 3.24190140e-01, 3.02961618e-01,
          3.38006288e-01, 3.38006288e-01, 3.38006288e-01, 3.38006288e-01,
          3.75383943e-01, 3.75383943e-01, 3.33008766e-01, 2.62469858e-01,
          2.89166331e-01, 1.68171912e-01, 3.75383943e-01, 3.75383943e-01,
          3.75383943e-01, 3.58701974e-01, 3.58701974e-01, 3.58701974e-01,
          3.58701974e-01, 1.91026658e-01, 2.87388206e-01, 3.58701974e-01,
          3.58701974e-01, 3.24546248e-01, 3.27338725e-01, 1.17669277e-01,
          1.67325154e-01, 4.41354841e-01, 4.41354841e-01, 4.41354841e-01,
          2.35855412e-02, 2.58581042e-01, 4.41354841e-01, 2.58946240e-01,
          1.60561129e-01, 4.72356603e-02, 4.56471294e-01, 4.56471294e-01,
          4.56471294e-01, 4.77693789e-02, 2.89848447e-01, 4.34723049e-01,
          4.65357989e-01, 3.16257238e-01, 5.04706204e-02, 1.94289997e-01,
          4.65357989e-01, 4.65357989e-01, 2.93960512e-01, 6.47562593e-02,
          3.38758022e-01 ]
      - [ 4.13736254e-01, 4.13736254e-01, 1.12767823e-01, 1.58628391e-04,
          2.82728113e-02, 4.13736254e-01, 4.13736254e-01, 3.55615646e-01,
          4.13736254e-01, 3.68766278e-01, 3.68766278e-01, 3.68766278e-01,
          3.68766278e-01, 4.01567630e-02, 2.06840798e-01, 3.68766278e-01,
          3.68766278e-01, 3.68766278e-01, 4.19203520e-01, 2.98418909e-01,
          4.19203520e-01, 4.19203520e-01, 4.73626815e-02, 9.47504886e-04,
          1.60799205e-01, 4.19203520e-01, 4.19203520e-01, 3.42006415e-01,
          3.42006415e-01, 3.42006415e-01, 3.42006415e-01, 2.46648818e-01,
          3.42006415e-01, 3.42006415e-01, 3.42006415e-01, 3.42006415e-01,
          4.01999146e-01, 4.01999146e-01, 1.65771052e-01, 4.01999146e-01,
          3.37489277e-01, 1.83921576e-01, 1.12965249e-01, 4.01999146e-01,
          4.01999146e-01, 3.55501205e-01, 3.55501205e-01, 3.55501205e-01,
          3.55501205e-01, 1.48462594e-01, 3.55501205e-01, 3.55501205e-01,
          3.55501205e-01, 2.99565345e-01, 1.29295975e-01, 3.18213366e-02,
          1.75338596e-01, 5.49816728e-01, 5.49816728e-01, 5.49816728e-01,
          2.09686975e-03, 5.73258549e-02, 1.89340532e-01, 1.43517941e-01,
          4.78737503e-02, 2.02308944e-03, 5.53462088e-01, 5.53462088e-01,
          5.53462088e-01, 2.89119524e-03, 1.18645102e-01, 1.96300060e-01,
          2.41390720e-01, 1.36388302e-01, 9.65617131e-03, 2.60070652e-01,
          5.82952499e-01, 5.82952499e-01, 3.89700353e-01, 3.23867351e-02,
          1.30365506e-01 ]
      - [ 4.12799984e-01, 4.12799984e-01, 1.15683623e-01, 1.33537804e-04,
          3.18701528e-02, 4.12799984e-01, 4.12799984e-01, 3.59803885e-01,
          4.12799984e-01, 3.69147032e-01, 3.69147032e-01, 3.69147032e-01,
          3.69147032e-01, 3.22455429e-02, 2.03433976e-01, 3.69147032e-01,
          3.69147032e-01, 3.69147032e-01, 4.18724209e-01, 3.04627031e-01,
          4.18724209e-01, 4.18724209e-01, 5.09451404e-02, 1.16630422e-03,
          1.54184237e-01, 4.18724209e-01, 4.18724209e-01, 3.41744870e-01,
          3.41744870e-01, 3.41744870e-01, 3.41744870e-01, 2.49537736e-01,
          3.41744870e-01, 3.41744870e-01, 3.41744870e-01, 3.41744870e-01,
          4.01888043e-01, 4.01888043e-01, 1.64816350e-01, 4.01888043e-01,
          3.41287941e-01, 1.80116728e-01, 1.11046053e-01, 4.01888043e-01,
          4.01888043e-01, 3.55777591e-01, 3.55777591e-01, 3.55777591e-01,
          3.55777591e-01, 1.52674556e-01, 3.55777591e-01, 3.55777591e-01,
          3.55777591e-01, 2.95113415e-01, 1.28432438e-01, 3.19402143e-02,
          1.76356509e-01, 5.49806237e-01, 5.49806237e-01, 5.49806237e-01,
          2.73326784e-03, 5.79955988e-02, 1.88841686e-01, 1.42835379e-01,
          4.80849668e-02, 2.11712974e-03, 5.53233802e-01, 5.53233802e-01,
          5.53233802e-01, 3.05424584e-03, 1.20685101e-01, 1.97432697e-01,
          2.43700862e-01, 1.36524498e-01, 1.00580202e-02, 2.72874504e-01,
          5.80066979e-01, 5.80066979e-01, 3.88546258e-01, 3.22652757e-02,
          1.29044175e-01 ]
      - [ 4.10458386e-01, 4.10458386e-01, 4.49569225e-02, 0.,
          4.59551113e-03, 4.10458386e-01, 4.10458386e-01, 3.89200389e-01,
          4.10458386e-01, 3.52925748e-01, 3.52925748e-01, 3.52925748e-01,
          3.52925748e-01, 4.60611749e-03, 3.52925748e-01, 3.52925748e-01,
          3.52925748e-01, 3.52925748e-01, 4.15562123e-01, 3.38251144e-01,
          4.15562123e-01, 4.15562123e-01, 3.79244069e-04, 0.,
          1.34072155e-01, 4.15562123e-01, 4.15562123e-01, 3.59565645e-01,
          3.59565645e-01, 3.59565645e-01, 2.90112585e-01, 8.50307420e-02,
          3.59565645e-01, 3.59565645e-01, 3.59565645e-01, 3.59565645e-01,
          4.24178988e-01, 4.24178988e-01, 1.52326331e-01, 1.25372216e-01,
          1.72346160e-01, 1.65827587e-01, 4.24178988e-01, 4.24178988e-01,
          4.24178988e-01, 3.07637244e-01, 3.97895128e-01, 3.97895128e-01,
          3.97895128e-01, 2.73926742e-02, 1.79608032e-01, 3.97895128e-01,
          3.97895128e-01, 2.77078062e-01, 2.29426578e-01, 1.06562473e-01,
          2.43249655e-01, 5.93378425e-01, 5.93378425e-01, 1.18558720e-01,
          3.46411467e-02, 2.03193694e-01, 3.31923187e-01, 2.03026906e-01,
          1.53113037e-01, 8.90125427e-03, 5.81612289e-01, 6.84067428e-01,
          9.64414999e-02, 4.97715250e-02, 2.35280588e-01, 2.34674528e-01,
          3.38994861e-01, 3.11657161e-01, 5.69286384e-02, 3.33838910e-01,
          5.02880991e-01, 5.02880991e-01, 3.02170515e-01, 1.10125728e-01,
          2.42955387e-01 ]
      - [ 4.25436705e-01, 4.25436705e-01, 3.01033050e-01, 0., 0.,
          1.21360291e-02, 4.25436705e-01, 4.25436705e-01, 4.25436705e-01,
          4.07414168e-01, 4.07414168e-01, 4.07414168e-01, 3.50507232e-03,
          0., 0., 4.07414168e-01, 4.07414168e-01, 4.07414168e-01,
          3.88602883e-01, 4.02198613e-01, 4.02198613e-01, 1.90134689e-01,
          0., 0., 4.02198613e-01, 4.02198613e-01, 4.02198613e-01,
          3.64272624e-01, 3.93858045e-01, 3.93858045e-01, 2.28272900e-01,
          1.16534039e-01, 1.48530602e-01, 3.93858045e-01, 3.93858045e-01,
          3.93858045e-01, 3.66136879e-01, 3.66136879e-01, 3.66136879e-01,
          2.86569089e-01, 2.32553512e-01, 2.36223564e-01, 3.66136879e-01,
          3.66136879e-01, 3.66136879e-01, 4.12147343e-01, 4.12147343e-01,
          4.12147343e-01, 8.21811631e-02, 1.87607333e-02, 2.24378556e-01,
          4.12147343e-01, 4.12147343e-01, 2.98503041e-01, 1.55120298e-01,
          6.22412413e-02, 3.42821419e-01, 5.09050548e-01, 5.09050548e-01,
          5.09050548e-01, 1.23869210e-01, 1.33791551e-01, 1.97007626e-01,
          1.44848779e-01, 7.15593696e-02, 4.64133888e-01, 4.64133888e-01,
          4.64133888e-01, 4.64133888e-01, 2.06805855e-01, 1.42337307e-01,
          2.11074531e-01, 3.06379467e-01, 1.65065750e-01, 9.83330160e-02,
          4.70225543e-01, 4.70225543e-01, 4.70225543e-01, 4.10345256e-01,
          5.38438372e-02, 1.72916889e-01 ]
      - [ 4.23717946e-01, 4.23717946e-01, 1.22450322e-01, 0.,
          1.53767765e-01, 4.23717946e-01, 4.23717946e-01, 2.43812099e-01,
          4.23717946e-01, 3.69497508e-01, 3.69497508e-01, 3.69497508e-01,
          3.15097511e-01, 1.00972757e-01, 2.60107756e-01, 3.69497508e-01,
          3.69497508e-01, 3.69497508e-01, 3.73734623e-01, 3.73734623e-01,
          3.73734623e-01, 3.73734623e-01, 3.11109543e-01, 0.,
          2.47813940e-01, 3.73734623e-01, 3.73734623e-01, 3.35427225e-01,
          3.35427225e-01, 3.35427225e-01, 3.35427225e-01, 3.10736448e-01,
          3.35427225e-01, 3.35427225e-01, 3.35427225e-01, 3.35427225e-01,
          3.51969719e-01, 3.51969719e-01, 3.51969719e-01, 3.51969719e-01,
          2.72832185e-01, 2.34237239e-01, 3.51969719e-01, 3.51969719e-01,
          3.51969719e-01, 3.46204728e-01, 3.46204728e-01, 3.46204728e-01,
          3.06509316e-01, 2.75134057e-01, 3.46204728e-01, 3.46204728e-01,
          3.46204728e-01, 3.28249723e-01, 3.36306781e-01, 1.48494065e-01,
          1.49340600e-01, 4.73579168e-01, 4.73579168e-01, 4.73579168e-01,
          9.55668837e-02, 2.20191628e-01, 3.27666491e-01, 3.43764812e-01,
          1.10833742e-01, 8.20264667e-02, 4.75014508e-01, 4.75014508e-01,
          4.75014508e-01, 8.35449770e-02, 1.81323171e-01, 3.75891924e-01,
          4.01408821e-01, 1.99795008e-01, 5.82108833e-02, 2.80313939e-01,
          4.81112689e-01, 4.81112689e-01, 4.23234016e-01, 2.33205408e-02,
          2.63768017e-01 ]
      - [ 4.30155754e-01, 4.30155754e-01, 1.40344858e-01, 7.45808706e-03,
          6.89128339e-02, 4.30155754e-01, 4.30155754e-01, 2.14550674e-01,
          4.30155754e-01, 3.66059870e-01, 3.66059870e-01, 3.66059870e-01,
          2.39682809e-01, 7.24669099e-02, 3.60061795e-01, 3.66059870e-01,
          3.66059870e-01, 3.66059870e-01, 3.98606986e-01, 3.98606986e-01,
          3.98606986e-01, 3.98606986e-01, 9.65640470e-02, 0.,
          1.82669595e-01, 3.98606986e-01, 3.98606986e-01, 3.49771559e-01,
          3.49771559e-01, 3.49771559e-01, 3.49771559e-01, 1.33357540e-01,
          3.49771559e-01, 3.49771559e-01, 3.49771559e-01, 3.49771559e-01,
          3.66439700e-01, 3.66439700e-01, 3.66439700e-01, 3.22336704e-01,
          2.29763240e-01, 1.84333012e-01, 3.66439700e-01, 3.66439700e-01,
          3.66439700e-01, 3.55821580e-01, 3.55821580e-01, 3.55821580e-01,
          3.55821580e-01, 1.43221289e-01, 3.46608490e-01, 3.55821580e-01,
          3.55821580e-01, 3.10066223e-01, 3.19801927e-01, 7.99725652e-02,
          3.52226317e-01, 4.38689858e-01, 4.38689858e-01, 4.38689858e-01,
          1.03895232e-01, 1.84166431e-01, 3.75270396e-01, 3.29171836e-01,
          1.16782390e-01, 1.01740561e-01, 4.61193889e-01, 4.61193889e-01,
          4.61193889e-01, 1.03126451e-01, 2.39535764e-01, 3.96154165e-01,
          5.04871547e-01, 1.94438875e-01, 9.94416326e-02, 1.35976210e-01,
          5.04871547e-01, 5.04871547e-01, 3.02668184e-01, 7.73542821e-02,
          2.57867217e-01 ]
      - [ 4.14507955e-01, 4.14507955e-01, 3.61220576e-02, 0., 0.,
          4.14507955e-01, 4.14507955e-01, 3.68062705e-01, 4.14507955e-01,
          4.31478262e-01, 4.31478262e-01, 1.57935068e-01, 0., 0.,
          1.99696884e-01, 4.31478262e-01, 4.31478262e-01, 4.31478262e-01,
          4.31239575e-01, 4.31239575e-01, 4.31239575e-01, 7.62425037e-03,
          0., 0., 2.56507874e-01, 4.31239575e-01, 4.31239575e-01,
          3.40894878e-01, 3.40894878e-01, 3.09267849e-01, 3.40894878e-01,
          2.95773864e-01, 3.40894878e-01, 3.40894878e-01, 3.40894878e-01,
          3.40894878e-01, 3.94520730e-01, 3.94520730e-01, 6.49541616e-02,
          3.94520730e-01, 3.94520730e-01, 2.31521755e-01, 6.60140812e-02,
          3.94520730e-01, 3.94520730e-01, 3.81874055e-01, 3.81874055e-01,
          3.81874055e-01, 3.12186461e-02, 1.69536799e-01, 3.81874055e-01,
          3.81874055e-01, 3.81874055e-01, 3.02491128e-01, 2.42689580e-01,
          6.46165386e-02, 1.57327145e-01, 5.08008182e-01, 5.08008182e-01,
          5.08008182e-01, 6.26487564e-03, 1.45053625e-01, 3.34371686e-01,
          2.25431144e-01, 8.44017640e-02, 7.74197578e-02, 5.18289745e-01,
          5.18289745e-01, 5.13051033e-01, 8.12875293e-03, 2.28887975e-01,
          2.79215604e-01, 4.50923473e-01, 2.69441962e-01, 2.79553123e-02,
          1.38442770e-01, 5.54292738e-01, 5.54292738e-01, 1.69457898e-01,
          7.08807409e-02, 2.24421218e-01 ]
      - [ 4.00126189e-01, 4.00126189e-01, 1.63885504e-01, 5.56561500e-02,
          7.37626478e-02, 4.00126189e-01, 4.00126189e-01, 4.00126189e-01,
          4.00126189e-01, 3.71203035e-01, 3.71203035e-01, 3.71203035e-01,
          1.79088026e-01, 2.64192790e-01, 2.60136098e-01, 3.71203035e-01,
          3.71203035e-01, 3.71203035e-01, 4.16056693e-01, 4.16056693e-01,
          4.16056693e-01, 3.97787131e-02, 8.86587892e-03, 1.63703207e-02,
          3.58327925e-01, 4.16056693e-01, 4.16056693e-01, 3.41593772e-01,
          3.41593772e-01, 3.41593772e-01, 3.41593772e-01, 2.51190305e-01,
          3.41593772e-01, 3.41593772e-01, 3.41593772e-01, 3.41593772e-01,
          3.79029483e-01, 3.79029483e-01, 2.81936228e-02, 3.79029483e-01,
          3.79029483e-01, 1.66881457e-01, 3.24944794e-01, 3.79029483e-01,
          3.79029483e-01, 3.96327168e-01, 3.96327168e-01, 3.96327168e-01,
          4.61605117e-02, 2.21303865e-01, 3.96327168e-01, 3.96327168e-01,
          2.67955989e-01, 2.96240032e-01, 2.76552826e-01, 1.26102477e-01,
          3.17720562e-01, 4.57989842e-01, 4.57989842e-01, 4.57989842e-01,
          5.08851297e-02, 1.90951720e-01, 3.65759075e-01, 2.60687053e-01,
          1.78391263e-01, 2.58754771e-02, 4.91665035e-01, 4.91665035e-01,
          4.60003674e-01, 6.99007362e-02, 2.03200802e-01, 3.91649842e-01,
          4.73849088e-01, 2.54614532e-01, 1.77809931e-02, 1.00256257e-01,
          5.14528155e-01, 5.14528155e-01, 3.17209274e-01, 6.01468757e-02,
          2.47819528e-01 ]
      - [ 4.06949103e-01, 4.06949103e-01, 4.39337678e-02, 7.89497979e-03,
          1.72308274e-02, 4.06949103e-01, 4.06949103e-01, 4.06949103e-01,
          4.06949103e-01, 4.10441071e-01, 4.10441071e-01, 2.04581454e-01,
          2.85137873e-02, 1.07598953e-01, 3.15192610e-01, 4.10441071e-01,
          4.10441071e-01, 4.10441071e-01, 4.09628600e-01, 4.09628600e-01,
          4.09628600e-01, 1.44870535e-01, 1.01374760e-02, 9.60464776e-03,
          3.68439466e-01, 4.09628600e-01, 4.09628600e-01, 3.37750971e-01,
          3.37750971e-01, 3.37750971e-01, 3.37750971e-01, 2.89861679e-01,
          3.37750971e-01, 3.37750971e-01, 3.37750971e-01, 3.37750971e-01,
          4.15579885e-01, 4.15579885e-01, 1.51745370e-02, 2.99095273e-01,
          4.15579885e-01, 1.13806754e-01, 1.72264487e-01, 4.15579885e-01,
          4.15579885e-01, 3.70649070e-01, 3.70649070e-01, 3.70649070e-01,
          1.69088557e-01, 2.41475642e-01, 3.70649070e-01, 3.70649070e-01,
          3.70649070e-01, 2.91738331e-01, 2.68730640e-01, 6.20713979e-02,
          1.86979771e-01, 5.01922250e-01, 5.01922250e-01, 5.01922250e-01,
          2.24282183e-02, 1.91268891e-01, 3.01814646e-01, 2.20435783e-01,
          1.08155474e-01, 1.56327020e-04, 5.51192403e-01, 5.51192403e-01,
          2.53398150e-01, 1.28859142e-02, 3.04929733e-01, 4.11364973e-01,
          4.82233346e-01, 3.47391903e-01, 1.14906831e-02, 8.07582438e-02,
          4.99182701e-01, 4.99182701e-01, 2.32305482e-01, 7.29473382e-02,
          2.78345972e-01 ]
      - [ 4.04908955e-01, 4.04908955e-01, 9.66461599e-02, 1.94158535e-02,
          5.02992421e-02, 4.04908955e-01, 4.04908955e-01, 4.04908955e-01,
          4.04908955e-01, 3.61772656e-01, 3.61772656e-01, 3.61772656e-01,
          2.16183454e-01, 2.80074537e-01, 2.93141395e-01, 3.61772656e-01,
          3.61772656e-01, 3.61772656e-01, 3.90668571e-01, 3.90668571e-01,
          3.90668571e-01, 2.81938076e-01, 2.35248953e-02, 1.79760642e-02,
          3.90668571e-01, 3.90668571e-01, 3.90668571e-01, 3.37656826e-01,
          3.37656826e-01, 3.37656826e-01, 2.90739119e-01, 3.37656826e-01,
          3.37656826e-01, 3.37656826e-01, 3.37656826e-01, 3.37656826e-01,
          3.84000182e-01, 3.84000182e-01, 2.59495586e-01, 3.78835559e-01,
          3.84000182e-01, 1.22961633e-01, 1.81408674e-01, 3.84000182e-01,
          3.84000182e-01, 3.80010456e-01, 3.80010456e-01, 3.80010456e-01,
          2.30417475e-01, 1.86481714e-01, 3.80010456e-01, 3.80010456e-01,
          2.87283123e-01, 3.22125137e-01, 2.08980307e-01, 1.68504223e-01,
          2.15084225e-01, 4.64884192e-01, 4.64884192e-01, 4.64884192e-01,
          9.67715234e-02, 2.49185428e-01, 3.96508276e-01, 2.58638322e-01,
          1.27515554e-01, 5.90797216e-02, 5.28682292e-01, 5.28682292e-01,
          3.83068293e-01, 4.65077274e-02, 2.20687091e-01, 3.89176965e-01,
          5.18265188e-01, 2.17709363e-01, 7.84049258e-02, 1.55443624e-01,
          5.18265188e-01, 5.18265188e-01, 1.88342258e-01, 5.86778671e-02,
          2.69080490e-01 ]
      - [ 4.04162794e-01, 4.04162794e-01, 2.53825814e-01, 0., 0.,
          3.38817358e-01, 4.04162794e-01, 4.04162794e-01, 4.04162794e-01,
          4.04719681e-01, 4.04719681e-01, 4.04719681e-01, 1.02255374e-01,
          0., 5.20819426e-02, 4.04719681e-01, 4.04719681e-01,
          4.04719681e-01, 4.01189327e-01, 3.83708388e-01, 4.01189327e-01,
          3.10121775e-01, 0., 0., 3.29807490e-01, 4.01189327e-01,
          4.01189327e-01, 3.33325714e-01, 3.93243134e-01, 3.93243134e-01,
          3.47110629e-01, 7.33647346e-02, 2.36821681e-01, 3.93243134e-01,
          3.93243134e-01, 2.90606588e-01, 3.72387975e-01, 3.72387975e-01,
          3.65733206e-01, 2.73274422e-01, 2.32231557e-01, 2.01356649e-01,
          3.72387975e-01, 3.72387975e-01, 3.72387975e-01, 3.48598450e-01,
          4.08390492e-01, 4.08390492e-01, 1.33106738e-01, 4.04881649e-02,
          4.08390492e-01, 4.08390492e-01, 4.08390492e-01, 1.45357862e-01,
          2.92300731e-01, 1.51782438e-01, 4.15458500e-01, 4.15458500e-01,
          4.15458500e-01, 4.15458500e-01, 1.14935607e-01, 3.06820750e-01,
          2.99332440e-01, 2.91691542e-01, 1.83696479e-01, 1.58621460e-01,
          4.46530879e-01, 4.46530879e-01, 4.46530879e-01, 1.16858736e-01,
          3.42485785e-01, 3.49897683e-01, 4.53208417e-01, 3.58705491e-01,
          7.94866756e-02, 2.11336508e-01, 4.53208417e-01, 4.53208417e-01,
          3.76013607e-01, 8.45850706e-02, 2.26025835e-01 ]
      - [ 4.25517291e-01, 4.25517291e-01, 2.84442693e-01, 0.,
          1.15115428e-04, 9.75551307e-02, 4.25517291e-01, 4.25517291e-01,
          4.25517291e-01, 4.29811627e-01, 4.29811627e-01, 2.68358439e-01,
          0., 0., 0., 4.29811627e-01, 4.29811627e-01, 4.29811627e-01,
          4.27938938e-01, 4.27938938e-01, 4.27938938e-01, 7.73164332e-02,
          2.30279198e-04, 0., 2.72192389e-01, 4.27938938e-01,
          4.27938938e-01, 3.81814182e-01, 3.81814182e-01, 3.81814182e-01,
          1.97912827e-01, 1.66187719e-01, 2.33891711e-01, 3.81814182e-01,
          3.81814182e-01, 3.81814182e-01, 3.24775726e-01, 3.59529465e-01,
          3.59529465e-01, 3.59529465e-01, 1.79704487e-01, 2.88212627e-01,
          3.59529465e-01, 3.59529465e-01, 3.59529465e-01, 3.99923980e-01,
          3.99923980e-01, 3.99923980e-01, 5.75692579e-02, 6.31225035e-02,
          2.90289730e-01, 3.99923980e-01, 3.99923980e-01, 3.23638797e-01,
          2.13711724e-01, 5.85134290e-02, 2.11039454e-01, 5.21572232e-01,
          5.21572232e-01, 5.21572232e-01, 1.36825979e-01, 8.35745409e-02,
          2.43594348e-01, 1.29737332e-01, 4.90060635e-02, 4.58389342e-01,
          4.58389342e-01, 4.58389342e-01, 4.58389342e-01, 2.48561382e-01,
          1.70333728e-01, 2.11916760e-01, 3.62640381e-01, 2.11660936e-01,
          5.63574173e-02, 3.73276144e-01, 5.12903512e-01, 5.12903512e-01,
          3.19952905e-01, 5.88951893e-02, 2.09951103e-01 ]
      - [ 4.19965088e-01, 4.19965088e-01, 3.29544127e-01, 1.40922915e-04,
          2.89495601e-05, 7.31571764e-02, 4.19965088e-01, 4.19965088e-01,
          4.19965088e-01, 4.07416195e-01, 4.07416195e-01, 4.07416195e-01,
          1.48698920e-03, 0., 0., 4.07416195e-01, 4.07416195e-01,
          4.07416195e-01, 4.06413078e-01, 4.06413078e-01, 4.06413078e-01,
          7.43144080e-02, 2.29926387e-04, 0., 4.05659020e-01,
          4.06413078e-01, 4.06413078e-01, 3.67373735e-01, 3.67373735e-01,
          3.67373735e-01, 2.53471226e-01, 2.79610276e-01, 2.10045770e-01,
          3.67373735e-01, 3.67373735e-01, 3.67373735e-01, 3.44336808e-01,
          3.44336808e-01, 3.44336808e-01, 3.44336808e-01, 2.83049643e-01,
          2.94054031e-01, 3.44336808e-01, 3.44336808e-01, 3.44336808e-01,
          3.78267258e-01, 3.78267258e-01, 3.78267258e-01, 8.33687633e-02,
          7.20959082e-02, 3.54338735e-01, 3.78267258e-01, 3.78267258e-01,
          3.78267258e-01, 1.87636703e-01, 4.50051427e-02, 2.32086286e-01,
          5.25050163e-01, 5.25050163e-01, 5.25050163e-01, 5.28123751e-02,
          8.52836743e-02, 2.57999808e-01, 1.42468259e-01, 5.67492172e-02,
          4.72869605e-01, 4.72869605e-01, 4.72869605e-01, 4.72869605e-01,
          1.46267980e-01, 1.30908921e-01, 1.96990073e-01, 3.15319628e-01,
          1.57503173e-01, 6.04691468e-02, 4.20185715e-01, 5.18625915e-01,
          5.18625915e-01, 3.29124957e-01, 4.91029285e-02, 2.04191566e-01 ]
      - [ 6.89692616e-01, 6.89692616e-01, 4.31425811e-04, 0.,
          5.29130772e-02, 1.66559964e-01, 9.70745981e-02, 1.96282957e-02,
          3.75801213e-02, 5.14818788e-01, 5.14818788e-01, 6.90512955e-02,
          1.12935126e-01, 4.52338040e-01, 3.10595632e-01, 2.22914279e-01,
          1.60229504e-01, 2.66112059e-01, 4.90105540e-01, 1.13063022e-01,
          7.83271864e-02, 7.42454156e-02, 9.78557989e-02, 1.68739893e-02,
          4.90105540e-01, 4.90105540e-01, 4.90105540e-01, 4.96798813e-01,
          4.96798813e-01, 2.03882635e-01, 2.77470469e-01, 4.96798813e-01,
          1.54905364e-01, 2.44821742e-01, 1.60927519e-01, 1.61932111e-01,
          3.68492246e-01, 3.68492246e-01, 2.02729672e-01, 3.15194696e-01,
          3.68492246e-01, 3.68492246e-01, 3.37002099e-01, 2.51730740e-01,
          3.68492246e-01, 3.27512652e-01, 1.93317682e-01, 1.65010825e-01,
          1.13644905e-01, 4.08303082e-01, 3.79862577e-01, 4.08303082e-01,
          4.08303082e-01, 4.08303082e-01, 3.28440107e-02, 8.61138701e-02,
          1.56472743e-01, 5.46110690e-01, 8.11447084e-01, 2.27094516e-02,
          5.84282540e-03, 1.86023880e-02, 3.66717428e-02, 1.50528729e-01,
          1.70389023e-02, 5.41967154e-01, 5.41967154e-01, 5.41967154e-01,
          2.44681656e-01, 1.32284626e-01, 1.89453121e-02, 1.12809516e-01,
          3.13447006e-02, 4.76809824e-03, 2.28899226e-01, 4.47582304e-01,
          4.88855422e-01, 4.88855422e-01, 4.88855422e-01, 7.40403384e-02,
          1.37719080e-01 ]
      - [ 6.00947201e-01, 6.00947201e-01, 7.79822993e-04, 1.11819175e-03,
          1.94536690e-02, 5.20668864e-01, 1.41346501e-02, 0.,
          6.95606228e-03, 5.01833856e-01, 5.01833856e-01, 2.66643167e-01,
          1.15510792e-01, 3.49516541e-01, 5.01833856e-01, 1.48553178e-01,
          7.50948712e-02, 7.18737841e-02, 3.91390324e-01, 2.71546751e-01,
          3.52749497e-01, 1.13998406e-01, 1.66980341e-01, 1.90339968e-01,
          4.84305829e-01, 4.84305829e-01, 3.12401742e-01, 4.26361769e-01,
          4.26361769e-01, 7.26761222e-02, 1.60642952e-01, 4.26361769e-01,
          4.26361769e-01, 2.85178602e-01, 1.85224921e-01, 3.49113971e-01,
          3.86152476e-01, 3.86152476e-01, 3.86152476e-01, 1.01306923e-01,
          3.86152476e-01, 3.86152476e-01, 2.82682925e-01, 1.06240548e-01,
          3.86152476e-01, 3.34046066e-01, 3.77559990e-01, 4.17066008e-01,
          4.67314832e-02, 1.08778872e-01, 1.78612620e-01, 4.17066008e-01,
          4.17066008e-01, 4.17066008e-01, 2.10526079e-01, 1.19994886e-01,
          1.03892647e-01, 6.53533876e-01, 6.53533876e-01, 6.65214211e-02,
          7.05873966e-02, 8.66317451e-02, 2.29860485e-01, 3.44404161e-01,
          2.29480639e-01, 4.73619759e-01, 4.73619759e-01, 4.73619759e-01,
          1.32117271e-01, 1.66540802e-01, 3.63817029e-02, 3.23314577e-01,
          2.22257271e-01, 1.74903676e-01, 3.91964257e-01, 2.69044548e-01,
          3.91964257e-01, 3.91964257e-01, 3.91964257e-01, 2.74826765e-01,
          3.91964257e-01 ]
      - [ 6.34210885e-01, 6.34210885e-01, 8.39561981e-04, 0.,
          1.07721351e-01, 4.14307714e-01, 6.91879466e-02, 2.18978908e-04,
          3.43314037e-02, 4.83199209e-01, 4.83199209e-01, 2.07425579e-01,
          1.05482921e-01, 3.75301301e-01, 4.83199209e-01, 8.74723271e-02,
          8.66101012e-02, 2.90815413e-01, 4.42034334e-01, 1.75938264e-01,
          3.32439750e-01, 1.12628981e-01, 1.30749732e-01, 2.06775054e-01,
          4.42034334e-01, 4.42034334e-01, 4.42034334e-01, 4.17166859e-01,
          4.17166859e-01, 1.31238848e-01, 3.21878165e-01, 4.17166859e-01,
          4.12099957e-01, 2.76269257e-01, 1.85468763e-01, 2.69015342e-01,
          3.94284099e-01, 3.60193253e-01, 3.94284099e-01, 1.82720557e-01,
          3.94284099e-01, 3.94284099e-01, 2.11768150e-01, 1.03873387e-01,
          3.94284099e-01, 2.73930937e-01, 2.81912297e-01, 3.79327565e-01,
          1.21931270e-01, 3.79327565e-01, 3.27694207e-01, 3.79327565e-01,
          3.79327565e-01, 3.79327565e-01, 1.38507158e-01, 2.84529235e-02,
          8.36799368e-02, 6.84922338e-01, 6.94186926e-01, 6.78890012e-03,
          3.37339789e-02, 6.62468150e-02, 9.74026546e-02, 2.08890170e-01,
          7.87472501e-02, 5.06557226e-01, 5.06557226e-01, 5.06557226e-01,
          2.97769338e-01, 1.76182166e-01, 2.58429758e-02, 2.34370068e-01,
          6.64126649e-02, 6.50200844e-02, 4.25351351e-01, 4.25351351e-01,
          4.25351351e-01, 4.25351351e-01, 4.25351351e-01, 1.32852986e-01,
          2.54644841e-01 ]
      - [ 6.36728525e-01, 6.36728525e-01, 2.42882734e-03, 6.50398317e-04,
          1.52302012e-01, 3.99015695e-01, 2.02903198e-03, 2.70632125e-04,
          1.94006898e-02, 4.62728649e-01, 4.62728649e-01, 1.57780617e-01,
          7.73314759e-02, 3.99293035e-01, 4.62728649e-01, 8.12185481e-02,
          1.22533984e-01, 3.75637949e-01, 4.79789823e-01, 7.38650039e-02,
          2.14500949e-01, 6.86579794e-02, 1.25769287e-01, 4.91539352e-02,
          4.79789823e-01, 4.79789823e-01, 4.79789823e-01, 4.14065331e-01,
          4.14065331e-01, 1.61280781e-01, 6.11666963e-02, 4.14065331e-01,
          4.14065331e-01, 3.12053442e-01, 1.07158735e-01, 4.14065331e-01,
          3.97410542e-01, 3.97410542e-01, 3.97410542e-01, 1.23221673e-01,
          3.97410542e-01, 3.97410542e-01, 1.57308489e-01, 9.21392441e-02,
          3.97410542e-01, 3.14042538e-01, 2.70088553e-01, 4.21000928e-01,
          6.53193668e-02, 2.69658029e-01, 1.15876168e-01, 4.30687904e-01,
          4.30687904e-01, 4.30687904e-01, 1.29245251e-01, 8.31215009e-02,
          2.45027244e-01, 3.83287728e-01, 7.88284421e-01, 3.12097490e-01,
          5.21630645e-02, 3.08985207e-02, 1.97733983e-01, 2.91771382e-01,
          3.51782851e-02, 4.47748274e-01, 5.58719099e-01, 5.58719099e-01,
          1.17268465e-01, 9.10799503e-02, 1.03483181e-02, 2.47154742e-01,
          7.90869445e-02, 2.03624982e-02, 2.78864533e-01, 4.48629856e-01,
          4.48629856e-01, 4.48629856e-01, 4.48629856e-01, 1.76182702e-01,
          2.73804039e-01 ]
      - [ 5.74223518e-01, 5.74223518e-01, 3.52073158e-03, 9.41960432e-04,
          8.87728930e-02, 5.71583748e-01, 1.45932951e-03, 2.08797189e-03,
          1.38653452e-02, 4.72793907e-01, 4.72793907e-01, 2.74712026e-01,
          9.96036381e-02, 3.88894737e-01, 4.72793907e-01, 2.00250179e-01,
          1.52572989e-01, 1.57067180e-01, 4.44637448e-01, 1.84064537e-01,
          3.93724859e-01, 8.95465016e-02, 1.53556213e-01, 1.06807657e-01,
          4.44637448e-01, 4.44637448e-01, 4.12972569e-01, 4.38414961e-01,
          4.38414961e-01, 4.13115695e-02, 8.99145305e-02, 4.38414961e-01,
          4.38414961e-01, 1.37163073e-01, 7.73124024e-02, 4.38414961e-01,
          3.91323000e-01, 3.91323000e-01, 3.91323000e-01, 9.54299793e-02,
          3.91323000e-01, 3.91323000e-01, 2.46610135e-01, 8.58200341e-02,
          3.91323000e-01, 4.02384520e-01, 2.89300740e-01, 4.02384520e-01,
          4.54940125e-02, 2.95670986e-01, 1.15011178e-01, 4.02384520e-01,
          4.02384520e-01, 4.02384520e-01, 4.10775542e-01, 4.46376391e-02,
          5.34786656e-02, 4.05933589e-01, 7.35020339e-01, 9.64614749e-02,
          4.83218022e-02, 4.59071361e-02, 3.16686273e-01, 3.49918187e-01,
          5.24033010e-02, 4.46094185e-01, 4.96893227e-01, 4.96893227e-01,
          1.22112632e-01, 1.28043830e-01, 1.09737916e-02, 3.81596029e-01,
          2.24018410e-01, 4.67753336e-02, 3.31515402e-01, 3.01956952e-01,
          4.33312863e-01, 4.33312863e-01, 4.33312863e-01, 1.02772325e-01,
          4.10337299e-01 ]
      - [ 6.82591379e-01, 6.82591379e-01, 0., 0., 3.76249552e-02,
          2.43998230e-01, 1.72511078e-02, 0., 8.68924521e-03,
          5.61338127e-01, 5.61338127e-01, 2.52728425e-02, 1.69769913e-01,
          3.13595951e-01, 2.23156333e-01, 1.46610051e-01, 2.59624422e-01,
          3.12557846e-01, 4.93464917e-01, 1.06515557e-01, 1.91312153e-02,
          8.20652172e-02, 4.89587970e-02, 1.40618859e-02, 4.93464917e-01,
          4.93464917e-01, 4.93464917e-01, 5.05849302e-01, 5.05849302e-01,
          7.66994134e-02, 9.40923914e-02, 2.88194329e-01, 4.31066513e-01,
          3.61268073e-01, 2.16930196e-01, 1.48314103e-01, 3.43520463e-01,
          3.43520463e-01, 3.19688320e-01, 3.43520463e-01, 3.43520463e-01,
          3.43520463e-01, 3.43520463e-01, 2.61386722e-01, 3.43520463e-01,
          2.01840550e-01, 2.64987856e-01, 2.79629380e-01, 2.37500891e-01,
          9.08508897e-02, 9.12616104e-02, 4.94275063e-01, 4.94275063e-01,
          4.94275063e-01, 2.17417181e-01, 2.21257657e-01, 1.68807477e-01,
          6.45003259e-01, 6.45003259e-01, 2.61532124e-02, 6.91353455e-02,
          1.10481545e-01, 1.38243094e-01, 4.59818274e-01, 1.68962702e-01,
          3.74797210e-02, 4.97113228e-01, 4.97113228e-01, 1.28626555e-01,
          5.10680676e-02, 1.17885582e-01, 4.75769103e-01, 1.27357483e-01,
          7.45335445e-02, 1.93641204e-02, 3.67301583e-01, 4.36894506e-01,
          4.36894506e-01, 2.73985416e-01, 4.36894506e-01, 4.36894506e-01 ]
      - [ 6.54713869e-01, 6.54713869e-01, 0., 0., 2.96112187e-02,
          3.65030855e-01, 4.41285595e-02, 0., 9.56191123e-03,
          4.57488835e-01, 4.57488835e-01, 1.26514763e-01, 1.81551471e-01,
          3.12442094e-01, 3.43748689e-01, 1.96642965e-01, 4.57488835e-01,
          2.53226668e-01, 3.88520151e-01, 1.26646325e-01, 9.27052870e-02,
          7.54786432e-02, 5.20597100e-02, 3.49229085e-04, 5.52316964e-01,
          5.52316964e-01, 4.47646737e-01, 4.30066794e-01, 4.30066794e-01,
          1.07365578e-01, 1.77993849e-01, 4.30066794e-01, 4.12382364e-01,
          3.39560926e-01, 2.60369569e-01, 2.10877493e-01, 3.32778692e-01,
          3.32778692e-01, 3.32778692e-01, 3.32778692e-01, 3.32778692e-01,
          3.32778692e-01, 3.32778692e-01, 3.32778692e-01, 3.32778692e-01,
          1.00205064e-01, 2.13718012e-01, 3.31626981e-01, 9.86592695e-02,
          1.32405981e-01, 1.03535905e-01, 5.13547599e-01, 5.13547599e-01,
          5.13547599e-01, 1.14760064e-01, 1.21171460e-01, 1.41934216e-01,
          6.62965894e-01, 6.62965894e-01, 2.19156712e-01, 3.39204371e-02,
          7.28669316e-02, 1.08840972e-01, 3.32854480e-01, 1.10679515e-01,
          7.30782747e-02, 5.73034763e-01, 5.73034763e-01, 3.49405766e-01,
          2.76551060e-02, 8.17681402e-02, 2.82174647e-01, 2.93634385e-02,
          2.58131176e-02, 2.08979603e-02, 4.00041580e-01, 4.48969126e-01,
          4.48969126e-01, 2.86301643e-01, 3.83181870e-01, 4.48969126e-01 ]
      - [ 6.88367367e-01, 6.88367367e-01, 4.96266875e-04, 3.13705439e-03,
          1.02624729e-01, 1.86412424e-01, 0., 0., 1.17253540e-02,
          5.02985179e-01, 5.02985179e-01, 7.57014658e-03, 1.21372469e-01,
          2.74120361e-01, 1.28742054e-01, 1.85471192e-01, 3.08365881e-01,
          5.02985179e-01, 4.96024460e-01, 7.21188262e-02, 5.96252782e-03,
          5.79826646e-02, 3.81056368e-02, 2.88822521e-02, 4.96024460e-01,
          4.96024460e-01, 4.96024460e-01, 4.74225491e-01, 4.74225491e-01,
          6.80525303e-02, 5.58119863e-02, 3.04074764e-01, 4.74225491e-01,
          2.90985882e-01, 2.98764229e-01, 2.15530500e-01, 3.57583255e-01,
          3.57583255e-01, 2.28431374e-01, 3.57583255e-01, 3.57583255e-01,
          3.57583255e-01, 3.57583255e-01, 2.54285842e-01, 3.35246831e-01,
          3.89742881e-01, 2.11175069e-01, 1.79768935e-01, 2.05344468e-01,
          1.04810819e-01, 1.24872498e-01, 4.82226610e-01, 4.82226610e-01,
          4.82226610e-01, 2.20106810e-01, 2.24089876e-01, 1.80417180e-01,
          5.72914302e-01, 6.57884717e-01, 6.52927607e-02, 8.10073540e-02,
          1.68250456e-01, 2.49081969e-01, 5.06687999e-01, 1.91885307e-01,
          2.31115930e-02, 5.06687999e-01, 5.06687999e-01, 1.84081972e-01,
          3.38298231e-02, 1.00338347e-01, 3.77212077e-01, 2.19395369e-01,
          5.53867742e-02, 1.29441591e-02, 2.21159130e-01, 4.84698057e-01,
          4.84698057e-01, 2.88811475e-01, 3.26602638e-01, 4.84698057e-01 ]
      - [ 6.74145758e-01, 6.74145758e-01, 5.96812053e-04, 0.,
          6.44952208e-02, 2.76961952e-01, 9.77150910e-03, 0.,
          5.79788648e-02, 4.96652901e-01, 4.96652901e-01, 6.32354757e-03,
          1.44537628e-01, 3.92136663e-01, 2.49574259e-01, 9.45009142e-02,
          1.89401075e-01, 4.68955010e-01, 4.85282809e-01, 1.33466497e-01,
          1.43200532e-02, 1.28736481e-01, 1.30635455e-01, 3.87069136e-02,
          4.85282809e-01, 4.85282809e-01, 4.85282809e-01, 4.84503239e-01,
          4.84503239e-01, 8.95024836e-02, 2.25627601e-01, 4.29701716e-01,
          3.54569972e-01, 2.32698992e-01, 2.38774627e-01, 2.12673277e-01,
          3.76535505e-01, 3.76535505e-01, 4.26869579e-02, 3.76535505e-01,
          3.76535505e-01, 3.76535505e-01, 2.57071525e-01, 2.78668821e-01,
          3.76535505e-01, 3.69979501e-01, 2.72411764e-01, 9.04740468e-02,
          3.28215927e-01, 2.53461123e-01, 1.21058352e-01, 4.43346977e-01,
          4.43346977e-01, 4.43346977e-01, 2.21718788e-01, 1.23251781e-01,
          1.20874658e-01, 6.64213955e-01, 6.64213955e-01, 9.13208202e-02,
          3.71637642e-02, 8.07977915e-02, 1.25692964e-01, 4.51538652e-01,
          7.11335316e-02, 1.44190888e-03, 5.59242189e-01, 5.59242189e-01,
          1.55612826e-01, 2.04819441e-02, 8.52678865e-02, 3.57850581e-01,
          1.00460649e-01, 3.48741822e-02, 2.00736430e-03, 3.06238413e-01,
          4.73613173e-01, 4.73613173e-01, 1.82920456e-01, 4.28703547e-01,
          4.73613173e-01 ]
      - [ 6.96207404e-01, 6.96207404e-01, 0., 0., 4.44403216e-02,
          1.36030987e-01, 0., 0., 5.62250651e-02, 5.81165671e-01,
          5.08797646e-01, 4.27387208e-02, 7.18117207e-02, 2.79463142e-01,
          3.12538564e-01, 1.83731034e-01, 1.75729796e-01, 3.87513459e-01,
          4.91895169e-01, 5.65517470e-02, 5.97803369e-02, 7.37414137e-02,
          1.16689779e-01, 3.76538001e-02, 4.91895169e-01, 4.91895169e-01,
          4.91895169e-01, 4.90176648e-01, 4.90176648e-01, 1.72003105e-01,
          1.78630084e-01, 4.90176648e-01, 3.67749691e-01, 1.60474449e-01,
          1.10795818e-01, 1.98804989e-01, 3.94443125e-01, 3.94443125e-01,
          2.13128552e-01, 2.57481188e-01, 3.94443125e-01, 3.94443125e-01,
          2.40427673e-01, 2.20469549e-01, 3.94443125e-01, 4.11240578e-01,
          2.33833194e-01, 2.39254534e-01, 1.54294565e-01, 3.79560977e-01,
          1.99053645e-01, 4.11240578e-01, 4.11240578e-01, 4.11240578e-01,
          2.59455860e-01, 9.75182503e-02, 2.00715110e-01, 6.28567398e-01,
          6.28567398e-01, 2.64965743e-01, 4.74966578e-02, 4.10024002e-02,
          1.10781841e-01, 3.81947517e-01, 7.64478892e-02, 1.14023006e-02,
          5.75688720e-01, 5.75688720e-01, 2.31547028e-01, 2.61277407e-02,
          5.17246462e-02, 3.50123227e-01, 1.51179701e-01, 4.37017046e-02,
          9.61031858e-03, 4.43596900e-01, 4.86462981e-01, 4.86462981e-01,
          3.02073359e-01, 2.16546401e-01, 4.02582318e-01 ]
      - [ 6.27844214e-01, 6.27844214e-01, 1.98223945e-02, 9.40001663e-03,
          2.72250265e-01, 2.22382516e-01, 1.81843922e-01, 3.91839631e-02,
          2.16094345e-01, 4.46441889e-01, 4.46441889e-01, 1.12106062e-01,
          1.19777568e-01, 4.30962771e-01, 3.40219259e-01, 3.87043655e-01,
          2.61949658e-01, 2.23846033e-01, 4.90737736e-01, 2.66033441e-01,
          1.26911849e-01, 7.30489567e-02, 1.09982178e-01, 7.27155358e-02,
          4.90737736e-01, 4.90737736e-01, 4.03767139e-01, 3.76817405e-01,
          3.76817405e-01, 1.51057646e-01, 3.76817405e-01, 3.76817405e-01,
          3.76817405e-01, 3.45192045e-01, 1.13435246e-01, 3.62539709e-01,
          3.47877562e-01, 3.47877562e-01, 3.47877562e-01, 3.47877562e-01,
          3.47877562e-01, 3.47877562e-01, 3.31275523e-01, 1.99121460e-01,
          3.47877562e-01, 3.92558366e-01, 2.07466677e-01, 3.02052557e-01,
          1.30070195e-01, 3.92558366e-01, 2.72711724e-01, 3.92558366e-01,
          3.92558366e-01, 3.92558366e-01, 1.78464368e-01, 7.90001452e-02,
          2.24210560e-01, 5.16493976e-01, 5.16493976e-01, 5.16493976e-01,
          3.09500039e-01, 2.19015796e-02, 9.95624885e-02, 1.92968264e-01,
          2.32001878e-02, 4.70826387e-01, 4.70826387e-01, 4.70826387e-01,
          4.70826387e-01, 1.27823308e-01, 2.13826206e-02, 2.32413948e-01,
          1.93469509e-01, 2.34536510e-02, 2.49254376e-01, 4.17584509e-01,
          4.69416589e-01, 4.69416589e-01, 4.69416589e-01, 1.26838461e-01,
          2.09003568e-01 ]
      - [ 5.73238134e-01, 5.73238134e-01, 2.08980916e-03, 0.,
          1.51408151e-01, 5.59154987e-01, 2.69382726e-02, 1.67695689e-03,
          2.75742020e-02, 4.40870255e-01, 4.40870255e-01, 2.67439932e-01,
          1.22814365e-01, 4.35267389e-01, 4.40870255e-01, 1.42658174e-01,
          1.46471545e-01, 3.07613432e-01, 4.60462123e-01, 1.04455307e-01,
          2.44131058e-01, 7.21944273e-02, 9.82284844e-02, 4.45516743e-02,
          4.81597275e-01, 4.81597275e-01, 4.81597275e-01, 4.19992298e-01,
          4.19992298e-01, 1.51282907e-01, 9.22416896e-02, 4.19992298e-01,
          4.19992298e-01, 2.46566460e-01, 1.47128135e-01, 4.19992298e-01,
          3.93950015e-01, 3.93950015e-01, 3.93950015e-01, 1.66461438e-01,
          3.93950015e-01, 3.93950015e-01, 1.64847270e-01, 1.00003764e-01,
          3.93950015e-01, 4.12955195e-01, 1.96121365e-01, 3.18805844e-01,
          7.11143464e-02, 3.63079220e-01, 1.91734672e-01, 4.12955195e-01,
          4.12955195e-01, 4.12955195e-01, 1.77935496e-01, 3.73450480e-02,
          1.46213889e-01, 3.67742479e-01, 8.70198905e-01, 8.61717463e-02,
          2.94750426e-02, 3.23442630e-02, 1.87247083e-01, 2.12723598e-01,
          1.99272297e-02, 2.78026164e-01, 6.25797689e-01, 6.25797689e-01,
          2.13465065e-01, 5.72340712e-02, 7.60268606e-03, 1.96617648e-01,
          9.31977183e-02, 8.43092985e-03, 1.22641370e-01, 4.56551105e-01,
          5.04268587e-01, 5.04268587e-01, 4.40118641e-01, 1.23622611e-01,
          2.12523878e-01 ]
      - [ 5.82188487e-01, 5.82188487e-01, 6.91404939e-02, 5.82929738e-02,
          2.57221967e-01, 4.75454241e-01, 1.01306491e-01, 5.37470840e-02,
          5.24382629e-02, 4.59733307e-01, 4.59733307e-01, 1.60210654e-01,
          1.05476312e-01, 4.00531828e-01, 4.46313918e-01, 2.19519377e-01,
          2.12679908e-01, 2.87858546e-01, 4.82925177e-01, 7.65703842e-02,
          1.83067575e-01, 7.60732442e-02, 1.04726546e-01, 7.86015168e-02,
          4.82925177e-01, 4.82925177e-01, 4.82925177e-01, 4.05991614e-01,
          4.05991614e-01, 9.92700085e-02, 2.63794750e-01, 4.05991614e-01,
          4.05991614e-01, 2.50784457e-01, 1.71648279e-01, 4.05991614e-01,
          3.70503515e-01, 3.70503515e-01, 3.70503515e-01, 2.52409279e-01,
          3.70503515e-01, 3.70503515e-01, 2.88107723e-01, 1.61073864e-01,
          3.70503515e-01, 3.93059701e-01, 1.69228896e-01, 3.16884845e-01,
          1.02984712e-01, 3.93059701e-01, 2.89712667e-01, 3.93059701e-01,
          3.93059701e-01, 3.93059701e-01, 2.66518593e-01, 1.62295684e-01,
          1.53640047e-01, 6.07551754e-01, 6.07551754e-01, 1.59780066e-02,
          1.13736257e-01, 1.22279458e-01, 3.26457590e-01, 3.17222625e-01,
          6.22533374e-02, 3.25075328e-01, 5.09199321e-01, 5.09199321e-01,
          3.16639960e-01, 9.44673270e-02, 6.59066141e-02, 3.90689909e-01,
          2.04711393e-01, 2.80677918e-02, 1.34794265e-01, 3.89816999e-01,
          4.73876238e-01, 4.73876238e-01, 3.59093577e-01, 1.98840544e-01,
          4.06007886e-01 ]
      - [ 5.52849889e-01, 5.52849889e-01, 1.02316633e-01, 1.39024317e-01,
          3.08127135e-01, 4.11270499e-01, 2.07039475e-01, 1.69183850e-01,
          1.33500874e-01, 4.59670931e-01, 4.59670931e-01, 2.17672661e-01,
          1.45338058e-01, 3.18870872e-01, 4.59670931e-01, 2.33346656e-01,
          2.25679398e-01, 2.93174714e-01, 4.77133811e-01, 9.79611874e-02,
          2.10592762e-01, 9.53419134e-02, 1.33513987e-01, 6.12039752e-02,
          4.77133811e-01, 4.77133811e-01, 4.77133811e-01, 4.36569929e-01,
          4.36569929e-01, 1.30552277e-01, 2.49349564e-01, 4.36569929e-01,
          2.51878709e-01, 5.58135621e-02, 2.95784652e-01, 4.36569929e-01,
          3.75931501e-01, 3.75931501e-01, 3.75931501e-01, 2.55127341e-01,
          3.75931501e-01, 3.75931501e-01, 2.31486365e-01, 1.72108397e-01,
          3.75931501e-01, 3.96193236e-01, 1.22477971e-01, 2.52099484e-01,
          1.33645773e-01, 3.96193236e-01, 3.38792533e-01, 3.96193236e-01,
          3.96193236e-01, 3.96193236e-01, 1.56533614e-01, 9.40444469e-02,
          1.52056664e-01, 5.80194116e-01, 7.52249658e-01, 9.80120152e-02,
          6.69278810e-03, 3.86884473e-02, 1.49568141e-01, 2.17794523e-01,
          4.33623418e-02, 4.69354689e-01, 4.69354689e-01, 4.69354689e-01,
          4.69354689e-01, 1.50005773e-01, 3.50436941e-02, 2.02712029e-01,
          9.36610401e-02, 1.07618347e-02, 2.13585392e-01, 4.03152823e-01,
          4.76847500e-01, 4.76847500e-01, 4.76847500e-01, 1.27243176e-01,
          2.82589287e-01 ]
      - [ 5.73692381e-01, 5.73692381e-01, 4.21700941e-04, 7.42715711e-05,
          8.94364901e-03, 5.73692381e-01, 8.25676396e-02, 0.,
          2.19080248e-03, 3.87396365e-01, 3.87396365e-01, 3.87396365e-01,
          1.39636159e-01, 2.49306068e-01, 3.87396365e-01, 3.87396365e-01,
          3.27439189e-01, 2.38499478e-01, 2.77319491e-01, 1.01597011e-01,
          3.24287653e-01, 6.35158420e-02, 7.81116113e-02, 3.00634075e-02,
          5.45187533e-01, 5.45187533e-01, 4.43471253e-01, 4.36983436e-01,
          4.36983436e-01, 8.89080912e-02, 1.51691318e-01, 4.36983436e-01,
          4.36983436e-01, 2.85161972e-01, 1.31669179e-01, 3.19762021e-01,
          3.64862442e-01, 3.64862442e-01, 3.64862442e-01, 1.04779631e-01,
          3.64862442e-01, 3.64862442e-01, 3.64862442e-01, 2.31308892e-01,
          3.64862442e-01, 4.06859130e-01, 1.51588574e-01, 3.33398640e-01,
          2.20429115e-02, 4.06859130e-01, 1.83423623e-01, 4.06859130e-01,
          4.06859130e-01, 4.06859130e-01, 3.80655527e-01, 1.30804539e-01,
          1.26521707e-01, 5.73293209e-01, 5.73293209e-01, 2.73407489e-01,
          6.67168498e-02, 8.96570310e-02, 2.67745972e-01, 2.83316791e-01,
          1.18241847e-01, 4.16732371e-01, 4.16732371e-01, 4.16732371e-01,
          4.16732371e-01, 4.00126100e-01, 7.38431215e-02, 2.03397378e-01,
          2.30940625e-01, 4.43226919e-02, 2.94581056e-01, 1.69842854e-01,
          4.78321642e-01, 4.78321642e-01, 4.78321642e-01, 2.30738521e-01,
          2.91006386e-01 ]
      - [ 5.85344732e-01, 4.72208589e-01, 1.99355647e-01, 4.10280451e-02,
          1.84793517e-01, 7.76211172e-02, 6.53849244e-02, 6.50334684e-03,
          5.85344732e-01, 4.45337594e-01, 2.96367615e-01, 2.49395922e-01,
          1.66272521e-01, 6.71474040e-02, 1.41640067e-01, 4.45337594e-01,
          4.45337594e-01, 4.45337594e-01, 4.07217950e-01, 3.97869229e-01,
          3.55710149e-01, 4.07217950e-01, 7.16468925e-03, 2.26352159e-02,
          2.17331305e-01, 4.07217950e-01, 4.07217950e-01, 3.51582348e-01,
          3.94375771e-01, 3.94375771e-01, 2.85879940e-01, 3.55645537e-01,
          3.53213459e-01, 3.94375771e-01, 2.42581040e-01, 1.18477248e-01,
          3.74323398e-01, 1.93845615e-01, 3.74323398e-01, 3.74323398e-01,
          2.59754598e-01, 2.24730358e-01, 3.74323398e-01, 3.74323398e-01,
          3.74323398e-01, 3.49545836e-01, 3.49545836e-01, 3.49545836e-01,
          3.49545836e-01, 1.38019502e-01, 3.49545836e-01, 3.49545836e-01,
          3.49545836e-01, 3.49545836e-01, 0., 1.10157408e-01,
          4.40025330e-01, 4.40025330e-01, 4.40025330e-01, 4.40025330e-01,
          4.40025330e-01, 1.23929471e-01, 0., 1.50041163e-01,
          2.89983563e-02, 3.73384029e-01, 5.84919155e-01, 5.84919155e-01,
          1.79854363e-01, 1.72798812e-01, 1.24879837e-01, 2.63301432e-01,
          3.17166358e-01, 1.10391043e-01, 3.02767903e-02, 9.14334133e-02,
          6.25895083e-01, 6.25895083e-01, 2.38300964e-01, 2.09504794e-02,
          1.76005051e-01 ]
      - [ 4.98148829e-01, 2.88028419e-01, 2.53210992e-01, 8.47626030e-02,
          4.11924064e-01, 4.24484015e-01, 2.12915644e-01, 1.80908684e-02,
          4.43940699e-01, 4.21982378e-01, 1.46942317e-01, 3.35715115e-01,
          1.28547862e-01, 1.13289051e-01, 4.03464437e-01, 4.21982378e-01,
          3.67611259e-01, 4.21982378e-01, 3.66046935e-01, 3.03784877e-01,
          3.66046935e-01, 3.66046935e-01, 2.65622586e-01, 1.71930790e-01,
          3.66046935e-01, 3.66046935e-01, 3.66046935e-01, 1.74401954e-01,
          4.25545096e-01, 4.45918769e-01, 1.01746745e-01, 2.50120550e-01,
          3.64154637e-01, 4.45918769e-01, 4.24749106e-01, 2.05156468e-02,
          7.95525908e-02, 2.71631688e-01, 5.07228971e-01, 1.90816015e-01,
          7.22307861e-02, 2.22199365e-01, 5.07228971e-01, 5.07228971e-01,
          2.27985606e-01, 3.83642167e-01, 3.83642167e-01, 5.95188104e-02,
          3.83642167e-01, 2.69902110e-01, 1.91545978e-01, 3.83642167e-01,
          3.83642167e-01, 3.83642167e-01, 3.19931016e-04, 1.27170250e-01,
          4.47581023e-01, 4.47581023e-01, 2.86157459e-01, 3.10089797e-01,
          4.47581023e-01, 4.47581023e-01, 3.19931016e-04, 1.27279714e-01,
          2.10703947e-02, 4.39417899e-01, 4.39417899e-01, 4.39417899e-01,
          2.21496355e-02, 1.14173718e-01, 4.39417899e-01, 4.39417899e-01,
          4.35016066e-01, 2.37587616e-01, 1.64165103e-04, 1.30089581e-01,
          4.35016066e-01, 4.35016066e-01, 3.54951590e-01, 1.98335186e-01,
          4.35016066e-01 ]
      - [ 4.23123211e-01, 4.23123211e-01, 3.51153284e-01, 1.01195060e-01,
          4.23123211e-01, 4.23123211e-01, 2.99378037e-01, 2.03088224e-02,
          2.36752018e-01, 4.14496422e-01, 1.79461136e-01, 3.78829837e-01,
          1.90643817e-01, 1.44681081e-01, 4.14496422e-01, 4.14496422e-01,
          3.27648759e-01, 3.74283075e-01, 1.04677409e-01, 2.55930215e-01,
          4.41905737e-01, 4.41905737e-01, 8.42874870e-03, 2.05961894e-02,
          4.41905737e-01, 4.41905737e-01, 3.70823771e-01, 1.49461105e-02,
          4.66913521e-01, 4.66913521e-01, 8.37318972e-02, 1.76930755e-01,
          3.13335449e-01, 4.66913521e-01, 4.52293307e-01, 4.95014293e-03,
          1.30243510e-01, 3.61193657e-01, 4.86014128e-01, 9.06867385e-02,
          3.60933691e-02, 1.87534481e-01, 4.86014128e-01, 4.86014128e-01,
          3.07239950e-01, 3.60280633e-01, 4.82391208e-01, 4.82391208e-01,
          2.14878559e-01, 7.53691420e-04, 2.66575694e-01, 4.82391208e-01,
          2.15076864e-01, 6.14982061e-02, 7.91113416e-04, 1.65263504e-01,
          4.84061688e-01, 4.84061688e-01, 2.08503142e-01, 1.92955419e-01,
          4.84061688e-01, 4.29100931e-01, 8.51867441e-03, 3.91410649e-01,
          7.08965957e-02, 3.97798151e-01, 3.97798151e-01, 3.97798151e-01,
          2.01143876e-01, 7.82418996e-02, 3.97798151e-01, 3.97798151e-01,
          4.59626168e-01, 4.59626168e-01, 2.03834865e-02, 3.06456480e-02,
          3.25982809e-01, 4.59626168e-01, 4.59626168e-01, 3.37649137e-02,
          2.04021573e-01 ]
      - [ 5.50254524e-01, 1.39975667e-01, 1.18188389e-01, 9.93191078e-02,
          4.63099390e-01, 3.18218142e-01, 1.21845528e-01, 1.22266263e-01,
          5.50254524e-01, 4.82061684e-01, 3.25848199e-02, 1.65832847e-01,
          1.04954995e-01, 1.60469666e-01, 1.79727003e-02, 4.82061684e-01,
          4.82061684e-01, 4.82061684e-01, 4.27902937e-01, 4.27902937e-01,
          4.27902937e-01, 1.28095206e-02, 6.04353845e-04, 0.,
          4.03774709e-01, 4.27902937e-01, 3.16422939e-01, 3.76703173e-01,
          2.51235127e-01, 3.76703173e-01, 3.14311475e-01, 3.76703173e-01,
          3.76703173e-01, 3.76703173e-01, 3.34001333e-01, 1.15075558e-01,
          1.82680577e-01, 6.27478138e-02, 4.32365477e-01, 4.32365477e-01,
          1.53044328e-01, 1.57935042e-02, 4.32365477e-01, 4.32365477e-01,
          4.32365477e-01, 4.22689497e-01, 4.22689497e-01, 4.22689497e-01,
          9.55978129e-03, 8.50696936e-02, 4.22689497e-01, 4.22689497e-01,
          1.88023701e-01, 2.44467646e-01, 1.73932337e-03, 1.20412201e-01,
          4.24448103e-01, 4.24448103e-01, 3.63935173e-01, 3.58020723e-01,
          4.24448103e-01, 4.24448103e-01, 2.33834120e-03, 1.85471579e-01,
          9.15936567e-03, 4.50967759e-01, 4.50967759e-01, 4.50967759e-01,
          8.24435726e-02, 2.56430469e-02, 3.74258846e-01, 4.50967759e-01,
          4.99274403e-01, 3.37810338e-01, 1.07697723e-02, 1.08351737e-01,
          4.99274403e-01, 4.99274403e-01, 1.73162043e-01, 3.62327024e-02,
          2.99864948e-01 ]
      - [ 5.18132746e-01, 1.16843112e-01, 1.40620008e-01, 1.04717068e-01,
          5.18132746e-01, 3.21791053e-01, 1.41830787e-01, 1.46230683e-01,
          5.18132746e-01, 4.77354348e-01, 6.14776015e-02, 2.06103444e-01,
          1.07859381e-01, 1.57263979e-01, 3.37596349e-02, 4.77354348e-01,
          4.77354348e-01, 4.77354348e-01, 4.36121047e-01, 4.36121047e-01,
          4.36121047e-01, 2.87380647e-02, 2.22024508e-03, 0.,
          3.25145811e-01, 4.36121047e-01, 3.58171284e-01, 3.78501445e-01,
          2.12981805e-01, 3.78501445e-01, 3.14202666e-01, 3.78501445e-01,
          3.78501445e-01, 3.78501445e-01, 3.46031904e-01, 1.26804084e-01,
          1.90146491e-01, 7.99658000e-02, 4.31900889e-01, 4.31900889e-01,
          1.41648829e-01, 1.94752663e-02, 4.31900889e-01, 4.31900889e-01,
          4.31900889e-01, 4.22640413e-01, 4.22640413e-01, 4.22640413e-01,
          1.53261507e-02, 9.60046574e-02, 4.22640413e-01, 4.22640413e-01,
          1.72570765e-01, 2.51834899e-01, 2.62287143e-03, 7.77695104e-02,
          4.25316244e-01, 4.25316244e-01, 3.71324509e-01, 4.25316244e-01,
          4.25316244e-01, 3.58088851e-01, 3.35646793e-03, 1.84265345e-01,
          7.43296184e-03, 3.97790611e-01, 4.71874088e-01, 4.71874088e-01,
          9.94904265e-02, 2.53976788e-02, 3.52847785e-01, 4.71874088e-01,
          5.07019937e-01, 3.06321681e-01, 9.80480481e-03, 1.27205804e-01,
          5.07019937e-01, 5.07019937e-01, 1.72835231e-01, 2.55798716e-02,
          2.88256794e-01 ]
      - [ 4.83276367e-01, 4.07492578e-01, 1.86821431e-01, 1.12470217e-01,
          4.83276367e-01, 2.02510983e-01, 1.86413303e-01, 7.17097372e-02,
          4.83276367e-01, 4.14405316e-01, 2.16511741e-01, 4.14405316e-01,
          1.86093062e-01, 1.23792686e-01, 2.00920075e-01, 4.14405316e-01,
          4.14405316e-01, 4.14405316e-01, 3.74582112e-01, 3.62988859e-01,
          3.74582112e-01, 3.74582112e-01, 1.50420263e-01, 0.,
          3.74582112e-01, 3.74582112e-01, 3.74582112e-01, 2.33001053e-01,
          3.79149199e-01, 3.79149199e-01, 3.06417733e-01, 3.79149199e-01,
          3.56261760e-01, 3.79149199e-01, 3.79149199e-01, 4.83489893e-02,
          3.64832371e-01, 2.79075146e-01, 3.64832371e-01, 3.64832371e-01,
          2.80189723e-01, 2.03346923e-01, 3.64832371e-01, 3.64832371e-01,
          3.64832371e-01, 3.66917938e-01, 3.66917938e-01, 3.66917938e-01,
          3.49146813e-01, 2.70237982e-01, 3.66917938e-01, 3.66917938e-01,
          2.76082933e-01, 2.28115022e-01, 1.05778631e-02, 2.00301722e-01,
          4.14149910e-01, 4.14149910e-01, 4.14149910e-01, 4.14149910e-01,
          4.14149910e-01, 3.12300175e-01, 2.23162193e-02, 3.73493016e-01,
          4.83629629e-02, 3.03989857e-01, 4.87674087e-01, 4.87674087e-01,
          3.23178589e-01, 5.80120124e-02, 1.80890262e-01, 3.80394727e-01,
          4.12731349e-01, 2.09842399e-01, 9.93866101e-03, 9.78918001e-02,
          5.40600181e-01, 5.40600181e-01, 3.99265200e-01, 2.55147777e-02,
          1.61176890e-01 ]
      - [ 4.04641449e-01, 4.04641449e-01, 3.17490518e-01, 1.05200902e-01,
          3.87443632e-01, 4.04641449e-01, 2.69303441e-01, 8.07125792e-02,
          4.04641449e-01, 3.76920462e-01, 2.70302713e-01, 3.76920462e-01,
          2.33448297e-01, 1.27508312e-01, 3.76920462e-01, 3.76920462e-01,
          3.76920462e-01, 3.76920462e-01, 3.85757983e-01, 3.85757983e-01,
          3.85757983e-01, 3.85757983e-01, 1.25954255e-01, 2.99393944e-03,
          2.95664191e-01, 3.85757983e-01, 3.85757983e-01, 1.32413164e-01,
          4.01585549e-01, 4.20739323e-01, 3.07897419e-01, 2.18770698e-01,
          3.70643109e-01, 4.20739323e-01, 4.20739323e-01, 7.67494142e-02,
          3.61637682e-01, 1.30671486e-01, 3.61637682e-01, 3.61637682e-01,
          2.52664000e-01, 3.61637682e-01, 3.61637682e-01, 3.61637682e-01,
          3.61637682e-01, 3.53502005e-01, 3.53502005e-01, 3.53502005e-01,
          3.53502005e-01, 2.06698269e-01, 3.53502005e-01, 3.53502005e-01,
          2.81066179e-01, 3.53502005e-01, 6.71580294e-03, 1.13004744e-01,
