%YAML:1.0
---
opencv_ml_svm:
   format: 3
   svmType: C_SVC
   kernel:
      type: RBF
      gamma: 5.0624999999999998e-01
   C: 1.2500000000000000e+01
   term_criteria: { epsilon:1.1920928955078125e-07, iterations:1000 }
   var_count: 81
   class_count: 9
   class_labels: !!opencv-matrix
      rows: 9
      cols: 1
      dt: i
      data: [ 1, 2, 3, 4, 5, 6, 7, 8, 9 ]
   sv_total: 113
   support_vectors:
      - [ 4.80261147e-01, 4.80261147e-01, 8.77892822e-02, 0., 0.,
          1.38145939e-01, 4.80261147e-01, 2.14029998e-01, 4.80261147e-01,
          4.67452139e-01, 2.39249587e-01, 5.25700860e-03, 0., 0.,
          2.53015757e-01, 4.67452139e-01, 4.67452139e-01, 4.67452139e-01,
          6.92901254e-01, 0., 0., 0., 0., 0., 2.55676061e-02,
          1.79457843e-01, 6.92901254e-01, 4.44241434e-01, 4.44241434e-01,
          1.76867157e-01, 5.45561537e-02, 4.44241434e-01, 2.08333001e-01,
          4.44241434e-01, 1.79081753e-01, 3.10530931e-01, 5.00088871e-01,
          5.40483929e-02, 4.53979243e-03, 0., 5.00088871e-01,
          2.69393265e-01, 3.84762675e-01, 1.45539686e-01, 5.00088871e-01,
          4.64139313e-01, 0., 0., 0., 4.64139313e-01, 3.78470272e-01,
          3.98000747e-01, 2.17815697e-01, 4.64139313e-01, 1.34363666e-01,
          2.17272371e-01, 2.18055055e-01, 2.63494223e-01, 7.83707321e-01,
          4.40984905e-01, 3.34225805e-03, 7.92679284e-03, 3.46597992e-02,
          1.51360407e-01, 3.30420997e-04, 1.70604110e-07, 0.,
          7.82649517e-01, 5.87821186e-01, 5.76569000e-04, 2.62708799e-03,
          1.05818592e-01, 6.14675060e-02, 0., 0., 0., 6.84869707e-01,
          6.84869707e-01, 2.15033263e-01, 2.40733642e-02, 6.68788478e-02 ]
      - [ 4.19965655e-01, 4.19965655e-01, 3.37561578e-01, 4.37277311e-04,
          9.11193027e-04, 4.23571531e-04, 4.19965655e-01, 4.19965655e-01,
          4.19965655e-01, 4.97002989e-01, 7.56938979e-02, 1.73922107e-02,
          2.78647151e-03, 2.83949394e-02, 1.19293984e-02, 4.97002989e-01,
          4.97002989e-01, 4.97002989e-01, 7.01474488e-01, 6.58971863e-03,
          2.05583572e-02, 5.53648081e-03, 4.49970625e-02, 9.13988426e-03,
          2.40387600e-02, 7.53782839e-02, 7.01474488e-01, 3.74697089e-01,
          3.74697089e-01, 3.74697089e-01, 3.53451632e-02, 3.74697089e-01,
          1.10553131e-01, 3.74697089e-01, 3.74697089e-01, 3.74697089e-01,
          5.21666229e-01, 9.61427763e-03, 5.15927467e-03, 0.,
          5.21666229e-01, 1.93046853e-01, 2.23052979e-01, 3.02067310e-01,
          5.21666229e-01, 4.86793607e-01, 9.96959861e-05, 2.99087958e-04,
          0., 4.86793607e-01, 4.24019307e-01, 2.45947227e-01,
          2.09645882e-01, 4.86793607e-01, 1.09481245e-01, 2.63612926e-01,
          1.84082374e-01, 2.01724097e-01, 6.93707883e-01, 5.92879415e-01,
          2.91104824e-03, 1.98677778e-02, 6.22755624e-02, 2.53597617e-01,
          1.38817937e-03, 1.35002483e-03, 0., 7.12907016e-01,
          6.18344069e-01, 6.31049101e-04, 8.62007402e-03, 1.94699228e-01,
          1.93495646e-01, 2.52754055e-03, 0., 0., 6.76114798e-01,
          6.76114798e-01, 1.45085916e-01, 4.70148362e-02, 1.35205403e-01 ]
      - [ 4.18414086e-01, 4.18414086e-01, 3.46936345e-01, 1.30727666e-03,
          9.04436968e-03, 4.49275831e-03, 4.18414086e-01, 4.18414086e-01,
          4.18414086e-01, 4.95817572e-01, 7.16421902e-02, 1.37948673e-02,
          6.64129527e-03, 7.27380887e-02, 3.24016288e-02, 4.95817572e-01,
          4.95817572e-01, 4.95817572e-01, 7.02041447e-01, 0., 0., 0.,
          2.27413997e-02, 3.78100649e-02, 2.64973044e-02, 6.79604858e-02,
          7.02041447e-01, 3.74928892e-01, 3.74928892e-01, 3.74928892e-01,
          3.43808718e-02, 3.74928892e-01, 1.05217412e-01, 3.74928892e-01,
          3.74928892e-01, 3.74928892e-01, 5.22745311e-01, 9.36130714e-03,
          4.93061217e-03, 0., 5.22745311e-01, 1.87577724e-01,
          2.23083898e-01, 2.99879104e-01, 5.22745311e-01, 4.90064472e-01,
          0., 0., 0., 4.90064472e-01, 4.13803726e-01, 2.40246743e-01,
          2.13691026e-01, 4.90064472e-01, 1.12630740e-01, 2.59836942e-01,
          1.87813058e-01, 1.93324015e-01, 7.19414055e-01, 5.63785791e-01,
          3.18428548e-03, 1.95182450e-02, 6.45579249e-02, 2.49632940e-01,
          4.80693452e-05, 8.52505182e-05, 0., 7.25153506e-01,
          6.05938971e-01, 8.56622355e-04, 8.43179133e-03, 1.93296760e-01,
          1.81105077e-01, 0., 0., 0., 6.77248895e-01, 6.77248895e-01,
          1.53369278e-01, 5.15598506e-02, 1.30104721e-01 ]
      - [ 4.20099556e-01, 4.20099556e-01, 3.36726934e-01, 0.,
          3.07181384e-04, 0., 4.20099556e-01, 4.20099556e-01,
          4.20099556e-01, 4.97349173e-01, 7.38323927e-02, 1.25202239e-02,
          0., 0., 0., 4.97349173e-01, 4.97349173e-01, 4.97349173e-01,
          7.02829421e-01, 0., 0., 0., 0., 0., 9.13808960e-03,
          7.04429075e-02, 7.02829421e-01, 3.74704719e-01, 3.74704719e-01,
          3.74704719e-01, 3.49415690e-02, 3.74704719e-01, 1.10499471e-01,
          3.74704719e-01, 3.74704719e-01, 3.74704719e-01, 5.21668255e-01,
          9.58739314e-03, 5.15918760e-03, 0., 5.21668255e-01,
          1.93043590e-01, 2.23049209e-01, 3.02062213e-01, 5.21668255e-01,
          4.86733824e-01, 0., 0., 0., 4.86733824e-01, 4.24027175e-01,
          2.46324226e-01, 2.09605336e-01, 4.86733824e-01, 1.08621851e-01,
          2.64480591e-01, 1.82992831e-01, 1.97859168e-01, 6.95163369e-01,
          5.92625856e-01, 2.91378237e-03, 1.98864378e-02, 6.17725253e-02,
          2.47290879e-01, 5.22077753e-05, 9.85685474e-05, 0.,
          7.14987814e-01, 6.20321393e-01, 5.31267433e-04, 8.61370564e-03,
          1.88757896e-01, 1.81204468e-01, 0., 0., 0., 6.78817391e-01,
          6.78817391e-01, 1.45397902e-01, 4.74596694e-02, 1.24133922e-01 ]
      - [ 4.33125496e-01, 4.33125496e-01, 3.97168547e-02, 0., 0.,
          2.36870095e-01, 4.33125496e-01, 4.33125496e-01, 4.33125496e-01,
          6.69948578e-01, 0., 0., 0., 0., 0., 2.83532590e-01,
          1.23526596e-01, 6.69948578e-01, 6.97766483e-01, 7.08059669e-02,
          1.18864223e-01, 1.15874298e-02, 0., 0., 0., 1.42559269e-03,
          6.97766483e-01, 4.08799380e-01, 4.08799380e-01, 9.41213891e-02,
          3.39379758e-02, 4.08799380e-01, 3.23416620e-01, 4.08799380e-01,
          2.13828504e-01, 4.08799380e-01, 5.66493094e-01, 0., 0., 0.,
          5.66493094e-01, 1.77461937e-01, 8.99770297e-03, 5.12999017e-03,
          5.66493094e-01, 5.36837339e-01, 7.03775906e-04, 6.36231911e-04,
          1.06550020e-03, 5.36837339e-01, 3.44223589e-01, 7.12388828e-02,
          8.05541351e-02, 5.36837339e-01, 3.60527217e-01, 5.11482581e-02,
          7.53869414e-02, 1.19585790e-01, 7.48645425e-01, 4.24991161e-01,
          2.93511879e-02, 2.21122373e-02, 3.12265694e-01, 4.25323963e-01,
          0., 0., 0., 7.25681126e-01, 4.64030653e-01, 0., 0.,
          2.64420688e-01, 2.87805796e-01, 0., 5.53781865e-04,
          8.59147031e-03, 6.83082640e-01, 6.31042361e-01, 3.70214246e-02,
          2.16206275e-02, 2.08854705e-01 ]
      - [ 4.81037527e-01, 4.81037527e-01, 9.05632414e-03, 7.06825824e-03,
          6.71129953e-03, 2.52580702e-01, 3.57673466e-01, 3.30302685e-01,
          4.81037527e-01, 4.58022594e-01, 2.34882057e-01, 1.73963867e-02,
          1.70461647e-02, 4.10756981e-03, 3.17027748e-01, 4.58022594e-01,
          4.58022594e-01, 4.58022594e-01, 5.85005462e-01, 2.63843596e-01,
          2.64038801e-01, 7.75202215e-02, 2.88031667e-01, 1.34739697e-01,
          2.02776089e-01, 1.48732573e-01, 5.85005462e-01, 3.97554606e-01,
          3.97554606e-01, 1.87188536e-01, 1.02234378e-01, 3.97554606e-01,
          3.97554606e-01, 3.97554606e-01, 2.07432732e-01, 3.42432857e-01,
          4.77709621e-01, 2.40169436e-01, 1.33677122e-05, 4.34072608e-05,
          4.77709621e-01, 3.60240221e-01, 3.32780331e-01, 1.11409284e-01,
          4.77709621e-01, 4.26287383e-01, 9.65996087e-03, 1.53573696e-03,
          1.20889384e-03, 4.26287383e-01, 4.24715489e-01, 4.26287383e-01,
          2.97283530e-01, 4.26287383e-01, 1.63656786e-01, 1.60852835e-01,
          2.86635458e-01, 4.47145939e-01, 7.12259173e-01, 3.64409328e-01,
          5.92537932e-02, 4.42400053e-02, 1.12063311e-01, 3.48873019e-01,
          3.69472243e-02, 0., 2.05977296e-04, 7.72490025e-01,
          5.06674528e-01, 9.62626748e-03, 7.64886336e-03, 1.24906272e-01,
          7.46079460e-02, 2.02815095e-03, 0., 0., 6.73965156e-01,
          6.73965156e-01, 2.66457289e-01, 5.34492023e-02, 7.33962581e-02 ]
      - [ 4.81228977e-01, 4.81228977e-01, 2.03972589e-02, 0.,
          9.30165220e-03, 2.39233196e-01, 3.49652171e-01, 3.47070426e-01,
          4.81228977e-01, 4.61586773e-01, 2.33554214e-01, 3.97814475e-02,
          2.62415633e-02, 3.29337898e-03, 2.93786764e-01, 4.61586773e-01,
          4.61586773e-01, 4.61586773e-01, 6.66451037e-01, 5.85081913e-02,
          1.31398112e-01, 1.02138847e-01, 1.64603844e-01, 8.61269385e-02,
          7.59536922e-02, 1.83385953e-01, 6.66451037e-01, 4.12900597e-01,
          4.12900597e-01, 1.71959430e-01, 8.50966275e-02, 4.12900597e-01,
          4.12900597e-01, 4.12900597e-01, 1.97641701e-01, 2.59936690e-01,
          4.91475731e-01, 1.73610315e-01, 1.11916417e-03, 1.10450259e-03,
          4.91475731e-01, 3.48699689e-01, 3.20561320e-01, 1.26301259e-01,
          4.91475731e-01, 4.33047026e-01, 2.97676015e-04, 7.48927006e-04,
          7.64648314e-04, 4.33047026e-01, 4.06095892e-01, 4.21110302e-01,
          3.01390409e-01, 4.33047026e-01, 1.55476213e-01, 2.66952604e-01,
          2.69781768e-01, 4.00510132e-01, 7.28199184e-01, 3.50765914e-01,
          5.63357808e-02, 4.36505601e-02, 7.55929574e-02, 2.55590349e-01,
          2.88009550e-02, 0., 7.08436244e-04, 8.06197166e-01,
          5.17100334e-01, 1.36434454e-02, 8.13135598e-03, 9.05474126e-02,
          6.36022538e-02, 0., 0., 0., 6.73574626e-01, 6.73574626e-01,
          2.67979473e-01, 5.86349964e-02, 8.10786262e-02 ]
      - [ 4.58130509e-01, 4.58130509e-01, 4.28738296e-02, 5.41886198e-04,
          4.95274132e-03, 2.05911815e-01, 3.34106177e-01, 4.58130509e-01,
          4.58130509e-01, 4.67536211e-01, 1.69225574e-01, 1.08154891e-02,
          1.54663925e-03, 1.71501618e-02, 3.03181112e-01, 4.67536211e-01,
          4.67536211e-01, 4.67536211e-01, 4.09467191e-01, 4.09467191e-01,
          4.09467191e-01, 3.73263299e-01, 4.09467191e-01, 9.80440453e-02,
          6.59544766e-02, 6.56097308e-02, 4.09467191e-01, 3.91245812e-01,
          3.91245812e-01, 2.48866647e-01, 7.04925135e-02, 3.91245812e-01,
          3.91245812e-01, 3.91245812e-01, 2.10390493e-01, 3.45770240e-01,
          5.19187570e-01, 1.38490662e-01, 1.44487899e-03, 1.76689657e-03,
          5.19187570e-01, 2.31735617e-01, 3.07253569e-01, 1.37319759e-01,
          5.19187570e-01, 4.58381176e-01, 3.87377315e-03, 5.15780738e-03,
          2.70717703e-02, 4.58381176e-01, 1.56407624e-01, 4.33986187e-01,
          3.89229447e-01, 4.58381176e-01, 1.53075665e-01, 1.72084600e-01,
          3.46586943e-01, 3.00285399e-01, 7.66831815e-01, 3.40799630e-01,
          1.02017082e-01, 5.71736321e-02, 1.05619840e-01, 2.57577509e-01,
          2.32338905e-02, 3.19821970e-03, 1.47103425e-02, 9.40265000e-01,
          1.49770126e-01, 1.78739559e-02, 1.19939847e-02, 1.28506690e-01,
          1.44003853e-01, 9.07802582e-02, 6.92959651e-02, 1.86685786e-01,
          7.16543913e-01, 4.07104373e-01, 4.50108141e-01, 1.23003595e-01,
          1.65286019e-01 ]
      - [ 4.07416642e-01, 4.07416642e-01, 4.07416642e-01, 0., 0., 0.,
          4.07416642e-01, 4.07416642e-01, 4.07416642e-01, 4.88998026e-01,
          1.88428640e-01, 5.59855849e-02, 0., 0., 0., 4.88998026e-01,
          4.88998026e-01, 4.88998026e-01, 7.04095125e-01, 0., 0., 0., 0.,
          0., 3.18065956e-02, 2.14416850e-02, 7.04095125e-01,
          3.81912857e-01, 3.81912857e-01, 3.41135085e-01, 2.54012085e-02,
          3.81912857e-01, 6.95610866e-02, 3.81912857e-01, 3.81912857e-01,
          3.80841583e-01, 5.18221676e-01, 2.36455984e-02, 1.59006994e-02,
          0., 5.18221676e-01, 1.45351633e-01, 2.26467073e-01,
          3.40495318e-01, 5.18221676e-01, 5.22688031e-01, 0., 0., 0.,
          5.22688031e-01, 2.91073799e-01, 2.47455895e-01, 1.70919299e-01,
          5.22688031e-01, 2.26183698e-01, 2.69633532e-01, 1.37149200e-01,
          1.60526022e-01, 7.78152883e-01, 4.61414784e-01, 7.70114688e-03,
          2.45759971e-02, 6.85930699e-02, 2.96885103e-01, 4.00990277e-04,
          2.34562205e-04, 0., 7.53752887e-01, 5.28556705e-01,
          2.10899115e-03, 1.18574034e-02, 2.38065600e-01, 2.31933340e-01,
          0., 0., 0., 6.69580579e-01, 6.69580579e-01, 1.36495113e-01,
          4.34473865e-02, 1.49423912e-01 ]
      - [ 4.07416642e-01, 4.07416642e-01, 4.07416642e-01, 0., 0., 0.,
          4.07416642e-01, 4.07416642e-01, 4.07416642e-01, 4.88287181e-01,
          1.98100448e-01, 4.67113145e-02, 0., 0., 0., 4.88287181e-01,
          4.88287181e-01, 4.88287181e-01, 7.04510868e-01, 0., 0., 0., 0.,
          0., 1.04177147e-02, 1.37046790e-02, 7.04510868e-01,
          3.94100636e-01, 3.94100636e-01, 2.96915293e-01, 2.44651996e-02,
          3.94100636e-01, 6.73112795e-02, 3.67922723e-01, 3.94100636e-01,
          3.82291079e-01, 5.18662989e-01, 2.46181712e-02, 1.34774167e-02,
          0., 5.18662989e-01, 1.39390394e-01, 2.02976733e-01,
          3.55484635e-01, 5.18662989e-01, 5.25833547e-01, 0., 0., 0.,
          5.25833547e-01, 2.89040893e-01, 2.30697781e-01, 1.68759227e-01,
          5.25833547e-01, 2.19877735e-01, 3.00893992e-01, 1.26090497e-01,
          1.58908248e-01, 7.82418489e-01, 4.41343695e-01, 7.47250346e-03,
          2.49623340e-02, 6.71943352e-02, 2.96145529e-01, 3.65781103e-04,
          2.30026795e-04, 0., 7.63743520e-01, 5.12729585e-01,
          2.01774156e-03, 1.21327192e-02, 2.41511315e-01, 2.28257805e-01,
          0., 0., 0., 6.68664396e-01, 6.68664396e-01, 1.35166839e-01,
          4.39741947e-02, 1.63691521e-01 ]
      - [ 4.69223320e-01, 4.69223320e-01, 1.77034251e-02, 0., 0.,
          1.96223199e-01, 4.69223320e-01, 2.75344014e-01, 4.69223320e-01,
          4.73114699e-01, 1.55915409e-01, 0., 0., 0., 2.74981350e-01,
          4.73114699e-01, 4.73114699e-01, 4.73114699e-01, 7.04615593e-01,
          0., 0., 0., 0., 0., 0., 0., 7.04615593e-01, 3.99300516e-01,
          3.99300516e-01, 2.32765432e-02, 2.01012362e-02, 3.99300516e-01,
          3.99300516e-01, 3.99300516e-01, 1.96009338e-01, 3.99300516e-01,
          5.08400559e-01, 2.00305842e-02, 0., 6.89941039e-03,
          5.08400559e-01, 3.16969872e-01, 3.35778415e-01, 7.64419213e-02,
          5.08400559e-01, 5.35727739e-01, 1.11388473e-03, 3.34165408e-03,
          3.47180292e-03, 5.35727739e-01, 3.60328078e-01, 3.52064222e-02,
          5.03681563e-02, 5.35727739e-01, 3.05988580e-01, 2.72510409e-01,
          6.67267740e-02, 1.12524159e-01, 6.90710068e-01, 5.17474115e-01,
          1.12315685e-01, 6.82039261e-02, 2.14414075e-01, 5.60609937e-01,
          1.03581091e-03, 0., 6.95375958e-03, 5.88060081e-01,
          4.72024590e-01, 1.07776038e-02, 6.38614735e-03, 3.33191246e-01,
          4.85654682e-01, 6.85763021e-04, 2.05728901e-03, 2.13741511e-03,
          5.84500372e-01, 5.84500372e-01, 2.16748305e-02, 1.44146727e-02,
          2.72644222e-01 ]
      - [ 5.15882790e-01, 3.73900473e-01, 1.50325134e-01, 7.55104572e-02,
          1.15583315e-01, 8.12383667e-02, 9.15560871e-02, 5.15882790e-01,
          5.15882790e-01, 6.96460068e-01, 2.17789710e-02, 4.58376221e-02,
          4.39757071e-02, 1.15470029e-01, 4.80612926e-02, 4.95607257e-02,
          1.80451777e-02, 6.96460068e-01, 5.71559846e-01, 5.23412526e-02,
          9.01114196e-02, 8.04105997e-02, 2.57582724e-01, 5.61824553e-02,
          3.16198498e-01, 3.92580032e-01, 5.71559846e-01, 5.15287817e-01,
          2.23460987e-01, 1.93579853e-01, 2.04459414e-01, 5.15287817e-01,
          8.41621757e-02, 1.33935676e-03, 2.48983189e-01, 5.15287817e-01,
          5.72058260e-01, 3.68242298e-04, 1.99859714e-04, 1.99825149e-02,
          5.72058260e-01, 1.10160150e-01, 5.74636040e-04, 7.28715269e-04,
          5.72058260e-01, 4.31141049e-01, 8.25864496e-04, 4.17165924e-04,
          3.56224775e-01, 4.31141049e-01, 1.79541886e-01, 4.31141049e-01,
          3.05009216e-01, 4.31141049e-01, 1.14911068e-02, 2.08287630e-02,
          1.01723425e-01, 2.91223705e-01, 9.24213350e-01, 2.01807991e-01,
          8.83519650e-03, 4.57081292e-03, 7.66866049e-03, 3.17813344e-02,
          2.23108530e-02, 8.85929633e-03, 6.20486997e-02, 9.65353608e-01,
          2.26140797e-01, 1.27067193e-02, 2.54117996e-02, 3.28466743e-02,
          1.00817280e-02, 2.73104291e-03, 5.50380396e-03, 6.07269526e-01,
          6.07269526e-01, 3.11150938e-01, 3.95108074e-01, 5.54453321e-02,
          1.56577900e-02 ]
      - [ 4.98311102e-01, 4.98311102e-01, 3.27522457e-02, 0., 0., 0.,
          2.63562296e-02, 4.98311102e-01, 4.98311102e-01, 7.02417791e-01,
          0., 0., 0., 0., 0., 3.63469496e-03, 7.87002221e-02,
          7.02417791e-01, 6.23006284e-01, 2.18742862e-01, 0., 0., 0., 0.,
          2.95837283e-01, 2.86597162e-01, 6.23006284e-01, 4.46371466e-01,
          4.46371466e-01, 2.25312948e-01, 1.42865866e-01, 4.46371466e-01,
          8.05232972e-02, 3.57368123e-03, 3.47675145e-01, 4.46371466e-01,
          5.72450936e-01, 0., 0., 3.36701772e-03, 5.72450936e-01,
          1.04213797e-01, 2.98955856e-04, 1.76500008e-02, 5.72450936e-01,
          4.29731905e-01, 7.57905915e-02, 0., 4.29731905e-01,
          4.29731905e-01, 1.01487048e-01, 4.29731905e-01, 2.37310186e-01,
          4.29731905e-01, 3.26946005e-02, 5.39560094e-02, 1.76285669e-01,
          2.89346129e-01, 9.03382003e-01, 2.34618872e-01, 0.,
          1.47400633e-03, 3.25771272e-02, 2.17108354e-02, 0., 0.,
          1.01568736e-02, 9.70131040e-01, 2.19953522e-01, 0.,
          3.54330201e-04, 1.46188540e-02, 9.12011310e-05, 0., 0.,
          6.08165860e-01, 6.08165860e-01, 2.59913415e-01, 4.24531966e-01,
          8.00862238e-02, 1.17842384e-04 ]
      - [ 5.27117252e-01, 4.45356965e-01, 3.90666239e-02, 7.33523676e-03,
          6.64193481e-02, 3.99301872e-02, 1.19147696e-01, 4.67873424e-01,
          5.27117252e-01, 6.97828412e-01, 3.20376568e-02, 5.22491299e-02,
          3.01161818e-02, 1.12447612e-01, 2.89350115e-02, 2.30159052e-02,
          2.07398273e-02, 6.97828412e-01, 4.84309644e-01, 4.84309644e-01,
          9.28977653e-02, 2.36823000e-02, 1.11116156e-01, 3.15499157e-02,
          4.03458834e-01, 3.25857729e-01, 4.84309644e-01, 4.43148285e-01,
          3.73784363e-01, 1.97637558e-01, 1.28342494e-01, 4.43148285e-01,
          4.43148285e-01, 3.53644090e-03, 1.21623039e-01, 4.43148285e-01,
          5.29808342e-01, 5.17212786e-03, 2.72650295e-03, 6.06574491e-02,
          5.29808342e-01, 3.85867447e-01, 4.18973796e-04, 3.33165261e-03,
          5.29808342e-01, 4.26296055e-01, 1.40478596e-01, 7.04142451e-02,
          4.26296055e-01, 4.26296055e-01, 1.76211253e-01, 4.26296055e-01,
          1.91760764e-01, 4.19896781e-01, 6.17124997e-02, 1.22005045e-01,
          2.35443980e-01, 3.04293752e-01, 6.41402662e-01, 6.41402662e-01,
          4.77209501e-02, 3.57990973e-02, 2.28175931e-02, 3.09082568e-01,
          4.51876253e-01, 4.47808027e-01, 1.89462289e-01, 4.51876253e-01,
          4.51876253e-01, 1.18155666e-01, 1.43069431e-01, 1.28531426e-01,
          3.39055151e-01, 2.77390033e-01, 3.39055151e-01, 3.39055151e-01,
          3.39055151e-01, 3.39055151e-01, 3.39055151e-01, 3.39055151e-01,
          3.39055151e-01 ]
      - [ 4.23163086e-01, 4.23163086e-01, 3.06675076e-01, 0., 0.,
          7.99265206e-02, 4.23163086e-01, 4.23163086e-01, 4.23163086e-01,
          6.11821175e-01, 2.70748198e-01, 2.44092405e-01, 0., 0.,
          5.61300153e-03, 2.45911717e-01, 2.27708384e-01, 6.11821175e-01,
          4.07416344e-01, 4.07416344e-01, 4.07416344e-01, 1.11704157e-03,
          2.79248401e-04, 3.19711893e-04, 4.07416344e-01, 4.07416344e-01,
          4.07416344e-01, 3.72217536e-01, 3.72217536e-01, 2.76461601e-01,
          1.23362236e-01, 3.72217536e-01, 3.72217536e-01, 3.72217536e-01,
          2.70844251e-01, 3.72217536e-01, 5.29791653e-01, 2.48333402e-02,
          4.16727960e-02, 1.00940436e-01, 5.29791653e-01, 3.72921675e-01,
          2.45360602e-02, 2.13707238e-02, 5.29791653e-01, 3.60316604e-01,
          3.60316604e-01, 3.60316604e-01, 3.60316604e-01, 3.60316604e-01,
          2.22641632e-01, 3.60316604e-01, 3.60316604e-01, 1.95024595e-01,
          1.92394722e-02, 3.66479531e-02, 1.08600058e-01, 3.06863636e-01,
          6.65420234e-01, 6.65420234e-01, 0., 0., 1.07865259e-02,
          1.98471057e-03, 9.12271719e-03, 2.56393760e-01, 1.89496294e-01,
          7.11117148e-01, 6.20869279e-01, 0., 0., 1.23272568e-03, 0.,
          3.95252071e-02, 4.41544592e-01, 4.41544592e-01, 4.41544592e-01,
          4.41544592e-01, 4.41544592e-01, 1.38633072e-01, 0. ]
      - [ 4.07416642e-01, 4.07416642e-01, 4.07416642e-01, 0., 0., 0.,
          4.07416642e-01, 4.07416642e-01, 4.07416642e-01, 5.25990486e-01,
          1.00670792e-01, 8.34311694e-02, 0., 0., 0., 4.72895950e-01,
          4.47983384e-01, 5.25990486e-01, 4.07416642e-01, 4.07416642e-01,
          4.07416642e-01, 3.45649052e-04, 0., 0., 4.07416642e-01,
          4.07416642e-01, 4.07416642e-01, 3.75224441e-01, 3.75224441e-01,
          3.75224441e-01, 1.34261444e-01, 3.75224441e-01, 2.46077195e-01,
          3.75224441e-01, 2.70020485e-01, 3.75224441e-01, 5.38677156e-01,
          1.06554423e-02, 1.49801224e-02, 3.71274091e-02, 5.38677156e-01,
          3.37044418e-01, 7.04497993e-02, 6.18285052e-02, 5.38677156e-01,
          3.64282727e-01, 3.36017489e-01, 3.64282727e-01, 3.64282727e-01,
          3.64282727e-01, 1.65811509e-01, 3.64282727e-01, 3.64282727e-01,
          2.44433701e-01, 1.81651860e-02, 9.72309932e-02, 1.56242296e-01,
          3.14427137e-01, 7.39708126e-01, 5.58917403e-01, 0., 0., 0., 0.,
          2.16039200e-03, 8.91227424e-02, 7.84566402e-02, 8.07629049e-01,
          5.70589483e-01, 0., 0., 0., 0., 4.86698374e-03, 4.53197211e-01,
          4.53197211e-01, 4.53197211e-01, 3.79390746e-01, 4.53197211e-01,
          1.73093513e-01, 0. ]
      - [ 3.93961161e-01, 3.93961161e-01, 3.93961161e-01, 0., 0.,
          2.54621208e-01, 3.93961161e-01, 3.93961161e-01, 3.93961161e-01,
          6.10494018e-01, 1.07846655e-01, 2.50453115e-01, 0., 0.,
          8.90513957e-02, 3.29169422e-01, 2.40537301e-01, 6.10494018e-01,
          4.08266604e-01, 4.08266604e-01, 4.08266604e-01, 0., 0.,
          2.08123475e-01, 4.08266604e-01, 3.45250577e-01, 4.08266604e-01,
          3.68256062e-01, 3.68256062e-01, 3.68256062e-01, 4.60263006e-02,
          3.68256062e-01, 3.68256062e-01, 3.68256062e-01, 2.11930990e-01,
          3.68256062e-01, 5.23433626e-01, 1.85148735e-02, 5.64841293e-02,
          2.73776203e-02, 5.23433626e-01, 4.07320946e-01, 3.95866223e-02,
          3.26188281e-02, 5.23433626e-01, 3.67569178e-01, 3.15609485e-01,
          3.67569178e-01, 2.18531221e-01, 3.67569178e-01, 1.95754319e-01,
          3.67569178e-01, 3.67569178e-01, 3.67569178e-01, 1.36565212e-02,
          2.17880577e-01, 2.93033004e-01, 1.81089267e-01, 6.43137395e-01,
          6.43137395e-01, 2.71943398e-03, 0., 4.14707232e-04,
          5.74526857e-05, 7.90167749e-02, 3.02827477e-01, 3.98242511e-02,
          7.01589406e-01, 6.33430779e-01, 0., 0., 0., 0., 2.61329710e-01,
          4.24028128e-01, 4.01645988e-01, 4.24028128e-01, 4.05312538e-01,
          3.95476878e-01, 2.92686701e-01, 1.43557303e-02 ]
      - [ 4.13183749e-01, 4.13183749e-01, 3.75589162e-01, 0., 0.,
          3.46584208e-02, 4.13183749e-01, 4.13183749e-01, 4.13183749e-01,
          6.53775513e-01, 4.67755161e-02, 3.09405215e-02, 0.,
          3.32072340e-02, 8.52035079e-03, 2.94082671e-01, 2.18684331e-01,
          6.53775513e-01, 4.07281071e-01, 4.07281071e-01, 4.07281071e-01,
          1.10463949e-03, 2.57377177e-02, 6.31946197e-04, 4.07281071e-01,
          4.07281071e-01, 4.07281071e-01, 3.98540705e-01, 3.98540705e-01,
          3.98540705e-01, 1.35791183e-01, 3.98540705e-01, 2.53569007e-01,
          2.95838684e-01, 1.77730396e-01, 3.98540705e-01, 5.31540096e-01,
          3.74149065e-03, 4.63142572e-03, 1.98839698e-02, 5.31540096e-01,
          3.81670386e-01, 2.59903353e-02, 1.75614562e-02, 5.31540096e-01,
          3.93350482e-01, 2.47673303e-01, 3.93350482e-01, 3.93350482e-01,
          3.93350482e-01, 1.57882407e-01, 3.93350482e-01, 3.17407638e-01,
          1.88230813e-01, 0., 5.55234849e-02, 1.74378023e-01,
          2.54771918e-01, 8.26035023e-01, 4.59372848e-01, 0., 0., 0., 0.,
          9.63363424e-03, 5.33339754e-02, 4.63308282e-02, 7.74567723e-01,
          6.22278333e-01, 0., 0., 0., 0., 1.19914986e-01, 4.39948618e-01,
          4.39948618e-01, 4.39948618e-01, 4.39948618e-01, 4.39948618e-01,
          1.15981840e-01, 0. ]
      - [ 4.05532748e-01, 4.05532748e-01, 7.64280260e-02, 0.,
          5.80240488e-02, 4.05532748e-01, 4.05532748e-01, 4.05532748e-01,
          4.05532748e-01, 4.50046867e-01, 4.50046867e-01, 3.79250618e-03,
          7.83289690e-03, 6.11651503e-02, 3.30345035e-01, 4.50046867e-01,
          4.50046867e-01, 2.69055784e-01, 4.67268467e-01, 4.67268467e-01,
          3.36872935e-02, 3.02200969e-02, 7.08528087e-02, 4.24999818e-02,
          3.88621241e-01, 4.24749732e-01, 4.67268467e-01, 3.37519586e-01,
          3.37519586e-01, 3.37519586e-01, 3.37519586e-01, 2.92013317e-01,
          3.37519586e-01, 3.37519586e-01, 3.37519586e-01, 3.37519586e-01,
          4.96560782e-01, 4.96560782e-01, 1.49021387e-01, 4.46600430e-02,
          2.88346559e-01, 4.96560782e-01, 3.41908395e-01, 5.41764535e-02,
          1.67751625e-01, 3.54408205e-01, 3.90301675e-01, 3.90301675e-01,
          2.87554443e-01, 2.67104149e-01, 3.90301675e-01, 3.90301675e-01,
          3.26463401e-01, 2.33175922e-02, 1.63150281e-01, 1.41506689e-02,
          2.10004136e-01, 5.89387238e-01, 5.89387238e-01, 4.21600580e-01,
          9.40662622e-03, 7.06528723e-02, 2.13571608e-01, 2.24465251e-01,
          8.40124190e-02, 2.39360258e-01, 8.99348110e-02, 6.52570367e-01,
          6.52570367e-01, 1.17855169e-01, 4.53181937e-03, 7.10919127e-02,
          3.22957436e-04, 1.42342806e-01, 4.39634234e-01, 4.39634234e-01,
          4.39634234e-01, 4.39634234e-01, 4.39634234e-01, 9.46341455e-02,
          6.53059833e-05 ]
      - [ 4.17784125e-01, 4.17784125e-01, 1.66124359e-01, 9.46998596e-04,
          6.85647875e-02, 4.17784125e-01, 4.17784125e-01, 3.01346064e-01,
          4.17784125e-01, 4.23871130e-01, 4.23871130e-01, 2.22952180e-02,
          7.78359547e-03, 7.30067790e-02, 4.23871130e-01, 4.23871130e-01,
          3.26722264e-01, 4.05541509e-01, 4.21714991e-01, 4.20142770e-01,
          1.99127182e-01, 9.00299400e-02, 1.32522002e-01, 2.52227873e-01,
          4.21714991e-01, 3.95978272e-01, 4.21714991e-01, 3.45118731e-01,
          3.45118731e-01, 3.45118731e-01, 3.45118731e-01, 2.09036663e-01,
          3.45118731e-01, 3.45118731e-01, 3.45118731e-01, 3.45118731e-01,
          4.95235026e-01, 4.95235026e-01, 1.06054589e-01, 2.27559675e-02,
          1.25570968e-01, 4.95235026e-01, 4.65512007e-01, 3.65533382e-02,
          1.17088482e-01, 2.16743901e-01, 4.39300686e-01, 4.39300686e-01,
          1.08729824e-01, 9.39620957e-02, 4.39300686e-01, 4.39300686e-01,
          3.89646918e-01, 6.49446845e-02, 3.03326547e-01, 7.81312659e-02,
          3.78668308e-01, 4.74665880e-01, 4.74665880e-01, 3.55040103e-01,
          6.70756847e-02, 1.56742513e-01, 3.84735942e-01, 3.89232874e-01,
          2.95734078e-01, 1.23810083e-01, 1.56251624e-01, 5.76124668e-01,
          5.76124668e-01, 1.96036324e-01, 7.47837266e-03, 1.14966311e-01,
          9.67043394e-04, 3.08045238e-01, 4.13152456e-01, 4.13152456e-01,
          4.13152456e-01, 4.13152456e-01, 4.13152456e-01, 2.17956617e-01,
          0. ]
      - [ 3.97812545e-01, 3.97812545e-01, 9.09057111e-02, 4.09614528e-04,
          1.95532501e-01, 3.97812545e-01, 3.97812545e-01, 3.97812545e-01,
          3.97812545e-01, 4.73071814e-01, 4.73071814e-01, 9.90382954e-03,
          1.04323551e-02, 7.61540905e-02, 3.25896591e-01, 4.73071814e-01,
          4.25098032e-01, 1.75956726e-01, 4.40134197e-01, 4.40134197e-01,
          8.06816593e-02, 5.29474542e-02, 9.25834998e-02, 9.55424607e-02,
          4.40134197e-01, 4.40134197e-01, 4.40134197e-01, 3.36667985e-01,
          3.36667985e-01, 3.36667985e-01, 3.36667985e-01, 2.99789041e-01,
          3.36667985e-01, 3.36667985e-01, 3.36667985e-01, 3.36667985e-01,
          4.96600449e-01, 4.96600449e-01, 1.08904190e-01, 2.92267669e-02,
          1.23384528e-01, 4.96600449e-01, 4.61627960e-01, 4.74341549e-02,
          1.09159164e-01, 9.30188820e-02, 4.55501556e-01, 4.55501556e-01,
          2.12722033e-01, 1.39737353e-01, 4.55501556e-01, 4.55501556e-01,
          3.03453326e-01, 3.11499345e-03, 1.91215515e-01, 4.07866165e-02,
          1.85432270e-01, 6.37248158e-01, 6.37248158e-01, 1.87385127e-01,
          1.01207132e-02, 1.21708125e-01, 2.42542446e-01, 1.72923639e-01,
          1.27303675e-01, 1.74475744e-01, 6.64995164e-02, 6.44488752e-01,
          6.44488752e-01, 2.79659957e-01, 1.26794251e-02, 5.90837300e-02,
          3.08643351e-03, 2.54354209e-01, 4.29323524e-01, 4.29323524e-01,
          4.29323524e-01, 4.29323524e-01, 4.29323524e-01, 9.69020501e-02,
          4.72078705e-03 ]
      - [ 4.16508198e-01, 4.16508198e-01, 1.55635864e-01, 0., 0.,
          3.22833300e-01, 4.16508198e-01, 4.16508198e-01, 4.16508198e-01,
          6.60246730e-01, 6.60246730e-01, 3.89892794e-03, 1.45680774e-02,
          5.18414825e-02, 1.40560985e-01, 2.38056287e-01, 1.99134424e-01,
          5.05894646e-02, 4.43310946e-01, 4.43310946e-01, 3.76979224e-02,
          4.11287211e-02, 7.69582614e-02, 6.25577867e-02, 4.43310946e-01,
          4.43310946e-01, 4.43310946e-01, 3.65646154e-01, 2.80030638e-01,
          3.65646154e-01, 3.65646154e-01, 1.83581010e-01, 2.86435485e-01,
          3.65646154e-01, 3.65646154e-01, 3.65646154e-01, 5.48704803e-01,
          5.48704803e-01, 1.36422351e-01, 3.99805084e-02, 1.94632694e-01,
          5.48704803e-01, 1.23086892e-01, 3.27400081e-02, 1.30291671e-01,
          1.99250251e-01, 4.15709227e-01, 4.15709227e-01, 2.05374092e-01,
          2.22894922e-01, 4.15709227e-01, 4.15709227e-01, 4.15709227e-01,
          1.46705005e-02, 1.80849165e-01, 2.24680044e-02, 2.54953355e-01,
          5.32693744e-01, 5.32693744e-01, 5.32693744e-01, 2.42385417e-02,
          6.93294182e-02, 1.99463934e-01, 2.12391689e-01, 1.11339174e-01,
          3.39843601e-01, 6.28755316e-02, 6.35574281e-01, 6.35574281e-01,
          6.94898441e-02, 2.04039887e-02, 5.95498569e-02, 5.51818579e-04,
          2.77464539e-01, 4.21649694e-01, 4.21649694e-01, 4.21649694e-01,
          4.21649694e-01, 4.21649694e-01, 1.72796384e-01, 4.01202560e-04 ]
      - [ 4.10791487e-01, 4.10791487e-01, 1.77398488e-01, 2.23255455e-02,
          3.23851742e-02, 3.45153183e-01, 4.10791487e-01, 4.10791487e-01,
          4.10791487e-01, 5.90553820e-01, 5.90553820e-01, 5.54547980e-02,
          7.01111406e-02, 2.24427402e-01, 2.64705628e-01, 2.90430158e-01,
          2.75686145e-01, 8.84056836e-02, 4.42706168e-01, 4.42706168e-01,
          4.14500758e-02, 4.15688381e-02, 8.34245831e-02, 7.23072588e-02,
          4.42706168e-01, 4.42706168e-01, 4.42706168e-01, 3.62309277e-01,
          3.00009847e-01, 3.62309277e-01, 3.62309277e-01, 1.65176630e-01,
          3.02461445e-01, 3.62309277e-01, 3.62309277e-01, 3.62309277e-01,
          5.49275577e-01, 5.49275577e-01, 1.39986485e-01, 4.01136279e-02,
          1.83512002e-01, 5.49275577e-01, 1.37135267e-01, 3.32712270e-02,
          1.20867349e-01, 1.84780717e-01, 4.14790630e-01, 4.14790630e-01,
          2.38492042e-01, 2.10756406e-01, 4.14790630e-01, 4.14790630e-01,
          4.14790630e-01, 1.26254782e-02, 1.75370887e-01, 1.45317828e-02,
          1.94223404e-01, 5.42266190e-01, 5.42266190e-01, 5.42266190e-01,
          5.46459947e-03, 7.36928955e-02, 1.95645973e-01, 2.21780419e-01,
          9.59893018e-02, 2.79049128e-01, 6.58985451e-02, 6.49405181e-01,
          6.49405181e-01, 7.66343251e-02, 7.25330319e-03, 5.93757965e-02,
          1.91525870e-03, 1.66606247e-01, 4.42380250e-01, 4.42380250e-01,
          3.94715488e-01, 4.42380250e-01, 4.42380250e-01, 1.70922533e-01,
          1.92303536e-03 ]
      - [ 4.00493592e-01, 4.00493592e-01, 4.43163067e-02, 0.,
          1.77945301e-01, 4.00493592e-01, 4.00493592e-01, 4.00493592e-01,
          4.00493592e-01, 4.96587604e-01, 4.96587604e-01, 3.86819313e-03,
          0., 2.92714722e-02, 3.38715851e-01, 4.96587604e-01,
          3.46692860e-01, 1.39450163e-01, 5.17755449e-01, 5.17755449e-01,
          1.28322527e-01, 8.65783393e-02, 1.36555791e-01, 3.68959785e-01,
          2.10289672e-01, 2.60127962e-01, 4.09949034e-01, 3.76200914e-01,
          2.61146337e-01, 3.18508983e-01, 2.98031360e-01, 1.73602685e-01,
          3.76200914e-01, 3.76200914e-01, 3.76200914e-01, 3.76200914e-01,
          5.63970804e-01, 5.63970804e-01, 1.08551234e-03, 2.71017343e-04,
          5.86827770e-02, 5.63970804e-01, 1.86878055e-01, 1.09368900e-03,
          4.25374582e-02, 4.01792079e-01, 4.40563112e-01, 4.40563112e-01,
          1.30975306e-01, 1.41861856e-01, 4.40563112e-01, 4.40563112e-01,
          1.42747506e-01, 1.10780867e-02, 4.48974818e-01, 5.75854443e-02,
          9.23852548e-02, 4.48974818e-01, 4.48974818e-01, 3.38924557e-01,
          1.27125364e-02, 2.49637812e-01, 4.48974818e-01, 5.44634819e-01,
          3.02250504e-01, 0., 1.54881356e-02, 5.44634819e-01,
          5.44634819e-01, 9.55171511e-02, 8.87873466e-05, 6.29360974e-02,
          9.51357558e-03, 4.19058502e-01, 4.39047158e-01, 3.93880486e-01,
          2.75585949e-01, 4.39047158e-01, 4.39047158e-01, 1.02643602e-01,
          1.17711932e-03 ]
      - [ 4.20863599e-01, 4.20863599e-01, 5.81726283e-02, 3.16595542e-03,
          8.70700739e-03, 4.20863599e-01, 4.20863599e-01, 3.26642096e-01,
          4.20863599e-01, 3.90145808e-01, 3.90145808e-01, 2.91176468e-01,
          1.01744778e-01, 1.59634501e-01, 3.90145808e-01, 3.90145808e-01,
          3.90145808e-01, 3.38252455e-01, 4.54469919e-01, 4.54469919e-01,
          1.08952567e-01, 5.89198656e-02, 1.46971956e-01, 1.59588754e-01,
          4.54469919e-01, 4.54469919e-01, 3.26920927e-01, 3.32778692e-01,
          3.32778692e-01, 3.32778692e-01, 3.32778692e-01, 3.32778692e-01,
          3.32778692e-01, 3.32778692e-01, 3.32778692e-01, 3.32778692e-01,
          4.86992270e-01, 4.86992270e-01, 2.54217461e-02, 1.01128845e-02,
          3.73116374e-01, 4.86992270e-01, 2.18609944e-01, 2.96737459e-02,
          3.08247089e-01, 4.20279503e-01, 4.20279503e-01, 4.20279503e-01,
          1.26387924e-01, 1.92835927e-01, 4.20279503e-01, 4.20279503e-01,
          2.43726179e-01, 8.07417370e-03, 2.69751787e-01, 8.55619647e-03,
          1.44316271e-01, 5.61506987e-01, 5.61506987e-01, 5.83868213e-02,
          9.39854514e-03, 1.90310389e-01, 4.80032086e-01, 5.42978823e-01,
          2.00818300e-01, 1.17913291e-01, 5.42821772e-02, 5.42978823e-01,
          5.42978823e-01, 7.86878765e-02, 1.64551921e-02, 2.15543479e-01,
          1.87704172e-02, 4.06965345e-01, 4.06965345e-01, 4.06965345e-01,
          4.06965345e-01, 4.06965345e-01, 4.06965345e-01, 4.30853851e-02,
          1.00675749e-03 ]
      - [ 4.14145947e-01, 4.14145947e-01, 9.28930268e-02, 2.85230274e-03,
          6.40646974e-03, 4.14145947e-01, 4.14145947e-01, 3.60000253e-01,
          4.14145947e-01, 4.31538910e-01, 4.31538910e-01, 3.41288485e-02,
          2.98883189e-02, 7.24842697e-02, 4.31538910e-01, 4.31538910e-01,
          3.86939079e-01, 3.06189477e-01, 4.49106038e-01, 4.49106038e-01,
          1.43511608e-01, 6.87819794e-02, 1.28963292e-01, 1.65773541e-01,
          4.00805146e-01, 4.49106038e-01, 4.00426626e-01, 3.39727610e-01,
          3.39727610e-01, 3.39727610e-01, 3.39727610e-01, 2.70715207e-01,
          3.39727610e-01, 3.39727610e-01, 3.39727610e-01, 3.39727610e-01,
          5.13091803e-01, 5.13091803e-01, 3.40377651e-02, 1.61264390e-02,
          4.05984521e-01, 5.13091803e-01, 7.72176236e-02, 5.27183600e-02,
          1.73500165e-01, 4.16542858e-01, 4.16542858e-01, 4.16542858e-01,
          1.24093235e-01, 2.24185467e-01, 4.16542858e-01, 4.16542858e-01,
          2.47896150e-01, 3.44712883e-02, 2.05173150e-01, 1.56707130e-02,
          1.36345208e-01, 5.22331893e-01, 5.22331893e-01, 5.09869874e-01,
          2.15644930e-02, 1.39506832e-01, 3.29084128e-01, 4.35734570e-01,
          2.24366054e-01, 2.00232640e-01, 1.61956057e-01, 5.81549823e-01,
          5.81549823e-01, 7.52552133e-03, 1.69442277e-02, 1.04504697e-01,
          2.38583679e-03, 4.14904356e-01, 4.14904356e-01, 4.14904356e-01,
          4.14904356e-01, 4.14904356e-01, 3.64950597e-01, 4.39527743e-02,
          8.20090063e-04 ]
      - [ 4.39029902e-01, 4.39029902e-01, 2.85486311e-01, 0.,
          1.59146366e-04, 2.05564484e-01, 4.39029902e-01, 4.39029902e-01,
          3.17594707e-01, 6.42519295e-01, 6.42519295e-01, 2.60046963e-02,
          0., 2.28071352e-04, 2.22914577e-01, 3.26542646e-01,
          1.04378276e-01, 5.57442941e-03, 4.16301966e-01, 4.16301966e-01,
          1.86855033e-01, 6.32492900e-02, 1.55391112e-01, 3.69835079e-01,
          4.16301966e-01, 4.16301966e-01, 3.20581287e-01, 3.84316534e-01,
          2.59595513e-01, 3.84316534e-01, 3.84316534e-01, 1.84082031e-01,
          9.32176933e-02, 3.84316534e-01, 3.84316534e-01, 3.84316534e-01,
          5.57697475e-01, 5.57697475e-01, 5.74032264e-03, 1.54589454e-03,
          1.22471817e-01, 5.57697475e-01, 1.88656986e-01, 1.06378142e-02,
          1.03015020e-01, 2.55154908e-01, 4.61668700e-01, 4.61668700e-01,
          4.50703129e-02, 9.42281112e-02, 4.61668700e-01, 4.61668700e-01,
          2.58460701e-01, 4.51369118e-03, 3.52404833e-01, 3.50390747e-02,
          1.54327750e-01, 4.87452179e-01, 4.87452179e-01, 3.10861230e-01,
          2.66078822e-02, 2.20913395e-01, 4.73849088e-01, 5.46501875e-01,
          2.32578844e-01, 1.91623289e-02, 1.53214699e-02, 5.57627499e-01,
          5.57627499e-01, 9.19576958e-02, 6.18443964e-03, 1.03349365e-01,
          6.86665159e-03, 4.20867443e-01, 4.20867443e-01, 4.03181553e-01,
          3.23850393e-01, 4.20867443e-01, 4.20867443e-01, 1.40700161e-01,
          5.26637195e-05 ]
      - [ 4.12891954e-01, 4.12891954e-01, 1.52013272e-01, 0.,
          5.92115357e-05, 3.46941620e-01, 4.12891954e-01, 4.12891954e-01,
          4.12891954e-01, 6.73576236e-01, 6.73576236e-01, 2.04310957e-02,
          1.75384954e-02, 3.29172201e-02, 1.34039819e-01, 2.39314958e-01,
          9.18065384e-02, 1.97613388e-02, 4.41360235e-01, 4.41360235e-01,
          6.57446757e-02, 4.25878689e-02, 6.58559725e-02, 1.05469376e-01,
          4.41360235e-01, 4.41360235e-01, 4.41360235e-01, 3.70147288e-01,
          2.63535768e-01, 3.70147288e-01, 3.70147288e-01, 2.58492380e-01,
          1.94880784e-01, 3.70147288e-01, 3.70147288e-01, 3.70147288e-01,
          5.53549111e-01, 5.53549111e-01, 1.16381451e-01, 2.71953717e-02,
          1.75542310e-01, 5.53549111e-01, 9.60248262e-02, 8.93076789e-03,
          1.44300297e-01, 2.14430645e-01, 4.24471378e-01, 4.24471378e-01,
          1.63551927e-01, 1.46898821e-01, 4.24471378e-01, 4.24471378e-01,
          4.24471378e-01, 2.38941777e-02, 2.43638068e-01, 1.57336891e-02,
          2.00283438e-01, 5.54744303e-01, 5.54744303e-01, 3.86087209e-01,
          6.98783295e-03, 1.07549481e-01, 3.44351828e-01, 3.45568836e-01,
          1.41427368e-01, 2.28772625e-01, 4.85588759e-02, 6.28809392e-01,
          6.28809392e-01, 4.60533649e-02, 1.10638642e-03, 8.17487314e-02,
          1.78056932e-03, 2.24044830e-01, 4.04983431e-01, 4.04983431e-01,
          4.04983431e-01, 4.04983431e-01, 4.04983431e-01, 3.54537934e-01,
          0. ]
      - [ 4.07032728e-01, 4.07032728e-01, 2.83384055e-01, 0., 0.,
          2.95379400e-01, 4.07032728e-01, 4.07032728e-01, 4.07032728e-01,
          6.46942079e-01, 6.46942079e-01, 2.39019725e-03, 0.,
          3.79227810e-02, 9.61005911e-02, 3.50787729e-01, 1.43069655e-01,
          4.76722009e-02, 4.67562288e-01, 4.67562288e-01, 2.70823445e-02,
          5.23623340e-02, 8.97014067e-02, 5.51372245e-02, 4.05799985e-01,
          4.00313526e-01, 4.67562288e-01, 3.83678764e-01, 2.71887004e-01,
          3.83678764e-01, 3.83678764e-01, 1.20488688e-01, 1.56430990e-01,
          3.83678764e-01, 3.83678764e-01, 3.83678764e-01, 5.41115701e-01,
          5.41115701e-01, 8.33463203e-03, 5.52136358e-03, 2.00877637e-01,
          5.41115701e-01, 1.20507464e-01, 3.29918191e-02, 2.45184034e-01,
          3.87319148e-01, 3.87319148e-01, 3.87319148e-01, 2.49166831e-01,
          2.51204014e-01, 3.87319148e-01, 3.87319148e-01, 3.42918754e-01,
          5.71763068e-02, 1.61339194e-01, 2.05298178e-02, 2.27691948e-01,
          5.34978449e-01, 5.34978449e-01, 4.76964295e-01, 6.05150918e-03,
          9.77192298e-02, 3.26921284e-01, 3.42529386e-01, 1.15781590e-01,
          3.03196274e-02, 6.64751083e-02, 6.49296701e-01, 6.49296701e-01,
          3.39516923e-02, 4.40644659e-03, 1.14468761e-01, 2.56239693e-03,
          3.40756774e-01, 4.21694905e-01, 3.71679366e-01, 4.21694905e-01,
          4.21694905e-01, 4.21694905e-01, 1.73821613e-01, 1.12642983e-05 ]
      - [ 4.05057013e-01, 4.05057013e-01, 1.07361481e-01, 0., 0.,
          4.05057013e-01, 4.05057013e-01, 4.05057013e-01, 4.05057013e-01,
          3.74622196e-01, 3.74622196e-01, 3.74622196e-01, 3.74622196e-01,
          1.96842141e-02, 1.16090864e-01, 3.74622196e-01, 3.74622196e-01,
          3.74622196e-01, 4.18394327e-01, 3.24325442e-01, 4.18394327e-01,
          4.18394327e-01, 3.35143991e-02, 0., 1.19335495e-01,
          4.18394327e-01, 4.18394327e-01, 3.38194013e-01, 3.38194013e-01,
          3.38194013e-01, 3.38194013e-01, 2.85691112e-01, 3.38194013e-01,
          3.38194013e-01, 3.38194013e-01, 3.38194013e-01, 3.86656851e-01,
          3.86656851e-01, 1.44318759e-01, 3.86656851e-01, 3.76946151e-01,
          2.40155712e-01, 1.67417645e-01, 3.86656851e-01, 3.86656851e-01,
          3.47235769e-01, 3.47235769e-01, 3.47235769e-01, 3.47235769e-01,
          1.78743631e-01, 3.47235769e-01, 3.47235769e-01, 3.47235769e-01,
          3.47235769e-01, 1.39552474e-01, 2.21419744e-02, 2.35088021e-01,
          5.47649324e-01, 5.47649324e-01, 5.47649324e-01, 1.03296116e-02,
          4.56655659e-02, 1.31712481e-01, 1.94487780e-01, 2.15795022e-02,
          1.51806977e-02, 5.43064475e-01, 5.43064475e-01, 5.43064475e-01,
          4.75322735e-03, 9.68753323e-02, 2.48778269e-01, 2.70608932e-01,
          9.26019996e-02, 1.29851233e-02, 2.30597466e-01, 6.17435873e-01,
          6.17435873e-01, 2.77004391e-01, 1.06122131e-02, 1.39244467e-01 ]
      - [ 4.28212970e-01, 4.28212970e-01, 1.64525717e-01, 1.35200666e-04,
          7.58802742e-02, 4.28212970e-01, 4.28212970e-01, 2.14625359e-01,
          4.28212970e-01, 3.59796792e-01, 3.59796792e-01, 3.59796792e-01,
          3.59796792e-01, 1.63363919e-01, 2.52074331e-01, 3.59796792e-01,
          3.59796792e-01, 3.59796792e-01, 4.06421512e-01, 1.80249497e-01,
          4.06421512e-01, 4.06421512e-01, 2.57917792e-01, 7.65244896e-03,
          2.66416222e-01, 4.06421512e-01, 4.06421512e-01, 3.44587058e-01,
          3.44587058e-01, 3.44587058e-01, 3.44587058e-01, 2.15952188e-01,
          3.44587058e-01, 3.44587058e-01, 3.44587058e-01, 3.44587058e-01,
          3.55028003e-01, 3.55028003e-01, 3.55028003e-01, 2.71235704e-01,
          3.55028003e-01, 2.01419756e-01, 3.55028003e-01, 3.55028003e-01,
          3.55028003e-01, 3.47913206e-01, 3.47913206e-01, 3.47913206e-01,
          3.35222870e-01, 2.98445374e-01, 3.47913206e-01, 3.47913206e-01,
          3.47913206e-01, 2.62332737e-01, 2.54056841e-01, 1.34286031e-01,
          3.12319934e-01, 5.27407765e-01, 5.27407765e-01, 2.67579585e-01,
          5.15726022e-02, 2.86527842e-01, 3.19275707e-01, 2.71724492e-01,
          1.43628165e-01, 4.66405451e-02, 5.13824105e-01, 5.13824105e-01,
          4.50815678e-01, 5.20501174e-02, 2.36855894e-01, 3.28868866e-01,
          4.09157515e-01, 2.80654997e-01, 5.53709194e-02, 1.13460943e-01,
          5.16303301e-01, 5.16303301e-01, 3.80005121e-01, 8.61572176e-02,
          2.18545735e-01 ]
      - [ 4.27307904e-01, 4.27307904e-01, 1.74729958e-01, 5.40593464e-05,
          6.79073706e-02, 4.27307904e-01, 4.27307904e-01, 2.18241423e-01,
          4.27307904e-01, 3.61981362e-01, 3.61981362e-01, 3.61981362e-01,
          3.61981362e-01, 1.45334646e-01, 2.40931436e-01, 3.61981362e-01,
          3.61981362e-01, 3.61981362e-01, 4.10997391e-01, 2.45880514e-01,
          4.10997391e-01, 4.10997391e-01, 2.26281375e-01, 4.05502832e-03,
          1.99055478e-01, 4.10997391e-01, 4.10997391e-01, 3.44897211e-01,
          3.44897211e-01, 3.44897211e-01, 3.44897211e-01, 2.11946428e-01,
          3.44897211e-01, 3.44897211e-01, 3.44897211e-01, 3.44897211e-01,
          3.53936285e-01, 3.53936285e-01, 3.53936285e-01, 2.84002811e-01,
          3.53936285e-01, 1.97256312e-01, 3.53936285e-01, 3.53936285e-01,
          3.53936285e-01, 3.47338945e-01, 3.47338945e-01, 3.47338945e-01,
          3.47338945e-01, 2.90819466e-01, 3.47338945e-01, 3.47338945e-01,
          3.47338945e-01, 2.59698361e-01, 2.31297716e-01, 1.38455316e-01,
          3.07727188e-01, 5.36138177e-01, 5.36138177e-01, 2.70093322e-01,
          5.01804128e-02, 2.83734053e-01, 3.10514867e-01, 2.63120472e-01,
          1.43228218e-01, 4.53163907e-02, 5.17007768e-01, 5.17007768e-01,
          4.39795017e-01, 5.06719537e-02, 2.47318313e-01, 3.33599597e-01,
          4.06941414e-01, 2.87441045e-01, 5.65888211e-02, 1.24127239e-01,
          5.16564727e-01, 5.16564727e-01, 3.74770910e-01, 8.96704569e-02,
          2.14091733e-01 ]
      - [ 4.12799984e-01, 4.12799984e-01, 1.15683623e-01, 1.33537804e-04,
          3.18701528e-02, 4.12799984e-01, 4.12799984e-01, 3.59803885e-01,
          4.12799984e-01, 3.69147032e-01, 3.69147032e-01, 3.69147032e-01,
          3.69147032e-01, 3.22455429e-02, 2.03433976e-01, 3.69147032e-01,
          3.69147032e-01, 3.69147032e-01, 4.18724209e-01, 3.04627031e-01,
          4.18724209e-01, 4.18724209e-01, 5.09451404e-02, 1.16630422e-03,
          1.54184237e-01, 4.18724209e-01, 4.18724209e-01, 3.41744870e-01,
          3.41744870e-01, 3.41744870e-01, 3.41744870e-01, 2.49537736e-01,
          3.41744870e-01, 3.41744870e-01, 3.41744870e-01, 3.41744870e-01,
          4.01888043e-01, 4.01888043e-01, 1.64816350e-01, 4.01888043e-01,
          3.41287941e-01, 1.80116728e-01, 1.11046053e-01, 4.01888043e-01,
          4.01888043e-01, 3.55777591e-01, 3.55777591e-01, 3.55777591e-01,
          3.55777591e-01, 1.52674556e-01, 3.55777591e-01, 3.55777591e-01,
          3.55777591e-01, 2.95113415e-01, 1.28432438e-01, 3.19402143e-02,
          1.76356509e-01, 5.49806237e-01, 5.49806237e-01, 5.49806237e-01,
          2.73326784e-03, 5.79955988e-02, 1.88841686e-01, 1.42835379e-01,
          4.80849668e-02, 2.11712974e-03, 5.53233802e-01, 5.53233802e-01,
          5.53233802e-01, 3.05424584e-03, 1.20685101e-01, 1.97432697e-01,
          2.43700862e-01, 1.36524498e-01, 1.00580202e-02, 2.72874504e-01,
          5.80066979e-01, 5.80066979e-01, 3.88546258e-01, 3.22652757e-02,
          1.29044175e-01 ]
      - [ 4.20813709e-01, 4.20813709e-01, 3.28451902e-01, 0., 0.,
          4.99476679e-02, 4.20813709e-01, 4.20813709e-01, 4.20813709e-01,
          4.07060385e-01, 4.07060385e-01, 4.07060385e-01, 4.08860669e-02,
          0., 8.54243431e-03, 4.07060385e-01, 4.07060385e-01,
          4.07060385e-01, 3.79511029e-01, 4.08159018e-01, 4.08159018e-01,
          1.37567788e-01, 2.28865945e-04, 2.16983928e-04, 4.08159018e-01,
          4.08159018e-01, 4.08159018e-01, 3.15475225e-01, 3.86824816e-01,
          3.86824816e-01, 3.28713715e-01, 1.16209522e-01, 2.01793537e-01,
          3.86824816e-01, 3.86824816e-01, 3.68509501e-01, 3.69396359e-01,
          3.69396359e-01, 3.69396359e-01, 2.06163108e-01, 2.79904157e-01,
          2.38197058e-01, 3.69396359e-01, 3.69396359e-01, 3.69396359e-01,
          3.87888819e-01, 3.94690365e-01, 3.94690365e-01, 6.36027306e-02,
          3.87391970e-02, 3.94690365e-01, 3.94690365e-01, 3.94690365e-01,
          2.47286677e-01, 1.36979327e-01, 6.13494366e-02, 4.40131634e-01,
          4.93575156e-01, 4.93575156e-01, 4.93575156e-01, 5.56166470e-02,
          1.16325960e-01, 1.77068681e-01, 1.55350283e-01, 1.04631707e-01,
          4.69541609e-01, 4.69541609e-01, 4.69541609e-01, 4.69541609e-01,
          1.24487527e-01, 1.26397669e-01, 2.16512963e-01, 2.30367348e-01,
          1.42750293e-01, 6.65451884e-02, 2.31708288e-01, 5.30298769e-01,
          5.30298769e-01, 5.30298769e-01, 3.46827693e-02, 1.35229692e-01 ]
      - [ 4.05164689e-01, 4.05164689e-01, 6.65061176e-02, 0.,
          8.11102986e-02, 4.05164689e-01, 4.05164689e-01, 4.05164689e-01,
          4.05164689e-01, 3.64691705e-01, 3.64691705e-01, 3.64691705e-01,
          3.64691705e-01, 2.46745646e-02, 2.54455090e-01, 3.64691705e-01,
          3.64691705e-01, 3.64691705e-01, 4.19110835e-01, 3.24749589e-01,
          4.19110835e-01, 4.19110835e-01, 6.64156256e-03, 0.,
          1.09715544e-01, 4.19110835e-01, 4.19110835e-01, 3.55048567e-01,
          3.55048567e-01, 3.55048567e-01, 2.75634974e-01, 1.95093647e-01,
          3.55048567e-01, 3.55048567e-01, 3.55048567e-01, 3.55048567e-01,
          3.98766607e-01, 3.98766607e-01, 1.54519573e-01, 3.95073473e-01,
          2.32814670e-01, 2.23692432e-01, 2.75239438e-01, 3.98766607e-01,
          3.98766607e-01, 3.61503571e-01, 3.61503571e-01, 3.61503571e-01,
          3.61503571e-01, 5.10646962e-02, 3.61503571e-01, 3.61503571e-01,
          3.61503571e-01, 2.81046152e-01, 2.51596719e-01, 5.58385029e-02,
          1.72153786e-01, 5.15842140e-01, 5.15842140e-01, 5.15842140e-01,
          1.55374259e-02, 1.17868938e-01, 2.93902308e-01, 2.13159621e-01,
          8.05772841e-02, 2.34274119e-02, 5.27576566e-01, 5.27576566e-01,
          5.27576566e-01, 2.08430756e-02, 1.95556685e-01, 2.61848778e-01,
          3.73128086e-01, 2.11829484e-01, 1.99166313e-02, 3.67511719e-01,
          5.25155544e-01, 5.25155544e-01, 2.95290381e-01, 5.41072413e-02,
          1.83021531e-01 ]
      - [ 4.06359524e-01, 4.06359524e-01, 5.08938432e-02, 0.,
          5.08137457e-02, 4.06359524e-01, 4.06359524e-01, 4.06359524e-01,
          4.06359524e-01, 3.75175446e-01, 3.75175446e-01, 3.75175446e-01,
          3.75175446e-01, 5.98586462e-02, 8.58629048e-02, 3.75175446e-01,
          3.75175446e-01, 3.75175446e-01, 4.19326156e-01, 3.11272949e-01,
          4.19326156e-01, 4.19326156e-01, 1.20277099e-01, 0.,
          7.26737455e-02, 4.19326156e-01, 4.19326156e-01, 3.54068249e-01,
          3.54068249e-01, 3.54068249e-01, 2.52832264e-01, 2.34495416e-01,
          3.54068249e-01, 3.54068249e-01, 3.54068249e-01, 3.54068249e-01,
          4.02718604e-01, 4.02718604e-01, 2.18245953e-01, 2.90795028e-01,
          1.91719055e-01, 1.26950055e-01, 4.02718604e-01, 4.02718604e-01,
          4.02718604e-01, 3.65798920e-01, 3.65798920e-01, 3.65798920e-01,
          3.65798920e-01, 8.51733461e-02, 3.14611942e-01, 3.65798920e-01,
          3.65798920e-01, 2.95392931e-01, 4.33251381e-01, 1.44020930e-01,
          9.40596461e-02, 4.33251381e-01, 4.33251381e-01, 4.33251381e-01,
          2.50477251e-02, 1.64078683e-01, 4.33251381e-01, 2.42016077e-01,
          1.02759302e-01, 6.55501708e-02, 4.41859633e-01, 4.41859633e-01,
          4.35418993e-01, 4.78689745e-02, 3.80206764e-01, 4.41859633e-01,
          4.66452032e-01, 3.59211773e-01, 2.53711976e-02, 1.84912726e-01,
          4.66452032e-01, 4.66452032e-01, 1.98243558e-01, 5.71730658e-02,
          3.69011581e-01 ]
      - [ 4.06833798e-01, 4.06833798e-01, 3.80956978e-02, 0.,
          3.74458432e-02, 4.06833798e-01, 4.06833798e-01, 4.06833798e-01,
          4.06833798e-01, 3.76054615e-01, 3.76054615e-01, 3.76054615e-01,
          3.57268125e-01, 4.31905612e-02, 1.35035440e-01, 3.76054615e-01,
          3.76054615e-01, 3.76054615e-01, 4.10852760e-01, 3.72926116e-01,
          4.10852760e-01, 4.10852760e-01, 9.78626609e-02, 1.99232204e-03,
          5.69284372e-02, 4.10852760e-01, 4.10852760e-01, 3.59668523e-01,
          3.59668523e-01, 3.59668523e-01, 2.62373388e-01, 1.48447379e-01,
          3.59668523e-01, 3.59668523e-01, 3.59668523e-01, 3.59668523e-01,
          4.05588776e-01, 4.05588776e-01, 2.61044800e-01, 2.51937300e-01,
          1.61459073e-01, 1.25504002e-01, 4.05588776e-01, 4.05588776e-01,
          4.05588776e-01, 3.72510761e-01, 3.72510761e-01, 3.72510761e-01,
          3.72510761e-01, 6.92781284e-02, 2.63577819e-01, 3.72510761e-01,
          3.72510761e-01, 2.99031913e-01, 4.29467350e-01, 1.42589688e-01,
          1.16225615e-01, 4.29467350e-01, 4.29467350e-01, 4.29467350e-01,
          2.25116517e-02, 1.97868571e-01, 4.29467350e-01, 2.53582418e-01,
          1.15695633e-01, 7.19175339e-02, 4.27771151e-01, 4.27771151e-01,
          4.27771151e-01, 4.94542047e-02, 4.22453463e-01, 4.27771151e-01,
          4.50003862e-01, 3.72402579e-01, 3.65526676e-02, 2.09659189e-01,
          4.50003862e-01, 4.50003862e-01, 2.05706179e-01, 7.71918669e-02,
          3.94644320e-01 ]
      - [ 4.06344861e-01, 4.06344861e-01, 4.91620563e-02, 0.,
          5.31687699e-02, 4.06344861e-01, 4.06344861e-01, 4.06344861e-01,
          4.06344861e-01, 3.73402238e-01, 3.73402238e-01, 3.73402238e-01,
          3.73402238e-01, 4.83270660e-02, 1.33900180e-01, 3.73402238e-01,
          3.73402238e-01, 3.73402238e-01, 4.12765980e-01, 3.44295532e-01,
          4.12765980e-01, 4.12765980e-01, 1.46019548e-01, 0.,
          6.43168166e-02, 4.12765980e-01, 4.12765980e-01, 3.50379288e-01,
          3.50379288e-01, 3.50379288e-01, 2.80213505e-01, 2.42116198e-01,
          3.50379288e-01, 3.50379288e-01, 3.50379288e-01, 3.50379288e-01,
          3.97593200e-01, 3.97593200e-01, 2.17325166e-01, 3.20374370e-01,
          1.98141098e-01, 1.28438205e-01, 3.97593200e-01, 3.97593200e-01,
          3.97593200e-01, 3.58032793e-01, 3.58032793e-01, 3.58032793e-01,
          3.58032793e-01, 1.04794815e-01, 3.22828680e-01, 3.58032793e-01,
          3.58032793e-01, 3.34810078e-01, 4.24712479e-01, 1.24416657e-01,
          8.33519623e-02, 4.38936055e-01, 4.38936055e-01, 4.38936055e-01,
          2.09659394e-02, 1.47338480e-01, 4.38936055e-01, 2.27336094e-01,
          9.39787850e-02, 4.14330885e-02, 4.48501438e-01, 4.48501438e-01,
          4.48501438e-01, 4.26285751e-02, 3.56171817e-01, 4.48501438e-01,
          4.77476269e-01, 2.87424803e-01, 2.61646826e-02, 2.28944853e-01,
          4.77476269e-01, 4.77476269e-01, 1.45041332e-01, 6.58141077e-02,
          3.87554258e-01 ]
      - [ 4.05786186e-01, 4.05786186e-01, 8.70684385e-02, 6.82945037e-03,
          1.85475480e-02, 4.05786186e-01, 4.05786186e-01, 4.05786186e-01,
          4.05786186e-01, 4.05034989e-01, 4.05034989e-01, 3.25008452e-01,
          7.70745501e-02, 1.56742275e-01, 1.98866740e-01, 4.05034989e-01,
          4.05034989e-01, 4.05034989e-01, 3.90482783e-01, 3.90482783e-01,
          3.90482783e-01, 2.83450127e-01, 1.52280424e-02, 2.57319417e-02,
          3.90482783e-01, 3.90482783e-01, 3.90482783e-01, 3.32778692e-01,
          3.32778692e-01, 3.32778692e-01, 3.32778692e-01, 3.32778692e-01,
          3.32778692e-01, 3.32778692e-01, 3.32778692e-01, 3.32778692e-01,
          4.00593758e-01, 4.00593758e-01, 3.59348580e-02, 4.00593758e-01,
          4.00593758e-01, 1.72521785e-01, 4.57257591e-02, 4.00593758e-01,
          4.00593758e-01, 3.58190745e-01, 3.58190745e-01, 3.58190745e-01,
          2.36288384e-01, 2.06118762e-01, 3.58190745e-01, 3.58190745e-01,
          3.58190745e-01, 3.58190745e-01, 2.05401152e-01, 2.84143128e-02,
          1.36457771e-01, 5.30008733e-01, 5.30008733e-01, 5.30008733e-01,
          8.39259662e-03, 6.19628616e-02, 2.94026554e-01, 1.48963436e-01,
          5.30773103e-02, 4.28062538e-03, 5.77600420e-01, 5.77600420e-01,
          4.26150501e-01, 8.79617501e-03, 1.56448245e-01, 3.09523195e-01,
          3.41703951e-01, 2.24929810e-01, 9.60798096e-03, 2.44957179e-01,
          5.48065484e-01, 5.48065484e-01, 2.37509578e-01, 7.32867196e-02,
          3.23329985e-01 ]
      - [ 4.06949103e-01, 4.06949103e-01, 4.39337678e-02, 7.89497979e-03,
          1.72308274e-02, 4.06949103e-01, 4.06949103e-01, 4.06949103e-01,
          4.06949103e-01, 4.10441071e-01, 4.10441071e-01, 2.04581454e-01,
          2.85137873e-02, 1.07598953e-01, 3.15192610e-01, 4.10441071e-01,
          4.10441071e-01, 4.10441071e-01, 4.09628600e-01, 4.09628600e-01,
          4.09628600e-01, 1.44870535e-01, 1.01374760e-02, 9.60464776e-03,
          3.68439466e-01, 4.09628600e-01, 4.09628600e-01, 3.37750971e-01,
          3.37750971e-01, 3.37750971e-01, 3.37750971e-01, 2.89861679e-01,
          3.37750971e-01, 3.37750971e-01, 3.37750971e-01, 3.37750971e-01,
          4.15579885e-01, 4.15579885e-01, 1.51745370e-02, 2.99095273e-01,
          4.15579885e-01, 1.13806754e-01, 1.72264487e-01, 4.15579885e-01,
          4.15579885e-01, 3.70649070e-01, 3.70649070e-01, 3.70649070e-01,
          1.69088557e-01, 2.41475642e-01, 3.70649070e-01, 3.70649070e-01,
          3.70649070e-01, 2.91738331e-01, 2.68730640e-01, 6.20713979e-02,
          1.86979771e-01, 5.01922250e-01, 5.01922250e-01, 5.01922250e-01,
          2.24282183e-02, 1.91268891e-01, 3.01814646e-01, 2.20435783e-01,
          1.08155474e-01, 1.56327020e-04, 5.51192403e-01, 5.51192403e-01,
          2.53398150e-01, 1.28859142e-02, 3.04929733e-01, 4.11364973e-01,
          4.82233346e-01, 3.47391903e-01, 1.14906831e-02, 8.07582438e-02,
          4.99182701e-01, 4.99182701e-01, 2.32305482e-01, 7.29473382e-02,
          2.78345972e-01 ]
      - [ 4.04908955e-01, 4.04908955e-01, 9.66461599e-02, 1.94158535e-02,
          5.02992421e-02, 4.04908955e-01, 4.04908955e-01, 4.04908955e-01,
          4.04908955e-01, 3.61772656e-01, 3.61772656e-01, 3.61772656e-01,
          2.16183454e-01, 2.80074537e-01, 2.93141395e-01, 3.61772656e-01,
          3.61772656e-01, 3.61772656e-01, 3.90668571e-01, 3.90668571e-01,
          3.90668571e-01, 2.81938076e-01, 2.35248953e-02, 1.79760642e-02,
          3.90668571e-01, 3.90668571e-01, 3.90668571e-01, 3.37656826e-01,
          3.37656826e-01, 3.37656826e-01, 2.90739119e-01, 3.37656826e-01,
          3.37656826e-01, 3.37656826e-01, 3.37656826e-01, 3.37656826e-01,
          3.84000182e-01, 3.84000182e-01, 2.59495586e-01, 3.78835559e-01,
          3.84000182e-01, 1.22961633e-01, 1.81408674e-01, 3.84000182e-01,
          3.84000182e-01, 3.80010456e-01, 3.80010456e-01, 3.80010456e-01,
          2.30417475e-01, 1.86481714e-01, 3.80010456e-01, 3.80010456e-01,
          2.87283123e-01, 3.22125137e-01, 2.08980307e-01, 1.68504223e-01,
          2.15084225e-01, 4.64884192e-01, 4.64884192e-01, 4.64884192e-01,
          9.67715234e-02, 2.49185428e-01, 3.96508276e-01, 2.58638322e-01,
          1.27515554e-01, 5.90797216e-02, 5.28682292e-01, 5.28682292e-01,
          3.83068293e-01, 4.65077274e-02, 2.20687091e-01, 3.89176965e-01,
          5.18265188e-01, 2.17709363e-01, 7.84049258e-02, 1.55443624e-01,
          5.18265188e-01, 5.18265188e-01, 1.88342258e-01, 5.86778671e-02,
          2.69080490e-01 ]
      - [ 4.04162794e-01, 4.04162794e-01, 2.53825814e-01, 0., 0.,
          3.38817358e-01, 4.04162794e-01, 4.04162794e-01, 4.04162794e-01,
          4.04719681e-01, 4.04719681e-01, 4.04719681e-01, 1.02255374e-01,
          0., 5.20819426e-02, 4.04719681e-01, 4.04719681e-01,
          4.04719681e-01, 4.01189327e-01, 3.83708388e-01, 4.01189327e-01,
          3.10121775e-01, 0., 0., 3.29807490e-01, 4.01189327e-01,
          4.01189327e-01, 3.33325714e-01, 3.93243134e-01, 3.93243134e-01,
          3.47110629e-01, 7.33647346e-02, 2.36821681e-01, 3.93243134e-01,
          3.93243134e-01, 2.90606588e-01, 3.72387975e-01, 3.72387975e-01,
          3.65733206e-01, 2.73274422e-01, 2.32231557e-01, 2.01356649e-01,
          3.72387975e-01, 3.72387975e-01, 3.72387975e-01, 3.48598450e-01,
          4.08390492e-01, 4.08390492e-01, 1.33106738e-01, 4.04881649e-02,
          4.08390492e-01, 4.08390492e-01, 4.08390492e-01, 1.45357862e-01,
          2.92300731e-01, 1.51782438e-01, 4.15458500e-01, 4.15458500e-01,
          4.15458500e-01, 4.15458500e-01, 1.14935607e-01, 3.06820750e-01,
          2.99332440e-01, 2.91691542e-01, 1.83696479e-01, 1.58621460e-01,
          4.46530879e-01, 4.46530879e-01, 4.46530879e-01, 1.16858736e-01,
          3.42485785e-01, 3.49897683e-01, 4.53208417e-01, 3.58705491e-01,
          7.94866756e-02, 2.11336508e-01, 4.53208417e-01, 4.53208417e-01,
          3.76013607e-01, 8.45850706e-02, 2.26025835e-01 ]
      - [ 3.80071372e-01, 3.80071372e-01, 3.80071372e-01, 2.25934655e-05,
          0., 3.80071372e-01, 3.80071372e-01, 3.59829754e-01,
          3.80071372e-01, 4.07224625e-01, 4.07224625e-01, 4.07224625e-01,
          2.59997956e-02, 0., 1.62611902e-02, 4.07224625e-01,
          4.07224625e-01, 4.07224625e-01, 3.79605353e-01, 3.79605353e-01,
          3.79605353e-01, 3.62380743e-01, 0., 1.69264562e-02,
          3.79605353e-01, 3.79605353e-01, 3.79605353e-01, 3.34709883e-01,
          3.34709883e-01, 3.34709883e-01, 3.34709883e-01, 3.34709883e-01,
          3.16875458e-01, 3.34709883e-01, 3.34709883e-01, 3.34709883e-01,
          3.32778692e-01, 3.32778692e-01, 3.32778692e-01, 3.32778692e-01,
          3.32778692e-01, 3.32778692e-01, 3.32778692e-01, 3.32778692e-01,
          3.32778692e-01, 3.80138785e-01, 3.80138785e-01, 3.80138785e-01,
          1.81779549e-01, 1.33472413e-01, 3.80138785e-01, 3.80138785e-01,
          3.80138785e-01, 2.79840291e-01, 1.78419709e-01, 3.59146558e-02,
          2.28361249e-01, 5.33612788e-01, 5.33612788e-01, 5.33612788e-01,
          8.25838670e-02, 6.80558681e-02, 2.09091544e-01, 1.52617410e-01,
          1.04417510e-01, 4.65524882e-01, 4.74097222e-01, 4.74097222e-01,
          4.74097222e-01, 1.67779520e-01, 1.12478867e-01, 1.71026558e-01,
          1.97192520e-01, 1.39246613e-01, 6.98428079e-02, 4.29314792e-01,
          5.30589819e-01, 5.30589819e-01, 4.01346207e-01, 4.98234183e-02,
          1.43614560e-01 ]
      - [ 3.78484100e-01, 3.78484100e-01, 3.78484100e-01, 7.61434203e-03,
          0., 3.78484100e-01, 3.78484100e-01, 3.69674802e-01,
          3.78484100e-01, 4.07270193e-01, 4.07270193e-01, 4.07270193e-01,
          1.81613527e-02, 0., 1.96889360e-02, 4.07270193e-01,
          4.07270193e-01, 4.07270193e-01, 3.77251565e-01, 3.77251565e-01,
          3.77251565e-01, 3.77251565e-01, 0., 0., 3.77251565e-01,
          3.77251565e-01, 3.77251565e-01, 3.34988385e-01, 3.34988385e-01,
          3.34988385e-01, 3.34988385e-01, 3.34988385e-01, 3.14507812e-01,
          3.34988385e-01, 3.34988385e-01, 3.34988385e-01, 3.32778692e-01,
          3.32778692e-01, 3.32778692e-01, 3.32778692e-01, 3.32778692e-01,
          3.32778692e-01, 3.32778692e-01, 3.32778692e-01, 3.32778692e-01,
          3.80418718e-01, 3.80418718e-01, 3.80418718e-01, 1.69751450e-01,
          1.37756720e-01, 3.80418718e-01, 3.80418718e-01, 3.80418718e-01,
          2.83013254e-01, 1.61062196e-01, 3.78824696e-02, 2.65938103e-01,
          5.33695638e-01, 5.33695638e-01, 5.33695638e-01, 9.02870968e-02,
          5.61928712e-02, 1.75409451e-01, 1.52514473e-01, 9.84220132e-02,
          4.73304957e-01, 4.73304957e-01, 4.73304957e-01, 4.73304957e-01,
          1.55419588e-01, 1.22711241e-01, 1.64442658e-01, 2.26669401e-01,
          1.49964929e-01, 5.89477830e-02, 4.28579539e-01, 5.34688830e-01,
          5.34688830e-01, 3.73288810e-01, 5.03011830e-02, 1.41341835e-01 ]
      - [ 3.82982045e-01, 3.82982045e-01, 3.82982045e-01, 8.86620861e-03,
          0., 3.82982045e-01, 3.82982045e-01, 3.40652049e-01,
          3.82982045e-01, 4.07072455e-01, 4.07072455e-01, 4.07072455e-01,
          3.59962620e-02, 0., 1.97398588e-02, 4.07072455e-01,
          4.07072455e-01, 4.07072455e-01, 3.86536837e-01, 3.15712065e-01,
          3.86536837e-01, 3.86536837e-01, 0., 0., 3.86536837e-01,
          3.86536837e-01, 3.86536837e-01, 3.33151788e-01, 3.33151788e-01,
          3.33151788e-01, 3.33151788e-01, 3.33151788e-01, 3.29773098e-01,
          3.33151788e-01, 3.33151788e-01, 3.33151788e-01, 3.32778692e-01,
          3.32778692e-01, 3.32778692e-01, 3.32778692e-01, 3.32778692e-01,
          3.32778692e-01, 3.32778692e-01, 3.32778692e-01, 3.32778692e-01,
          3.71334225e-01, 3.71334225e-01, 3.71334225e-01, 1.99244753e-01,
          2.02210188e-01, 3.71334225e-01, 3.71334225e-01, 3.71334225e-01,
          2.97267467e-01, 1.63488001e-01, 3.53449658e-02, 2.77847767e-01,
          5.31454980e-01, 5.31454980e-01, 5.31454980e-01, 5.30191995e-02,
          6.16702735e-02, 1.88595027e-01, 1.42934665e-01, 1.10218279e-01,
          4.75886017e-01, 4.75886017e-01, 4.75886017e-01, 4.75886017e-01,
          1.28810272e-01, 1.15606889e-01, 1.63833678e-01, 2.13839889e-01,
          1.44965470e-01, 6.74484149e-02, 2.80545950e-01, 5.27696788e-01,
          5.27696788e-01, 5.15217543e-01, 5.52896671e-02, 1.38918340e-01 ]
      - [ 6.93249464e-01, 6.93249464e-01, 1.28181453e-03, 0.,
          4.66080494e-02, 1.55962393e-01, 5.31156585e-02, 2.73426063e-02,
          4.26935442e-02, 5.22316635e-01, 5.22316635e-01, 1.28972903e-01,
          8.37273747e-02, 3.68617803e-01, 3.88148785e-01, 1.56257883e-01,
          1.61810502e-01, 2.97274917e-01, 4.92522001e-01, 8.42875466e-02,
          1.00864790e-01, 4.37444635e-02, 7.11103529e-02, 2.28198711e-02,
          4.92522001e-01, 4.92522001e-01, 4.92522001e-01, 5.01206100e-01,
          5.01206100e-01, 2.63375849e-01, 2.61821806e-01, 5.01206100e-01,
          1.95355639e-01, 1.53804913e-01, 9.53251272e-02, 1.80409059e-01,
          3.96703094e-01, 3.37327391e-01, 3.41797829e-01, 2.57753700e-01,
          3.96703094e-01, 3.96703094e-01, 2.11918011e-01, 1.56785965e-01,
          3.96703094e-01, 3.38419676e-01, 1.23921044e-01, 2.09853590e-01,
          8.83875340e-02, 3.93225014e-01, 3.49555254e-01, 4.23171729e-01,
          4.23171729e-01, 4.23171729e-01, 3.05551961e-02, 5.84063791e-02,
          1.73809454e-01, 5.33757091e-01, 8.19789708e-01, 4.06484702e-04,
          1.76312111e-04, 8.54501777e-05, 1.76674481e-02, 6.51163682e-02,
          1.48774602e-03, 5.20508230e-01, 5.81129968e-01, 5.81129968e-01,
          1.89219102e-01, 5.06817997e-02, 1.15067558e-03, 7.23052695e-02,
          2.40371302e-02, 7.61925883e-04, 1.99089125e-01, 4.24180090e-01,
          5.01718879e-01, 5.01718879e-01, 5.01718879e-01, 8.72512609e-02,
          1.09851666e-01 ]
      - [ 6.98145270e-01, 6.98145270e-01, 0., 1.57069378e-02,
          2.41593178e-02, 1.07467584e-01, 4.04892286e-04, 0.,
          7.64029771e-02, 5.67213833e-01, 5.67213833e-01, 9.91789848e-02,
          1.00269534e-01, 2.38778710e-01, 3.17197859e-01, 2.35400736e-01,
          1.89073041e-01, 2.86689162e-01, 4.80777651e-01, 2.19326422e-01,
          1.07338749e-01, 6.03398755e-02, 7.93412030e-02, 3.23682837e-02,
          4.80777651e-01, 4.80777651e-01, 4.80777651e-01, 4.63254511e-01,
          4.63254511e-01, 2.49336824e-01, 1.68875307e-01, 4.63254511e-01,
          3.43601078e-01, 1.65696591e-01, 1.68349117e-01, 2.94978887e-01,
          3.67648095e-01, 3.67648095e-01, 3.67648095e-01, 1.82695359e-01,
          3.67648095e-01, 3.67648095e-01, 3.56526166e-01, 1.57631487e-01,
          3.67648095e-01, 4.16006088e-01, 2.92821258e-01, 4.16006088e-01,
          1.35351270e-01, 1.17352530e-01, 1.16416350e-01, 4.16006088e-01,
          4.16006088e-01, 4.14983541e-01, 2.84378409e-01, 1.29640684e-01,
          2.94804156e-01, 6.07061148e-01, 6.07061148e-01, 6.64321855e-02,
          6.51742741e-02, 1.04773134e-01, 2.29491830e-01, 3.00261676e-01,
          1.44696489e-01, 4.06146973e-01, 4.06146973e-01, 4.06146973e-01,
          4.06146973e-01, 2.52806634e-01, 9.04274434e-02, 3.91074091e-01,
          1.87270284e-01, 1.64025068e-01, 3.86896372e-01, 3.86896372e-01,
          3.86896372e-01, 3.86896372e-01, 3.86896372e-01, 3.86896372e-01,
          1.89809501e-01 ]
      - [ 6.76746845e-01, 6.76746845e-01, 1.24434149e-02, 4.39893175e-03,
          9.78156030e-02, 2.59294450e-01, 4.20781435e-04, 0.,
          1.71888657e-02, 4.84302133e-01, 4.84302133e-01, 1.03609972e-01,
          7.33138770e-02, 3.78466100e-01, 3.37368816e-01, 1.10851526e-01,
          1.44064918e-01, 4.68890846e-01, 4.92624581e-01, 4.88171279e-02,
          1.02920756e-01, 4.80959974e-02, 9.36610326e-02, 1.73937883e-02,
          4.92624581e-01, 4.92624581e-01, 4.92624581e-01, 4.40872580e-01,
          4.40872580e-01, 1.75331041e-01, 8.46081153e-02, 4.40872580e-01,
          4.40872580e-01, 2.83199131e-01, 1.70651749e-01, 2.66267240e-01,
          3.92885059e-01, 3.92885059e-01, 3.91288906e-01, 1.29540533e-01,
          3.92885059e-01, 3.92885059e-01, 1.99550673e-01, 1.20720536e-01,
          3.92885059e-01, 4.45673555e-01, 1.89731628e-01, 3.01903754e-01,
          5.75049445e-02, 2.28356704e-01, 1.35834381e-01, 4.45673555e-01,
          4.45673555e-01, 4.45673555e-01, 1.40828013e-01, 7.93185011e-02,
          2.26792306e-01, 5.00663877e-01, 8.02761734e-01, 2.42333077e-02,
          4.66994867e-02, 4.93559949e-02, 1.18890442e-01, 3.02206099e-01,
          3.01094223e-02, 2.88550973e-01, 6.13637209e-01, 6.13637209e-01,
          1.56495437e-01, 5.95950149e-02, 1.54226590e-02, 1.92340225e-01,
          1.00764118e-01, 1.35060800e-02, 1.44251779e-01, 3.77863705e-01,
          4.94413346e-01, 4.94413346e-01, 4.94413346e-01, 1.56593099e-01,
          2.51558691e-01 ]
      - [ 6.76384330e-01, 6.76384330e-01, 1.80651681e-04, 0.,
          9.83600393e-02, 2.61040062e-01, 6.37782679e-04, 0.,
          2.09539421e-02, 4.83777106e-01, 4.83777106e-01, 1.02522045e-01,
          7.60458708e-02, 3.77382934e-01, 3.43612432e-01, 1.13038942e-01,
          1.43153325e-01, 4.65871066e-01, 4.92524385e-01, 4.86836396e-02,
          1.03280254e-01, 4.98338193e-02, 9.43048000e-02, 1.85990445e-02,
          4.92524385e-01, 4.92524385e-01, 4.92524385e-01, 4.42233860e-01,
          4.42233860e-01, 1.71887174e-01, 7.97030702e-02, 4.42233860e-01,
          4.42233860e-01, 2.65366256e-01, 1.76985919e-01, 2.75060534e-01,
          3.97581190e-01, 3.97581190e-01, 3.77704531e-01, 1.31815642e-01,
          3.97581190e-01, 3.97581190e-01, 1.74696490e-01, 1.22959897e-01,
          3.97581190e-01, 3.64802897e-01, 2.01899812e-01, 3.07024449e-01,
          6.29615411e-02, 2.38232121e-01, 1.47307545e-01, 4.63624209e-01,
          4.63624209e-01, 4.63624209e-01, 1.42028958e-01, 8.31121206e-02,
          2.30454221e-01, 4.75709617e-01, 8.14976335e-01, 2.71694753e-02,
          4.59464192e-02, 5.07521890e-02, 1.25565305e-01, 3.09787303e-01,
          3.02670486e-02, 2.77388662e-01, 6.15403116e-01, 6.15403116e-01,
          1.59401879e-01, 5.51267453e-02, 1.45725515e-02, 1.84185520e-01,
          6.92641065e-02, 1.40495719e-02, 1.37703910e-01, 3.86951566e-01,
          4.95813936e-01, 4.95813936e-01, 4.95813936e-01, 1.52098387e-01,
          2.46436447e-01 ]
      - [ 5.74223518e-01, 5.74223518e-01, 3.52073158e-03, 9.41960432e-04,
          8.87728930e-02, 5.71583748e-01, 1.45932951e-03, 2.08797189e-03,
          1.38653452e-02, 4.72793907e-01, 4.72793907e-01, 2.74712026e-01,
          9.96036381e-02, 3.88894737e-01, 4.72793907e-01, 2.00250179e-01,
          1.52572989e-01, 1.57067180e-01, 4.44637448e-01, 1.84064537e-01,
          3.93724859e-01, 8.95465016e-02, 1.53556213e-01, 1.06807657e-01,
          4.44637448e-01, 4.44637448e-01, 4.12972569e-01, 4.38414961e-01,
          4.38414961e-01, 4.13115695e-02, 8.99145305e-02, 4.38414961e-01,
          4.38414961e-01, 1.37163073e-01, 7.73124024e-02, 4.38414961e-01,
          3.91323000e-01, 3.91323000e-01, 3.91323000e-01, 9.54299793e-02,
          3.91323000e-01, 3.91323000e-01, 2.46610135e-01, 8.58200341e-02,
          3.91323000e-01, 4.02384520e-01, 2.89300740e-01, 4.02384520e-01,
          4.54940125e-02, 2.95670986e-01, 1.15011178e-01, 4.02384520e-01,
          4.02384520e-01, 4.02384520e-01, 4.10775542e-01, 4.46376391e-02,
          5.34786656e-02, 4.05933589e-01, 7.35020339e-01, 9.64614749e-02,
          4.83218022e-02, 4.59071361e-02, 3.16686273e-01, 3.49918187e-01,
          5.24033010e-02, 4.46094185e-01, 4.96893227e-01, 4.96893227e-01,
          1.22112632e-01, 1.28043830e-01, 1.09737916e-02, 3.81596029e-01,
          2.24018410e-01, 4.67753336e-02, 3.31515402e-01, 3.01956952e-01,
          4.33312863e-01, 4.33312863e-01, 4.33312863e-01, 1.02772325e-01,
          4.10337299e-01 ]
      - [ 6.52957916e-01, 6.52957916e-01, 7.71766827e-02, 6.63020834e-02,
          1.62205100e-01, 2.25147396e-01, 1.94144353e-01, 8.81484970e-02,
          8.92006680e-02, 5.57051003e-01, 5.57051003e-01, 1.04947999e-01,
          1.08334109e-01, 2.16348305e-01, 3.17393720e-01, 2.81391561e-01,
          2.21228480e-01, 2.74602771e-01, 4.94189471e-01, 1.04603440e-01,
          6.12145811e-02, 3.73255089e-02, 4.35287990e-02, 1.39446985e-02,
          4.94189471e-01, 4.94189471e-01, 4.94189471e-01, 4.62007731e-01,
          4.62007731e-01, 1.51691362e-01, 4.06496748e-02, 4.62007731e-01,
          4.44110841e-01, 2.52524704e-01, 9.85419229e-02, 2.44244948e-01,
          3.71829778e-01, 3.71829778e-01, 3.71829778e-01, 1.88700065e-01,
          3.71829778e-01, 3.71829778e-01, 3.25458378e-01, 1.58776164e-01,
          3.71829778e-01, 4.44185823e-01, 1.60155892e-01, 2.55767852e-01,
          6.76372871e-02, 2.92378306e-01, 1.58845156e-01, 4.44185823e-01,
          4.44185823e-01, 4.44185823e-01, 1.94837227e-01, 2.70199925e-01,
          3.62567276e-01, 2.68777013e-01, 7.37865150e-01, 3.26242417e-01,
          6.24498911e-02, 3.87560800e-02, 1.47269189e-01, 3.27913284e-01,
          7.06712678e-02, 4.91051495e-01, 4.91051495e-01, 4.91051495e-01,
          2.62669235e-01, 2.09062532e-01, 2.73366254e-02, 2.13845089e-01,
          1.68558642e-01, 2.46531032e-02, 2.77281642e-01, 2.86668658e-01,
          4.79328394e-01, 4.79328394e-01, 4.79328394e-01, 2.14590251e-01,
          2.67978340e-01 ]
      - [ 6.80009365e-01, 6.80009365e-01, 5.35570532e-02, 2.71941219e-02,
          1.17744647e-01, 2.07681417e-01, 7.07662851e-02, 2.58904807e-02,
          4.58757393e-02, 5.43430686e-01, 5.43430686e-01, 1.03218488e-01,
          1.06373198e-01, 2.21924588e-01, 3.14031035e-01, 2.53631920e-01,
          2.02912673e-01, 3.58610272e-01, 4.93158102e-01, 1.09799504e-01,
          7.66379982e-02, 4.12456729e-02, 4.79706787e-02, 1.79787055e-02,
          4.93158102e-01, 4.93158102e-01, 4.93158102e-01, 4.57944155e-01,
          4.57944155e-01, 1.72211587e-01, 4.66495976e-02, 4.57944155e-01,
          4.42350030e-01, 2.28957713e-01, 1.03674367e-01, 2.74974316e-01,
          3.72111529e-01, 3.72111529e-01, 3.72111529e-01, 1.94678530e-01,
          3.72111529e-01, 3.72111529e-01, 3.17771077e-01, 1.63101926e-01,
          3.72111529e-01, 3.93166542e-01, 1.66832194e-01, 2.72879303e-01,
          7.46404752e-02, 2.81597167e-01, 1.40313745e-01, 4.59701449e-01,
          4.59701449e-01, 4.59701449e-01, 1.84647918e-01, 2.36743614e-01,
          3.75665784e-01, 2.76903391e-01, 7.80731976e-01, 2.07933798e-01,
          5.96655272e-02, 3.77604477e-02, 1.62790343e-01, 3.19500089e-01,
          7.41520077e-02, 4.97902155e-01, 4.97902155e-01, 4.97902155e-01,
          2.13975757e-01, 2.02319890e-01, 2.99612302e-02, 2.36880139e-01,
          1.31457806e-01, 2.91103143e-02, 2.63453037e-01, 3.12503219e-01,
          4.53122437e-01, 4.53122437e-01, 4.53122437e-01, 2.59105802e-01,
          3.56628686e-01 ]
      - [ 5.73238134e-01, 5.73238134e-01, 2.08980916e-03, 0.,
          1.51408151e-01, 5.59154987e-01, 2.69382726e-02, 1.67695689e-03,
          2.75742020e-02, 4.40870255e-01, 4.40870255e-01, 2.67439932e-01,
          1.22814365e-01, 4.35267389e-01, 4.40870255e-01, 1.42658174e-01,
          1.46471545e-01, 3.07613432e-01, 4.60462123e-01, 1.04455307e-01,
          2.44131058e-01, 7.21944273e-02, 9.82284844e-02, 4.45516743e-02,
          4.81597275e-01, 4.81597275e-01, 4.81597275e-01, 4.19992298e-01,
          4.19992298e-01, 1.51282907e-01, 9.22416896e-02, 4.19992298e-01,
          4.19992298e-01, 2.46566460e-01, 1.47128135e-01, 4.19992298e-01,
          3.93950015e-01, 3.93950015e-01, 3.93950015e-01, 1.66461438e-01,
          3.93950015e-01, 3.93950015e-01, 1.64847270e-01, 1.00003764e-01,
          3.93950015e-01, 4.12955195e-01, 1.96121365e-01, 3.18805844e-01,
          7.11143464e-02, 3.63079220e-01, 1.91734672e-01, 4.12955195e-01,
          4.12955195e-01, 4.12955195e-01, 1.77935496e-01, 3.73450480e-02,
          1.46213889e-01, 3.67742479e-01, 8.70198905e-01, 8.61717463e-02,
          2.94750426e-02, 3.23442630e-02, 1.87247083e-01, 2.12723598e-01,
          1.99272297e-02, 2.78026164e-01, 6.25797689e-01, 6.25797689e-01,
          2.13465065e-01, 5.72340712e-02, 7.60268606e-03, 1.96617648e-01,
          9.31977183e-02, 8.43092985e-03, 1.22641370e-01, 4.56551105e-01,
          5.04268587e-01, 5.04268587e-01, 4.40118641e-01, 1.23622611e-01,
          2.12523878e-01 ]
      - [ 5.82188487e-01, 5.82188487e-01, 6.91404939e-02, 5.82929738e-02,
          2.57221967e-01, 4.75454241e-01, 1.01306491e-01, 5.37470840e-02,
          5.24382629e-02, 4.59733307e-01, 4.59733307e-01, 1.60210654e-01,
          1.05476312e-01, 4.00531828e-01, 4.46313918e-01, 2.19519377e-01,
          2.12679908e-01, 2.87858546e-01, 4.82925177e-01, 7.65703842e-02,
          1.83067575e-01, 7.60732442e-02, 1.04726546e-01, 7.86015168e-02,
          4.82925177e-01, 4.82925177e-01, 4.82925177e-01, 4.05991614e-01,
          4.05991614e-01, 9.92700085e-02, 2.63794750e-01, 4.05991614e-01,
          4.05991614e-01, 2.50784457e-01, 1.71648279e-01, 4.05991614e-01,
          3.70503515e-01, 3.70503515e-01, 3.70503515e-01, 2.52409279e-01,
          3.70503515e-01, 3.70503515e-01, 2.88107723e-01, 1.61073864e-01,
          3.70503515e-01, 3.93059701e-01, 1.69228896e-01, 3.16884845e-01,
          1.02984712e-01, 3.93059701e-01, 2.89712667e-01, 3.93059701e-01,
          3.93059701e-01, 3.93059701e-01, 2.66518593e-01, 1.62295684e-01,
          1.53640047e-01, 6.07551754e-01, 6.07551754e-01, 1.59780066e-02,
          1.13736257e-01, 1.22279458e-01, 3.26457590e-01, 3.17222625e-01,
          6.22533374e-02, 3.25075328e-01, 5.09199321e-01, 5.09199321e-01,
          3.16639960e-01, 9.44673270e-02, 6.59066141e-02, 3.90689909e-01,
          2.04711393e-01, 2.80677918e-02, 1.34794265e-01, 3.89816999e-01,
          4.73876238e-01, 4.73876238e-01, 3.59093577e-01, 1.98840544e-01,
          4.06007886e-01 ]
      - [ 6.34211719e-01, 6.34211719e-01, 2.50470433e-02, 0.,
          1.67997241e-01, 3.97948205e-01, 5.22045093e-03, 2.07121554e-03,
          4.44332734e-02, 4.80305195e-01, 4.80305195e-01, 1.49518728e-01,
          1.07898027e-01, 3.81049782e-01, 4.80305195e-01, 1.92895681e-01,
          1.83310762e-01, 2.30466992e-01, 4.53737795e-01, 1.66559696e-01,
          2.80594409e-01, 1.29206970e-01, 1.90950006e-01, 1.11014396e-01,
          4.53737795e-01, 4.53737795e-01, 4.53737795e-01, 4.51672792e-01,
          4.51672792e-01, 1.04598388e-01, 1.94252253e-01, 4.51672792e-01,
          3.33314717e-01, 9.88620594e-02, 2.03839391e-01, 4.15169597e-01,
          4.08042967e-01, 3.92427534e-01, 2.99292445e-01, 1.77666157e-01,
          4.08042967e-01, 4.08042967e-01, 1.78705588e-01, 1.51166290e-01,
          4.08042967e-01, 3.76627177e-01, 2.39482909e-01, 3.76627177e-01,
          1.73577324e-01, 3.76627177e-01, 2.40141273e-01, 3.76627177e-01,
          3.76627177e-01, 3.76627177e-01, 2.33610317e-01, 1.94143489e-01,
          1.40112594e-01, 5.67490518e-01, 7.29453981e-01, 1.19204437e-02,
          1.75499059e-02, 4.63190489e-02, 1.55169755e-01, 3.19431454e-01,
          3.15002128e-02, 1.15395211e-01, 5.81310928e-01, 5.81310928e-01,
          2.85823137e-01, 5.99325821e-02, 3.42445560e-02, 3.39921296e-01,
          1.47551864e-01, 2.79494636e-02, 7.44269565e-02, 4.51511532e-01,
          4.51511532e-01, 4.51511532e-01, 4.51511532e-01, 1.90479219e-01,
          3.40095431e-01 ]
      - [ 5.52849889e-01, 5.52849889e-01, 1.02316633e-01, 1.39024317e-01,
          3.08127135e-01, 4.11270499e-01, 2.07039475e-01, 1.69183850e-01,
          1.33500874e-01, 4.59670931e-01, 4.59670931e-01, 2.17672661e-01,
          1.45338058e-01, 3.18870872e-01, 4.59670931e-01, 2.33346656e-01,
          2.25679398e-01, 2.93174714e-01, 4.77133811e-01, 9.79611874e-02,
          2.10592762e-01, 9.53419134e-02, 1.33513987e-01, 6.12039752e-02,
          4.77133811e-01, 4.77133811e-01, 4.77133811e-01, 4.36569929e-01,
          4.36569929e-01, 1.30552277e-01, 2.49349564e-01, 4.36569929e-01,
          2.51878709e-01, 5.58135621e-02, 2.95784652e-01, 4.36569929e-01,
          3.75931501e-01, 3.75931501e-01, 3.75931501e-01, 2.55127341e-01,
          3.75931501e-01, 3.75931501e-01, 2.31486365e-01, 1.72108397e-01,
          3.75931501e-01, 3.96193236e-01, 1.22477971e-01, 2.52099484e-01,
          1.33645773e-01, 3.96193236e-01, 3.38792533e-01, 3.96193236e-01,
          3.96193236e-01, 3.96193236e-01, 1.56533614e-01, 9.40444469e-02,
          1.52056664e-01, 5.80194116e-01, 7.52249658e-01, 9.80120152e-02,
          6.69278810e-03, 3.86884473e-02, 1.49568141e-01, 2.17794523e-01,
          4.33623418e-02, 4.69354689e-01, 4.69354689e-01, 4.69354689e-01,
          4.69354689e-01, 1.50005773e-01, 3.50436941e-02, 2.02712029e-01,
          9.36610401e-02, 1.07618347e-02, 2.13585392e-01, 4.03152823e-01,
          4.76847500e-01, 4.76847500e-01, 4.76847500e-01, 1.27243176e-01,
          2.82589287e-01 ]
      - [ 5.73692381e-01, 5.73692381e-01, 4.21700941e-04, 7.42715711e-05,
          8.94364901e-03, 5.73692381e-01, 8.25676396e-02, 0.,
          2.19080248e-03, 3.87396365e-01, 3.87396365e-01, 3.87396365e-01,
          1.39636159e-01, 2.49306068e-01, 3.87396365e-01, 3.87396365e-01,
          3.27439189e-01, 2.38499478e-01, 2.77319491e-01, 1.01597011e-01,
          3.24287653e-01, 6.35158420e-02, 7.81116113e-02, 3.00634075e-02,
          5.45187533e-01, 5.45187533e-01, 4.43471253e-01, 4.36983436e-01,
          4.36983436e-01, 8.89080912e-02, 1.51691318e-01, 4.36983436e-01,
          4.36983436e-01, 2.85161972e-01, 1.31669179e-01, 3.19762021e-01,
          3.64862442e-01, 3.64862442e-01, 3.64862442e-01, 1.04779631e-01,
          3.64862442e-01, 3.64862442e-01, 3.64862442e-01, 2.31308892e-01,
          3.64862442e-01, 4.06859130e-01, 1.51588574e-01, 3.33398640e-01,
          2.20429115e-02, 4.06859130e-01, 1.83423623e-01, 4.06859130e-01,
          4.06859130e-01, 4.06859130e-01, 3.80655527e-01, 1.30804539e-01,
          1.26521707e-01, 5.73293209e-01, 5.73293209e-01, 2.73407489e-01,
          6.67168498e-02, 8.96570310e-02, 2.67745972e-01, 2.83316791e-01,
          1.18241847e-01, 4.16732371e-01, 4.16732371e-01, 4.16732371e-01,
          4.16732371e-01, 4.00126100e-01, 7.38431215e-02, 2.03397378e-01,
          2.30940625e-01, 4.43226919e-02, 2.94581056e-01, 1.69842854e-01,
          4.78321642e-01, 4.78321642e-01, 4.78321642e-01, 2.30738521e-01,
          2.91006386e-01 ]
      - [ 5.74174821e-01, 5.74174821e-01, 2.27059331e-03, 1.60531432e-03,
          1.79031901e-02, 5.74174821e-01, 6.95357844e-02, 0.,
          8.53679888e-03, 3.88534129e-01, 3.88534129e-01, 3.88534129e-01,
          2.36305565e-01, 2.97083288e-01, 3.88534129e-01, 3.88534129e-01,
          2.34791100e-01, 2.05180153e-01, 3.65540534e-01, 8.81848857e-02,
          3.00856054e-01, 1.12135075e-01, 7.94534162e-02, 2.23178696e-02,
          5.36214471e-01, 5.36214471e-01, 4.10240293e-01, 4.07713234e-01,
          4.07713234e-01, 1.52371556e-01, 2.37855211e-01, 4.07713234e-01,
          4.07713234e-01, 2.85632610e-01, 1.54632211e-01, 3.81729752e-01,
          3.65098745e-01, 3.65098745e-01, 3.65098745e-01, 2.05663353e-01,
          3.65098745e-01, 3.65098745e-01, 3.65098745e-01, 1.44828871e-01,
          3.65098745e-01, 4.06610340e-01, 1.07279666e-01, 2.93796241e-01,
          1.16255738e-01, 4.06610340e-01, 2.40702555e-01, 4.06610340e-01,
          4.06610340e-01, 4.06610340e-01, 2.59064138e-01, 8.83450136e-02,
          1.55083835e-01, 6.08393371e-01, 6.08393371e-01, 3.30120206e-01,
          5.78005314e-02, 6.54587075e-02, 1.95103005e-01, 2.63074458e-01,
          5.24434410e-02, 4.63086367e-01, 4.63086367e-01, 4.63086367e-01,
          2.83000082e-01, 3.86061639e-01, 5.75393960e-02, 2.18233332e-01,
          1.42382845e-01, 2.19702721e-02, 2.76904076e-01, 3.84626269e-01,
          4.47874069e-01, 4.47874069e-01, 4.47874069e-01, 2.23389983e-01,
          3.13816637e-01 ]
      - [ 6.76435709e-01, 2.56727546e-01, 1.68072268e-01, 4.14327532e-02,
          1.66685179e-01, 1.16078272e-01, 7.57788867e-02, 4.16070549e-03,
          6.26729488e-01, 4.36544508e-01, 2.00479031e-01, 3.31865132e-01,
          1.99234217e-01, 5.04419878e-02, 2.33141631e-01, 4.36544508e-01,
          4.20720905e-01, 4.36544508e-01, 4.23343033e-01, 2.30170265e-01,
          3.87472123e-01, 4.23343033e-01, 3.07289064e-02, 2.83067282e-02,
          2.72094429e-01, 4.23343033e-01, 4.23343033e-01, 3.36982250e-01,
          3.01322013e-01, 4.21851844e-01, 3.55909824e-01, 3.23535651e-01,
          4.21851844e-01, 4.21851844e-01, 1.51520059e-01, 5.70231192e-02,
          3.62637907e-01, 1.09184742e-01, 3.62637907e-01, 3.62637907e-01,
          2.62406170e-01, 3.55754197e-01, 3.62637907e-01, 3.62637907e-01,
          3.62637907e-01, 3.46486002e-01, 3.46486002e-01, 3.46486002e-01,
          3.46486002e-01, 1.90046802e-01, 3.46486002e-01, 3.46486002e-01,
          3.46486002e-01, 3.46486002e-01, 0., 5.67662045e-02,
          4.43588406e-01, 4.43588406e-01, 4.43588406e-01, 4.43588406e-01,
          4.43588406e-01, 9.21594575e-02, 0., 1.59796923e-01,
          1.29696568e-02, 2.34618798e-01, 6.29559100e-01, 6.29559100e-01,
          1.86633065e-01, 8.87371749e-02, 9.88680869e-02, 2.60374218e-01,
          2.81263709e-01, 8.52281824e-02, 1.46500776e-02, 7.13519007e-02,
          6.34049118e-01, 6.34049118e-01, 2.81601608e-01, 1.02524217e-02,
          1.36197314e-01 ]
      - [ 5.10698736e-01, 4.72890705e-01, 3.00620824e-01, 8.34101886e-02,
          1.73434243e-01, 3.25470179e-01, 1.24010444e-01, 3.04701831e-02,
          5.10698736e-01, 4.08741087e-01, 2.88553864e-01, 4.08741087e-01,
          1.83771878e-01, 4.25081402e-02, 2.04274535e-01, 4.08741087e-01,
          4.08741087e-01, 4.08741087e-01, 3.22627127e-01, 3.33374083e-01,
          4.20019954e-01, 4.20019954e-01, 0., 5.82310697e-03,
          2.73635685e-01, 4.20019954e-01, 4.20019954e-01, 3.52745980e-01,
          4.09844071e-01, 4.09844071e-01, 2.25223720e-01, 2.37681627e-01,
          4.09844071e-01, 4.09844071e-01, 2.86354274e-01, 1.01834767e-01,
          3.74354392e-01, 2.05773830e-01, 3.74354392e-01, 3.74354392e-01,
          1.48945078e-01, 3.01471829e-01, 3.74354392e-01, 3.74354392e-01,
          3.74354392e-01, 3.63989651e-01, 3.63989651e-01, 3.63989651e-01,
          3.63989651e-01, 5.31440526e-02, 3.63989651e-01, 3.63989651e-01,
          3.63989651e-01, 2.57137924e-01, 0., 1.51990831e-01,
          4.25908238e-01, 4.25908238e-01, 4.25908238e-01, 4.25908238e-01,
          4.25908238e-01, 2.56201684e-01, 3.96784395e-03, 2.64876753e-01,
          3.87508757e-02, 2.45620504e-01, 4.77117985e-01, 4.77117985e-01,
          4.21476811e-01, 8.05450231e-02, 2.14407563e-01, 4.21734244e-01,
          4.01126325e-01, 2.40998775e-01, 2.60086209e-02, 2.15715617e-01,
          5.51074505e-01, 5.51074505e-01, 3.08954120e-01, 2.28213072e-02,
          1.58002228e-01 ]
      - [ 5.50254524e-01, 1.39975667e-01, 1.18188389e-01, 9.93191078e-02,
          4.63099390e-01, 3.18218142e-01, 1.21845528e-01, 1.22266263e-01,
          5.50254524e-01, 4.82061684e-01, 3.25848199e-02, 1.65832847e-01,
          1.04954995e-01, 1.60469666e-01, 1.79727003e-02, 4.82061684e-01,
          4.82061684e-01, 4.82061684e-01, 4.27902937e-01, 4.27902937e-01,
          4.27902937e-01, 1.28095206e-02, 6.04353845e-04, 0.,
          4.03774709e-01, 4.27902937e-01, 3.16422939e-01, 3.76703173e-01,
          2.51235127e-01, 3.76703173e-01, 3.14311475e-01, 3.76703173e-01,
          3.76703173e-01, 3.76703173e-01, 3.34001333e-01, 1.15075558e-01,
          1.82680577e-01, 6.27478138e-02, 4.32365477e-01, 4.32365477e-01,
          1.53044328e-01, 1.57935042e-02, 4.32365477e-01, 4.32365477e-01,
          4.32365477e-01, 4.22689497e-01, 4.22689497e-01, 4.22689497e-01,
          9.55978129e-03, 8.50696936e-02, 4.22689497e-01, 4.22689497e-01,
          1.88023701e-01, 2.44467646e-01, 1.73932337e-03, 1.20412201e-01,
          4.24448103e-01, 4.24448103e-01, 3.63935173e-01, 3.58020723e-01,
          4.24448103e-01, 4.24448103e-01, 2.33834120e-03, 1.85471579e-01,
          9.15936567e-03, 4.50967759e-01, 4.50967759e-01, 4.50967759e-01,
          8.24435726e-02, 2.56430469e-02, 3.74258846e-01, 4.50967759e-01,
          4.99274403e-01, 3.37810338e-01, 1.07697723e-02, 1.08351737e-01,
          4.99274403e-01, 4.99274403e-01, 1.73162043e-01, 3.62327024e-02,
          2.99864948e-01 ]
      - [ 5.55095613e-01, 4.04276609e-01, 2.76324570e-01, 1.04033150e-01,
          2.49597624e-01, 1.38577506e-01, 1.93317994e-01, 9.32855010e-02,
          5.55095613e-01, 4.55022067e-01, 2.36119434e-01, 3.19823265e-01,
          7.74043351e-02, 5.52017838e-02, 1.40232649e-02, 4.55022067e-01,
          4.55022067e-01, 4.55022067e-01, 4.04622883e-01, 4.04622883e-01,
          4.04622883e-01, 1.16768472e-01, 1.80456473e-03, 1.29171903e-03,
          4.04622883e-01, 4.04622883e-01, 4.04622883e-01, 2.48538136e-01,
          3.23150277e-01, 4.45715338e-01, 3.30633104e-01, 3.17841023e-01,
          3.23854893e-01, 4.45715338e-01, 3.27005088e-01, 9.93520245e-02,
          3.94040644e-01, 1.73808485e-01, 3.94040644e-01, 3.94040644e-01,
          1.79301009e-01, 4.57925089e-02, 3.94040644e-01, 3.94040644e-01,
          3.94040644e-01, 4.19377089e-01, 4.19377089e-01, 4.19377089e-01,
          3.43264043e-02, 7.48404786e-02, 4.19377089e-01, 4.19377089e-01,
          2.58925498e-01, 2.06405178e-01, 0., 8.76683444e-02,
          4.33095068e-01, 4.33095068e-01, 4.33095068e-01, 4.33095068e-01,
          4.33095068e-01, 2.23900065e-01, 0., 1.69222608e-01,
          2.28006002e-02, 4.21174735e-01, 5.78197598e-01, 5.78197598e-01,
          1.83209002e-01, 7.47495294e-02, 1.21062741e-01, 2.55436867e-01,
          2.46316150e-01, 1.07445017e-01, 1.47911282e-02, 3.88052240e-02,
          5.50464392e-01, 5.50464392e-01, 5.50464392e-01, 1.61244813e-02,
          1.06155269e-01 ]
      - [ 5.53745091e-01, 3.61992210e-01, 3.05243403e-01, 1.09423593e-01,
          2.81558573e-01, 1.41997635e-01, 1.98070258e-01, 7.96692669e-02,
          5.53745091e-01, 4.58334208e-01, 1.48704544e-01, 3.46779138e-01,
          8.60219598e-02, 7.18379319e-02, 1.45488763e-02, 4.58334208e-01,
          4.58334208e-01, 4.58334208e-01, 4.04554576e-01, 4.04554576e-01,
          4.04554576e-01, 1.18177496e-01, 2.41363281e-03, 5.71783981e-04,
          4.04554576e-01, 4.04554576e-01, 4.04554576e-01, 2.24486157e-01,
          3.18725348e-01, 4.47785914e-01, 3.33233953e-01, 3.37556601e-01,
          3.03636402e-01, 4.47785914e-01, 3.33253831e-01, 1.19500898e-01,
          3.94654632e-01, 1.69045284e-01, 3.94654632e-01, 3.94654632e-01,
          1.71136856e-01, 6.06596954e-02, 3.94654632e-01, 3.94654632e-01,
          3.94654632e-01, 4.16335553e-01, 4.16335553e-01, 4.16335553e-01,
          3.59991714e-02, 8.63355398e-02, 4.16335553e-01, 4.16335553e-01,
          2.69948483e-01, 2.18042776e-01, 1.31315738e-03, 8.70909765e-02,
          4.33411807e-01, 4.33411807e-01, 4.33411807e-01, 4.33411807e-01,
          4.33411807e-01, 2.21030876e-01, 6.36931567e-04, 1.63711578e-01,
          2.23183297e-02, 4.07220572e-01, 5.56803763e-01, 5.56803763e-01,
          3.09945673e-01, 6.86788931e-02, 1.20947458e-01, 2.56591588e-01,
          2.51287907e-01, 1.16072834e-01, 1.54744629e-02, 4.17026393e-02,
          5.80086291e-01, 5.80086291e-01, 4.78358477e-01, 1.35799646e-02,
          1.16614960e-01 ]
      - [ 5.65873086e-01, 3.40149552e-01, 3.04062337e-01, 1.06938280e-01,
          2.65272081e-01, 1.44681126e-01, 1.92762107e-01, 7.66434893e-02,
          5.65873086e-01, 4.53763485e-01, 2.04574898e-01, 3.45228106e-01,
          8.10758621e-02, 6.23602085e-02, 1.91563200e-02, 4.53763485e-01,
          4.53763485e-01, 4.53763485e-01, 4.04246062e-01, 4.04246062e-01,
          4.04246062e-01, 1.24355964e-01, 2.21710280e-03, 1.75837206e-03,
          4.04246062e-01, 4.04246062e-01, 4.04246062e-01, 2.45856807e-01,
          3.18609357e-01, 4.45652962e-01, 3.27969968e-01, 3.25156361e-01,
          3.21109921e-01, 4.45652962e-01, 3.25230360e-01, 1.19165659e-01,
          3.94108385e-01, 1.70336664e-01, 3.94108385e-01, 3.94108385e-01,
          1.81399256e-01, 4.70525548e-02, 3.94108385e-01, 3.94108385e-01,
          3.94108385e-01, 4.19324964e-01, 4.19324964e-01, 4.19324964e-01,
          3.50377448e-02, 7.67866299e-02, 4.19324964e-01, 4.19324964e-01,
          2.55716801e-01, 2.10069373e-01, 7.36792712e-03, 9.95851010e-02,
          4.32824939e-01, 4.32824939e-01, 4.32824939e-01, 4.32824939e-01,
          4.32824939e-01, 2.21345380e-01, 4.90114093e-03, 1.72270298e-01,
          2.45349668e-02, 4.18931425e-01, 5.75080156e-01, 5.75080156e-01,
          2.08088294e-01, 7.27671310e-02, 1.20898142e-01, 2.52642751e-01,
          2.47053340e-01, 1.13011867e-01, 2.29363292e-02, 4.41209860e-02,
          5.49371421e-01, 5.49371421e-01, 5.49371421e-01, 1.84657797e-02,
          1.11652568e-01 ]
      - [ 5.35874069e-01, 1.86114788e-01, 1.39345974e-01, 7.56409839e-02,
          4.75849390e-01, 4.05517608e-01, 1.61504820e-01, 3.15749757e-02,
          4.79324549e-01, 4.15293425e-01, 1.85281724e-01, 2.71488190e-01,
          1.17344446e-01, 1.08182184e-01, 4.15293425e-01, 4.15293425e-01,
          4.15293425e-01, 4.15293425e-01, 4.00676817e-01, 4.00676817e-01,
          4.00676817e-01, 4.00676817e-01, 1.31926775e-01, 6.75147772e-03,
          1.23674519e-01, 4.00676817e-01, 4.00676817e-01, 2.51402855e-01,
          3.86897892e-01, 3.86897892e-01, 2.32560903e-01, 3.86897892e-01,
          3.86897892e-01, 3.86897892e-01, 3.59454066e-01, 3.44908275e-02,
          2.15798482e-01, 2.32651263e-01, 4.24344540e-01, 2.72482753e-01,
          8.03634301e-02, 3.06736082e-01, 4.24344540e-01, 4.24344540e-01,
          4.24344540e-01, 3.93523097e-01, 3.93523097e-01, 3.93523097e-01,
          3.93523097e-01, 8.75624940e-02, 3.56054991e-01, 3.93523097e-01,
          2.25469172e-01, 1.91017762e-01, 2.91509344e-03, 9.66738611e-02,
          4.43044901e-01, 4.43044901e-01, 3.28631282e-01, 3.45827609e-01,
          4.43044901e-01, 4.11350757e-01, 2.34312899e-02, 3.03733945e-01,
          1.19836712e-02, 2.92918772e-01, 4.64305133e-01, 4.64305133e-01,
          1.01095326e-01, 4.85539027e-02, 3.97300392e-01, 4.64305133e-01,
          5.02964377e-01, 3.60494316e-01, 3.10651157e-02, 5.42921722e-02,
          5.02964377e-01, 5.02964377e-01, 1.51940212e-01, 1.03661688e-02,
          2.81060666e-01 ]
      - [ 4.85287726e-01, 4.66398031e-01, 1.92428783e-01, 2.50710964e-01,
          1.82624444e-01, 1.71774462e-01, 3.44106078e-01, 3.59387308e-01,
          3.63057226e-01, 4.61595118e-01, 1.47331402e-01, 2.83552974e-01,
          1.74185514e-01, 9.57238972e-02, 3.86859886e-02, 4.61595118e-01,
          4.61595118e-01, 4.61595118e-01, 3.97849768e-01, 3.97849768e-01,
          3.97849768e-01, 2.09746331e-01, 4.22228947e-02, 2.32931301e-02,
          3.97849768e-01, 3.97849768e-01, 3.97849768e-01, 3.18938553e-01,
          3.08691978e-01, 4.16587353e-01, 4.16587353e-01, 1.78448290e-01,
          3.33360046e-01, 4.16587353e-01, 3.66169661e-01, 3.37338112e-02,
          2.74249941e-01, 3.86167057e-02, 4.23327833e-01, 4.23327833e-01,
          3.25152278e-01, 4.64132912e-02, 3.07185531e-01, 4.23327833e-01,
          4.23327833e-01, 3.90329838e-01, 3.90329838e-01, 3.90329838e-01,
          1.12249628e-01, 2.38206550e-01, 3.90329838e-01, 3.90329838e-01,
          1.89015448e-01, 3.59505802e-01, 1.58124134e-01, 2.85689503e-01,
          4.17641550e-01, 4.17641550e-01, 4.17641550e-01, 4.17641550e-01,
          4.17641550e-01, 1.11178808e-01, 6.87252283e-02, 1.90542161e-01,
          6.17538132e-02, 1.44682944e-01, 5.61082542e-01, 5.61082542e-01,
          2.74558544e-01, 1.30533397e-01, 1.59615412e-01, 4.31066602e-01,
          3.98706079e-01, 1.56533614e-01, 3.69803235e-02, 1.79752991e-01,
          5.81366420e-01, 5.81366420e-01, 1.90660715e-01, 4.16136943e-02,
          2.50977606e-01 ]
      - [ 5.41364372e-01, 4.96842682e-01, 5.45236729e-02, 9.94943902e-02,
          1.25393867e-01, 9.47309732e-02, 1.67342722e-01, 3.09866577e-01,
          5.41364372e-01, 4.78756011e-01, 1.75350353e-01, 2.12051988e-01,
          4.71305214e-02, 2.13032234e-02, 0., 4.78756011e-01,
          4.78756011e-01, 4.78756011e-01, 4.32720721e-01, 4.32720721e-01,
          4.32720721e-01, 1.54200062e-01, 0., 0., 1.88848972e-01,
          4.32720721e-01, 4.32720721e-01, 3.68976563e-01, 3.68976563e-01,
          3.68976563e-01, 3.68976563e-01, 2.56160200e-01, 3.19801569e-01,
          3.68976563e-01, 3.68976563e-01, 1.07518986e-01, 2.14689106e-01,
          5.93827106e-02, 3.41589510e-01, 4.42079365e-01, 2.17954174e-01,
          6.49625715e-03, 4.42079365e-01, 4.42079365e-01, 4.42079365e-01,
          3.91580433e-01, 3.91580433e-01, 3.91580433e-01, 1.80849046e-01,
          1.05181552e-01, 3.91580433e-01, 3.91580433e-01, 3.91580433e-01,
          1.79742441e-01, 0., 5.68640530e-02, 4.21508998e-01,
          4.21508998e-01, 4.21508998e-01, 4.21508998e-01, 4.21508998e-01,
          3.22566509e-01, 1.25472900e-02, 1.67390749e-01, 3.07525601e-02,
          1.26469493e-01, 5.07336140e-01, 5.07336140e-01, 4.22014706e-02,
          2.78986916e-02, 4.18621719e-01, 5.07336140e-01, 4.89694834e-01,
          3.99503917e-01, 5.30765988e-02, 5.80122359e-02, 4.89694834e-01,
          4.89694834e-01, 2.68690944e-01, 4.58234027e-02, 1.88747063e-01 ]
      - [ 5.01407027e-01, 4.32221204e-01, 1.83085918e-01, 2.35338435e-01,
          1.83933079e-01, 1.61897153e-01, 3.94028693e-01, 3.52250814e-01,
          3.58444005e-01, 4.62081254e-01, 1.78277656e-01, 2.69714385e-01,
          1.63998529e-01, 9.37758312e-02, 3.30159105e-02, 4.62081254e-01,
          4.62081254e-01, 4.62081254e-01, 4.05496180e-01, 4.05496180e-01,
          4.05496180e-01, 1.16594493e-01, 1.44755952e-02, 1.41173135e-02,
          3.99762779e-01, 4.05496180e-01, 4.05496180e-01, 3.89291316e-01,
          3.01246494e-01, 3.89291316e-01, 3.89291316e-01, 1.90841973e-01,
          3.28306913e-01, 3.89291316e-01, 3.89291316e-01, 5.84520213e-02,
          2.78229862e-01, 8.07958618e-02, 4.30621594e-01, 4.30621594e-01,
          2.99817562e-01, 6.79768026e-02, 2.74786264e-01, 4.30621594e-01,
          4.30621594e-01, 4.09365147e-01, 4.09365147e-01, 4.09365147e-01,
          7.91573599e-02, 2.29646832e-01, 4.09365147e-01, 4.09365147e-01,
          1.96296439e-01, 2.45918036e-01, 1.03959022e-02, 6.10615127e-02,
          4.38539237e-01, 4.38539237e-01, 4.38539237e-01, 4.38539237e-01,
          4.38539237e-01, 1.73341870e-01, 1.23389894e-02, 1.67205453e-01,
          2.99193468e-02, 1.27964854e-01, 5.62871695e-01, 5.62871695e-01,
          2.85413951e-01, 3.27225104e-02, 2.06331670e-01, 4.36345726e-01,
          4.71290886e-01, 2.58619428e-01, 5.72110824e-02, 1.06099054e-01,
          5.56144893e-01, 5.56144893e-01, 1.16806515e-01, 4.54838835e-02,
          2.37929523e-01 ]
      - [ 3.95178169e-01, 3.95178169e-01, 3.50668013e-01, 9.71885026e-02,
          3.95178169e-01, 2.82983720e-01, 3.95178169e-01, 5.22479340e-02,
          3.95178169e-01, 4.11294937e-01, 5.42075746e-02, 4.08973247e-01,
          1.66245461e-01, 3.41848791e-01, 6.73889071e-02, 4.11294937e-01,
          4.11294937e-01, 4.11294937e-01, 3.73670340e-01, 3.87062043e-01,
          3.87062043e-01, 3.47396404e-01, 4.00505494e-03, 1.08471019e-02,
          3.69347394e-01, 3.87062043e-01, 3.87062043e-01, 3.66743170e-02,
          4.04202700e-01, 4.94090468e-01, 1.28844038e-01, 2.25742087e-01,
          1.83169171e-01, 4.94090468e-01, 4.90544647e-01, 1.85545571e-02,
